{
  "input_sequences": [], 
  "inputs": [
    {
      "name": "node_0", 
      "variables": [
        {
          "name": "variable_0", 
          "offset": 0, 
          "scale": 1
        }, 
        {
          "name": "variable_1", 
          "offset": 0, 
          "scale": 1
        }, 
        {
          "name": "variable_2", 
          "offset": 0, 
          "scale": 1
        }, 
        {
          "name": "variable_3", 
          "offset": 0, 
          "scale": 1
        }, 
        {
          "name": "variable_4", 
          "offset": 0, 
          "scale": 1
        }, 
        {
          "name": "variable_5", 
          "offset": 0, 
          "scale": 1
        }, 
        {
          "name": "variable_6", 
          "offset": 0, 
          "scale": 1
        }, 
        {
          "name": "variable_7", 
          "offset": 0, 
          "scale": 1
        }, 
        {
          "name": "variable_8", 
          "offset": 0, 
          "scale": 1
        }, 
        {
          "name": "variable_9", 
          "offset": 0, 
          "scale": 1
        }
      ]
    }
  ], 
  "layers": [
    {
      "architecture": "normalization", 
      "bias": [
        -632203.4375, 
        -144801.671875, 
        -0.165506973862648, 
        -2.868170976638794, 
        -2.6402931213378906, 
        -0.23088029026985168, 
        -3.1472487449645996, 
        -3.463735818862915, 
        -0.5261542797088623, 
        -5.489508152008057
      ], 
      "weights": [
        1.1446780945334467e-06, 
        1.0647744602465536e-05, 
        5.34919548034668, 
        0.6005592942237854, 
        2.281856060028076, 
        2.040893793106079, 
        0.4210006594657898, 
        0.38898783922195435, 
        1.2326914072036743, 
        0.1080569252371788
      ]
    }, 
    {
      "activation": "tanh", 
      "architecture": "dense", 
      "bias": [
        -0.11236605048179626, 
        -0.18699438869953156, 
        -0.14653463661670685, 
        0.07016429305076599, 
        -0.2239861786365509, 
        0.27996861934661865, 
        0.22239257395267487, 
        0.18053323030471802, 
        -0.10412689298391342, 
        0.005031582433730364, 
        -0.2897549271583557, 
        0.1356610506772995, 
        -0.08006209135055542, 
        -0.1192970797419548, 
        0.03309528902173042, 
        0.022909969091415405, 
        -0.173928365111351, 
        -0.18087606132030487, 
        0.07423479110002518, 
        0.16531985998153687, 
        -0.15682311356067657, 
        -0.16785313189029694, 
        0.3305811583995819, 
        -0.12559261918067932, 
        -0.1891593337059021, 
        0.28200653195381165, 
        0.4198324680328369, 
        -0.17620116472244263, 
        -0.18036198616027832, 
        -0.16634397208690643, 
        0.05905387923121452, 
        -0.08400760591030121, 
        0.1025383248925209, 
        -0.11487086117267609, 
        -0.12460289150476456, 
        -0.19063487648963928, 
        0.035859085619449615, 
        0.21510256826877594, 
        0.021732164546847343, 
        0.32243600487709045, 
        0.36363595724105835, 
        0.1322939395904541, 
        0.1459025889635086, 
        -0.09555666893720627, 
        -0.34940335154533386, 
        -0.05084085091948509, 
        0.011588049121201038, 
        0.20163699984550476, 
        0.1516507863998413, 
        -0.08271290361881256, 
        -0.2697177529335022, 
        -0.04841693490743637, 
        -0.011120025999844074, 
        -0.16315823793411255, 
        -0.18240348994731903, 
        -0.16443127393722534, 
        -0.4379517436027527, 
        -0.06618979573249817, 
        -0.26259568333625793, 
        0.07917822897434235, 
        0.07343040406703949, 
        -0.0926523432135582, 
        0.22185416519641876, 
        -0.12070918083190918, 
        0.10236014425754547, 
        0.28985193371772766, 
        -0.2514166235923767, 
        0.06752527505159378, 
        -0.10350331664085388, 
        -0.15721504390239716, 
        -0.2823142409324646, 
        -0.17511092126369476, 
        0.13012488186359406, 
        0.14716729521751404, 
        0.08494814485311508, 
        0.14097288250923157, 
        -0.11705561727285385, 
        -0.13854925334453583, 
        0.16681942343711853, 
        -0.02325320430099964, 
        -0.14696615934371948, 
        -0.2479998618364334, 
        -0.14354915916919708, 
        -0.11714915186166763, 
        0.15589994192123413, 
        0.16305646300315857, 
        -0.2126416712999344, 
        0.060364898294210434, 
        -0.34816834330558777, 
        -0.10520518571138382, 
        0.30489566922187805, 
        0.28463563323020935, 
        -0.1523117870092392, 
        -0.33217886090278625, 
        0.22370213270187378, 
        -0.20454156398773193, 
        -0.15454734861850739, 
        -0.23899367451667786, 
        0.26795947551727295, 
        0.13583506643772125, 
        -0.06441602855920792, 
        -0.22684413194656372, 
        -0.16860313713550568, 
        0.37113770842552185, 
        0.18588291108608246, 
        0.12419362366199493, 
        0.13551662862300873, 
        0.10239643603563309, 
        0.2058403640985489, 
        -0.0619974285364151, 
        0.1530683934688568, 
        0.15463043749332428, 
        0.1732957363128662, 
        0.44302940368652344, 
        -0.17600764334201813, 
        0.24120871722698212, 
        0.10515709221363068, 
        -0.23478621244430542, 
        -0.15465210378170013, 
        0.10832890123128891, 
        0.03643317520618439, 
        0.22073155641555786, 
        -0.10107576102018356, 
        -0.1272495687007904, 
        0.289227157831192, 
        -0.11737599968910217, 
        -0.31976261734962463, 
        0.18529319763183594, 
        -0.12433171272277832, 
        0.15496620535850525, 
        0.19485357403755188, 
        0.18633148074150085, 
        0.2473623901605606, 
        0.19772805273532867, 
        0.1671362966299057, 
        0.37274354696273804, 
        0.047298166900873184, 
        -0.028193986043334007, 
        0.11481387913227081, 
        -0.39042845368385315, 
        -0.11467684060335159, 
        -0.06553468108177185, 
        0.16355974972248077, 
        0.20831339061260223, 
        -0.5077084302902222, 
        -0.019637608900666237, 
        0.0889694020152092, 
        0.11964081227779388, 
        0.08397345244884491, 
        -0.16350442171096802, 
        -0.024054018780589104, 
        -0.15033090114593506, 
        -0.05476580187678337, 
        -0.14916110038757324, 
        -0.36751991510391235, 
        0.022787002846598625, 
        -0.20221759378910065, 
        0.13469156622886658, 
        0.0689135268330574, 
        0.014383411034941673, 
        -0.34880921244621277, 
        -0.030557075515389442, 
        0.06040603667497635, 
        -0.07378531992435455, 
        0.12050806730985641, 
        -0.08609657734632492, 
        -0.13049213588237762, 
        0.44020429253578186, 
        0.265645295381546, 
        0.10763910412788391, 
        -0.05257827043533325, 
        -0.08086986094713211, 
        -0.11595369130373001, 
        -0.11715396493673325, 
        -0.11876749992370605, 
        -0.24011410772800446, 
        0.19548293948173523, 
        0.2565712332725525, 
        -0.26855045557022095, 
        0.19523222744464874, 
        0.1331663280725479, 
        -0.18362320959568024, 
        -0.13284282386302948, 
        0.08579660207033157, 
        -0.09108103066682816, 
        -0.24095652997493744, 
        -0.2358456254005432, 
        0.3780811131000519, 
        -0.17899970710277557, 
        0.11466419696807861, 
        -0.1597783863544464, 
        0.1616215854883194, 
        -0.13340416550636292, 
        0.16818135976791382, 
        -0.08880806714296341, 
        0.03583421930670738, 
        -0.02896079793572426, 
        -0.1509772092103958, 
        0.19853967428207397, 
        0.17531126737594604, 
        -0.18760976195335388, 
        -0.049894411116838455, 
        0.11929690837860107, 
        -0.20606805384159088, 
        0.1878345012664795, 
        0.2332778424024582, 
        0.2546375095844269, 
        0.2898786664009094, 
        -0.3172588348388672, 
        0.3472273647785187, 
        -0.11327407509088516, 
        0.11469020694494247, 
        -0.06477583944797516, 
        0.05719376727938652, 
        -0.24436016380786896, 
        0.06619583070278168, 
        -0.1882660835981369, 
        0.18079873919487, 
        -0.3553222715854645, 
        0.18653400242328644, 
        -0.1042783260345459, 
        -0.31867942214012146, 
        0.20066937804222107, 
        0.25707313418388367, 
        -0.13266818225383759, 
        0.17053742706775665, 
        -0.19960422813892365, 
        0.12252768129110336, 
        0.11132516711950302, 
        -0.03046708181500435, 
        -0.1013205498456955, 
        -0.08152100443840027, 
        -0.23275737464427948, 
        -0.08687715232372284, 
        -0.1931755244731903, 
        0.13294051587581635, 
        0.15596410632133484, 
        -0.25406673550605774, 
        -0.12851205468177795, 
        0.09130395203828812, 
        -0.16168075799942017, 
        0.21453438699245453, 
        -0.1585187464952469, 
        -0.10772255808115005, 
        0.16128098964691162, 
        -0.12783457338809967, 
        0.15560142695903778, 
        -0.2578948140144348, 
        -0.016565054655075073, 
        -0.2593685984611511, 
        -0.20108060538768768, 
        -0.20885954797267914, 
        0.18923203647136688, 
        0.09800588339567184, 
        0.12080423533916473, 
        -0.24803298711776733, 
        -0.0036326574627310038, 
        -0.20822352170944214, 
        0.2415791153907776, 
        0.14971916377544403, 
        -0.04765256494283676, 
        0.3010327219963074, 
        0.054612599313259125, 
        -0.2974100708961487, 
        -0.15141966938972473, 
        0.03528011962771416, 
        0.06753136962652206, 
        -0.1181366965174675, 
        0.26659634709358215, 
        -0.0544816255569458, 
        -0.07167039811611176, 
        -0.2955957353115082, 
        0.12529373168945312, 
        -0.05684661492705345, 
        -0.04027813673019409, 
        0.08834154158830643, 
        -0.05698032304644585, 
        -0.21696427464485168, 
        0.11362685263156891, 
        -0.33449873328208923, 
        0.19420026242733002, 
        -0.10965882986783981, 
        0.2516864538192749, 
        -0.0809401273727417, 
        -0.311575710773468, 
        -0.23153354227542877, 
        -0.16562141478061676, 
        -0.2780812382698059, 
        -0.12579914927482605, 
        0.15432779490947723, 
        -0.0450051911175251, 
        0.195883646607399, 
        -0.015788758173584938, 
        0.1627633273601532, 
        0.16384419798851013, 
        -0.28299543261528015, 
        0.21210147440433502, 
        0.05366528779268265, 
        0.10735687613487244, 
        0.14809353649616241, 
        -0.07204680889844894, 
        -0.21638719737529755, 
        0.2880108952522278, 
        -0.022844670340418816, 
        -0.09738442301750183, 
        0.09003718942403793, 
        0.23631946742534637, 
        -0.15208691358566284, 
        0.15241670608520508, 
        0.002298535779118538, 
        -0.06858626753091812, 
        0.27405494451522827, 
        0.22611521184444427, 
        -0.04875199869275093, 
        0.37565845251083374, 
        0.04085293412208557, 
        0.19043155014514923, 
        -0.20660455524921417, 
        -0.14125478267669678, 
        0.30082112550735474, 
        -0.17767439782619476, 
        0.15084993839263916, 
        -0.03294476866722107, 
        0.12759335339069366, 
        0.1318974643945694, 
        -0.14693032205104828, 
        -0.04638076573610306, 
        -0.08207019418478012, 
        -0.10311196744441986, 
        0.09913307428359985, 
        -0.06148018687963486, 
        0.10459153354167938, 
        0.12596823275089264, 
        0.3672279715538025, 
        0.016367265954613686, 
        -0.15440942347049713, 
        -0.04276841878890991, 
        0.10210362821817398, 
        0.10741620510816574, 
        -0.1992982178926468, 
        0.24635657668113708, 
        0.23340074717998505, 
        0.008663193322718143, 
        0.1688523292541504, 
        0.20056743919849396, 
        0.03103822097182274, 
        0.15189170837402344, 
        0.12773223221302032, 
        -0.10277040302753448, 
        -0.37641778588294983, 
        -0.1642221212387085, 
        0.1869519054889679, 
        0.021350866183638573, 
        -0.11553381383419037, 
        0.04102763906121254, 
        -0.2621917128562927, 
        -0.28999924659729004, 
        -0.14427079260349274, 
        0.174230694770813, 
        0.05279090628027916, 
        -0.1686679869890213, 
        -0.13097479939460754, 
        0.007729080971330404, 
        -0.02679515816271305, 
        0.09611392766237259, 
        0.07562744617462158, 
        -0.23971416056156158, 
        0.12135596573352814, 
        -0.09909437596797943, 
        0.015194572508335114, 
        -0.21975691616535187, 
        0.014084103517234325, 
        0.06185927614569664, 
        -0.029631711542606354, 
        -0.09448155015707016, 
        -0.04372858628630638, 
        0.17794853448867798, 
        -0.13896788656711578, 
        0.174745574593544, 
        0.1250917613506317, 
        -0.2511403262615204, 
        -0.17958207428455353, 
        -0.24734655022621155, 
        0.11906415969133377, 
        -0.2646912634372711, 
        0.2056504487991333, 
        -0.2254929393529892, 
        -0.0903986319899559, 
        -0.04803913086652756, 
        -0.11999376863241196, 
        -0.22665975987911224, 
        -0.20282328128814697, 
        0.09626249223947525, 
        0.12934604287147522, 
        -0.3153213560581207, 
        -0.19119767844676971, 
        0.20415665209293365, 
        0.06286776065826416, 
        0.21440134942531586, 
        0.2042548507452011, 
        -0.180339977145195, 
        -0.2049400806427002, 
        -0.28402453660964966, 
        0.34695759415626526, 
        -0.258527010679245, 
        -0.043923791497945786, 
        0.13360263407230377, 
        0.11266923695802689, 
        0.1383168250322342, 
        0.08992660045623779, 
        -0.08877836912870407, 
        0.0394475981593132, 
        0.20892246067523956, 
        -0.06855803728103638, 
        0.17962004244327545, 
        0.24811944365501404, 
        -0.15710239112377167, 
        -0.021808652207255363, 
        -0.2109324038028717, 
        -0.20707979798316956, 
        -0.20061944425106049, 
        0.0875653550028801, 
        -0.1622471958398819, 
        -0.0646754801273346, 
        -0.05571819841861725, 
        0.1904255896806717, 
        0.10447011142969131, 
        0.18293091654777527, 
        0.44678524136543274, 
        -0.12070830166339874, 
        -0.19720153510570526, 
        0.11944908648729324, 
        0.2934691905975342, 
        -0.09425442665815353, 
        0.1851455569267273, 
        -0.048758938908576965, 
        -0.2742163836956024, 
        -0.18790900707244873, 
        0.12686723470687866, 
        0.1391119807958603, 
        0.04414360970258713, 
        -0.14644333720207214, 
        0.1214323416352272, 
        -0.017002444714307785, 
        0.129904642701149, 
        -0.05848021060228348, 
        0.29261162877082825, 
        0.14778153598308563, 
        -0.05633199214935303, 
        -0.20427583158016205, 
        -0.26348602771759033, 
        0.19301819801330566, 
        0.23995061218738556, 
        0.0584331713616848, 
        0.11390155553817749, 
        0.1376245766878128, 
        -0.1336008757352829, 
        0.0528268925845623, 
        0.12798629701137543, 
        0.2026766538619995, 
        0.09039131551980972, 
        0.2182442992925644, 
        0.42384612560272217, 
        0.20221835374832153, 
        0.07024572044610977, 
        -0.09544292837381363, 
        -0.12088949233293533, 
        -0.15712188184261322, 
        0.07784019410610199, 
        0.116313137114048, 
        0.21317020058631897, 
        -0.013734694570302963, 
        -0.13409097492694855, 
        -0.19845984876155853, 
        -0.10222702473402023, 
        -0.15758277475833893, 
        -0.2219485342502594, 
        -0.09270115941762924, 
        0.06949468702077866, 
        -0.02816563844680786, 
        0.07689033448696136, 
        0.09243950992822647, 
        0.07911128550767899, 
        -0.03928595781326294, 
        0.1123669221997261, 
        -0.15738490223884583, 
        -0.205905020236969, 
        -0.12348998337984085, 
        0.10415297746658325, 
        -0.2814677059650421, 
        0.014235114678740501, 
        0.14450326561927795, 
        0.3225056529045105, 
        0.17646093666553497, 
        -0.19423997402191162, 
        -0.038379326462745667, 
        0.07655131816864014, 
        -0.13747768104076385, 
        0.10897267609834671, 
        0.2685586214065552, 
        0.21651160717010498, 
        0.04219768941402435, 
        -0.10228285938501358, 
        0.009985800832509995, 
        0.0711793601512909, 
        0.1924213320016861, 
        -0.07402806729078293, 
        -0.10493094474077225, 
        0.11328491568565369, 
        0.082825668156147, 
        -0.13896366953849792, 
        -0.17555886507034302
      ], 
      "weights": [
        0.6365110278129578, 
        -0.2912287414073944, 
        0.1556737720966339, 
        0.7649641036987305, 
        -0.16273802518844604, 
        0.5088024139404297, 
        0.5714491009712219, 
        -0.6515100002288818, 
        -0.027525488287210464, 
        -0.6479339003562927, 
        -0.07480140775442123, 
        0.10865990817546844, 
        -0.0027040564455091953, 
        -0.40688785910606384, 
        0.20260168612003326, 
        0.1719059944152832, 
        -0.43646347522735596, 
        0.03324514254927635, 
        -0.26293453574180603, 
        0.5248920917510986, 
        0.12535159289836884, 
        0.5745710730552673, 
        0.6966802477836609, 
        -0.39814502000808716, 
        -0.22452624142169952, 
        -0.16842888295650482, 
        0.09654251486063004, 
        0.6532825827598572, 
        0.5503311157226562, 
        -0.2826080024242401, 
        -0.4525379240512848, 
        -0.5398198366165161, 
        -0.6099269986152649, 
        -0.5127562880516052, 
        0.11472128331661224, 
        -0.12244325131177902, 
        -0.3537066578865051, 
        0.38985320925712585, 
        -0.7169447541236877, 
        0.20196180045604706, 
        0.4579518139362335, 
        -0.5615734457969666, 
        -0.538928747177124, 
        0.40529513359069824, 
        0.030017558485269547, 
        -0.8173496723175049, 
        -0.42027372121810913, 
        0.472738116979599, 
        -0.14864522218704224, 
        -0.5899034142494202, 
        0.44379740953445435, 
        0.4265250563621521, 
        0.43516308069229126, 
        0.002456182148307562, 
        0.49470287561416626, 
        0.17488519847393036, 
        0.8491173982620239, 
        -0.5972169041633606, 
        0.3750409483909607, 
        -0.5039291381835938, 
        -0.08475388586521149, 
        -0.4489898085594177, 
        -0.18959058821201324, 
        0.316252738237381, 
        -0.3282320499420166, 
        -0.2946844696998596, 
        -0.03175966441631317, 
        -0.26121580600738525, 
        -0.3032749593257904, 
        0.4088783860206604, 
        0.04050814360380173, 
        -0.051038708537817, 
        0.01254566852003336, 
        -0.16950364410877228, 
        0.6328204870223999, 
        -0.07119916379451752, 
        -0.6621350049972534, 
        -0.7706156969070435, 
        -0.5361698865890503, 
        0.016680501401424408, 
        0.42430466413497925, 
        0.7817030549049377, 
        -0.24872371554374695, 
        0.025181178003549576, 
        0.1413792073726654, 
        0.5685867667198181, 
        0.004519099369645119, 
        0.38934004306793213, 
        0.22680537402629852, 
        0.6811298727989197, 
        -0.3105325698852539, 
        0.4748257100582123, 
        -0.3141211271286011, 
        -0.19628171622753143, 
        0.039665378630161285, 
        0.4291922450065613, 
        0.11172468960285187, 
        -0.4889736771583557, 
        -0.6763380169868469, 
        -0.7390212416648865, 
        -0.1383955478668213, 
        -0.06648173183202744, 
        0.6111631393432617, 
        -0.21544773876667023, 
        -0.8497281670570374, 
        0.4216662049293518, 
        0.6722542643547058, 
        -0.9074724912643433, 
        -0.17898297309875488, 
        0.45406022667884827, 
        -0.2684876322746277, 
        0.42074325680732727, 
        -0.7218714356422424, 
        -0.23807771503925323, 
        0.42137372493743896, 
        0.18828561902046204, 
        0.7263542413711548, 
        0.1227126494050026, 
        0.5742987990379333, 
        -0.5454356670379639, 
        0.541364312171936, 
        0.4735654890537262, 
        -0.7771822214126587, 
        0.2517673671245575, 
        -0.5751612782478333, 
        0.723861813545227, 
        0.12076331675052643, 
        0.3933327794075012, 
        -0.21589140594005585, 
        0.5137943029403687, 
        -0.35725268721580505, 
        0.7555883526802063, 
        -0.6839255690574646, 
        -0.23991841077804565, 
        -0.12082821875810623, 
        0.09393824636936188, 
        -0.10962371528148651, 
        0.6296572089195251, 
        0.4757354259490967, 
        0.7694824934005737, 
        -0.6717329025268555, 
        0.1036616787314415, 
        -0.39763572812080383, 
        0.27392637729644775, 
        -0.21067290008068085, 
        -0.23041686415672302, 
        0.5688065886497498, 
        0.40735897421836853, 
        -0.7434917688369751, 
        0.5294065475463867, 
        0.8889977335929871, 
        -0.03296922147274017, 
        0.3876328468322754, 
        -0.29067543148994446, 
        0.6491512060165405, 
        0.09415554255247116, 
        -0.3449665904045105, 
        0.3170682191848755, 
        0.1830654889345169, 
        -0.5574488043785095, 
        -0.16299571096897125, 
        0.12809176743030548, 
        -0.7945056557655334, 
        0.16183309257030487, 
        -0.04151863232254982, 
        -0.44052767753601074, 
        -0.3828033208847046, 
        -0.23368658125400543, 
        -0.6562538146972656, 
        0.040354207158088684, 
        -0.8328582644462585, 
        -0.19145484268665314, 
        0.7566529512405396, 
        -0.4599993824958801, 
        0.6272164583206177, 
        -0.37292295694351196, 
        -0.6977284550666809, 
        -0.516385555267334, 
        -0.2565006613731384, 
        -0.23354743421077728, 
        0.423015832901001, 
        -0.07091237604618073, 
        0.5821951627731323, 
        0.06180128455162048, 
        -0.657117486000061, 
        0.5404491424560547, 
        0.340965211391449, 
        -0.4137733280658722, 
        0.39662063121795654, 
        0.9943189024925232, 
        0.10360146313905716, 
        0.3173156976699829, 
        0.7009307742118835, 
        -0.6153095364570618, 
        -0.10579773038625717, 
        0.010773745365440845, 
        0.02133513055741787, 
        0.3549634516239166, 
        -0.22837817668914795, 
        -0.4354739487171173, 
        0.7213626503944397, 
        -0.0012828726321458817, 
        -0.19848881661891937, 
        0.802200973033905, 
        0.06531661748886108, 
        -0.10010259598493576, 
        0.1714106798171997, 
        -0.0019738159608095884, 
        0.5284388661384583, 
        0.2380279004573822, 
        0.13799293339252472, 
        0.31914323568344116, 
        -0.3101755678653717, 
        -0.06393679231405258, 
        -0.19560864567756653, 
        0.65468430519104, 
        0.7394281625747681, 
        0.21127691864967346, 
        -0.28493237495422363, 
        -0.005390235222876072, 
        0.15814466774463654, 
        0.262437105178833, 
        -0.8287201523780823, 
        -0.16564781963825226, 
        -0.10775835812091827, 
        -0.18696892261505127, 
        0.4474743902683258, 
        -0.386246919631958, 
        0.521558403968811, 
        -0.08742353320121765, 
        -0.21813517808914185, 
        -0.5040037631988525, 
        -0.4454900622367859, 
        0.5921737551689148, 
        0.6448372602462769, 
        0.3614692687988281, 
        0.22703847289085388, 
        0.20741353929042816, 
        0.487498015165329, 
        0.46493294835090637, 
        -0.3729713261127472, 
        0.353363960981369, 
        0.17353908717632294, 
        -0.003565208287909627, 
        0.4438009262084961, 
        -0.5730441808700562, 
        -0.7937801480293274, 
        0.2158968448638916, 
        0.30009642243385315, 
        0.5893861055374146, 
        0.6634300351142883, 
        0.5083333253860474, 
        -0.17562134563922882, 
        0.02327873185276985, 
        0.4857049286365509, 
        0.1701367199420929, 
        -0.0057969652116298676, 
        -0.21738092601299286, 
        -0.13551318645477295, 
        -0.34899836778640747, 
        0.48630133271217346, 
        0.21819189190864563, 
        0.5536022782325745, 
        -0.20149452984333038, 
        0.7375569343566895, 
        0.2698012888431549, 
        0.9113744497299194, 
        -0.5334153175354004, 
        0.28266775608062744, 
        0.19318433105945587, 
        0.154851496219635, 
        -0.11631250381469727, 
        -0.48378875851631165, 
        0.8797366619110107, 
        0.7055943608283997, 
        -0.02776246704161167, 
        -0.031335536390542984, 
        0.13469883799552917, 
        -0.0724019929766655, 
        0.617950975894928, 
        -0.19537904858589172, 
        0.13945399224758148, 
        -0.10879670828580856, 
        -0.13267892599105835, 
        0.5928348898887634, 
        0.7458533644676208, 
        0.4001392424106598, 
        -0.24519537389278412, 
        0.11021961271762848, 
        -0.4211478531360626, 
        0.15260274708271027, 
        0.3770826458930969, 
        0.8249505758285522, 
        0.3023712635040283, 
        -0.5407818555831909, 
        -0.30840983986854553, 
        -0.4623578190803528, 
        -0.17371712625026703, 
        0.6036837100982666, 
        -0.18657532334327698, 
        0.8526478409767151, 
        0.00682563753798604, 
        0.3816663324832916, 
        0.02575463056564331, 
        0.054673876613378525, 
        -0.4060235619544983, 
        0.8384004831314087, 
        0.8146539926528931, 
        -0.5183467864990234, 
        -0.19089139997959137, 
        0.4046688377857208, 
        0.6931285858154297, 
        0.07630704343318939, 
        0.24372847378253937, 
        -0.4870545268058777, 
        0.14468900859355927, 
        -0.45818084478378296, 
        0.6770039200782776, 
        0.6639875173568726, 
        0.6328979730606079, 
        -0.6398633122444153, 
        0.336436003446579, 
        -0.5956570506095886, 
        -0.307478666305542, 
        0.41795456409454346, 
        -0.324566125869751, 
        -0.12761950492858887, 
        -0.5713185667991638, 
        -0.3462395668029785, 
        0.34273141622543335, 
        -0.616044282913208, 
        -0.27071908116340637, 
        0.058679088950157166, 
        -0.20438633859157562, 
        0.36996251344680786, 
        0.08712094277143478, 
        0.26322269439697266, 
        -0.0323357917368412, 
        0.6391879320144653, 
        -0.6491665840148926, 
        0.29460573196411133, 
        0.23205256462097168, 
        0.5243090391159058, 
        -0.17835503816604614, 
        0.5499593019485474, 
        -0.034407276660203934, 
        0.5867929458618164, 
        0.6229186654090881, 
        0.30664363503456116, 
        0.14765015244483948, 
        0.2648616135120392, 
        0.017939001321792603, 
        -0.2500162124633789, 
        0.1807466447353363, 
        0.5366417169570923, 
        0.7163737416267395, 
        -0.3917161524295807, 
        -0.6549897789955139, 
        -0.3601870834827423, 
        -0.49477800726890564, 
        0.15770287811756134, 
        -0.08251997828483582, 
        0.29286980628967285, 
        -0.17492836713790894, 
        -0.7683910131454468, 
        0.2368689328432083, 
        0.2994441092014313, 
        -0.3963444232940674, 
        -0.13996469974517822, 
        -1.0538426637649536, 
        -0.4169279932975769, 
        0.25992056727409363, 
        -0.10935227572917938, 
        0.4925472140312195, 
        0.8230324983596802, 
        0.40019914507865906, 
        0.21741123497486115, 
        0.5747295618057251, 
        0.05463157594203949, 
        -0.6315596699714661, 
        0.4022742509841919, 
        -0.39339855313301086, 
        -0.2979000508785248, 
        0.06462271511554718, 
        0.7553409337997437, 
        -0.5942817330360413, 
        0.7009304761886597, 
        0.68808513879776, 
        0.27391839027404785, 
        -0.26455971598625183, 
        -0.26818418502807617, 
        -0.44470030069351196, 
        0.38233742117881775, 
        -0.5300437211990356, 
        0.00933912768959999, 
        0.6130601167678833, 
        0.6768821477890015, 
        -0.6727831363677979, 
        -0.253496378660202, 
        0.11925338208675385, 
        0.08981499075889587, 
        0.14156265556812286, 
        0.21103137731552124, 
        0.17877833545207977, 
        0.23197105526924133, 
        -0.45229125022888184, 
        -0.6942012906074524, 
        0.9046115875244141, 
        0.24276743829250336, 
        -0.1595456898212433, 
        1.100096583366394, 
        -0.07012678682804108, 
        0.2953048050403595, 
        -0.7201871871948242, 
        0.4265468418598175, 
        0.39814314246177673, 
        -0.006084360182285309, 
        0.142274409532547, 
        0.025420475751161575, 
        0.6197957396507263, 
        -0.016336996108293533, 
        -0.2979923188686371, 
        -0.09610762447118759, 
        0.06969212740659714, 
        -0.04663585126399994, 
        0.31333252787590027, 
        -0.6309195756912231, 
        -0.8699080348014832, 
        0.32672372460365295, 
        -0.11113882809877396, 
        -0.2222122699022293, 
        0.1776648461818695, 
        0.6191732287406921, 
        -0.27594199776649475, 
        0.25342267751693726, 
        -0.20068930089473724, 
        -0.4614439010620117, 
        0.2655504047870636, 
        0.5984851121902466, 
        0.8484612703323364, 
        -0.44447436928749084, 
        -0.06066824868321419, 
        0.7772418260574341, 
        -0.1277758628129959, 
        -0.12287668883800507, 
        -0.11717376112937927, 
        0.11014719307422638, 
        -0.4052313268184662, 
        -0.21840618550777435, 
        -0.22490327060222626, 
        -0.6163851022720337, 
        0.21072567999362946, 
        0.713088870048523, 
        -0.6770627498626709, 
        0.2914921045303345, 
        -0.5427933931350708, 
        0.20085005462169647, 
        -0.4129846394062042, 
        0.33957648277282715, 
        -0.2452538013458252, 
        0.07688697427511215, 
        0.1895311176776886, 
        0.10427946597337723, 
        -0.05977669730782509, 
        0.737281084060669, 
        -0.2691876292228699, 
        -0.18132604658603668, 
        0.08673930913209915, 
        0.08379554003477097, 
        0.9348858594894409, 
        -0.3653659224510193, 
        0.5755338668823242, 
        -0.017939889803528786, 
        -0.32590970396995544, 
        0.2504149377346039, 
        5.021764081902802e-05, 
        0.3692173659801483, 
        -0.2775188088417053, 
        -0.2889542281627655, 
        -0.010029180906713009, 
        -0.5994084477424622, 
        0.5360649824142456, 
        0.19511257112026215, 
        -0.3428850471973419, 
        -0.342046856880188, 
        0.5583610534667969, 
        -0.5562755465507507, 
        0.13260029256343842, 
        0.4424213469028473, 
        0.5793527960777283, 
        -0.3439483940601349, 
        -0.12851567566394806, 
        0.6266559362411499, 
        0.8516974449157715, 
        0.17259451746940613, 
        -0.2599635422229767, 
        0.40746021270751953, 
        0.11059547960758209, 
        0.5140390396118164, 
        0.4573645293712616, 
        -0.17648014426231384, 
        0.30388885736465454, 
        0.49438393115997314, 
        0.18476618826389313, 
        0.437167763710022, 
        0.4036651849746704, 
        1.013291358947754, 
        0.20367571711540222, 
        0.16676115989685059, 
        0.1576632410287857, 
        0.13859263062477112, 
        0.21168754994869232, 
        -0.08898723125457764, 
        -0.18523043394088745, 
        0.49828824400901794, 
        -0.8256559371948242, 
        0.6336593627929688, 
        0.2957029342651367, 
        0.11647188663482666, 
        0.2514724135398865, 
        0.8036981821060181, 
        -0.6381755471229553, 
        -0.3248346447944641, 
        0.6186014413833618, 
        -0.20385195314884186, 
        -0.7225719094276428, 
        -0.2731776833534241, 
        0.12754857540130615, 
        0.632537305355072, 
        -0.6273342967033386, 
        0.5748773813247681, 
        0.19032923877239227, 
        0.38051554560661316, 
        0.059324007481336594, 
        -0.32230788469314575, 
        0.2319822758436203, 
        0.09600254893302917, 
        -0.4648967385292053, 
        -0.04769248887896538, 
        0.007219728548079729, 
        -0.6093094944953918, 
        -0.007287496235221624, 
        0.10175004601478577, 
        0.47217363119125366, 
        -0.3317549526691437, 
        -0.3308058977127075, 
        0.7764247059822083, 
        0.5257017612457275, 
        -0.2473907470703125, 
        -0.5438451170921326, 
        0.034545693546533585, 
        -0.5267423987388611, 
        -0.38455381989479065, 
        -0.14812707901000977, 
        0.5184785723686218, 
        -0.1520720273256302, 
        0.695310115814209, 
        -0.6027436852455139, 
        0.3285120725631714, 
        0.8400278687477112, 
        -0.5442779064178467, 
        -0.3314669132232666, 
        -0.10777103155851364, 
        -0.175789013504982, 
        -0.7851963043212891, 
        -0.2431502640247345, 
        -0.26737159490585327, 
        -0.023091597482562065, 
        -0.4779447019100189, 
        0.29206395149230957, 
        -0.15222105383872986, 
        0.49121084809303284, 
        -0.5144341588020325, 
        -0.27915501594543457, 
        -0.08209260553121567, 
        -0.32196682691574097, 
        -0.22246840596199036, 
        -0.044111255556344986, 
        -0.6949013471603394, 
        -0.7188452482223511, 
        -0.14598409831523895, 
        0.17061161994934082, 
        -0.7441945672035217, 
        0.22528408467769623, 
        -0.4810096025466919, 
        0.801514208316803, 
        0.03223608434200287, 
        0.17109130322933197, 
        -0.21110396087169647, 
        0.1908593326807022, 
        0.5195433497428894, 
        0.026973390951752663, 
        0.5010435581207275, 
        -0.1767580211162567, 
        -0.059290286153554916, 
        0.6713457703590393, 
        0.5759503245353699, 
        -0.8354787826538086, 
        0.6688166856765747, 
        -0.5689069628715515, 
        0.3789944350719452, 
        0.3224276602268219, 
        0.5227821469306946, 
        0.29588380455970764, 
        0.046228282153606415, 
        0.6265173554420471, 
        -0.5140748023986816, 
        0.6466255784034729, 
        -0.21417789161205292, 
        0.5952525734901428, 
        0.1536739319562912, 
        -0.4573936462402344, 
        -0.03743034228682518, 
        0.08682465553283691, 
        0.632271945476532, 
        -0.4413875639438629, 
        -0.16159401834011078, 
        0.18381135165691376, 
        -0.5007922053337097, 
        -0.4916078746318817, 
        -0.10934025049209595, 
        -0.6331895589828491, 
        -0.7789528369903564, 
        0.0960279256105423, 
        0.5258517265319824, 
        -0.16049663722515106, 
        0.42614981532096863, 
        -0.029289480298757553, 
        -0.5269630551338196, 
        -0.28454846143722534, 
        -0.12034798413515091, 
        0.181221142411232, 
        0.31594347953796387, 
        -0.5744117498397827, 
        0.3079490065574646, 
        -0.4648423194885254, 
        -0.03798464313149452, 
        0.4444064199924469, 
        -0.3012004494667053, 
        -0.8183767199516296, 
        0.8138393759727478, 
        0.4841515123844147, 
        0.6503798365592957, 
        0.6806970238685608, 
        -0.5634658336639404, 
        -0.679999589920044, 
        0.6667377948760986, 
        0.030110422521829605, 
        -0.6108734011650085, 
        0.5314470529556274, 
        0.46890902519226074, 
        -0.5099368691444397, 
        -0.36770668625831604, 
        0.20663003623485565, 
        0.1361912339925766, 
        -0.2607682943344116, 
        0.8045571446418762, 
        -0.5894501805305481, 
        0.08659061789512634, 
        -0.604967474937439, 
        -0.23685280978679657, 
        0.2671216130256653, 
        -0.3782443702220917, 
        -0.24973690509796143, 
        -0.17406339943408966, 
        0.25598108768463135, 
        0.022423235699534416, 
        -0.7436866164207458, 
        -0.25317442417144775, 
        -0.05850914865732193, 
        0.4790808856487274, 
        -0.005042570177465677, 
        -0.36261025071144104, 
        -0.353730708360672, 
        -0.6910232901573181, 
        -0.10196792334318161, 
        0.2063189297914505, 
        0.025612562894821167, 
        0.40580254793167114, 
        0.1818550080060959, 
        0.806929886341095, 
        -0.36965808272361755, 
        0.7226831316947937, 
        0.18283505737781525, 
        0.2993246614933014, 
        0.688021183013916, 
        0.03924911096692085, 
        0.6593464016914368, 
        0.09503251314163208, 
        0.22721052169799805, 
        0.058927617967128754, 
        -0.40395665168762207, 
        0.12510249018669128, 
        -0.6064477562904358, 
        0.6533027291297913, 
        -0.596845269203186, 
        -0.4792490303516388, 
        -0.3899175226688385, 
        -0.33939260244369507, 
        0.3232369124889374, 
        -0.2344701737165451, 
        -0.26022300124168396, 
        0.3287340998649597, 
        0.35945335030555725, 
        0.008009272627532482, 
        0.20907071232795715, 
        0.36372873187065125, 
        -0.4118095636367798, 
        -0.24161401391029358, 
        -0.011667875573039055, 
        0.5309521555900574, 
        -0.25413212180137634, 
        -0.7227290868759155, 
        -0.7035224437713623, 
        0.22116033732891083, 
        0.5848248600959778, 
        -0.4357033669948578, 
        -0.5200316905975342, 
        0.6570751667022705, 
        0.4559626579284668, 
        0.4515135586261749, 
        0.530683696269989, 
        -0.9291955232620239, 
        -0.14044027030467987, 
        -0.3200698494911194, 
        0.4563636779785156, 
        -0.15755973756313324, 
        0.7320501208305359, 
        0.4395219385623932, 
        0.438945472240448, 
        -0.5365254878997803, 
        -0.12833856046199799, 
        -0.53545743227005, 
        -0.0760216936469078, 
        -0.7634410262107849, 
        -0.7465986013412476, 
        -0.6725149154663086, 
        0.6354458928108215, 
        0.17447878420352936, 
        0.38717392086982727, 
        0.3664482831954956, 
        -0.7131999731063843, 
        -0.5021942257881165, 
        -0.4390956461429596, 
        -0.2765181064605713, 
        -0.7416483759880066, 
        -0.5220072269439697, 
        0.47153499722480774, 
        -0.06739167869091034, 
        0.3635241985321045, 
        0.3636537790298462, 
        -0.28607186675071716, 
        -0.4949387311935425, 
        0.13115906715393066, 
        -0.022768817842006683, 
        -0.2189871072769165, 
        -0.10604892671108246, 
        -0.7921628355979919, 
        -0.4288252294063568, 
        -0.4299743175506592, 
        -0.2691419720649719, 
        -0.13253584504127502, 
        0.41402509808540344, 
        0.5959811210632324, 
        0.1727508306503296, 
        0.6270111203193665, 
        0.7189016938209534, 
        0.19683413207530975, 
        0.18838755786418915, 
        0.5651742815971375, 
        -0.41731536388397217, 
        -1.0002368688583374, 
        0.3501480221748352, 
        -0.41303858160972595, 
        0.4938780665397644, 
        0.5799494981765747, 
        -0.20865890383720398, 
        -0.02283499576151371, 
        -0.3643778860569, 
        -0.8482025861740112, 
        -0.48941460251808167, 
        0.611400306224823, 
        -0.4608817994594574, 
        0.015569244511425495, 
        0.6596571803092957, 
        -0.04273506626486778, 
        -0.36620059609413147, 
        0.49690693616867065, 
        -0.4820760488510132, 
        0.03612625226378441, 
        0.0008536758250556886, 
        -0.12680137157440186, 
        0.6688578128814697, 
        -0.29814422130584717, 
        0.5647399425506592, 
        0.4835227429866791, 
        0.11102637648582458, 
        0.0048453547060489655, 
        -0.11594133824110031, 
        0.6565602421760559, 
        -0.23072047531604767, 
        0.0017694106791168451, 
        0.1748073250055313, 
        -0.6714715361595154, 
        -0.12260628491640091, 
        0.17742006480693817, 
        -0.580026388168335, 
        0.5882228016853333, 
        0.34504759311676025, 
        0.22914031147956848, 
        -0.6463684439659119, 
        0.6231808662414551, 
        0.17261992394924164, 
        -0.5363549590110779, 
        0.44556111097335815, 
        -0.14812666177749634, 
        -0.6456311941146851, 
        -0.21227724850177765, 
        0.11478602886199951, 
        0.22180943191051483, 
        0.19127881526947021, 
        0.14287742972373962, 
        -0.41659456491470337, 
        -0.18608471751213074, 
        0.04364943504333496, 
        0.7173736691474915, 
        0.2990286946296692, 
        0.5992757678031921, 
        0.5869219303131104, 
        0.4078415036201477, 
        0.039274539798498154, 
        0.19681212306022644, 
        -0.019172530621290207, 
        -0.5369527339935303, 
        -0.24541623890399933, 
        0.024732166901230812, 
        -0.3258107304573059, 
        0.5998371839523315, 
        0.01445482112467289, 
        0.8952593803405762, 
        -0.44451257586479187, 
        -0.5347667336463928, 
        -0.8075500726699829, 
        -0.20203019678592682, 
        0.49654287099838257, 
        0.06715234369039536, 
        0.038160428404808044, 
        0.1607418656349182, 
        0.3047860562801361, 
        -0.10677144676446915, 
        0.3448430001735687, 
        -0.04351968690752983, 
        0.8227034211158752, 
        -0.28449374437332153, 
        0.05233638733625412, 
        0.4982130527496338, 
        0.5158559083938599, 
        0.41398802399635315, 
        0.724248468875885, 
        0.19108030200004578, 
        0.5178435444831848, 
        -0.5770761966705322, 
        0.7399618029594421, 
        0.5487108826637268, 
        -0.0735919326543808, 
        0.350036084651947, 
        -0.4290972352027893, 
        -0.09652327001094818, 
        -0.5814476013183594, 
        -0.0055230106227099895, 
        0.46795809268951416, 
        0.5091758370399475, 
        -0.2550349235534668, 
        -0.47598814964294434, 
        -0.5638599991798401, 
        0.05009275674819946, 
        0.8041311502456665, 
        0.24575664103031158, 
        -0.14824657142162323, 
        -0.21354307234287262, 
        0.37023189663887024, 
        0.7247994542121887, 
        -0.4513736069202423, 
        -0.6694952249526978, 
        0.43986645340919495, 
        0.7685204744338989, 
        -0.3050534427165985, 
        0.5909168124198914, 
        0.22568048536777496, 
        -0.8801596760749817, 
        -0.6233769655227661, 
        0.7832427024841309, 
        0.4819336235523224, 
        -0.20439539849758148, 
        -0.43316346406936646, 
        -0.772038996219635, 
        0.13631682097911835, 
        0.288650780916214, 
        0.3431521952152252, 
        -0.5413420796394348, 
        -0.03951352834701538, 
        0.4303025007247925, 
        0.5049476623535156, 
        -0.37020251154899597, 
        0.49154943227767944, 
        0.3096019923686981, 
        -0.2806830406188965, 
        0.6958879828453064, 
        0.2960493862628937, 
        -0.3320598304271698, 
        0.3744839131832123, 
        -0.1718798130750656, 
        -0.4626348912715912, 
        -0.4891684055328369, 
        0.34523001313209534, 
        -0.014956852421164513, 
        -0.8099774718284607, 
        -0.6003344058990479, 
        0.6208459138870239, 
        0.08502313494682312, 
        -0.5217914581298828, 
        0.3773716986179352, 
        -0.1466037482023239, 
        -0.19166401028633118, 
        0.201829195022583, 
        -0.3925532102584839, 
        0.15997964143753052, 
        -0.44313350319862366, 
        -0.5178266167640686, 
        -0.11687234789133072, 
        -0.09172786772251129, 
        -0.17225410044193268, 
        0.6000998020172119, 
        0.2154468297958374, 
        -0.8851675391197205, 
        0.37730997800827026, 
        0.5593576431274414, 
        -0.850890576839447, 
        0.23223447799682617, 
        0.49810588359832764, 
        -0.6860443949699402, 
        -1.202927827835083, 
        0.5888470411300659, 
        0.6828638315200806, 
        -0.5271917581558228, 
        0.1629967987537384, 
        0.3110344409942627, 
        -0.27158164978027344, 
        0.22390639781951904, 
        0.17801401019096375, 
        -0.611752986907959, 
        0.576444149017334, 
        -0.6475788950920105, 
        0.23897483944892883, 
        -0.16145937144756317, 
        -0.5565738677978516, 
        -0.492204874753952, 
        -0.3412751257419586, 
        0.42052575945854187, 
        0.38719552755355835, 
        0.09880316257476807, 
        -0.44261425733566284, 
        -0.725100576877594, 
        0.34247806668281555, 
        -0.0821966901421547, 
        0.03754429891705513, 
        -0.3251243531703949, 
        -0.014315486885607243, 
        0.6098703742027283, 
        -0.1472574770450592, 
        0.058287493884563446, 
        0.38138505816459656, 
        0.03930143639445305, 
        0.5032404661178589, 
        -0.3222486078739166, 
        -0.10554269701242447, 
        -0.16340963542461395, 
        -0.1853141337633133, 
        -0.08243449777364731, 
        -0.25487425923347473, 
        0.053215231746435165, 
        -0.16751058399677277, 
        -0.48474377393722534, 
        -0.4731462895870209, 
        0.8260520696640015, 
        -0.27596086263656616, 
        0.6534377336502075, 
        -0.3332994282245636, 
        -0.3314725458621979, 
        0.27621564269065857, 
        0.24575965106487274, 
        0.624264121055603, 
        0.49435943365097046, 
        -0.2170673906803131, 
        -0.6361075639724731, 
        0.006012948229908943, 
        0.4960857629776001, 
        -0.1177816241979599, 
        -0.18226924538612366, 
        -0.6984257102012634, 
        -0.2593703269958496, 
        0.144253209233284, 
        -0.4045366644859314, 
        -0.3577670753002167, 
        -0.40156280994415283, 
        -0.3905419111251831, 
        0.9789482951164246, 
        0.551416277885437, 
        -0.461642861366272, 
        0.06992699950933456, 
        0.20327267050743103, 
        0.4889167547225952, 
        0.3199770748615265, 
        0.5824102163314819, 
        -0.3490654528141022, 
        0.6212271451950073, 
        0.7824942469596863, 
        0.20105333626270294, 
        -0.3545777201652527, 
        0.4680213928222656, 
        0.30803561210632324, 
        0.5342109203338623, 
        -0.15940119326114655, 
        0.041976552456617355, 
        0.12311271578073502, 
        -0.6807889342308044, 
        -0.5425202250480652, 
        -0.1255379021167755, 
        0.5201686024665833, 
        -0.42542916536331177, 
        0.37215927243232727, 
        0.11607945710420609, 
        0.01681269146502018, 
        -0.1439967155456543, 
        0.2708337604999542, 
        0.4724472463130951, 
        0.8835430145263672, 
        -0.4676078259944916, 
        0.40402233600616455, 
        -0.19446301460266113, 
        -0.4425831139087677, 
        -0.6387605667114258, 
        0.5094199180603027, 
        0.6402525305747986, 
        0.4850494861602783, 
        -0.8664548993110657, 
        -0.6128959059715271, 
        0.5559736490249634, 
        -0.4238123297691345, 
        -0.01187834795564413, 
        -0.048547957092523575, 
        -0.2621338963508606, 
        -0.3632948398590088, 
        0.39010730385780334, 
        -0.21522536873817444, 
        0.002840885194018483, 
        0.2713477611541748, 
        0.1567656248807907, 
        -0.2458779662847519, 
        0.4731072783470154, 
        -0.4876042604446411, 
        -0.4178426265716553, 
        0.07370425760746002, 
        -0.2898019850254059, 
        -0.5987595915794373, 
        -0.6548967957496643, 
        0.5441821217536926, 
        -0.6901484131813049, 
        0.32478052377700806, 
        -0.45823150873184204, 
        -0.06689504534006119, 
        -0.0575251430273056, 
        0.4443860352039337, 
        0.2011253982782364, 
        0.5071324706077576, 
        0.10567605495452881, 
        -0.47429588437080383, 
        -0.3126649856567383, 
        -0.6504300832748413, 
        -0.02528652362525463, 
        -0.5588148236274719, 
        0.7869505286216736, 
        -0.877053439617157, 
        -0.57203608751297, 
        0.6048563718795776, 
        0.15575186908245087, 
        -0.11948905140161514, 
        0.7394275069236755, 
        -0.6123887896537781, 
        0.03649239242076874, 
        0.027445809915661812, 
        0.67864590883255, 
        0.5565823912620544, 
        0.20940232276916504, 
        0.08636166155338287, 
        0.7396486401557922, 
        0.1171368882060051, 
        -0.059326283633708954, 
        0.7122398614883423, 
        -0.30981147289276123, 
        0.5670555233955383, 
        0.048510339111089706, 
        -0.1913360059261322, 
        0.5226529836654663, 
        0.07317053526639938, 
        0.7099042534828186, 
        -0.5604418516159058, 
        0.005553028080612421, 
        -0.8288795948028564, 
        0.7154958248138428, 
        0.4786292314529419, 
        0.2205585092306137, 
        -0.23498256504535675, 
        0.2747347056865692, 
        0.09945421665906906, 
        -0.5803954601287842, 
        -0.3977202773094177, 
        -0.6212030649185181, 
        0.4368966817855835, 
        -0.19753679633140564, 
        -0.3597784638404846, 
        0.5560290217399597, 
        -0.1830516755580902, 
        -0.2798357605934143, 
        -0.6189513802528381, 
        -0.14548912644386292, 
        0.7169652581214905, 
        -0.6373775601387024, 
        -0.34896621108055115, 
        -0.2949744164943695, 
        0.6597635746002197, 
        0.29605633020401, 
        0.4368164837360382, 
        -0.2884317636489868, 
        0.5139111876487732, 
        -0.3377102315425873, 
        0.7292605638504028, 
        -0.5782712697982788, 
        0.29344823956489563, 
        -0.07841823995113373, 
        -0.45402950048446655, 
        -0.32779860496520996, 
        -0.1444115936756134, 
        -0.21689583361148834, 
        0.5574018359184265, 
        0.31553828716278076, 
        0.6829809546470642, 
        -0.5886669158935547, 
        -0.3423463702201843, 
        -0.19988012313842773, 
        -0.40174296498298645, 
        -0.5368909239768982, 
        -0.9060065150260925, 
        0.1162382960319519, 
        0.6770470142364502, 
        -0.013243073597550392, 
        0.18633048236370087, 
        0.23847843706607819, 
        -0.15872421860694885, 
        -0.22722439467906952, 
        0.7422434091567993, 
        -0.13534347712993622, 
        -0.22119513154029846, 
        -0.10863728821277618, 
        0.12901724874973297, 
        -0.48918336629867554, 
        0.013815164566040039, 
        -0.09306543320417404, 
        -0.5896616578102112, 
        -0.005109019111841917, 
        -0.06308846175670624, 
        -0.23706579208374023, 
        -0.2585172653198242, 
        -0.06308700889348984, 
        -0.8364832401275635, 
        -0.09603951871395111, 
        0.5920470952987671, 
        -0.5215122103691101, 
        0.49242109060287476, 
        -0.3763858675956726, 
        -0.06620239466428757, 
        -0.13319769501686096, 
        -0.44347700476646423, 
        -0.41485166549682617, 
        0.3902946412563324, 
        0.15717467665672302, 
        0.529556393623352, 
        0.3566223978996277, 
        0.17233066260814667, 
        -0.5197344422340393, 
        -0.701697587966919, 
        0.3722847104072571, 
        0.6669653654098511, 
        -0.6555739045143127, 
        0.12350364774465561, 
        0.18648262321949005, 
        0.3027086853981018, 
        0.43550869822502136, 
        0.3657807409763336, 
        0.40907710790634155, 
        -0.8178985118865967, 
        0.6506156921386719, 
        0.16743405163288116, 
        0.24808967113494873, 
        -0.4482252597808838, 
        0.6336218118667603, 
        0.4344173073768616, 
        -0.6595406532287598, 
        0.05995643511414528, 
        0.8179231286048889, 
        0.22708392143249512, 
        0.0752728059887886, 
        0.1964118778705597, 
        -0.004007345996797085, 
        -0.35800260305404663, 
        0.16901996731758118, 
        0.6795986890792847, 
        -0.19188548624515533, 
        0.1099797785282135, 
        0.42779943346977234, 
        0.33232247829437256, 
        0.6709405779838562, 
        -0.2717688977718353, 
        0.7611892819404602, 
        -0.6167142391204834, 
        0.4571021795272827, 
        0.03265203908085823, 
        0.28982535004615784, 
        0.8256991505622864, 
        0.07870888710021973, 
        0.17394477128982544, 
        -0.22287620604038239, 
        -0.6620432138442993, 
        0.2927892208099365, 
        0.5793625116348267, 
        0.5259087681770325, 
        0.19862058758735657, 
        0.06661317497491837, 
        0.21243643760681152, 
        0.6382129788398743, 
        0.8028310537338257, 
        0.49438515305519104, 
        0.5305117964744568, 
        -0.17632348835468292, 
        0.7877436280250549, 
        -0.5371605157852173, 
        -0.07967276871204376, 
        0.5583853721618652, 
        -0.16207255423069, 
        0.05803969129920006, 
        -0.29040083289146423, 
        0.10369865596294403, 
        0.5324579477310181, 
        -0.3595508635044098, 
        0.6986150145530701, 
        0.5732851028442383, 
        -0.18753765523433685, 
        -0.15267804265022278, 
        -0.33030667901039124, 
        -0.23810093104839325, 
        -0.301085501909256, 
        0.015565941110253334, 
        0.05559645593166351, 
        0.5939860343933105, 
        -0.6362590193748474, 
        0.4452720582485199, 
        0.15643210709095, 
        -0.431791752576828, 
        0.2969496250152588, 
        -0.025737376883625984, 
        0.33211976289749146, 
        0.006918671540915966, 
        0.08122308552265167, 
        0.2043703943490982, 
        -0.3468646705150604, 
        0.22066450119018555, 
        -0.5296984910964966, 
        -0.05353594571352005, 
        0.670429527759552, 
        -0.28573551774024963, 
        0.23739421367645264, 
        0.16411632299423218, 
        -0.7084203362464905, 
        -0.41480782628059387, 
        -0.40797704458236694, 
        -0.5714473128318787, 
        -0.35539567470550537, 
        -0.15270164608955383, 
        -0.7249504327774048, 
        0.12466903775930405, 
        -0.15210948884487152, 
        -0.3914387822151184, 
        0.6573078632354736, 
        0.628670334815979, 
        0.5150192379951477, 
        0.11433339864015579, 
        0.1232125461101532, 
        0.553413450717926, 
        -0.24497288465499878, 
        -0.5106156468391418, 
        -0.21083587408065796, 
        0.1663854420185089, 
        0.7324150204658508, 
        0.17613214254379272, 
        0.0233521219342947, 
        -0.34871000051498413, 
        0.03755207732319832, 
        0.06865036487579346, 
        -0.3825567066669464, 
        0.10455984622240067, 
        0.2057407647371292, 
        0.03514603525400162, 
        -0.6326749920845032, 
        -0.5977426767349243, 
        0.2512812912464142, 
        0.19382992386817932, 
        0.3691066801548004, 
        0.13138921558856964, 
        -0.6088773012161255, 
        0.20185665786266327, 
        -0.07799044996500015, 
        0.08304913341999054, 
        -0.7883849143981934, 
        -0.48712357878685, 
        0.3154580593109131, 
        -0.01848580874502659, 
        -0.5645595192909241, 
        -0.5413510799407959, 
        0.7223888039588928, 
        -0.2792566120624542, 
        0.20246829092502594, 
        0.49976035952568054, 
        0.7496510148048401, 
        0.5234994292259216, 
        0.0806991308927536, 
        0.6029654145240784, 
        0.6433286070823669, 
        -0.12214214354753494, 
        -0.5705058574676514, 
        0.14529728889465332, 
        0.29378435015678406, 
        0.32215389609336853, 
        -0.028348637744784355, 
        0.7039574384689331, 
        -0.5422872304916382, 
        0.16857056319713593, 
        -0.2584238350391388, 
        0.49942559003829956, 
        0.4775121808052063, 
        -0.5296898484230042, 
        0.5603622198104858, 
        0.3652740716934204, 
        0.6555695533752441, 
        0.006147142965346575, 
        0.6178776621818542, 
        -0.31734907627105713, 
        1.0343445539474487, 
        -0.6373343467712402, 
        0.6238242983818054, 
        -0.27764225006103516, 
        0.7214271426200867, 
        0.6441267132759094, 
        -0.08586082607507706, 
        0.6747626066207886, 
        0.1292702704668045, 
        -0.37572938203811646, 
        0.3478609025478363, 
        -0.4795891046524048, 
        -0.6005825400352478, 
        -0.47930628061294556, 
        0.752193808555603, 
        0.2679569721221924, 
        0.36945876479148865, 
        0.5475531816482544, 
        -0.3431560695171356, 
        0.574321985244751, 
        -0.4975610673427582, 
        -0.6073496341705322, 
        -0.7122746109962463, 
        0.5841603875160217, 
        -0.3311963677406311, 
        0.5047707557678223, 
        0.30759477615356445, 
        -0.4946959316730499, 
        -0.7142335772514343, 
        0.4425424635410309, 
        0.5400974750518799, 
        0.2013818323612213, 
        -0.5682874917984009, 
        -0.4491730332374573, 
        -0.09220980107784271, 
        -0.22767768800258636, 
        0.16345489025115967, 
        0.24317575991153717, 
        -0.715078592300415, 
        -0.004506600555032492, 
        -0.6905290484428406, 
        0.37222743034362793, 
        -0.07159814983606339, 
        -0.18562382459640503, 
        0.6343712210655212, 
        0.3349291682243347, 
        -0.1347297579050064, 
        -0.11444690078496933, 
        -0.3568909764289856, 
        -0.7640330791473389, 
        0.00019037605670746416, 
        0.07598373293876648, 
        -0.6256258487701416, 
        0.1454649269580841, 
        0.2134077250957489, 
        0.11121469736099243, 
        0.5929631590843201, 
        0.48909708857536316, 
        0.31312859058380127, 
        -0.20109912753105164, 
        -0.4925292134284973, 
        0.11200463026762009, 
        0.7115644812583923, 
        0.7400426864624023, 
        0.13369031250476837, 
        0.4703617990016937, 
        -0.021725956350564957, 
        0.5337828397750854, 
        -0.26426181197166443, 
        0.45723965764045715, 
        -1.2745113372802734, 
        -0.053666528314352036, 
        -0.07044035941362381, 
        0.15929336845874786, 
        0.4951545000076294, 
        0.4594257175922394, 
        -0.07848464697599411, 
        0.06383615732192993, 
        0.030023466795682907, 
        0.4923844635486603, 
        0.1800500452518463, 
        0.03472163528203964, 
        0.7321726083755493, 
        -0.12390048801898956, 
        -0.47808340191841125, 
        -0.44498372077941895, 
        -0.2830623388290405, 
        -0.04628167301416397, 
        -0.5523146390914917, 
        0.47862911224365234, 
        -0.18313969671726227, 
        0.02851712331175804, 
        -0.5409672856330872, 
        0.44219329953193665, 
        -0.19709664583206177, 
        0.7730873823165894, 
        0.23956499993801117, 
        0.6712252497673035, 
        0.029323261231184006, 
        0.6626634001731873, 
        0.31605812907218933, 
        -0.2488616555929184, 
        0.2187986820936203, 
        0.22038255631923676, 
        -0.21988971531391144, 
        0.039555516093969345, 
        -0.8111644387245178, 
        -0.7670729160308838, 
        -0.4516921937465668, 
        0.37808841466903687, 
        0.46192511916160583, 
        0.6374152302742004, 
        -0.4290550649166107, 
        0.5396960377693176, 
        0.5437095761299133, 
        -0.09275800734758377, 
        0.3272530734539032, 
        -0.1736029088497162, 
        -0.14486797153949738, 
        0.38359925150871277, 
        -0.2259918600320816, 
        -0.3935537338256836, 
        -0.4234880805015564, 
        -0.4113864004611969, 
        -0.002677585231140256, 
        0.5290176272392273, 
        -0.3852887451648712, 
        0.44920215010643005, 
        -0.5253800749778748, 
        0.20191946625709534, 
        -0.11700958013534546, 
        0.2579745650291443, 
        0.22470614314079285, 
        -0.20842155814170837, 
        0.6527366042137146, 
        -0.2518688440322876, 
        0.8487439751625061, 
        0.9494530558586121, 
        0.4183083176612854, 
        -0.053228214383125305, 
        0.25967273116111755, 
        0.4129306375980377, 
        0.46579164266586304, 
        0.39347127079963684, 
        -0.2133169323205948, 
        0.867843508720398, 
        0.38751593232154846, 
        -0.08280970901250839, 
        0.7760674357414246, 
        -0.6122379899024963, 
        -0.03613251447677612, 
        -0.4885125458240509, 
        0.3384062349796295, 
        0.6988531947135925, 
        -0.6129344701766968, 
        -0.04385332763195038, 
        0.4339451193809509, 
        0.00262021878734231, 
        0.12888555228710175, 
        0.6124420762062073, 
        0.5957328677177429, 
        -0.2725154459476471, 
        -0.06400357186794281, 
        0.48711061477661133, 
        -0.3114662766456604, 
        -0.6013891100883484, 
        0.6795538663864136, 
        -0.6199455857276917, 
        0.3796938359737396, 
        0.31188783049583435, 
        0.25228410959243774, 
        -0.21834403276443481, 
        0.3095269203186035, 
        0.15517377853393555, 
        -0.7353312373161316, 
        -0.013105075806379318, 
        -0.33771857619285583, 
        -0.5172474384307861, 
        -0.11633197218179703, 
        -0.6175060272216797, 
        0.017573392018675804, 
        0.3494289517402649, 
        -0.02305988036096096, 
        -0.06030180677771568, 
        0.0768405869603157, 
        -0.38903307914733887, 
        0.9051879644393921, 
        -0.08165973424911499, 
        -0.8899297118186951, 
        0.08714593201875687, 
        0.41839805245399475, 
        -0.7552935481071472, 
        0.14708220958709717, 
        0.30902284383773804, 
        0.35720294713974, 
        0.03140116482973099, 
        0.5501047968864441, 
        -0.11254209280014038, 
        0.38790076971054077, 
        0.5542439818382263, 
        -0.9635850191116333, 
        -0.3287130892276764, 
        0.05137645825743675, 
        -0.021696889773011208, 
        0.6872161626815796, 
        0.6411754488945007, 
        -0.17100046575069427, 
        0.6353024244308472, 
        0.494974285364151, 
        0.6440030932426453, 
        -0.5949869751930237, 
        0.12120518833398819, 
        -0.4452526569366455, 
        0.3189257085323334, 
        -0.2513980567455292, 
        -0.24596641957759857, 
        -0.18989825248718262, 
        -0.6926510334014893, 
        0.7438463568687439, 
        -0.20207706093788147, 
        -0.3657158315181732, 
        -0.504936933517456, 
        -0.5782970190048218, 
        0.5887691974639893, 
        0.882131040096283, 
        0.38656383752822876, 
        -0.13132411241531372, 
        -0.4747268259525299, 
        0.26457351446151733, 
        -0.6298708319664001, 
        0.6029013991355896, 
        0.23343130946159363, 
        -0.7204739451408386, 
        -0.02468772605061531, 
        0.1868748962879181, 
        -0.5192843675613403, 
        0.3527066111564636, 
        -0.39380180835723877, 
        -0.2733823359012604, 
        0.79454106092453, 
        -0.41889452934265137, 
        -0.5391249656677246, 
        -0.2628946900367737, 
        0.6523938179016113, 
        -0.5763142108917236, 
        -0.4505394697189331, 
        0.21131792664527893, 
        -0.37750008702278137, 
        -0.980301558971405, 
        -0.25838935375213623, 
        -0.6412466168403625, 
        0.16121195256710052, 
        0.1923626959323883, 
        -0.4842603802680969, 
        0.3631592094898224, 
        0.42232561111450195, 
        0.35694849491119385, 
        0.5850217938423157, 
        0.2398558259010315, 
        0.5142657160758972, 
        -0.010591239668428898, 
        0.3862716555595398, 
        -0.3508789539337158, 
        0.21463263034820557, 
        0.2826850414276123, 
        0.307923823595047, 
        -0.5369868278503418, 
        -0.2783129811286926, 
        -0.4591521918773651, 
        0.05502660199999809, 
        -0.13675573468208313, 
        0.2634689211845398, 
        0.49109363555908203, 
        0.43011602759361267, 
        0.7185704708099365, 
        -0.23663830757141113, 
        0.0844026654958725, 
        0.1429707258939743, 
        -0.6404203176498413, 
        0.29886358976364136, 
        -1.0948586463928223, 
        -0.7672119736671448, 
        0.08857064694166183, 
        0.2482852339744568, 
        -0.5375164151191711, 
        0.2145940363407135, 
        0.5914782881736755, 
        -0.7625678181648254, 
        -0.12764950096607208, 
        0.09338565170764923, 
        -0.54647296667099, 
        0.614751935005188, 
        -0.09867700934410095, 
        -0.09496105462312698, 
        0.1920899748802185, 
        0.18102240562438965, 
        -0.40012693405151367, 
        0.0794733315706253, 
        0.6079696416854858, 
        -0.22645720839500427, 
        0.08636026084423065, 
        0.06514932215213776, 
        -0.24167181551456451, 
        1.1730098724365234, 
        0.09436888247728348, 
        -0.5367757081985474, 
        -0.5842438340187073, 
        0.2829025089740753, 
        0.2462010234594345, 
        0.35548490285873413, 
        0.42484235763549805, 
        0.2427075356245041, 
        -0.6971309781074524, 
        -0.3374464213848114, 
        0.5754491686820984, 
        -0.007971437647938728, 
        -0.043340377509593964, 
        -0.07974440604448318, 
        0.6437525749206543, 
        0.25344887375831604, 
        -0.43893852829933167, 
        0.8224970102310181, 
        0.22360940277576447, 
        -0.2966114282608032, 
        0.6325666904449463, 
        0.5614007711410522, 
        -0.38910746574401855, 
        0.3129127621650696, 
        0.7547820806503296, 
        -0.018557831645011902, 
        -0.6993550658226013, 
        -0.7919741272926331, 
        -0.5686694979667664, 
        -0.15283751487731934, 
        0.005671905353665352, 
        0.13874654471874237, 
        0.3483540117740631, 
        0.5667819380760193, 
        -0.4784866273403168, 
        0.3921692967414856, 
        0.4292052686214447, 
        0.16572056710720062, 
        0.6961047053337097, 
        0.6246139407157898, 
        1.351574182510376, 
        0.04294513911008835, 
        -0.2829703986644745, 
        -0.10264428704977036, 
        0.47543323040008545, 
        0.07057264447212219, 
        0.28384560346603394, 
        -0.3923676908016205, 
        0.23432156443595886, 
        -0.738654375076294, 
        0.6787130832672119, 
        0.5357296466827393, 
        0.2715648412704468, 
        -0.4808005392551422, 
        -0.10645424574613571, 
        0.7646684050559998, 
        -0.6332552433013916, 
        0.5678264498710632, 
        -0.743934154510498, 
        0.1717042624950409, 
        0.2845831513404846, 
        -0.45176973938941956, 
        -0.49417516589164734, 
        -0.6428507566452026, 
        0.527669370174408, 
        -0.17286184430122375, 
        0.30687975883483887, 
        -0.5587474703788757, 
        -0.6474058628082275, 
        0.3991984724998474, 
        -0.27015578746795654, 
        -0.38346806168556213, 
        -0.029656069353222847, 
        0.33447808027267456, 
        0.5814708471298218, 
        0.08305034041404724, 
        -0.10184580087661743, 
        0.3006407618522644, 
        -0.23696815967559814, 
        -0.4553435146808624, 
        -0.6442486643791199, 
        -0.8815231919288635, 
        -0.7121974229812622, 
        -0.604141116142273, 
        -0.41079121828079224, 
        -0.2157512754201889, 
        -0.6037592887878418, 
        0.37929627299308777, 
        0.037370018661022186, 
        -0.6131300330162048, 
        -0.17302313446998596, 
        -0.34732428193092346, 
        -0.7869611978530884, 
        0.48391392827033997, 
        0.5804780721664429, 
        0.04405178502202034, 
        -0.5413355827331543, 
        -0.31901177763938904, 
        -0.0389079675078392, 
        0.28562915325164795, 
        0.560477077960968, 
        0.29579222202301025, 
        0.4951919913291931, 
        -0.27727633714675903, 
        0.4122764766216278, 
        -0.678945779800415, 
        -0.39608848094940186, 
        0.3567626476287842, 
        0.4749692380428314, 
        -0.024694405496120453, 
        -0.3928990364074707, 
        0.014081643894314766, 
        0.311660498380661, 
        -0.2939620316028595, 
        -0.4931114912033081, 
        -0.5804606676101685, 
        -0.1741773784160614, 
        0.6864894032478333, 
        0.43150606751441956, 
        0.16156651079654694, 
        0.05212129279971123, 
        -0.46307507157325745, 
        0.42809244990348816, 
        -0.04737928882241249, 
        -0.9499142169952393, 
        -0.2160084992647171, 
        -0.1744936853647232, 
        -0.18309912085533142, 
        -0.49585145711898804, 
        -0.01096910610795021, 
        -0.4746701121330261, 
        0.36832696199417114, 
        0.38897064328193665, 
        -0.1860644370317459, 
        0.37776362895965576, 
        -0.30948856472969055, 
        0.5070995092391968, 
        -0.3000064492225647, 
        0.26072514057159424, 
        0.10391569882631302, 
        -0.12223073840141296, 
        0.37426960468292236, 
        -0.7025942802429199, 
        0.18958118557929993, 
        -0.7794880867004395, 
        -0.21937716007232666, 
        0.6300491094589233, 
        -0.4182642996311188, 
        0.07770650088787079, 
        -0.09272655844688416, 
        0.22617842257022858, 
        -0.14559835195541382, 
        -0.5879634022712708, 
        0.2347804307937622, 
        0.07365917414426804, 
        0.515659749507904, 
        -0.2427610605955124, 
        -0.14534994959831238, 
        0.394432932138443, 
        0.3701278865337372, 
        -0.6465030312538147, 
        -0.08367704600095749, 
        0.9131096601486206, 
        0.41631558537483215, 
        0.4118996262550354, 
        0.711010754108429, 
        0.07907674461603165, 
        -0.798730194568634, 
        -0.46350476145744324, 
        -0.15581020712852478, 
        -0.239927276968956, 
        -0.37673789262771606, 
        0.34744659066200256, 
        -0.7039191126823425, 
        -0.32904496788978577, 
        0.7860541343688965, 
        -0.5747094750404358, 
        0.4458143711090088, 
        0.6283934712409973, 
        0.8046776652336121, 
        0.6689149737358093, 
        0.10544909536838531, 
        0.828874409198761, 
        0.6464347243309021, 
        0.23624540865421295, 
        0.21898497641086578, 
        -0.13731124997138977, 
        -0.4512273669242859, 
        -0.2716967761516571, 
        -0.031213529407978058, 
        0.5894237160682678, 
        0.11776093393564224, 
        -0.03889591619372368, 
        -0.3389201760292053, 
        -0.5729519128799438, 
        0.5224193334579468, 
        0.28643128275871277, 
        -0.5797291994094849, 
        -0.39296963810920715, 
        -0.4681735038757324, 
        -0.029461516067385674, 
        -0.4897352159023285, 
        0.5268306732177734, 
        0.3687366843223572, 
        0.35055965185165405, 
        -0.12672816216945648, 
        0.04682144522666931, 
        -0.5528743267059326, 
        0.38301512598991394, 
        -0.0334252305328846, 
        0.4070824980735779, 
        0.2707381546497345, 
        -0.2388080358505249, 
        -0.33358699083328247, 
        0.6275619268417358, 
        -0.22993960976600647, 
        0.13066992163658142, 
        -0.23586349189281464, 
        0.33252933621406555, 
        0.004079684615135193, 
        -0.45165956020355225, 
        -0.3757356107234955, 
        -0.022214798256754875, 
        -0.3155944049358368, 
        0.33291277289390564, 
        -0.22978588938713074, 
        0.1607629507780075, 
        1.0181838274002075, 
        -0.2644970118999481, 
        -0.33539268374443054, 
        -0.7603998780250549, 
        0.04385863617062569, 
        0.3272964656352997, 
        -0.3447549343109131, 
        -0.40332892537117004, 
        -0.5238445401191711, 
        0.500950276851654, 
        -0.43443194031715393, 
        -0.6884594559669495, 
        -0.01411445066332817, 
        0.7723026871681213, 
        -0.017420947551727295, 
        -0.37258380651474, 
        0.6298952102661133, 
        -0.1672287881374359, 
        -0.038078423589468, 
        0.35848724842071533, 
        0.18554532527923584, 
        -0.5119900107383728, 
        0.23337005078792572, 
        -0.14576919376850128, 
        0.6715996265411377, 
        0.3747655749320984, 
        -0.18300645053386688, 
        -0.15182852745056152, 
        0.4994741976261139, 
        -0.6883887648582458, 
        0.2559964656829834, 
        -0.46550989151000977, 
        -0.09210424870252609, 
        0.11302169412374496, 
        -0.15623405575752258, 
        -0.6894737482070923, 
        0.5797412991523743, 
        -0.12157894670963287, 
        -0.03095969744026661, 
        0.1510082632303238, 
        0.01030606497079134, 
        -0.1823415458202362, 
        -0.45307305455207825, 
        0.39989835023880005, 
        -0.23984552919864655, 
        0.03322054445743561, 
        0.549173891544342, 
        -0.347034215927124, 
        -0.6958320140838623, 
        0.5166025757789612, 
        0.34786856174468994, 
        -0.3997252881526947, 
        -0.16781723499298096, 
        0.6974905729293823, 
        -0.4582005739212036, 
        0.017557665705680847, 
        -0.7754845023155212, 
        -0.035546980798244476, 
        -0.6955600380897522, 
        -0.3336716890335083, 
        -0.6185657978057861, 
        0.004437245894223452, 
        0.19450591504573822, 
        -0.11426694691181183, 
        -0.5281574726104736, 
        -0.12220549583435059, 
        0.2020692080259323, 
        -0.09170415997505188, 
        0.71022629737854, 
        -0.27556416392326355, 
        -0.2909593880176544, 
        -0.2809259593486786, 
        -0.6378096342086792, 
        -1.2852427959442139, 
        0.22500824928283691, 
        0.3077789843082428, 
        1.071690320968628, 
        0.14816127717494965, 
        -0.1360502541065216, 
        -0.5240296125411987, 
        0.08900962024927139, 
        -0.3745552599430084, 
        0.7255203723907471, 
        -0.6324745416641235, 
        -0.2234991043806076, 
        0.5078070759773254, 
        -0.7233943343162537, 
        -0.4120742082595825, 
        -0.25129827857017517, 
        0.19884485006332397, 
        0.6146138906478882, 
        0.510901153087616, 
        0.8227902054786682, 
        -0.1258067488670349, 
        -0.3082330524921417, 
        0.07046480476856232, 
        0.16748839616775513, 
        0.5669928193092346, 
        -0.47206732630729675, 
        -0.8519436717033386, 
        -0.12606894969940186, 
        -0.2305089235305786, 
        -0.07918010652065277, 
        -0.48799848556518555, 
        0.2997266948223114, 
        0.23219764232635498, 
        -0.03220394253730774, 
        0.19244283437728882, 
        0.619524359703064, 
        -0.31972527503967285, 
        0.5252430438995361, 
        -0.4971967935562134, 
        0.6849406957626343, 
        -0.582775890827179, 
        0.31086674332618713, 
        -0.5192639827728271, 
        0.5377548933029175, 
        -0.11839496344327927, 
        -0.28584328293800354, 
        0.5706223845481873, 
        0.3013154864311218, 
        -0.6716595888137817, 
        -0.4538072347640991, 
        -0.335340678691864, 
        0.6484141945838928, 
        0.4911040961742401, 
        -0.1673458069562912, 
        -0.033374130725860596, 
        0.8489832282066345, 
        -0.8506895303726196, 
        -0.19818629324436188, 
        -0.1848616600036621, 
        0.568742573261261, 
        -0.2962055802345276, 
        -0.26336386799812317, 
        0.022302396595478058, 
        0.5406545996665955, 
        0.576460063457489, 
        0.37907254695892334, 
        0.4678371846675873, 
        -0.10465241223573685, 
        0.5215147137641907, 
        0.3932413160800934, 
        0.058074984699487686, 
        -0.3807012736797333, 
        -0.21155470609664917, 
        0.1508859395980835, 
        -0.3434486389160156, 
        0.17020784318447113, 
        0.5326225161552429, 
        0.6980405449867249, 
        -0.3142158091068268, 
        -0.15064886212348938, 
        -0.0002736526948865503, 
        0.5233774781227112, 
        0.3164191246032715, 
        -0.1771261841058731, 
        0.6498368382453918, 
        0.20127356052398682, 
        -0.7197105288505554, 
        -0.9504815936088562, 
        -0.3045996427536011, 
        0.561554491519928, 
        -0.09872738271951675, 
        0.16420073807239532, 
        0.3066908121109009, 
        -0.431596964597702, 
        0.7868821024894714, 
        0.10121791809797287, 
        -0.23755796253681183, 
        0.45276251435279846, 
        -0.24604807794094086, 
        -0.21699845790863037, 
        0.25934985280036926, 
        0.557875394821167, 
        -0.8290156126022339, 
        0.33200201392173767, 
        0.36086711287498474, 
        0.110810287296772, 
        0.6828861236572266, 
        -0.08373656123876572, 
        -0.09467161446809769, 
        0.14172804355621338, 
        -0.26238951086997986, 
        -0.2322319895029068, 
        0.20880405604839325, 
        -0.5316097140312195, 
        0.589449405670166, 
        -0.019030604511499405, 
        -0.10218845307826996, 
        0.33547231554985046, 
        -0.35580915212631226, 
        0.017110131680965424, 
        -0.23757462203502655, 
        0.4993075430393219, 
        0.6549229025840759, 
        0.34074369072914124, 
        -0.9694206118583679, 
        0.5849853754043579, 
        0.3776702284812927, 
        -0.9933326244354248, 
        -0.02751733921468258, 
        0.5241785645484924, 
        -0.07900489121675491, 
        0.14105789363384247, 
        0.33002012968063354, 
        -0.3418620824813843, 
        0.07808135449886322, 
        0.11439011991024017, 
        0.6791191101074219, 
        -0.4164915978908539, 
        0.3432110548019409, 
        0.04391391575336456, 
        -1.043400526046753, 
        0.1258384883403778, 
        -0.2181561440229416, 
        1.027220606803894, 
        0.011905877850949764, 
        -0.2037443071603775, 
        -0.2706054449081421, 
        0.10874802619218826, 
        0.12390448898077011, 
        -0.3063034117221832, 
        0.3909359872341156, 
        -0.5433916449546814, 
        0.7645403742790222, 
        0.6873558163642883, 
        0.24503262341022491, 
        -0.021725047379732132, 
        -0.037544216960668564, 
        -0.3440229892730713, 
        0.5182520747184753, 
        0.586575984954834, 
        0.8119193911552429, 
        -0.23226989805698395, 
        -0.30541175603866577, 
        0.6849262714385986, 
        -0.6233407855033875, 
        -0.7144925594329834, 
        -0.2608369290828705, 
        0.6014838814735413, 
        0.547936737537384, 
        -0.4847067892551422, 
        -0.034257616847753525, 
        -0.024782679975032806, 
        -0.003676498541608453, 
        0.4243064224720001, 
        -0.3312869966030121, 
        -0.6041259765625, 
        -1.1842961311340332, 
        -0.6534476280212402, 
        -0.2267484962940216, 
        -0.3919411599636078, 
        0.6430267095565796, 
        -0.06071832403540611, 
        0.3563777208328247, 
        0.7168537378311157, 
        0.10487902909517288, 
        0.6188154220581055, 
        0.5632646083831787, 
        0.5751990675926208, 
        0.038374900817871094, 
        -0.3323639929294586, 
        -1.033120036125183, 
        -0.4770958125591278, 
        0.0906631276011467, 
        0.7545014023780823, 
        0.5024792551994324, 
        0.46602413058280945, 
        0.10189822316169739, 
        -0.07083640247583389, 
        -0.6911538243293762, 
        -0.1194353923201561, 
        -0.04791694134473801, 
        0.5834179520606995, 
        -0.38898637890815735, 
        0.45927801728248596, 
        0.04120509326457977, 
        0.3234507143497467, 
        -0.14378544688224792, 
        0.42402756214141846, 
        0.4695321023464203, 
        0.4458371102809906, 
        -0.32669851183891296, 
        0.2275923788547516, 
        -0.37101468443870544, 
        0.06123431771993637, 
        -0.6745143532752991, 
        -0.3765714466571808, 
        0.5116624236106873, 
        -0.5518808960914612, 
        -0.2291402667760849, 
        -0.21890796720981598, 
        -0.3815494179725647, 
        0.2848253548145294, 
        0.1457461714744568, 
        -0.16044332087039948, 
        -0.391206830739975, 
        0.2940192222595215, 
        0.2232370674610138, 
        -0.4211892783641815, 
        -0.1626506745815277, 
        0.18802352249622345, 
        0.6131182909011841, 
        0.3972061574459076, 
        -0.01689968630671501, 
        -0.6661071181297302, 
        0.21389400959014893, 
        0.15142327547073364, 
        -0.2494443953037262, 
        0.5027256608009338, 
        -0.07719837874174118, 
        -0.4399906396865845, 
        -0.1348961889743805, 
        0.07562947273254395, 
        0.009743764065206051, 
        0.6112089157104492, 
        0.41735634207725525, 
        0.07686799764633179, 
        0.749194860458374, 
        -0.41199877858161926, 
        -0.33364465832710266, 
        -0.2583812177181244, 
        -0.15574194490909576, 
        -0.2962157726287842, 
        0.09300084412097931, 
        0.07117012143135071, 
        -0.43459513783454895, 
        0.07158664613962173, 
        0.5835872292518616, 
        -0.7413550019264221, 
        -0.4053633511066437, 
        0.1505214422941208, 
        0.052726708352565765, 
        0.31367653608322144, 
        -0.26198631525039673, 
        -0.22623538970947266, 
        0.009335205890238285, 
        -0.18730442225933075, 
        -0.5137560367584229, 
        -0.8540967702865601, 
        -0.4689837098121643, 
        -0.1215369775891304, 
        -0.3249771296977997, 
        -0.08098265528678894, 
        0.4519537687301636, 
        -0.5921806693077087, 
        -0.4062066674232483, 
        -0.527245283126831, 
        0.7732645869255066, 
        -0.21846137940883636, 
        0.13287225365638733, 
        0.381817102432251, 
        -0.8607727289199829, 
        0.2368578463792801, 
        0.2307382971048355, 
        0.40151047706604004, 
        0.17782220244407654, 
        0.6457871794700623, 
        -0.32732462882995605, 
        0.10217194259166718, 
        0.41317927837371826, 
        0.7700459957122803, 
        -0.010289497673511505, 
        0.5484029054641724, 
        0.6743853688240051, 
        -0.6208497881889343, 
        0.22292640805244446, 
        0.05144080892205238, 
        -0.27316585183143616, 
        0.5593600869178772, 
        -0.028593799099326134, 
        0.3794900178909302, 
        0.2807002365589142, 
        -0.37305840849876404, 
        0.11123348027467728, 
        -0.42982304096221924, 
        -0.05632532760500908, 
        0.3095164895057678, 
        0.35084593296051025, 
        0.8318357467651367, 
        0.2571033835411072, 
        -0.4007464051246643, 
        -0.22179263830184937, 
        -0.5868360996246338, 
        -0.45783188939094543, 
        0.35076791048049927, 
        0.5802502632141113, 
        0.43378281593322754, 
        -0.2293500155210495, 
        -0.41644492745399475, 
        0.2353745698928833, 
        0.6701658368110657, 
        0.49601954221725464, 
        0.01719500869512558, 
        0.6657780408859253, 
        -0.36673080921173096, 
        -0.03644867613911629, 
        0.6365658044815063, 
        -0.4502706527709961, 
        0.42325812578201294, 
        0.32383695244789124, 
        0.4770958423614502, 
        0.4939766228199005, 
        0.5298601388931274, 
        0.21928761899471283, 
        -0.5599979758262634, 
        -0.14692242443561554, 
        0.5835786461830139, 
        -0.09455607831478119, 
        -0.1452718824148178, 
        0.7467359900474548, 
        0.11265956610441208, 
        1.0021960735321045, 
        -0.4766395390033722, 
        -0.4322449862957001, 
        0.11002754420042038, 
        0.018734361976385117, 
        0.086934395134449, 
        -0.3196827173233032, 
        0.5254331827163696, 
        0.14042779803276062, 
        -0.4089643061161041, 
        0.1475246697664261, 
        0.802560567855835, 
        -0.6424044370651245, 
        0.3802368640899658, 
        -0.1412694901227951, 
        0.23587046563625336, 
        0.22892995178699493, 
        -0.19811217486858368, 
        -0.06559955328702927, 
        -0.23321881890296936, 
        -0.82463139295578, 
        0.5847809910774231, 
        -0.4670889973640442, 
        0.29092171788215637, 
        0.21126826107501984, 
        -0.09457893669605255, 
        0.18068784475326538, 
        0.23963426053524017, 
        0.5279154181480408, 
        -0.8400720357894897, 
        0.9778823256492615, 
        -0.5392760038375854, 
        0.3525254726409912, 
        -0.23368769884109497, 
        0.4467387795448303, 
        -0.11624341458082199, 
        -0.19169016182422638, 
        0.47655344009399414, 
        0.13071312010288239, 
        0.0010009610559791327, 
        0.7604209184646606, 
        0.03961307555437088, 
        -0.6371167302131653, 
        0.1713232398033142, 
        0.3278235197067261, 
        -0.24062229692935944, 
        -0.1782812774181366, 
        0.22183522582054138, 
        0.35294780135154724, 
        -0.8163196444511414, 
        0.13914677500724792, 
        -0.6274215579032898, 
        0.06856229156255722, 
        0.07322883605957031, 
        0.32817792892456055, 
        -0.012421533465385437, 
        0.375637024641037, 
        0.17542868852615356, 
        0.1208803653717041, 
        0.21164168417453766, 
        0.40325936675071716, 
        -0.4159563481807709, 
        -0.1408066600561142, 
        0.3872523903846741, 
        -0.44742515683174133, 
        0.4972902536392212, 
        -0.4166698157787323, 
        0.35443446040153503, 
        0.6028689742088318, 
        0.09449867904186249, 
        -0.7184269428253174, 
        -0.5194336771965027, 
        0.1816146820783615, 
        0.09713762998580933, 
        -0.18171004951000214, 
        -0.5473611354827881, 
        0.14451292157173157, 
        0.7219457030296326, 
        -0.23777741193771362, 
        0.5772361755371094, 
        0.2994410991668701, 
        -0.4050220251083374, 
        0.0377928726375103, 
        -0.7904946804046631, 
        0.11266295611858368, 
        0.7970055937767029, 
        0.19004131853580475, 
        0.6889888644218445, 
        0.7526628375053406, 
        0.635985791683197, 
        0.2967221140861511, 
        -0.0647977814078331, 
        0.1916750818490982, 
        0.6070653796195984, 
        0.39363017678260803, 
        -0.021821029484272003, 
        -0.8855157494544983, 
        0.07248478382825851, 
        0.4900629222393036, 
        -0.023922238498926163, 
        -0.6280253529548645, 
        -0.39883941411972046, 
        0.3323517441749573, 
        -0.47732552886009216, 
        -0.07743088901042938, 
        0.3036009967327118, 
        -0.6188448071479797, 
        -0.06729834526777267, 
        0.19910377264022827, 
        0.27324378490448, 
        0.5925633311271667, 
        -0.09374788403511047, 
        0.5931902527809143, 
        0.5291924476623535, 
        -0.09060389548540115, 
        0.035035453736782074, 
        0.55303955078125, 
        0.8779575228691101, 
        0.48643746972084045, 
        0.5049495697021484, 
        -0.5124768614768982, 
        0.29967400431632996, 
        0.441568523645401, 
        -0.5912469625473022, 
        -0.24894097447395325, 
        -0.4486200213432312, 
        0.7512946128845215, 
        -0.49175578355789185, 
        -0.6863694190979004, 
        -0.0654742494225502, 
        -0.19814550876617432, 
        0.22655178606510162, 
        0.31590700149536133, 
        -0.4894006848335266, 
        -0.1347619742155075, 
        0.21996739506721497, 
        0.9741113185882568, 
        0.19061709940433502, 
        -0.23488059639930725, 
        0.3536880314350128, 
        0.4336426258087158, 
        -0.4589603841304779, 
        -0.17339569330215454, 
        -0.5184895992279053, 
        -0.3500620722770691, 
        -0.7364150285720825, 
        -0.3578513264656067, 
        -0.21622201800346375, 
        0.6841244697570801, 
        -0.6180573105812073, 
        1.0405100584030151, 
        -0.43645793199539185, 
        0.4903619885444641, 
        -0.9865168333053589, 
        0.3729630410671234, 
        -0.34375572204589844, 
        0.019077003002166748, 
        0.020789222791790962, 
        0.3910970687866211, 
        -0.01751241274178028, 
        -0.7236555814743042, 
        0.43123239278793335, 
        -0.6935606598854065, 
        -0.5708104968070984, 
        0.36089929938316345, 
        -0.4595721960067749, 
        0.03343971446156502, 
        0.2176257073879242, 
        0.17704226076602936, 
        0.17987200617790222, 
        -0.21499671041965485, 
        -0.39657559990882874, 
        -0.2915656268596649, 
        0.41688254475593567, 
        0.5530622005462646, 
        0.15088963508605957, 
        -0.10139848291873932, 
        -0.4411516487598419, 
        -0.32746198773384094, 
        0.003499053418636322, 
        -0.362571120262146, 
        -0.4637279510498047, 
        1.0609192848205566, 
        -0.07725510746240616, 
        0.4552876949310303, 
        0.18025138974189758, 
        -0.08357367664575577, 
        0.11080378293991089, 
        -0.7179357409477234, 
        0.13156349956989288, 
        0.21738030016422272, 
        -0.32121679186820984, 
        -0.6233900189399719, 
        -0.32846716046333313, 
        0.03025379404425621, 
        0.08599434047937393, 
        -0.879207968711853, 
        0.4094742238521576, 
        -0.3568651080131531, 
        0.47007471323013306, 
        -0.05583370849490166, 
        -0.10321065038442612, 
        -0.20162028074264526, 
        -0.3189948499202728, 
        0.4032897353172302, 
        -0.2006472647190094, 
        -0.43035948276519775, 
        -0.10446960479021072, 
        -0.4183719754219055, 
        -0.2952021360397339, 
        0.645417332649231, 
        0.02341196872293949, 
        -0.13053399324417114, 
        -0.5577458143234253, 
        0.600328803062439, 
        -0.3069274127483368, 
        0.05451873317360878, 
        0.287804514169693, 
        0.855592668056488, 
        -0.8521128296852112, 
        -0.1472732424736023, 
        0.46345195174217224, 
        -0.05326973274350166, 
        0.8164677023887634, 
        -0.23988263309001923, 
        -0.027651090174913406, 
        -0.5608993768692017, 
        0.6132941842079163, 
        -0.2136116474866867, 
        -0.5087060332298279, 
        -0.40133556723594666, 
        0.5077646374702454, 
        -0.08454418182373047, 
        -0.41857537627220154, 
        0.732048511505127, 
        -0.6011582612991333, 
        -0.7455949783325195, 
        0.2686847448348999, 
        0.6203028559684753, 
        0.5243692398071289, 
        0.4799908399581909, 
        0.2788058817386627, 
        0.7296422719955444, 
        0.5522211790084839, 
        -0.03686773031949997, 
        -0.37845703959465027, 
        0.2492506057024002, 
        0.2981506288051605, 
        -0.4753588140010834, 
        0.1367294192314148, 
        0.2697339951992035, 
        0.46981388330459595, 
        0.15951146185398102, 
        0.07168284803628922, 
        0.7335624694824219, 
        -0.7149831652641296, 
        0.420071005821228, 
        -0.5725471377372742, 
        0.6531670093536377, 
        -0.8983017802238464, 
        -0.9617350697517395, 
        0.4885425269603729, 
        0.5710941553115845, 
        0.5717831254005432, 
        -0.45859667658805847, 
        -0.30535608530044556, 
        -0.23246347904205322, 
        0.11173148453235626, 
        0.4322222173213959, 
        -0.3388082981109619, 
        0.45226573944091797, 
        -0.09729243814945221, 
        -0.556302011013031, 
        -0.12927572429180145, 
        0.016882598400115967, 
        -0.32459303736686707, 
        -0.4144623875617981, 
        0.12581607699394226, 
        -0.4139859080314636, 
        -0.2624416649341583, 
        -0.06019015982747078, 
        -0.34444019198417664, 
        0.37984171509742737, 
        -0.45710495114326477, 
        0.43229207396507263, 
        0.042700909078121185, 
        -0.9788997769355774, 
        -0.28921106457710266, 
        0.3871460556983948, 
        0.4471457898616791, 
        -0.45443230867385864, 
        -0.9089534282684326, 
        0.09460979700088501, 
        0.306364506483078, 
        0.31245195865631104, 
        0.2673848867416382, 
        0.24838775396347046, 
        0.1898999959230423, 
        -0.6816071271896362, 
        -0.5402623414993286, 
        0.11898377537727356, 
        0.016370456665754318, 
        0.22598014771938324, 
        -0.7738686800003052, 
        0.15597039461135864, 
        0.5673764944076538, 
        -0.25553157925605774, 
        -0.37358835339546204, 
        0.2865164577960968, 
        0.46405696868896484, 
        -0.6044778823852539, 
        0.0718768760561943, 
        0.44484201073646545, 
        -0.2674986720085144, 
        -0.31854119896888733, 
        -0.46245265007019043, 
        0.2818056643009186, 
        0.0903785228729248, 
        0.6379566192626953, 
        -0.05457949638366699, 
        0.6791132688522339, 
        -0.44516873359680176, 
        -0.39721977710723877, 
        -0.1459280252456665, 
        -0.7089806795120239, 
        0.6384195685386658, 
        0.25419723987579346, 
        -0.5432572960853577, 
        0.5307462215423584, 
        -0.639557421207428, 
        -0.3541712164878845, 
        -0.317391037940979, 
        -0.42535921931266785, 
        0.21024779975414276, 
        -0.16863854229450226, 
        -0.778658390045166, 
        -0.9444210529327393, 
        0.36902013421058655, 
        -0.333786278963089, 
        -0.3927655816078186, 
        -0.35048508644104004, 
        -0.303315669298172, 
        -0.25591617822647095, 
        -0.328824907541275, 
        0.7233656644821167, 
        -0.30451732873916626, 
        -0.28375518321990967, 
        -0.1241578683257103, 
        -0.6036707162857056, 
        0.386667937040329, 
        -0.013616034761071205, 
        -0.18586860597133636, 
        -0.2134370058774948, 
        -0.7138900756835938, 
        -0.06741590052843094, 
        0.03859495371580124, 
        -0.5678633451461792, 
        0.08983580023050308, 
        0.548938512802124, 
        -0.5519121289253235, 
        1.7821650505065918, 
        -0.08892699331045151, 
        0.8473300337791443, 
        -0.640823245048523, 
        0.6431669592857361, 
        -0.2730678915977478, 
        -0.5163756608963013, 
        0.530258297920227, 
        0.29631996154785156, 
        -0.4054163694381714, 
        0.552847146987915, 
        0.5177528262138367, 
        -0.6863765120506287, 
        -0.6800734400749207, 
        0.06656517833471298, 
        -0.27264153957366943, 
        -0.7809370160102844, 
        -0.06905821710824966, 
        -0.5683620572090149, 
        0.5422089099884033, 
        -0.520298421382904, 
        -0.03384179621934891, 
        -0.4958057403564453, 
        -0.48591339588165283, 
        -0.41346803307533264, 
        -0.5739793181419373, 
        -0.6629771590232849, 
        -0.5005851984024048, 
        0.5395989418029785, 
        0.3357882499694824, 
        -0.5204091668128967, 
        -0.35374143719673157, 
        -0.5375648736953735, 
        -0.22877390682697296, 
        0.4798680543899536, 
        -0.32276618480682373, 
        -0.22663529217243195, 
        -0.2554200291633606, 
        0.5593563318252563, 
        -0.5225032567977905, 
        0.5458065867424011, 
        -0.17445020377635956, 
        0.1520269811153412, 
        -0.8701922297477722, 
        0.09980934858322144, 
        0.5281234383583069, 
        -0.5454713106155396, 
        0.524028480052948, 
        0.5450206995010376, 
        0.6205469369888306, 
        -0.08866412192583084, 
        -0.3573446571826935, 
        -0.5511021018028259, 
        -0.15971696376800537, 
        0.15795612335205078, 
        0.09827233850955963, 
        -0.3635375201702118, 
        -0.12770244479179382, 
        0.4114219844341278, 
        -0.2769632637500763, 
        0.29649850726127625, 
        0.30885401368141174, 
        -0.8134205937385559, 
        0.6203017830848694, 
        0.6836686730384827, 
        -0.21091589331626892, 
        0.24405179917812347, 
        0.28990858793258667, 
        0.10766478627920151, 
        0.662272572517395, 
        0.4498632252216339, 
        0.002622691448777914, 
        0.3255181610584259, 
        0.09482531994581223, 
        0.018478376790881157, 
        -0.6394262909889221, 
        -0.13502651453018188, 
        -0.2761331796646118, 
        0.5972617268562317, 
        0.5460367202758789, 
        0.19509385526180267, 
        -0.15288884937763214, 
        0.3048633933067322, 
        -0.48554909229278564, 
        0.368434876203537, 
        0.584918737411499, 
        1.1980599164962769, 
        0.6665048599243164, 
        -0.02647787146270275, 
        0.3940728008747101, 
        0.5583010911941528, 
        0.25537919998168945, 
        -0.12986627221107483, 
        0.16407248377799988, 
        -0.7131840586662292, 
        0.46391862630844116, 
        0.564514696598053, 
        -0.38247615098953247, 
        0.22271385788917542, 
        0.48435667157173157, 
