{
  "input_sequences": [], 
  "inputs": [
    {
      "name": "node_0", 
      "variables": [
        {
          "name": "variable_0", 
          "offset": 0, 
          "scale": 1
        }, 
        {
          "name": "variable_1", 
          "offset": 0, 
          "scale": 1
        }, 
        {
          "name": "variable_2", 
          "offset": 0, 
          "scale": 1
        }, 
        {
          "name": "variable_3", 
          "offset": 0, 
          "scale": 1
        }, 
        {
          "name": "variable_4", 
          "offset": 0, 
          "scale": 1
        }, 
        {
          "name": "variable_5", 
          "offset": 0, 
          "scale": 1
        }, 
        {
          "name": "variable_6", 
          "offset": 0, 
          "scale": 1
        }, 
        {
          "name": "variable_7", 
          "offset": 0, 
          "scale": 1
        }, 
        {
          "name": "variable_8", 
          "offset": 0, 
          "scale": 1
        }, 
        {
          "name": "variable_9", 
          "offset": 0, 
          "scale": 1
        }
      ]
    }
  ], 
  "layers": [
    {
      "architecture": "normalization", 
      "bias": [
        -376524.1875, 
        -160119.40625, 
        -115117.4765625, 
        -2245.64990234375, 
        -2244.845703125, 
        -0.3121817111968994, 
        -10.913860321044922, 
        -8.372637748718262, 
        -0.1335834264755249, 
        -1.7294780015945435
      ], 
      "weights": [
        3.892339464073302e-06, 
        1.574904854351189e-05, 
        6.321172804746311e-06, 
        0.0002639188023749739, 
        0.0002550774079281837, 
        1.2519545555114746, 
        0.18889549374580383, 
        0.23841965198516846, 
        8.161805152893066, 
        1.4729868173599243
      ]
    }, 
    {
      "activation": "tanh", 
      "architecture": "dense", 
      "bias": [
        -0.11942124366760254, 
        -0.08471234142780304, 
        -0.0215055663138628, 
        0.08781713247299194, 
        -0.1520954668521881, 
        -0.018685301765799522, 
        0.053716208785772324, 
        -0.10385672003030777, 
        0.19740870594978333, 
        -0.11722737550735474, 
        0.016763227060437202, 
        -0.1253015249967575, 
        0.01928735338151455, 
        0.08061086386442184, 
        -0.04594073444604874, 
        -0.08905309438705444, 
        -0.007685740478336811, 
        0.04142266511917114, 
        0.013567927293479443, 
        0.21989481151103973, 
        -0.07733245939016342, 
        0.06853296607732773, 
        -0.05287507548928261, 
        -0.01016391534358263, 
        -0.10350704193115234, 
        -0.039849769324064255, 
        -0.1010933667421341, 
        0.07629050314426422, 
        -0.015967052429914474, 
        0.10749653726816177, 
        -0.11053460836410522, 
        0.20629610121250153, 
        0.010213442146778107, 
        0.056703075766563416, 
        0.05767855420708656, 
        -0.04460669308900833, 
        0.0767631009221077, 
        -0.0220775343477726, 
        0.09712164103984833, 
        0.06584451347589493, 
        -0.061558909714221954, 
        -0.054858770221471786, 
        0.0017917014192789793, 
        0.0874330922961235, 
        0.04226165637373924, 
        -0.06415627896785736, 
        -0.015623915940523148, 
        -0.06470556557178497, 
        0.0072565944865345955, 
        0.07804948836565018, 
        -0.12069922685623169, 
        -0.008319959975779057, 
        -0.04392281919717789, 
        0.04378993436694145, 
        0.023049594834446907, 
        0.11289989948272705, 
        0.08587748557329178, 
        0.019031092524528503, 
        0.07016082108020782, 
        0.04320374131202698, 
        -0.023257384076714516, 
        -0.09140969812870026, 
        0.04022567346692085, 
        -0.03944205492734909, 
        0.002650463255122304, 
        0.042814891785383224, 
        -0.15745487809181213, 
        0.09764730930328369, 
        -0.1410863995552063, 
        -0.05461525917053223, 
        0.03464246913790703, 
        -0.09537187218666077, 
        -0.04315955936908722, 
        -0.027143575251102448, 
        0.00593634694814682, 
        -0.09185381233692169, 
        0.06708125025033951, 
        0.044792938977479935, 
        -0.004962980281561613, 
        -0.0909585952758789, 
        0.021578485146164894, 
        0.12249226868152618, 
        -0.023693440482020378, 
        0.11933290958404541, 
        0.08089537173509598, 
        -0.15513451397418976, 
        -0.14014920592308044, 
        0.08842330425977707, 
        0.02920486032962799, 
        0.04717538505792618, 
        -0.041243910789489746, 
        -0.03433316573500633, 
        0.1044713631272316, 
        0.10259000211954117, 
        -0.11717525124549866, 
        0.08570114523172379, 
        0.0049752360209822655, 
        -0.0042864917777478695, 
        -0.09963846951723099, 
        0.0818113312125206, 
        -0.005217711441218853, 
        -0.010622270405292511, 
        -0.11391598731279373, 
        -0.14024528861045837, 
        -0.05569959059357643, 
        -0.11263987421989441, 
        0.09022831916809082, 
        -0.094626285135746, 
        0.0023493950720876455, 
        -0.0900464579463005, 
        0.01453350018709898, 
        0.03471575677394867, 
        -0.1586555540561676, 
        0.1091357097029686, 
        0.014666780829429626, 
        -0.008376802317798138, 
        -0.09690869599580765, 
        0.08814775943756104, 
        -0.06700465083122253, 
        0.008069969713687897, 
        -0.12726107239723206, 
        -0.04902473837137222, 
        0.05841745808720589, 
        -0.047388605773448944, 
        0.1406645029783249, 
        0.07806369662284851, 
        -0.011080906726419926, 
        -0.07581469416618347, 
        -0.08324965834617615, 
        -0.0874233990907669, 
        0.004034887999296188, 
        -0.08527076989412308, 
        0.03722873702645302, 
        -0.003229185938835144, 
        0.030104879289865494, 
        -0.11405064910650253, 
        -0.05282043665647507, 
        -0.0664975643157959, 
        -0.04635773226618767, 
        -0.018031369894742966, 
        -0.1116543710231781, 
        -0.06121262535452843, 
        0.04369819536805153, 
        0.07367249578237534, 
        0.10888586193323135, 
        -0.12017689645290375, 
        0.006483504548668861, 
        0.0737505555152893, 
        0.08296201378107071, 
        0.1234259381890297, 
        0.01619567722082138, 
        0.06293270736932755, 
        -0.09867842495441437, 
        0.003137987805530429, 
        0.032000668346881866, 
        0.08446134626865387, 
        0.09954649955034256, 
        -0.08332449942827225, 
        0.08227377384901047, 
        0.02246979810297489, 
        -0.008879492990672588, 
        0.1037731021642685, 
        0.10878919064998627, 
        -0.05674327164888382, 
        0.03497070446610451, 
        -0.10159055143594742, 
        0.06648090481758118, 
        0.1515345424413681, 
        -0.016741229221224785, 
        -0.012040353380143642, 
        0.04138588160276413, 
        0.01883738301694393, 
        0.12684917449951172, 
        -0.14116798341274261, 
        -0.07656235992908478, 
        0.03833915665745735, 
        -0.09340888261795044, 
        0.08209367841482162, 
        0.022181907668709755, 
        0.0767643079161644, 
        0.08654803782701492, 
        -0.22321702539920807, 
        0.15979857742786407, 
        0.07003771513700485, 
        -0.20386116206645966, 
        0.10994066298007965, 
        -0.042330287396907806, 
        -0.10282594710588455, 
        -0.07500391453504562, 
        0.03960973396897316, 
        0.11238665133714676, 
        0.07025634497404099, 
        0.1252477467060089, 
        0.11504451185464859, 
        -0.017374180257320404, 
        0.034142132848501205, 
        0.127841979265213, 
        -0.009241416119039059, 
        -0.023491835221648216, 
        -0.06906571239233017, 
        0.06251085549592972, 
        -0.013585069216787815, 
        -0.07341829687356949, 
        0.007897880859673023, 
        0.18160101771354675, 
        0.12132758647203445, 
        0.11204733699560165, 
        -0.01828695274889469, 
        0.05215590074658394, 
        -0.02807266265153885, 
        -0.05051815137267113, 
        0.09387239813804626, 
        0.022053033113479614, 
        -0.04964457079768181, 
        0.05728038027882576, 
        -0.1020529568195343, 
        0.11273721605539322, 
        0.01610461249947548, 
        -0.1554805040359497, 
        -0.18868394196033478, 
        0.04181842878460884, 
        0.05865313857793808, 
        -0.06284068524837494, 
        0.07968253642320633, 
        0.05272503197193146, 
        -0.032063134014606476, 
        -0.023851031437516212, 
        0.19151166081428528, 
        0.117280974984169, 
        0.14620426297187805, 
        0.02503027208149433, 
        -0.07394281774759293, 
        0.008501313626766205, 
        -0.1393386572599411, 
        0.007224473636597395, 
        -0.07498698681592941, 
        -0.1256938874721527, 
        0.07324572652578354, 
        0.16958758234977722, 
        -0.006417942699044943, 
        0.10118375718593597, 
        -0.0517219714820385, 
        0.06451252847909927, 
        0.05269041657447815, 
        0.07242739200592041, 
        -0.11980332434177399, 
        0.03847970440983772, 
        -0.01592879928648472, 
        -0.15323351323604584, 
        -0.027936996892094612, 
        -0.03864363953471184, 
        0.05609264597296715, 
        -0.1253112107515335, 
        -0.19804951548576355, 
        0.06414059549570084, 
        -0.017602071166038513, 
        0.0063005113042891026, 
        -0.01262662373483181, 
        0.04779645800590515, 
        0.16536292433738708, 
        0.0591532364487648, 
        0.011179869994521141, 
        -0.09523716568946838, 
        0.07045400887727737, 
        -0.061101775616407394, 
        -0.06814101338386536, 
        0.007450589444488287, 
        -0.16905875504016876, 
        0.054036401212215424, 
        -0.028811978176236153, 
        0.06093777343630791, 
        -0.09522651880979538, 
        -0.20544679462909698, 
        -0.07116599380970001, 
        -0.10174492746591568, 
        0.07576942443847656, 
        -0.17048200964927673, 
        -0.051196034997701645, 
        0.15019235014915466, 
        0.22034092247486115, 
        0.007902052253484726, 
        0.22195182740688324, 
        0.027018483728170395, 
        0.10161971300840378, 
        0.06753566116094589, 
        -0.011870206333696842, 
        0.00460101617500186, 
        0.02584146149456501, 
        0.05771631747484207, 
        0.014173738658428192, 
        0.09307205677032471, 
        -0.002142708981409669, 
        -0.03210325539112091, 
        -0.04915137588977814, 
        -0.051596321165561676, 
        -0.1753719300031662, 
        0.048917267471551895, 
        -0.1582709103822708, 
        0.05968193709850311, 
        0.09443219006061554, 
        -0.1311567723751068, 
        0.07146019488573074, 
        -0.08159489929676056, 
        0.14503979682922363, 
        -0.10204283893108368, 
        -0.0856231153011322, 
        0.07934834808111191, 
        0.13942614197731018, 
        0.017330510541796684, 
        0.024394117295742035, 
        0.02999444305896759, 
        0.1680290400981903, 
        -0.032085973769426346, 
        0.08031515777111053, 
        -0.07212289422750473, 
        0.137396439909935, 
        0.10180076211690903, 
        0.10362070053815842, 
        -0.030918024480342865, 
        0.06851159781217575, 
        0.08106417208909988, 
        0.04019983857870102, 
        0.026660025119781494, 
        0.04349815472960472, 
        -0.06654185056686401, 
        -0.13816304504871368, 
        0.06227419897913933, 
        -0.03804774582386017, 
        -0.15767113864421844, 
        0.06770464032888412, 
        -0.13599349558353424, 
        0.045789480209350586, 
        -0.021701719611883163, 
        0.10473234206438065, 
        0.03890497237443924, 
        -0.06758087873458862, 
        0.1326635479927063, 
        -0.021321063861250877, 
        -0.03677215427160263, 
        -0.11646080762147903, 
        -3.926135832443833e-06, 
        0.12260110676288605, 
        -0.2191961258649826, 
        -0.04747918248176575, 
        0.059720251709222794, 
        -0.08870484679937363, 
        0.136022686958313, 
        -0.08928673714399338, 
        0.03235107287764549, 
        0.09079919755458832, 
        -0.06451508402824402, 
        -0.04062967002391815, 
        0.0049700746312737465, 
        -0.002404547296464443, 
        -0.054894641041755676, 
        -0.03501641005277634, 
        -0.0930461511015892, 
        -0.13692720234394073, 
        0.035770490765571594, 
        -0.11953480541706085, 
        -0.058226387947797775, 
        -0.08873895555734634, 
        0.07656222581863403, 
        0.09155458211898804, 
        -0.07637964189052582, 
        0.03272221237421036, 
        -0.011998482048511505, 
        -0.04284865781664848, 
        -0.050840482115745544, 
        -0.18480786681175232, 
        0.05805518478155136, 
        0.0790480375289917, 
        0.13783113658428192, 
        0.12874828279018402, 
        0.009034648537635803, 
        0.1276344358921051, 
        0.07681450247764587, 
        0.05962834507226944, 
        0.016643812879920006, 
        0.2822643518447876, 
        -0.016960384324193, 
        0.02833583764731884, 
        -0.049996718764305115, 
        0.03182332590222359, 
        0.06478998810052872, 
        0.07584819197654724, 
        0.03030373901128769, 
        0.05404951423406601, 
        0.04755634441971779, 
        0.0724509134888649, 
        0.09873300790786743, 
        0.03070678934454918, 
        -0.050125181674957275, 
        -0.09080751240253448, 
        -0.15324123203754425, 
        0.1273403763771057, 
        0.15272657573223114, 
        0.010076796635985374, 
        -0.0010060743661597371, 
        0.05363805592060089, 
        -0.004553753882646561, 
        0.09391240775585175, 
        0.0394873172044754, 
        -0.12938831746578217, 
        0.08232582360506058, 
        -0.0352834090590477, 
        -0.07937464863061905, 
        0.007955129258334637, 
        -0.050763681530952454, 
        0.07267540693283081, 
        -0.1518690586090088, 
        0.1044800654053688, 
        -0.07914672046899796, 
        0.09506476670503616, 
        0.10837619006633759, 
        0.0935061052441597, 
        -0.1803928017616272, 
        0.019010746851563454, 
        -0.005488119088113308, 
        0.11122224479913712, 
        -0.031461410224437714, 
        -0.04943593218922615, 
        -0.011215651407837868, 
        0.07996248453855515, 
        0.018251238390803337, 
        -0.04019414633512497, 
        -0.07481909543275833, 
        -0.14950031042099, 
        0.089842289686203, 
        -0.06932780891656876, 
        0.047841571271419525, 
        0.06965003162622452, 
        0.0274175014346838, 
        0.16524071991443634, 
        -0.02894100733101368, 
        0.017173713073134422, 
        0.04162758216261864, 
        -0.18803387880325317, 
        0.1557563841342926, 
        -0.0868808701634407, 
        0.029022205621004105, 
        0.07486192882061005, 
        0.06029396876692772, 
        -0.006566355004906654, 
        -0.08848410844802856, 
        -0.1495380699634552, 
        -0.06624312698841095, 
        0.11988114565610886, 
        -0.07039809972047806, 
        0.023960115388035774, 
        0.04375053942203522, 
        -0.003241561818867922, 
        0.08484573662281036, 
        0.14065690338611603, 
        -0.0001118466752814129, 
        -0.028233757242560387, 
        0.09638912975788116, 
        0.1612665355205536, 
        0.10292958468198776, 
        0.07286618649959564, 
        0.16379503905773163, 
        -0.04546777531504631, 
        0.07130914181470871, 
        0.034173086285591125, 
        -0.06613335758447647, 
        -0.04396938532590866, 
        -0.09869109094142914, 
        0.10331125557422638, 
        -0.019959183409810066, 
        -0.0844988152384758, 
        0.07787507027387619, 
        0.055294182151556015, 
        0.1424618661403656, 
        -0.1383017897605896, 
        0.03750200569629669, 
        -0.06890604645013809, 
        -0.015481071546673775, 
        0.08695074170827866, 
        -0.0782838761806488, 
        0.04225318878889084, 
        -0.0755595788359642, 
        0.039721615612506866, 
        0.1022067666053772, 
        0.014004888944327831, 
        0.04976484924554825, 
        -0.07402641326189041, 
        0.08568616211414337, 
        0.20827718079090118, 
        -0.06958992779254913, 
        0.0010400105966255069, 
        -0.10764532536268234, 
        0.05234649404883385, 
        -0.04660496860742569, 
        -0.0658215656876564, 
        0.08841408789157867, 
        -0.01874214969575405, 
        0.12349892407655716, 
        0.11371718347072601, 
        0.019942330196499825, 
        0.18174241483211517, 
        -0.1418783962726593, 
        -0.04164563864469528, 
        0.048635825514793396, 
        0.031933609396219254, 
        -0.06772979348897934, 
        -0.14592471718788147, 
        -0.03957126662135124, 
        -0.11432512104511261, 
        -0.02525913715362549, 
        0.14005868136882782, 
        0.00827062502503395, 
        0.02454725094139576
      ], 
      "weights": [
        0.08560241013765335, 
        -0.11797917634248734, 
        0.07885181158781052, 
        0.10014953464269638, 
        -0.08962804079055786, 
        -0.7617834806442261, 
        0.6367323994636536, 
        -0.7096673846244812, 
        -0.34180280566215515, 
        0.17656920850276947, 
        0.2929924726486206, 
        -0.00024573312839493155, 
        -0.24684344232082367, 
        0.21281595528125763, 
        -0.17690500617027283, 
        -0.1663285791873932, 
        -0.6310200691223145, 
        -0.16083760559558868, 
        0.37027496099472046, 
        -0.3956546485424042, 
        -0.7227774262428284, 
        0.005028531886637211, 
        -0.1881793737411499, 
        0.1411997228860855, 
        0.3849906325340271, 
        -0.08868080377578735, 
        0.1904429942369461, 
        -0.5919326543807983, 
        -0.3305427134037018, 
        0.27994272112846375, 
        -0.4713975787162781, 
        -0.09826918691396713, 
        -0.2578795552253723, 
        -0.7059023976325989, 
        -0.16173028945922852, 
        -0.05430082604289055, 
        0.707301914691925, 
        0.09346821159124374, 
        0.41200533509254456, 
        0.4585653841495514, 
        0.03618359938263893, 
        0.19900238513946533, 
        -0.261816143989563, 
        0.2592886686325073, 
        -0.03595202788710594, 
        0.3982559144496918, 
        -0.7566709518432617, 
        -0.2257167398929596, 
        -0.5593516230583191, 
        0.135533407330513, 
        0.19581414759159088, 
        -0.25760310888290405, 
        0.6319882869720459, 
        -0.39101338386535645, 
        0.3111046850681305, 
        0.3255159854888916, 
        -0.08496976643800735, 
        0.07310459762811661, 
        0.8134995102882385, 
        0.665806770324707, 
        -0.417357474565506, 
        0.3031342923641205, 
        -0.3150082230567932, 
        -0.20794275403022766, 
        0.3718840777873993, 
        -0.5104472637176514, 
        -0.13517452776432037, 
        -0.33207565546035767, 
        -0.2833084464073181, 
        0.04494559392333031, 
        0.2800484299659729, 
        -0.5226811170578003, 
        0.09649287164211273, 
        -0.31270208954811096, 
        -0.6109887957572937, 
        0.3172887861728668, 
        0.2174438238143921, 
        0.2394493669271469, 
        0.2990599274635315, 
        -0.8563123345375061, 
        0.31604933738708496, 
        -0.4024379253387451, 
        -0.7106227278709412, 
        -0.13963216543197632, 
        -0.35626572370529175, 
        0.15951712429523468, 
        -0.03285753354430199, 
        -0.05182899162173271, 
        -0.47948142886161804, 
        0.5105245113372803, 
        0.6910455226898193, 
        -0.2878234386444092, 
        -0.17652994394302368, 
        0.2948407828807831, 
        -0.5299453735351562, 
        0.12928836047649384, 
        0.2709328234195709, 
        0.6349510550498962, 
        -0.653478741645813, 
        0.327102392911911, 
        0.14621402323246002, 
        -0.004457375966012478, 
        0.6876923441886902, 
        0.21761642396450043, 
        -0.17966380715370178, 
        0.4788755476474762, 
        -0.7389541864395142, 
        0.03028600849211216, 
        -0.13234451413154602, 
        0.5846880674362183, 
        0.35762760043144226, 
        -0.25751543045043945, 
        0.12029827386140823, 
        0.07665596902370453, 
        -0.1623142808675766, 
        0.4923250377178192, 
        0.4655908942222595, 
        -0.3294937014579773, 
        -0.37123531103134155, 
        0.30257442593574524, 
        0.328103244304657, 
        -0.04104769229888916, 
        0.23433415591716766, 
        -0.5839690566062927, 
        0.3208382725715637, 
        -0.6128047108650208, 
        0.5440634489059448, 
        0.7004356980323792, 
        0.78423011302948, 
        0.8596023917198181, 
        0.3306902348995209, 
        -0.21635335683822632, 
        -0.1248212531208992, 
        -0.8110575675964355, 
        -0.6981781721115112, 
        0.07185563445091248, 
        0.28459325432777405, 
        -0.8014862537384033, 
        0.6955229043960571, 
        -0.6458449363708496, 
        0.5531123876571655, 
        -0.3466433882713318, 
        0.1944512575864792, 
        -0.09448212385177612, 
        -0.14603696763515472, 
        -0.7391610741615295, 
        0.422005295753479, 
        0.005022324621677399, 
        -0.11835825443267822, 
        -0.1238161027431488, 
        -0.42317822575569153, 
        0.5652644634246826, 
        -0.2738000750541687, 
        0.18248938024044037, 
        -0.5980985760688782, 
        0.35413622856140137, 
        -0.43349960446357727, 
        0.15594501793384552, 
        0.17487077414989471, 
        -0.5651224255561829, 
        -0.7172781825065613, 
        -0.4345420002937317, 
        -0.14646287262439728, 
        -0.503463089466095, 
        0.7033231258392334, 
        -0.5234903693199158, 
        -0.17495481669902802, 
        0.44706758856773376, 
        -0.3248128592967987, 
        0.28180453181266785, 
        0.05760262534022331, 
        0.4515393078327179, 
        0.6722208857536316, 
        0.04879182577133179, 
        0.5164296627044678, 
        -0.18101443350315094, 
        0.07092225551605225, 
        0.12102449685335159, 
        -0.5523334741592407, 
        -0.22988328337669373, 
        0.010245000012218952, 
        0.672626793384552, 
        -0.5133207440376282, 
        -0.10077548027038574, 
        0.5564396381378174, 
        0.16409167647361755, 
        0.26036337018013, 
        0.4552847743034363, 
        0.7369240522384644, 
        -0.7225852608680725, 
        0.40290868282318115, 
        -0.42667272686958313, 
        -0.24701295793056488, 
        0.033096492290496826, 
        0.2602076530456543, 
        -0.39522069692611694, 
        -0.29271990060806274, 
        -0.029907144606113434, 
        -0.731766402721405, 
        0.22576700150966644, 
        -0.1619592308998108, 
        0.6548539996147156, 
        0.14292219281196594, 
        -0.3730679452419281, 
        -0.07675014436244965, 
        -0.2168959528207779, 
        -0.0068580652587115765, 
        0.0518445186316967, 
        -0.5030720233917236, 
        0.36285555362701416, 
        -0.44919246435165405, 
        -0.4674428701400757, 
        -0.3375701308250427, 
        0.0555795356631279, 
        0.6837577223777771, 
        0.7236340045928955, 
        -0.658153235912323, 
        0.21834257245063782, 
        -0.6899439692497253, 
        -0.4319942593574524, 
        -0.3109148442745209, 
        -0.16692893207073212, 
        0.10301445424556732, 
        0.46972525119781494, 
        0.40434518456459045, 
        -0.2972111701965332, 
        0.061628442257642746, 
        -0.07542441785335541, 
        0.5338518023490906, 
        -0.08762667328119278, 
        -0.6711116433143616, 
        -0.045942772179841995, 
        0.002138074953109026, 
        0.3014402389526367, 
        -0.146895170211792, 
        0.0832040011882782, 
        -0.33782246708869934, 
        0.11883911490440369, 
        0.2690521776676178, 
        0.5916985273361206, 
        -0.3263247311115265, 
        0.11003126204013824, 
        0.23295722901821136, 
        0.6940080523490906, 
        0.7132343053817749, 
        0.2749723196029663, 
        0.583628237247467, 
        -0.13092519342899323, 
        -0.5331572890281677, 
        0.332052081823349, 
        0.5168333649635315, 
        0.06774799525737762, 
        0.38670891523361206, 
        0.15271541476249695, 
        0.7972733378410339, 
        0.2364572435617447, 
        -0.42865878343582153, 
        -0.15375836193561554, 
        0.19200360774993896, 
        -0.6502619981765747, 
        0.664842426776886, 
        0.07701616734266281, 
        -0.3772282004356384, 
        -0.22144828736782074, 
        -0.37774717807769775, 
        -0.436923086643219, 
        -0.5861996412277222, 
        0.7248702049255371, 
        -0.6438469886779785, 
        0.49515601992607117, 
        -0.20271094143390656, 
        0.057487379759550095, 
        0.015811851248145103, 
        0.2365271896123886, 
        -0.4853413999080658, 
        -0.09469754248857498, 
        0.3588449954986572, 
        0.7833649516105652, 
        0.21351975202560425, 
        0.6164006590843201, 
        -0.5955687165260315, 
        0.09652409702539444, 
        0.2486247718334198, 
        0.5848998427391052, 
        -0.20582368969917297, 
        0.006223001983016729, 
        -0.4508814513683319, 
        -0.3345646858215332, 
        -0.059958525002002716, 
        0.5269899964332581, 
        -0.15997613966464996, 
        0.7663406729698181, 
        -0.4853130280971527, 
        -0.5626393556594849, 
        -0.4497641324996948, 
        -0.560408353805542, 
        0.3545821011066437, 
        0.30378812551498413, 
        -0.17803984880447388, 
        0.5916931629180908, 
        0.6591303944587708, 
        0.09050721675157547, 
        -0.3597433567047119, 
        -0.0984749048948288, 
        0.19548048079013824, 
        0.3993721604347229, 
        0.5359535217285156, 
        0.2950853109359741, 
        -0.4210767447948456, 
        -0.25594180822372437, 
        -0.8550496697425842, 
        -0.19781218469142914, 
        0.31171661615371704, 
        0.7218981981277466, 
        -0.6176943778991699, 
        0.01327616348862648, 
        0.5467689037322998, 
        0.47107481956481934, 
        0.6307846307754517, 
        -0.18573518097400665, 
        0.3919883668422699, 
        0.1337490826845169, 
        0.6015197038650513, 
        0.33207443356513977, 
        -0.22418618202209473, 
        0.6688933968544006, 
        -0.33553534746170044, 
        0.3716876804828644, 
        -0.03423510491847992, 
        0.7180538773536682, 
        0.021280471235513687, 
        0.6170274019241333, 
        -0.09069278836250305, 
        -0.614518940448761, 
        -0.5818325281143188, 
        -0.11098483204841614, 
        -0.0915798544883728, 
        0.13232067227363586, 
        -0.6825821995735168, 
        0.5966665744781494, 
        -0.4214121103286743, 
        -0.6177110075950623, 
        0.5194981694221497, 
        0.683870255947113, 
        -0.0813688412308693, 
        0.2872323989868164, 
        0.03493894636631012, 
        -0.6927424669265747, 
        0.600604772567749, 
        0.2311197817325592, 
        0.24761918187141418, 
        0.12481775879859924, 
        -0.08936522901058197, 
        0.7128467559814453, 
        0.41535842418670654, 
        0.5219975113868713, 
        -0.12102895230054855, 
        0.261694997549057, 
        0.19492881000041962, 
        -0.6785542964935303, 
        0.04750385135412216, 
        -0.47528061270713806, 
        0.32052573561668396, 
        -0.5063666105270386, 
        0.12622977793216705, 
        -0.6462670564651489, 
        -0.5954737663269043, 
        0.5054404735565186, 
        0.39128607511520386, 
        -0.3923323154449463, 
        -0.7357500791549683, 
        -0.747463047504425, 
        0.36015552282333374, 
        0.6598914265632629, 
        0.4148528277873993, 
        0.18176160752773285, 
        -0.6774752736091614, 
        -0.4730193316936493, 
        0.7358824610710144, 
        0.41762569546699524, 
        -0.7915571928024292, 
        -0.2953413724899292, 
        0.5572898983955383, 
        0.3969912528991699, 
        -0.36855989694595337, 
        0.36971616744995117, 
        0.5663710236549377, 
        0.2094573825597763, 
        -0.046476416289806366, 
        -0.556197464466095, 
        0.16285258531570435, 
        0.30493906140327454, 
        -0.034153930842876434, 
        0.0813276469707489, 
        -0.5780947208404541, 
        0.7440813183784485, 
        0.29106053709983826, 
        0.20137830078601837, 
        -0.5890710353851318, 
        0.7350642085075378, 
        -0.21049542725086212, 
        -0.6912447810173035, 
        0.34195759892463684, 
        -0.22674164175987244, 
        -0.3300821781158447, 
        0.5619621872901917, 
        0.6646758913993835, 
        -0.6623699069023132, 
        -0.40254226326942444, 
        0.5461437106132507, 
        -0.34341537952423096, 
        -0.11317726969718933, 
        0.07725925743579865, 
        0.2087523341178894, 
        -0.21875135600566864, 
        0.503618597984314, 
        0.572087287902832, 
        0.15410186350345612, 
        -0.30223697423934937, 
        -0.6193529367446899, 
        -0.049658503383398056, 
        0.6992000341415405, 
        0.2483540177345276, 
        0.5704168081283569, 
        0.4307815134525299, 
        0.11945141106843948, 
        0.5712535977363586, 
        -0.14834028482437134, 
        -0.6462616920471191, 
        -0.6192651391029358, 
        0.4935357868671417, 
        -0.38576480746269226, 
        0.8295723795890808, 
        0.7813900709152222, 
        -0.43982523679733276, 
        -0.1274619996547699, 
        -0.7002143859863281, 
        -0.4928615689277649, 
        0.6550276279449463, 
        0.20125466585159302, 
        0.3062017261981964, 
        -0.18914557993412018, 
        -0.1721954047679901, 
        0.6181809306144714, 
        -0.1487971991300583, 
        -0.4067860245704651, 
        0.033118847757577896, 
        0.3134912848472595, 
        0.13656748831272125, 
        0.7104795575141907, 
        0.20603413879871368, 
        0.7268441319465637, 
        0.49511638283729553, 
        0.5606796741485596, 
        0.5567234754562378, 
        -0.18753527104854584, 
        -0.4518967270851135, 
        0.14677798748016357, 
        -0.5812088251113892, 
        0.3070599436759949, 
        0.2106546014547348, 
        0.7512685060501099, 
        0.6469829678535461, 
        -0.31072959303855896, 
        -0.6378772258758545, 
        -0.27810442447662354, 
        0.2375638335943222, 
        -0.4253339171409607, 
        -0.5437444448471069, 
        -0.5618156790733337, 
        -0.15541696548461914, 
        0.6632957458496094, 
        0.5135555863380432, 
        0.31409117579460144, 
        0.26590001583099365, 
        0.01426952239125967, 
        -0.4280581772327423, 
        -0.42474138736724854, 
        -0.038446180522441864, 
        0.3349425196647644, 
        0.6282449960708618, 
        0.44099628925323486, 
        -0.29868704080581665, 
        0.45452168583869934, 
        -0.5223831534385681, 
        0.4207516610622406, 
        -0.17112694680690765, 
        0.20482945442199707, 
        0.36747613549232483, 
        -0.5076985955238342, 
        0.6173660159111023, 
        0.1031266376376152, 
        0.024686479941010475, 
        0.07620168477296829, 
        -0.08376976102590561, 
        -0.7374464869499207, 
        0.8561142683029175, 
        -0.6336379051208496, 
        -0.11519882082939148, 
        -0.08783727884292603, 
        -0.6740664839744568, 
        -0.1336875855922699, 
        0.0612519308924675, 
        0.5965314507484436, 
        -0.12540364265441895, 
        0.7325496673583984, 
        0.5651311874389648, 
        0.25484174489974976, 
        0.45413199067115784, 
        0.18188662827014923, 
        0.22377564013004303, 
        0.14256179332733154, 
        0.1724003255367279, 
        0.40373852849006653, 
        -0.27426210045814514, 
        -0.29735490679740906, 
        0.7972067594528198, 
        -0.22647802531719208, 
        -0.5364179611206055, 
        -0.6708543300628662, 
        0.32458770275115967, 
        0.21156887710094452, 
        -0.2956734895706177, 
        -0.7095051407814026, 
        0.02778942883014679, 
        -0.14847606420516968, 
        0.5209840536117554, 
        0.7862807512283325, 
        0.06375280022621155, 
        0.007045363076031208, 
        0.30341872572898865, 
        0.4656943082809448, 
        -0.18298174440860748, 
        -0.1099906712770462, 
        -0.7388160228729248, 
        0.4672280251979828, 
        -0.171233668923378, 
        -0.15968361496925354, 
        -0.4844691753387451, 
        0.583591878414154, 
        0.5581139922142029, 
        0.6343254446983337, 
        -0.6909072399139404, 
        -0.6651479005813599, 
        0.03168362379074097, 
        0.5215753316879272, 
        -0.5339816212654114, 
        -0.6786468029022217, 
        0.5738052129745483, 
        0.6468926072120667, 
        -0.3322911560535431, 
        0.5871285200119019, 
        -0.29399871826171875, 
        -0.15406513214111328, 
        -0.13679847121238708, 
        0.11030469089746475, 
        0.4961177706718445, 
        -0.6267302632331848, 
        -0.7748360633850098, 
        0.49074694514274597, 
        0.648880660533905, 
        -0.3378225862979889, 
        0.28808560967445374, 
        0.22500696778297424, 
        -0.7020480036735535, 
        0.6359004378318787, 
        -0.23763352632522583, 
        -0.45248010754585266, 
        -0.48559853434562683, 
        -0.3070620000362396, 
        0.3940891921520233, 
        0.09409282356500626, 
        -0.382856547832489, 
        0.36357155442237854, 
        0.19548960030078888, 
        -0.616756796836853, 
        0.2663246691226959, 
        -0.2135099321603775, 
        0.887840986251831, 
        -0.26712149381637573, 
        0.0883704423904419, 
        0.676468551158905, 
        0.5362948775291443, 
        -0.07465566694736481, 
        0.4069972038269043, 
        -0.09406226128339767, 
        -0.11052671819925308, 
        0.3933597207069397, 
        -0.4140685498714447, 
        -0.6963624954223633, 
        -0.3551194369792938, 
        -0.7467224597930908, 
        0.4208308458328247, 
        -0.33522236347198486, 
        0.13839523494243622, 
        0.43811795115470886, 
        -0.7305538654327393, 
        0.31349149346351624, 
        -0.7002105116844177, 
        0.417411208152771, 
        0.28427767753601074, 
        0.39313027262687683, 
        0.3298635184764862, 
        0.30345138907432556, 
        -0.7534008026123047, 
        0.5765037536621094, 
        -0.6048952341079712, 
        -0.7383099794387817, 
        0.01786743849515915, 
        -0.4042823314666748, 
        0.7121708989143372, 
        0.2997492849826813, 
        -0.8176820874214172, 
        -0.26319584250450134, 
        0.012754793278872967, 
        -0.27273115515708923, 
        -0.2100399136543274, 
        0.44696664810180664, 
        -0.4835693836212158, 
        0.0031727608293294907, 
        0.4171614944934845, 
        -0.2586248815059662, 
        0.4437674582004547, 
        -0.16930678486824036, 
        -0.6913629174232483, 
        0.39997777342796326, 
        -0.4441024363040924, 
        0.6753793954849243, 
        -0.2472863495349884, 
        -0.39850708842277527, 
        -0.12359121441841125, 
        0.07494055479764938, 
        0.4408343434333801, 
        0.9136835336685181, 
        0.537257730960846, 
        -0.03217032924294472, 
        0.028184736147522926, 
        0.5817475318908691, 
        0.4085886478424072, 
        -0.22995953261852264, 
        0.40702131390571594, 
        0.11572321504354477, 
        -0.4548906683921814, 
        -0.5388180613517761, 
        0.09442510455846786, 
        0.6256462931632996, 
        -0.32544511556625366, 
        -0.05958306044340134, 
        0.22902651131153107, 
        -0.6773850321769714, 
        -0.6855595111846924, 
        -0.3086593747138977, 
        -0.023567870259284973, 
        -0.30378618836402893, 
        -0.3125583231449127, 
        0.20091703534126282, 
        -0.7012473940849304, 
        0.5402714014053345, 
        -0.41247254610061646, 
        0.2117588371038437, 
        -0.5017956495285034, 
        -0.029066255316138268, 
        0.18209974467754364, 
        0.38928672671318054, 
        -0.4028439223766327, 
        -0.5985862612724304, 
        -0.017604291439056396, 
        -0.00920038390904665, 
        0.7589952349662781, 
        0.5022690892219543, 
        -0.3953692615032196, 
        -0.6026689410209656, 
        0.26185083389282227, 
        -0.5211125016212463, 
        0.6473292708396912, 
        -0.11314386874437332, 
        -0.4910317361354828, 
        0.5110539197921753, 
        0.4712597131729126, 
        0.11347184330224991, 
        -0.277782142162323, 
        0.6599442362785339, 
        0.4743357300758362, 
        -0.05390530452132225, 
        -0.4969131648540497, 
        -0.8126567602157593, 
        -0.436456561088562, 
        0.23791354894638062, 
        0.4913841784000397, 
        -0.38452789187431335, 
        -0.542323648929596, 
        -0.26277393102645874, 
        0.47758254408836365, 
        0.45514142513275146, 
        0.33335641026496887, 
        -0.13145554065704346, 
        0.27731841802597046, 
        -0.48384082317352295, 
        -0.09545958787202835, 
        -0.14710304141044617, 
        0.72135329246521, 
        -0.4858764708042145, 
        0.6779394745826721, 
        -0.4447009563446045, 
        -0.6021436452865601, 
        -0.453591912984848, 
        -0.36600446701049805, 
        -0.4898914396762848, 
        -0.13758935034275055, 
        -0.028709949925541878, 
        -0.10690309852361679, 
        0.3375452160835266, 
        -0.2865365147590637, 
        -0.30231449007987976, 
        -0.2198789119720459, 
        -0.7747918963432312, 
        -0.7298189997673035, 
        -0.14654232561588287, 
        0.26861000061035156, 
        -0.5248399972915649, 
        -0.18938590586185455, 
        -0.10129433870315552, 
        -0.1740289032459259, 
        -0.44429126381874084, 
        0.1528538316488266, 
        0.15965169668197632, 
        0.583722710609436, 
        0.32090339064598083, 
        -0.03960780054330826, 
        -0.5678162574768066, 
        -0.4993413984775543, 
        -0.19119277596473694, 
        -0.3433031439781189, 
        -0.5787527561187744, 
        -0.26273584365844727, 
        0.6341471076011658, 
        0.542279064655304, 
        -0.6076033711433411, 
        0.5632643699645996, 
        -0.26072371006011963, 
        0.6671797633171082, 
        -0.7975408434867859, 
        0.7858391404151917, 
        0.37596631050109863, 
        -0.17586055397987366, 
        -0.07932296395301819, 
        0.20608371496200562, 
        0.6366018652915955, 
        0.13462969660758972, 
        0.5709071159362793, 
        -0.268168568611145, 
        -0.15663942694664001, 
        -0.5038193464279175, 
        -0.5443764328956604, 
        0.49157077074050903, 
        -0.10766520351171494, 
        0.24206304550170898, 
        -0.7955129146575928, 
        -0.618139386177063, 
        0.23571676015853882, 
        -0.010645287111401558, 
        0.40191468596458435, 
        0.34727537631988525, 
        -0.39834216237068176, 
        0.6456546187400818, 
        0.2550906836986542, 
        0.612506628036499, 
        -0.7441912293434143, 
        -0.5902913808822632, 
        -0.3354402482509613, 
        0.5581308603286743, 
        0.27992555499076843, 
        -0.294811487197876, 
        0.6442517042160034, 
        0.14788930118083954, 
        0.1623510718345642, 
        -0.01882774755358696, 
        0.6463180780410767, 
        0.595970869064331, 
        -0.7713479399681091, 
        0.3557196259498596, 
        0.2671580910682678, 
        -0.03840116411447525, 
        0.7381992936134338, 
        -0.4971284866333008, 
        -0.12194588780403137, 
        0.514055073261261, 
        -0.12917183339595795, 
        0.3330816328525543, 
        -0.5604248642921448, 
        -0.15972900390625, 
        -0.5196980834007263, 
        -0.5409427881240845, 
        0.09910218417644501, 
        0.13290056586265564, 
        -0.26694297790527344, 
        -0.5046568512916565, 
        -0.059437572956085205, 
        -0.2452249675989151, 
        0.39661186933517456, 
        -0.6760016083717346, 
        -0.4416543245315552, 
        0.3425319790840149, 
        -0.44422492384910583, 
        0.13276202976703644, 
        0.6763154864311218, 
        0.03784673288464546, 
        -0.4136784076690674, 
        -0.27908915281295776, 
        -0.23957601189613342, 
        -0.6882026195526123, 
        0.048179157078266144, 
        0.0455424040555954, 
        -0.30363553762435913, 
        -0.6019890308380127, 
        -0.05241977795958519, 
        -0.7419241070747375, 
        0.41034600138664246, 
        0.1377333104610443, 
        -0.5465810298919678, 
        0.16001859307289124, 
        -0.5497537851333618, 
        -0.689957857131958, 
        -0.5844663381576538, 
        0.4143315255641937, 
        -0.14434601366519928, 
        0.337947279214859, 
        -0.0071534039452672005, 
        0.3731628954410553, 
        0.1495104283094406, 
        -0.21347805857658386, 
        -0.1084417775273323, 
        -0.291770875453949, 
        0.17571298778057098, 
        -0.48119205236434937, 
        -0.5681996941566467, 
        0.5973523259162903, 
        -0.08281946927309036, 
        -0.0776403620839119, 
        0.2068759948015213, 
        -0.30376338958740234, 
        -0.5716368556022644, 
        0.37673962116241455, 
        -0.6128767132759094, 
        0.7913729548454285, 
        -0.2889162003993988, 
        -0.38120588660240173, 
        0.7786788940429688, 
        0.2940618097782135, 
        0.46747031807899475, 
        -0.18454134464263916, 
        -0.20900994539260864, 
        0.6173678040504456, 
        0.37503501772880554, 
        0.6217376589775085, 
        -0.3482757806777954, 
        -0.5928828716278076, 
        0.07724527269601822, 
        0.6845035552978516, 
        -0.16189977526664734, 
        0.616002082824707, 
        0.01298015657812357, 
        -0.6799622774124146, 
        -0.44834423065185547, 
        0.5590859651565552, 
        -0.31601160764694214, 
        -0.11473609507083893, 
        -0.09194458276033401, 
        -0.07064417749643326, 
        0.6600492596626282, 
        -0.5120261907577515, 
        -0.8373836278915405, 
        -0.35970842838287354, 
        -0.5866819024085999, 
        -0.39453357458114624, 
        -0.6740975975990295, 
        -0.36139848828315735, 
        -0.12104213237762451, 
        0.04271111637353897, 
        -0.6516867280006409, 
        -0.4491211771965027, 
        -0.36962154507637024, 
        0.19366313517093658, 
        -0.5840900540351868, 
        -0.2888130843639374, 
        0.29802215099334717, 
        -0.07546870410442352, 
        -0.42847147583961487, 
        0.6640549302101135, 
        0.5806071758270264, 
        0.4104796051979065, 
        0.16769716143608093, 
        0.22968171536922455, 
        -0.6355693936347961, 
        0.1042952835559845, 
        0.45217451453208923, 
        -0.5688360929489136, 
        0.14357750117778778, 
        -0.10860581696033478, 
        -0.6420925259590149, 
        -0.2688218951225281, 
        0.2539406418800354, 
        0.2317264974117279, 
        -0.016001414507627487, 
        -0.6873509883880615, 
        -0.5849454402923584, 
        -0.37603652477264404, 
        -0.6858424544334412, 
        0.6565730571746826, 
        0.7613089084625244, 
        -0.15400417149066925, 
        -0.6280326843261719, 
        -0.5557680130004883, 
        0.22528907656669617, 
        0.09313870966434479, 
        0.3150791823863983, 
        -0.16747498512268066, 
        -0.33364564180374146, 
        -0.17258530855178833, 
        0.5834158062934875, 
        -0.179696187376976, 
        0.5727831125259399, 
        0.17112119495868683, 
        0.173585444688797, 
        0.09205295890569687, 
        0.5155629515647888, 
        0.6447373032569885, 
        -0.29073649644851685, 
        0.05990372225642204, 
        -0.5949593186378479, 
        -0.4086831510066986, 
        -0.0588989332318306, 
        -0.30314287543296814, 
        -0.7371122241020203, 
        0.257223904132843, 
        -0.3415035903453827, 
        0.425978422164917, 
        -0.43188732862472534, 
        0.2743113040924072, 
        -0.12164090573787689, 
        -0.4767274558544159, 
        -0.519879937171936, 
        0.08511247485876083, 
        0.5998016595840454, 
        -0.3946562707424164, 
        -0.09964552521705627, 
        -0.6117875576019287, 
        0.6807988286018372, 
        0.6901658773422241, 
        -0.6370601058006287, 
        -0.5552568435668945, 
        0.5055012702941895, 
        -0.5752600431442261, 
        0.7713608145713806, 
        -0.6868807077407837, 
        -0.10654647648334503, 
        -0.3148156702518463, 
        0.6021453738212585, 
        0.3082166910171509, 
        0.060898035764694214, 
        -0.5134234428405762, 
        -0.5835106372833252, 
        -0.671901285648346, 
        0.7253169417381287, 
        0.08334534615278244, 
        -0.4059174954891205, 
        -0.031062591820955276, 
        0.11151561141014099, 
        0.4291655123233795, 
        -0.37293878197669983, 
        -0.4575934410095215, 
        0.37758782505989075, 
        -0.763512909412384, 
        0.6800134778022766, 
        -0.1695455014705658, 
        -0.535978376865387, 
        0.6613051295280457, 
        0.5544652342796326, 
        -0.1501869112253189, 
        0.27529850602149963, 
        -0.6417133808135986, 
        0.7250208258628845, 
        0.5097475647926331, 
        0.4669603109359741, 
        -0.8082396388053894, 
        -0.6290963888168335, 
        0.46879586577415466, 
        -0.696167528629303, 
        -0.33353742957115173, 
        0.3925645649433136, 
        0.12764951586723328, 
        0.09918887913227081, 
        -0.057114966213703156, 
        0.749382734298706, 
        -0.12799037992954254, 
        -0.5121444463729858, 
        -0.4688354432582855, 
        0.46886366605758667, 
        0.7818939685821533, 
        -0.6254777908325195, 
        0.6838224530220032, 
        -0.5704225897789001, 
        0.19907478988170624, 
        0.041359443217515945, 
        0.48417890071868896, 
        0.05431364104151726, 
        -0.11317389458417892, 
        0.47143590450286865, 
        0.6380478143692017, 
        -0.34933608770370483, 
        0.5690566301345825, 
        0.1621335744857788, 
        0.6304036378860474, 
        -0.4087465703487396, 
        0.3577466309070587, 
        0.5587615966796875, 
        -0.2418069690465927, 
        0.2007557898759842, 
        0.07184804230928421, 
        -0.4313473701477051, 
        -0.09151691943407059, 
        0.061857614666223526, 
        0.7412102818489075, 
        -0.2812836170196533, 
        0.483498215675354, 
        0.2664111256599426, 
        0.5021294355392456, 
        0.06277202814817429, 
        0.5918192267417908, 
        -0.5985016822814941, 
        -0.5482033491134644, 
        0.24351948499679565, 
        0.01629527471959591, 
        -0.7091405987739563, 
        -0.13850244879722595, 
        -0.04343612864613533, 
        -0.147916778922081, 
        0.1526709347963333, 
        0.09259796142578125, 
        -0.3964537978172302, 
        0.31117215752601624, 
        -0.5187211632728577, 
        0.11691079288721085, 
        0.6549025177955627, 
        0.7902526259422302, 
        -0.482336163520813, 
        -0.04342692345380783, 
        0.07612716406583786, 
        -0.5680814981460571, 
        -0.2817437946796417, 
        -0.37691792845726013, 
        0.1914038062095642, 
        0.2779977023601532, 
        0.02292555570602417, 
        0.3579370081424713, 
        0.6557868123054504, 
        -0.013407450169324875, 
        -0.6858561038970947, 
        0.2867603003978729, 
        -0.8063133358955383, 
        0.25189274549484253, 
        -0.3301136791706085, 
        0.4536786675453186, 
        0.22634941339492798, 
        0.4765186905860901, 
        0.7432661652565002, 
        -0.5390783548355103, 
        -0.5887459516525269, 
        0.718879222869873, 
        -0.14628003537654877, 
        0.7351053953170776, 
        0.2323922961950302, 
        0.03396672010421753, 
        0.555019199848175, 
        -0.4264921247959137, 
        0.6606739163398743, 
        -0.27281272411346436, 
        -0.5181313157081604, 
        0.29102474451065063, 
        -0.6516767740249634, 
        0.6620633006095886, 
        0.5912124514579773, 
        -0.1639063060283661, 
        -0.5897278785705566, 
        0.5066680312156677, 
        0.24778281152248383, 
        0.5842469930648804, 
        -0.10569827258586884, 
        0.009543972089886665, 
        0.3179362118244171, 
        -0.09682998806238174, 
        -0.19673500955104828, 
        -0.00815145205706358, 
        0.7711769938468933, 
        0.27607473731040955, 
        0.555063009262085, 
        0.28663358092308044, 
        0.6292012333869934, 
        -0.6889507174491882, 
        0.08394525945186615, 
        -0.22252365946769714, 
        -0.05200162157416344, 
        -0.5948398113250732, 
        -0.3800829350948334, 
        0.1503908485174179, 
        0.057635318487882614, 
        0.649433970451355, 
        -0.6020580530166626, 
        0.4572548270225525, 
        0.3617440462112427, 
        0.6023596525192261, 
        0.17315998673439026, 
        0.33660370111465454, 
        -0.3164103329181671, 
        -0.40266165137290955, 
        -0.22932130098342896, 
        0.20474690198898315, 
        0.7528266906738281, 
        -0.16728749871253967, 
        0.5993438363075256, 
        0.620455265045166, 
        -0.5325371026992798, 
        -0.5864460468292236, 
        -0.38071954250335693, 
        0.1031060665845871, 
        -0.18136635422706604, 
        -0.509954035282135, 
        -0.4189588725566864, 
        -0.21707496047019958, 
        -0.37305811047554016, 
        -0.614506721496582, 
        -0.3083591163158417, 
        -0.08884100615978241, 
        0.3801056146621704, 
        -0.042367756366729736, 
        -0.7142561674118042, 
        0.11851523816585541, 
        0.3211865723133087, 
        0.6856880187988281, 
        -0.4209445118904114, 
        -0.37019026279449463, 
        0.7212851643562317, 
        -0.6876862645149231, 
        -0.5682258009910583, 
        -0.6893577575683594, 
        -0.17729003727436066, 
        0.4303987920284271, 
        0.6609522700309753, 
        -0.15094366669654846, 
        -0.14140014350414276, 
        -0.21652008593082428, 
        -0.03687899187207222, 
        -0.45776674151420593, 
        0.5563345551490784, 
        0.46205538511276245, 
        -0.38779890537261963, 
        -0.5501610040664673, 
        -0.40871381759643555, 
        -0.042638398706912994, 
        -0.7311487197875977, 
        -0.1032620221376419, 
        0.539496660232544, 
        0.7400673627853394, 
        0.10207036882638931, 
        0.7943167686462402, 
        0.3303161859512329, 
        -0.6187995672225952, 
        0.4931626617908478, 
        0.16256684064865112, 
        -0.31903302669525146, 
        0.7153288722038269, 
        -0.09946611523628235, 
        -0.7222826480865479, 
        -0.21879969537258148, 
        -0.42383497953414917, 
        -0.6961349844932556, 
        -0.06206092983484268, 
        0.043309979140758514, 
        0.3764488399028778, 
        -0.28496053814888, 
        0.135526642203331, 
        0.18844065070152283, 
        0.6861422061920166, 
        0.08340626209974289, 
        -0.44247621297836304, 
        -0.5003462433815002, 
        -0.3165263831615448, 
        -0.15968702733516693, 
        0.051383957266807556, 
        0.45929640531539917, 
        -0.40220028162002563, 
        0.679374635219574, 
        -0.6013591885566711, 
        -0.7225627899169922, 
        0.13678766787052155, 
        -0.447290301322937, 
        0.5144472718238831, 
        -0.5740848779678345, 
        0.3206803500652313, 
        -0.09984181821346283, 
        0.30294138193130493, 
        -0.27832356095314026, 
        0.2665916681289673, 
        0.3079366087913513, 
        -0.3066449761390686, 
        -0.2621094584465027, 
        0.041437096893787384, 
        -0.2732008099555969, 
        -0.6089090704917908, 
        0.7337777018547058, 
        -0.531421959400177, 
        0.3749074935913086, 
        -0.4680761694908142, 
        -0.23038506507873535, 
        -0.23814266920089722, 
        0.5228591561317444, 
        -0.46367037296295166, 
        -0.7343412041664124, 
        -0.658733069896698, 
        -0.46069473028182983, 
        0.40314868092536926, 
        0.5481517910957336, 
        0.23628303408622742, 
        -0.1280197948217392, 
        -0.6070241332054138, 
        0.40196385979652405, 
        0.6694775223731995, 
        -0.7475857734680176, 
        -0.7953400015830994, 
        0.5164029002189636, 
        0.7003490328788757, 
        -0.47049781680107117, 
        0.6226234436035156, 
        -0.40833374857902527, 
        0.3139614164829254, 
        -0.7136207222938538, 
        -0.6827693581581116, 
        0.3487476110458374, 
        0.02883872389793396, 
        -0.3830866813659668, 
        -0.6798951625823975, 
        -0.5247665643692017, 
        0.09809794276952744, 
        -0.07194111496210098, 
        -0.6704578995704651, 
        0.5351557731628418, 
        0.6760315299034119, 
        -0.3081437051296234, 
        0.498095840215683, 
        -0.40932145714759827, 
        0.2058815211057663, 
        0.753511905670166, 
        0.7150252461433411, 
        0.41387733817100525, 
        -0.060620203614234924, 
        -0.08496452867984772, 
        -0.1290363073348999, 
        -0.06660081446170807, 
        -0.08850212395191193, 
        0.6714839935302734, 
        0.19376908242702484, 
        0.071589894592762, 
        0.7096862196922302, 
        -0.20200642943382263, 
        -0.5069312453269958, 
        0.39119312167167664, 
        -0.4405221939086914, 
        0.35077404975891113, 
        0.4777534306049347, 
        0.3318297266960144, 
        0.21994715929031372, 
        -0.1285349726676941, 
        -0.6431372165679932, 
        0.30292174220085144, 
        0.6886726021766663, 
        0.22820042073726654, 
        0.20491932332515717, 
        -0.22286148369312286, 
        -0.5205869674682617, 
        -0.6519439220428467, 
        0.5697282552719116, 
        -0.3741852939128876, 
        -0.1990727335214615, 
        0.798554003238678, 
        0.7755646109580994, 
        -0.6254043579101562, 
        -0.3369963467121124, 
        0.1870623528957367, 
        -0.43272483348846436, 
        0.6164039969444275, 
        0.2966208755970001, 
        -0.2591356039047241, 
        -0.6280617713928223, 
        -0.4933423697948456, 
        -0.6324205994606018, 
        -0.0018551372922956944, 
        0.06310489028692245, 
        0.3058142066001892, 
        -0.026594404131174088, 
        -0.7443289756774902, 
        0.18846048414707184, 
        -0.6529887914657593, 
        -0.348259836435318, 
        0.07690927386283875, 
        0.08897797763347626, 
        -0.3388453722000122, 
        0.008568170480430126, 
        0.35531914234161377, 
        -0.3100811839103699, 
        -0.6265823841094971, 
        -0.4090072512626648, 
        -0.5400089621543884, 
        -0.5996623039245605, 
        0.031247831881046295, 
        -0.7478579878807068, 
        -0.24832642078399658, 
        0.4785988926887512, 
        0.019318638369441032, 
        -0.19361373782157898, 
        0.5108304619789124, 
        -0.5907815098762512, 
        -0.22797304391860962, 
        0.5664500594139099, 
        -0.4816470146179199, 
        -0.6188880801200867, 
        0.30016180872917175, 
        -0.6914462447166443, 
        -0.29398733377456665, 
        -0.726351797580719, 
        0.6376738548278809, 
        0.30207154154777527, 
        -0.755520224571228, 
        0.3032602369785309, 
        0.5494745969772339, 
        0.39019685983657837, 
        -0.5902026295661926, 
        -0.253764808177948, 
        0.438612163066864, 
        -0.3843822181224823, 
        -0.5262240767478943, 
        -0.6530322432518005, 
        0.2050437033176422, 
        -0.842603862285614, 
        0.7411049604415894, 
        0.41361385583877563, 
        -0.15343764424324036, 
        -0.03152640536427498, 
        -0.32722213864326477, 
        0.24016304314136505, 
        0.3777811825275421, 
        -0.6698206067085266, 
        0.6823704242706299, 
        0.12733511626720428, 
        0.79710853099823, 
        0.9205609560012817, 
        0.49805721640586853, 
        0.18349413573741913, 
        0.052019063383340836, 
        0.5078256130218506, 
        -0.5382841229438782, 
        0.002387197921052575, 
        -0.7360625863075256, 
        -0.5699962377548218, 
        0.7406801581382751, 
        0.5445927977561951, 
        -0.6618266701698303, 
        0.001842046738602221, 
        0.07234681397676468, 
        -0.11652468144893646, 
        0.3090568780899048, 
        0.7165748476982117, 
        -0.3714716136455536, 
        -0.3009797930717468, 
        0.6836493611335754, 
        -0.36396563053131104, 
        0.39873337745666504, 
        -0.4335508346557617, 
        -0.3508273661136627, 
        0.12610816955566406, 
        0.6245560050010681, 
        0.2731621563434601, 
        -0.5216480493545532, 
        0.00803022738546133, 
        0.5380479693412781, 
        -0.48917219042778015, 
        -0.24499598145484924, 
        0.06038662791252136, 
        -0.016699625179171562, 
        -0.6531914472579956, 
        -0.35893404483795166, 
        -0.471608966588974, 
        0.5590741038322449, 
        -0.02403366193175316, 
        0.6492941975593567, 
        -0.697776198387146, 
        -0.6440737247467041, 
        -0.07907325029373169, 
        0.490440309047699, 
        -0.4464850127696991, 
        -0.2616462707519531, 
        0.4987200200557709, 
        -0.32112035155296326, 
        -0.3216574490070343, 
        -0.08751997351646423, 
        0.48518842458724976, 
        -0.6568636894226074, 
        -0.16303502023220062, 
        -0.21668030321598053, 
        -0.08011415600776672, 
        -0.166169673204422, 
        -0.14634594321250916, 
        0.3535081446170807, 
        0.28583648800849915, 
        -0.18007786571979523, 
        -0.3941841125488281, 
        0.22335991263389587, 
        0.048813387751579285, 
        0.5802614092826843, 
        -0.3317711651325226, 
        0.7614205479621887, 
        0.3980075418949127, 
        -0.6881633400917053, 
        0.5417325496673584, 
        0.13260656595230103, 
        -0.532292366027832, 
        -0.2742633521556854, 
        0.10691197961568832, 
        0.7986707091331482, 
        0.13808682560920715, 
        0.7016500234603882, 
        -0.5100873112678528, 
        -0.4873313307762146, 
        0.07970239967107773, 
        0.6101977825164795, 
        -0.05778798460960388, 
        -0.37958523631095886, 
        -0.5457509160041809, 
        0.6741504073143005, 
        0.39708074927330017, 
        -0.6534356474876404, 
        0.06160791590809822, 
        0.2953892946243286, 
        0.2494262307882309, 
        0.3815862536430359, 
        -0.33036088943481445, 
        0.7292947769165039, 
        0.418078750371933, 
        -0.41605034470558167, 
        0.44770511984825134, 
        -0.36248859763145447, 
        -0.38452857732772827, 
        -0.7529686689376831, 
        0.6709485054016113, 
        -0.03559998422861099, 
        -0.7665807604789734, 
        0.12329220026731491, 
        0.2450842261314392, 
        0.030113566666841507, 
        0.2820724546909332, 
        0.648205041885376, 
        0.15622977912425995, 
        -0.2240196168422699, 
        0.1275789439678192, 
        -0.12109263986349106, 
        -0.6109308004379272, 
        0.553342878818512, 
        0.5450469851493835, 
        -0.1981755644083023, 
        0.021120822057127953, 
        0.4331616163253784, 
        0.541771411895752, 
        0.2899714708328247, 
        -0.1810431182384491, 
        -0.10027065128087997, 
        0.6950585842132568, 
        0.45891743898391724, 
        0.14403104782104492, 
        0.6095156073570251, 
        -0.1941329836845398, 
        0.44833695888519287, 
        -0.3315586745738983, 
        -0.34338870644569397, 
        -0.43354377150535583, 
        -0.6587802767753601, 
        -0.34263309836387634, 
        0.4070030152797699, 
        0.7689016461372375, 
        0.7241910696029663, 
        -0.12416090071201324, 
        -0.193425253033638, 
        0.031525980681180954, 
        0.44539979100227356, 
        0.6171104311943054, 
        -0.44433486461639404, 
        -0.5752139091491699, 
        0.36171287298202515, 
        0.2842167019844055, 
        0.5191094279289246, 
        0.6893332004547119, 
        0.091010183095932, 
        -0.19045141339302063, 
        -0.3587672710418701, 
        0.15815787017345428, 
        -0.15497146546840668, 
        0.2698046863079071, 
        -0.11390242725610733, 
        -0.43582046031951904, 
        -0.5878851413726807, 
        -0.20936527848243713, 
        0.6167550086975098, 
        0.34389519691467285, 
        -0.03568999841809273, 
        -0.35425513982772827, 
        0.7603747248649597, 
        -0.07809370756149292, 
        0.12358934432268143, 
        -0.20549511909484863, 
        0.4027758836746216, 
        -0.21563735604286194, 
        0.479311466217041, 
        0.6470702290534973, 
        -0.6455010175704956, 
        0.665952742099762, 
        -0.5048234462738037, 
        -0.47131118178367615, 
        -0.5207643508911133, 
        0.5618236064910889, 
        0.44684094190597534, 
        -0.06280336529016495, 
        -0.15675325691699982, 
        -0.13005828857421875, 
        0.6154880523681641, 
        0.67022705078125, 
        0.7101566791534424, 
        -0.1650092452764511, 
        -0.2818603217601776, 
        -0.48805055022239685, 
        -0.5647379159927368, 
        -0.7807794213294983, 
        -0.07521864771842957, 
        0.3415960669517517, 
        0.05550618842244148, 
        0.605747401714325, 
        -0.6366474628448486, 
        -0.7626434564590454, 
        -0.3713713586330414, 
        0.5933904647827148, 
        -0.421820729970932, 
        -0.5696743726730347, 
        0.7877746224403381, 
        -0.7461234331130981, 
        -0.45359987020492554, 
        0.3895465135574341, 
        0.5368323922157288, 
        -0.20315895974636078, 
        0.4549611508846283, 
        -0.2814440131187439, 
        -0.47781112790107727, 
        0.7317826747894287, 
        -0.622827410697937, 
        0.3344203531742096, 
        -0.3593718707561493, 
        0.5313882827758789, 
        0.02344611845910549, 
        0.03536076843738556, 
        0.7090839147567749, 
        0.09866860508918762, 
        0.15141215920448303, 
        -0.6165269613265991, 
        0.3373306691646576, 
        0.27202722430229187, 
        0.21515324711799622, 
        0.5873233675956726, 
        -0.09231474995613098, 
        -0.18764831125736237, 
        -0.615189254283905, 
        -0.7469314932823181, 
        0.6176778078079224, 
        -0.05608285218477249, 
        0.15266242623329163, 
        0.5676096081733704, 
        -0.4532665014266968, 
        0.39175787568092346, 
        -0.7023335099220276, 
        0.19519230723381042, 
        -0.6326661109924316, 
        -0.5279531478881836, 
        0.5375227928161621, 
        0.3605828583240509, 
        0.020669467747211456, 
        -0.4060371220111847, 
        -0.6902369260787964, 
        -0.09501054137945175, 
        0.6908741593360901, 
        -0.2544381618499756, 
        0.2555089294910431, 
        0.22119022905826569, 
        -0.44681286811828613, 
        -0.1554318070411682, 
        0.1336999088525772, 
        0.41339436173439026, 
        -0.476075679063797, 
        0.6086655855178833, 
        0.5835449695587158, 
        -0.5310098528862, 
        0.4507981836795807, 
        -0.4285415709018707, 
        -0.19582787156105042, 
        -0.24451376497745514, 
        0.5093174576759338, 
        -0.8040834665298462, 
        -0.6976296305656433, 
        0.6281945109367371, 
        0.23845790326595306, 
        -0.08331329375505447, 
        -0.13562454283237457, 
        -0.19845038652420044, 
        0.16150368750095367, 
        0.41161686182022095, 
        -0.2630135715007782, 
        -0.4002217650413513, 
        0.4892091155052185, 
        0.4966681897640228, 
        -0.3419523537158966, 
        0.7252273559570312, 
        0.3102228343486786, 
        0.5462858080863953, 
        -0.4718133807182312, 
        0.3121691048145294, 
        0.6378164291381836, 
        -0.07838756591081619, 
        -0.5803672671318054, 
        -0.022079484537243843, 
        -0.13702276349067688, 
        0.2745150923728943, 
        0.5641533136367798, 
        0.24489106237888336, 
        -0.5466099381446838, 
        0.16873326897621155, 
        0.0052917939610779285, 
        -0.7395725250244141, 
        -0.5623339414596558, 
        -0.6163682341575623, 
        -0.11558745056390762, 
        -0.634843647480011, 
        0.13705389201641083, 
        -0.5342053771018982, 
        0.6752740144729614, 
        -0.04594876617193222, 
        0.37708407640457153, 
        0.3776289224624634, 
        -0.5480945110321045, 
        -0.6278977394104004, 
        0.5806825757026672, 
        -0.23101268708705902, 
        -0.1247754618525505, 
        0.7090132236480713, 
        0.5720044374465942, 
        -0.2234950214624405, 
        0.6358565092086792, 
        0.7591570615768433, 
        0.43063998222351074, 
        0.5152660012245178, 
        0.6306652426719666, 
        -0.5959214568138123, 
        -0.6291174292564392, 
        -0.32173943519592285, 
        -0.569459080696106, 
        -0.03981664404273033, 
        -0.3081812560558319, 
        -0.47934913635253906, 
        0.27727895975112915, 
        0.39406803250312805, 
        -0.4245796799659729, 
        -0.2529956102371216, 
        -0.06550545245409012, 
        0.48959535360336304, 
        0.5138749480247498, 
        0.1399577558040619, 
        -0.2243013232946396, 
        -0.5621604323387146, 
        -0.6549020409584045, 
        -0.788172721862793, 
        0.4762735962867737, 
        0.2012205719947815, 
        0.35336846113204956, 
        0.05636167526245117, 
        -0.33271336555480957, 
        0.21224765479564667, 
        0.4504512846469879, 
        -0.05448904260993004, 
        0.6063582897186279, 
        0.4197266101837158, 
        -0.5502901077270508, 
        0.06989461183547974, 
        0.5920112729072571, 
        -0.6373574137687683, 
        -0.4775204062461853, 
        -0.3190835118293762, 
        -0.5580607652664185, 
        0.4456186592578888, 
        0.34693393111228943, 
        0.1918271780014038, 
        -0.02799360640347004, 
        -0.6700696349143982, 
        -0.3316580653190613, 
        0.48802119493484497, 
        0.4902046322822571, 
        0.0689266175031662, 
        -0.10551369935274124, 
        -0.2768802344799042, 
        -0.025329843163490295, 
        -0.4736606776714325, 
        0.639224648475647, 
        0.005602713208645582, 
        -0.039336610585451126, 
        0.23340661823749542, 
        0.1282307356595993, 
        0.7761481404304504, 
        0.2966151833534241, 
        0.6187830567359924, 
        -0.6432780027389526, 
        0.5308136343955994, 
        0.6454951763153076, 
        0.5896459221839905, 
        0.12316646426916122, 
        -0.8190762400627136, 
        -0.5592705607414246, 
        0.6769310235977173, 
        -0.6203122138977051, 
        0.2986408770084381, 
        -0.44608011841773987, 
        -0.7214534282684326, 
        0.23285117745399475, 
        -0.5897784233093262, 
        -0.026231221854686737, 
        -0.48660406470298767, 
        0.018139416351914406, 
        0.02174561284482479, 
        0.25739172101020813, 
        -0.14822320640087128, 
        0.3143605589866638, 
        -0.33946529030799866, 
        0.20676228404045105, 
        -0.6780460476875305, 
        -0.7773846983909607, 
        -0.05780308321118355, 
        -0.7256470918655396, 
        0.2074681669473648, 
        0.5830943584442139, 
        -0.5095940828323364, 
        -0.15391528606414795, 
        -0.13502290844917297, 
        -0.5013381838798523, 
        -0.4022975564002991, 
        0.7947770357131958, 
        -0.13651522994041443, 
        -0.3237036168575287, 
        -0.404020220041275, 
        0.023453742265701294, 
        -0.3233102262020111, 
        0.28412535786628723, 
        0.6435503959655762, 
        -0.5159315466880798, 
        -0.6611940264701843, 
        -0.6948485970497131, 
        -0.185440793633461, 
        -0.7314887642860413, 
        -0.022065339609980583, 
        0.5071295499801636, 
        0.04001191630959511, 
        0.6542038321495056, 
        0.6387143135070801, 
        -0.6721653938293457, 
        0.777116060256958, 
        0.29180237650871277, 
        -0.5083463788032532, 
        0.16375821828842163, 
        0.1775212287902832, 
        0.19387029111385345, 
        0.26039618253707886, 
        0.8109679222106934, 
        -0.1697557419538498, 
        0.1620207577943802, 
        -0.22502301633358002, 
        0.0015846994938328862, 
        0.5125118494033813, 
        0.32232967019081116, 
        0.5340147614479065, 
        0.616899311542511, 
        -0.1512085348367691, 
        0.33389681577682495, 
        0.7540717124938965, 
        0.31647995114326477, 
        0.022409195080399513, 
        -0.6450077891349792, 
        -0.06691904366016388, 
        0.48256605863571167, 
        0.02520635910332203, 
        -0.3863266110420227, 
        0.33913853764533997, 
        0.061974573880434036, 
        -0.29575470089912415, 
        -0.09697087109088898, 
        0.7543070316314697, 
        0.0697411596775055, 
        -0.20883092284202576, 
        0.112726591527462, 
        -0.2150375247001648, 
        -0.5208452343940735, 
        -0.5656619668006897, 
        0.16185714304447174, 
        0.519724428653717, 
        -0.5529831051826477, 
        -0.6082932949066162, 
        -0.5974656343460083, 
        0.3012292981147766, 
        0.48401758074760437, 
        0.7330625653266907, 
        -0.4920872449874878, 
        -0.023695459589362144, 
        0.5662583708763123, 
        0.6040291786193848, 
        0.43656572699546814, 
        0.25144797563552856, 
        0.71390700340271, 
        -0.6945899128913879, 
        -0.34426620602607727, 
        0.7089185118675232, 
        -0.29521167278289795, 
        -0.26610133051872253, 
        -0.6951425075531006, 
        -0.361704021692276, 
        -0.10177608579397202, 
        -0.22291000187397003, 
        0.39065319299697876, 
        0.5265880227088928, 
        -0.5650074481964111, 
        0.13612967729568481, 
        0.29508236050605774, 
        -0.20432336628437042, 
        -0.3836579918861389, 
        0.7351559400558472, 
        -0.5106589794158936, 
        -0.18529736995697021, 
        0.29921820759773254, 
        0.4476788341999054, 
        0.5546594262123108, 
        0.2997722625732422, 
        -0.5435636043548584, 
        0.5797206163406372, 
        -0.6705934405326843, 
        0.4516765773296356, 
        0.07364672422409058, 
        -0.16495440900325775, 
        0.4995519518852234, 
        0.6475017666816711, 
        -0.7897855639457703, 
        -0.08847735077142715, 
        -0.1312183439731598, 
        -0.15138135850429535, 
        0.09831664711236954, 
        -0.34048736095428467, 
        0.026015913113951683, 
        -0.38219690322875977, 
        -0.756132960319519, 
        -0.4976164400577545, 
        0.4003605246543884, 
        0.5520421862602234, 
        -0.6370117664337158, 
        -0.6376771926879883, 
        0.30781489610671997, 
        -0.3813318610191345, 
        0.602266252040863, 
        0.5541683435440063, 
        0.0544382780790329, 
        -0.5156537890434265, 
        -0.2279065102338791, 
        0.2457035928964615, 
        0.6141942739486694, 
        0.4178803265094757, 
        0.3201347887516022, 
        -0.5999224781990051, 
        -0.5250645279884338, 
        0.5091341137886047, 
        0.7152033448219299, 
        -0.5533329248428345, 
        0.44803041219711304, 
        -0.18834324181079865, 
        -0.07936800271272659, 
        0.17174668610095978, 
        -0.760249674320221, 
        0.34414005279541016, 
        -0.6452329158782959, 
        0.30969923734664917, 
        -0.4434736669063568, 
        0.31663891673088074, 
        0.06877578794956207, 
        -0.27928733825683594, 
        -0.4666062891483307, 
        0.16674189269542694, 
        0.45137932896614075, 
        -0.613462507724762, 
        0.650467574596405, 
        -0.315144807100296, 
        0.10563042759895325, 
        -0.7239142656326294, 
        0.3542709946632385, 
        -0.3124461770057678, 
        0.7095550298690796, 
        0.5423721671104431, 
        0.3578863739967346, 
        0.00540919229388237, 
        -0.6912267804145813, 
        0.6874018311500549, 
        0.24462644755840302, 
        -0.486392080783844, 
        -0.2204555720090866, 
        -0.017179036512970924, 
        -0.08941014111042023, 
        0.29776084423065186, 
        -0.55223548412323, 
        0.5100843906402588, 
        0.6805770993232727, 
        0.1409018486738205, 
        0.24049147963523865, 
        -0.16798844933509827, 
        -0.6812387108802795, 
        0.6759113073348999, 
        0.07671785354614258, 
        0.5786006450653076, 
        0.18994981050491333, 
        -0.5438423156738281, 
        0.23491820693016052, 
        -0.010367869399487972, 
        -0.10608255118131638, 
        0.518734872341156, 
        -0.5831260681152344, 
        -0.6689520478248596, 
        -0.5588359236717224, 
        0.0176688339561224, 
        0.4742916524410248, 
        0.5079425573348999, 
        -0.707545280456543, 
        0.3266266882419586, 
        0.6109573245048523, 
        -0.7352109551429749, 
        -0.6737036108970642, 
        0.07706329971551895, 
        -0.09307992458343506, 
        0.6541423797607422, 
        -0.3633381426334381, 
        0.21438927948474884, 
        0.2691866159439087, 
        -0.3410907983779907, 
        0.7181189060211182, 
        0.05476750433444977, 
        -0.41402167081832886, 
        0.5922361612319946, 
        0.6465888023376465, 
        0.46335768699645996, 
        -0.18891750276088715, 
        0.1468857377767563, 
        -0.04125545173883438, 
        0.3734971284866333, 
        0.025604596361517906, 
        0.5546717643737793, 
        -0.7021650075912476, 
        -0.6706506013870239, 
        -0.16484861075878143, 
        -0.06275913119316101, 
        0.32951048016548157, 
        0.22906434535980225, 
        -0.37398913502693176, 
        0.5635973215103149, 
        0.30816683173179626, 
        0.0801343098282814, 
        -0.2518773376941681, 
        -0.16839896142482758, 
        0.7104049921035767, 
        0.5584428906440735, 
        0.5593758225440979, 
        0.6935908794403076, 
        0.5672741532325745, 
        -0.7193523645401001, 
        0.7293139100074768, 
        0.14357568323612213, 
        -0.5368908643722534, 
        -0.6034855842590332, 
        -0.27556753158569336, 
        0.6768301129341125, 
        -0.054292526096105576, 
        0.5026044249534607, 
        0.4362441897392273, 
        -0.3605421781539917, 
        -0.2325245440006256, 
        0.25449612736701965, 
        0.30874907970428467, 
        0.15256457030773163, 
        0.6756800413131714, 
        0.30584144592285156, 
        0.5748853087425232, 
        0.28853970766067505, 
        -0.13055860996246338, 
        -0.16235844790935516, 
        0.7332044243812561, 
        -0.6048775911331177, 
        -0.64067143201828, 
        0.19883552193641663, 
        0.6767019629478455, 
        0.26229238510131836, 
        0.19275276362895966, 
        -0.3504970967769623, 
        0.12985317409038544, 
        0.25586652755737305, 
        0.7501326203346252, 
        -0.6686820387840271, 
        -0.5468941926956177, 
        0.357822448015213, 
        0.42082279920578003, 
        0.4124729037284851, 
        -0.3336796760559082, 
        -0.43055880069732666, 
        -0.4306352436542511, 
        -0.11727067828178406, 
        0.3665357828140259, 
        0.7200353741645813, 
        0.1307486891746521, 
        -0.09176979959011078, 
        0.4368704557418823, 
        -0.18822650611400604, 
        -0.2983960211277008, 
        0.12689918279647827, 
        -0.12149036675691605, 
        -0.6382313966751099, 
        0.6648485660552979, 
        0.13560406863689423, 
        -0.5436869859695435, 
        -0.6854364275932312, 
        0.6235688924789429, 
        -0.7736377120018005, 
        0.2957213819026947, 
        0.31089094281196594, 
        0.5276606678962708, 
        -0.4509895145893097, 
        0.25023892521858215, 
        0.44846001267433167, 
        0.10304751992225647, 
        0.3079235255718231, 
        -0.42631980776786804, 
        -0.09634671360254288, 
        -0.6234945058822632, 
        -0.5402694940567017, 
        -0.8692715764045715, 
        -0.11991221457719803, 
        0.2937600314617157, 
        0.48975515365600586, 
        0.070686474442482, 
        -0.3127758204936981, 
        0.4021035432815552, 
        0.4268002212047577, 
        -0.4725817143917084, 
        0.6076722741127014, 
        -0.3631919026374817, 
        0.5630871653556824, 
        -0.43133246898651123, 
        0.12264859676361084, 
        0.4352114796638489, 
        0.7657541632652283, 
        -0.7055841088294983, 
        0.757656991481781, 
        -0.05341317877173424, 
        -0.6180903911590576, 
        -0.6212599873542786, 
        0.3467223644256592, 
        -0.36850982904434204, 
        -0.44077637791633606, 
        -0.11011829972267151, 
        0.5269166827201843, 
        -0.16960978507995605, 
        0.5542281270027161, 
        0.11111493408679962, 
        0.16290168464183807, 
        0.5250884294509888, 
        0.3730246424674988, 
        -0.4356408715248108, 
        -0.0033937767148017883, 
        -0.38608989119529724, 
        0.049895793199539185, 
        -0.21778951585292816, 
        0.6508888602256775, 
        -0.07764269411563873, 
        -0.22485758364200592, 
        -0.20123010873794556, 
        0.4643903076648712, 
        0.04009625315666199, 
        -0.34675437211990356, 
        0.04146784171462059, 
        0.4036056101322174, 
        0.5244904160499573, 
        0.20451578497886658, 
        0.0570664182305336, 
        -0.57732093334198, 
        -0.2185497134923935, 
        0.4465164244174957, 
        -0.14752639830112457, 
        0.3671937584877014, 
        0.18305949866771698, 
        0.4877210855484009, 
        -0.6266066431999207, 
        0.34922999143600464, 
        -0.17060449719429016, 
        0.0036395126953721046, 
        -0.5816375017166138, 
        -0.1914212852716446, 
        -0.5324356555938721, 
        -0.3557828962802887, 
        0.04887177422642708, 
        -0.6711015105247498, 
        -0.23522137105464935, 
        -0.022215861827135086, 
        -0.2931390702724457, 
        -0.2217121422290802, 
        0.2377464920282364, 
        -0.5383450388908386, 
        -0.17815357446670532, 
        -0.05615806579589844, 
        -0.04532628506422043, 
        -0.17094559967517853, 
        -0.4594246447086334, 
        -0.43050873279571533, 
        -0.2811688780784607, 
        -0.7661641836166382, 
        -0.6330966949462891, 
        0.40662240982055664, 
        0.811599612236023, 
        0.6617791652679443, 
        -0.004494538530707359, 
        -0.01192176342010498, 
        0.3289259970188141, 
        -0.6530836820602417, 
        -0.48818379640579224, 
        0.6596107482910156, 
        -0.42654892802238464, 
        0.19373928010463715, 
        0.6695293188095093, 
        0.5621370673179626, 
        -0.5597671866416931, 
        -0.02789691463112831, 
        -0.35515543818473816, 
        -0.30876263976097107, 
        0.39308804273605347, 
        -0.2781282961368561, 
        -0.1482396125793457, 
        -0.1196533739566803, 
        0.6950949430465698, 
        -0.5975120663642883, 
        -0.48679375648498535, 
        0.6897790431976318, 
        0.6886773109436035, 
        -0.7482976913452148, 
        0.6550698280334473, 
        0.8620853424072266, 
        -0.34697455167770386, 
        -0.348215788602829, 
        0.4589771032333374, 
        -0.020271239802241325, 
        0.5289907455444336, 
        -0.0573396310210228, 
        -0.6575468182563782, 
        -0.6996760368347168, 
        -0.6571452021598816, 
        -0.7268146276473999, 
        -0.41582950949668884, 
        0.29819047451019287, 
        -0.6551816463470459, 
        -0.429904580116272, 
        -0.06478772312402725, 
        0.4517836570739746, 
        -0.6418056488037109, 
        -0.08463789522647858, 
        0.11712738871574402, 
        0.21897205710411072, 
        -0.4050203561782837, 
        0.33114543557167053, 
        -0.4108617305755615, 
        -0.12802857160568237, 
        0.16397808492183685, 
        0.7655386924743652, 
        0.13948920369148254, 
        0.8470288515090942, 
        -0.1671656370162964, 
        -0.7940000295639038, 
        -0.16350439190864563, 
        0.04104137048125267, 
        -0.2946913540363312, 
        -0.13673941791057587, 
        -0.6026976704597473, 
        -0.32420867681503296, 
        0.5832200050354004, 
        0.21593302488327026, 
        -0.24916745722293854, 
        0.19813519716262817, 
        0.3701319694519043, 
        -0.08921442925930023, 
        -0.41078123450279236, 
        -0.2982386350631714, 
        0.5198736786842346, 
        -0.7404367923736572, 
        -0.5667972564697266, 
        -0.49561503529548645, 
        0.6746248006820679, 
        -0.0948169007897377, 
        -0.04750992730259895, 
        0.6133120656013489, 
        -0.5052874088287354, 
        0.6319425702095032, 
        0.20654118061065674, 
        -0.01923760026693344, 
        0.3067305088043213, 
        0.7136308550834656, 
        -0.28665781021118164, 
        0.07382151484489441, 
        0.5548964142799377, 
        -0.21069622039794922, 
        0.47757744789123535, 
        -0.616260290145874, 
        0.19042770564556122, 
        0.6878315806388855, 
        -0.7393465042114258, 
        0.4165899157524109, 
        0.029666710644960403, 
        0.06730726361274719, 
        0.3812611699104309, 
        0.06235276907682419, 
        0.4446949362754822, 
        0.7590237855911255, 
        0.26438024640083313, 
        -0.24838820099830627, 
        -0.36069923639297485, 
        0.6054908633232117, 
        -0.23050588369369507, 
        0.42695775628089905, 
        -0.6537963151931763, 
        -0.30730435252189636, 
        -0.3738613426685333, 
        -0.24640467762947083, 
        -0.0008696597069501877, 
        0.6539208889007568, 
        -0.6927106976509094, 
        -0.4194864332675934, 
        -0.5764324069023132, 
        -0.507297694683075, 
        -0.20227068662643433, 
        -0.20336002111434937, 
        0.25958800315856934, 
        0.4611267149448395, 
        0.11138194799423218, 
        0.5544809699058533, 
        0.7046664357185364, 
        0.6632826924324036, 
        0.4915015399456024, 
        0.17705267667770386, 
        0.47369229793548584, 
        -0.5858873724937439, 
        -0.7811983227729797, 
        0.27359116077423096, 
        0.4616154730319977, 
        0.6197515726089478, 
        -0.845133364200592, 
        -0.12431669980287552, 
        0.6204547882080078, 
        0.6996129155158997, 
        -0.4351787865161896, 
        0.48619067668914795, 
        0.45943599939346313, 
        -0.04213748872280121, 
        0.36825230717658997, 
        0.5251222848892212, 
        -0.24356406927108765, 
        -0.6491008400917053, 
        0.6686535477638245, 
        -0.37633025646209717, 
        -0.17265281081199646, 
        -0.03476908057928085, 
        -0.6484115719795227, 
        0.7848029732704163, 
        0.3157760202884674, 
        0.5594661831855774, 
        0.26026830077171326, 
        0.35154736042022705, 
        -0.7449107766151428, 
        -0.07909701019525528, 
        0.4688721299171448, 
        -0.4871286451816559, 
        -0.6583999395370483, 
        -0.21789999306201935, 
        -0.12389253824949265, 
        -0.4495694637298584, 
        0.27115538716316223, 
        0.05672445148229599, 
        0.017123999074101448, 
        0.25409820675849915, 
        -0.07522734999656677, 
        0.04275882989168167, 
        0.40404844284057617, 
        -0.6134219169616699, 
        -0.6160485744476318, 
        -0.10422297567129135, 
        -0.12213511765003204, 
        -0.39277175068855286, 
        -0.12455937266349792, 
        -0.10766766220331192, 
        -0.14497418701648712, 
        -0.04800387844443321, 
        0.5944331288337708, 
        -0.344635933637619, 
        0.28387901186943054, 
        -0.643369734287262, 
        0.3107481896877289, 
        -0.7479313611984253, 
        -0.5626401901245117, 
        -0.05411453917622566, 
        0.026135839521884918, 
        0.5880483388900757, 
        0.539983868598938, 
        -0.7414469122886658, 
        -0.24936747550964355, 
        -0.09893158078193665, 
        0.13565553724765778, 
        0.3889825940132141, 
        -0.6198217272758484, 
        -0.3996346592903137, 
        0.031138325110077858, 
        0.011201159097254276, 
        0.6833291053771973, 
        -0.39265888929367065, 
        0.3641103506088257, 
        -0.4001052975654602, 
        0.41430744528770447, 
        -0.24488788843154907, 
        -0.7621733546257019, 
        -0.022686952725052834, 
        -0.6780316829681396, 
        0.26362958550453186, 
        0.6050962805747986, 
        -0.7655279636383057, 
        -0.4790289103984833, 
        0.5108019113540649, 
        0.21386060118675232, 
        -0.05420420691370964, 
        -0.10540127009153366, 
        0.06466849893331528, 
        0.628919780254364, 
        -0.058098163455724716, 
        0.7453206777572632, 
        -0.49989601969718933, 
        0.11999104917049408, 
        0.5498661994934082, 
        0.23273000121116638, 
        -0.42040547728538513, 
        -0.03991003707051277, 
        0.33182835578918457, 
        0.8032786250114441, 
        -0.07840315997600555, 
        0.3706032931804657, 
        0.3558300733566284, 
        0.23160462081432343, 
        0.6219378709793091, 
        -0.3768957853317261, 
        0.6117994785308838, 
        0.5329749584197998, 
        0.4687153995037079, 
        -0.1306290626525879, 
        0.022579319775104523, 
        0.47698965668678284, 
        0.40250030159950256, 
        0.09444087743759155, 
        -0.3272094130516052, 
        0.7192710041999817, 
        -0.7082963585853577, 
        -0.36727049946784973, 
        0.7710839509963989, 
        0.17536522448062897, 
        -0.2425144463777542, 
        0.1099623590707779, 
        0.37306925654411316, 
        -0.13645805418491364, 
        0.309930682182312, 
        0.4236588478088379, 
        0.5616047978401184, 
        0.3973831534385681, 
        0.46856969594955444, 
        -0.1364297717809677, 
        -0.7309913039207458, 
        -0.5254998803138733, 
        0.05175507441163063, 
        -0.6137968897819519, 
        -0.10837745666503906, 
        0.7416549921035767, 
        0.4341605305671692, 
        -0.3107272982597351, 
        -0.6355690360069275, 
        -0.13503654301166534, 
        -0.5207574963569641, 
        -0.5924093127250671, 
        -0.6727361083030701, 
        0.3344343900680542, 
        0.3757356107234955, 
        -0.4899957776069641, 
        0.4327574074268341, 
        0.20225219428539276, 
        0.3167463541030884, 
        -0.7032798528671265, 
        0.06340589374303818, 
        -0.04287552088499069, 
        -0.6300410628318787, 
        -0.04179232195019722, 
        0.09093505889177322, 
        0.7972325682640076, 
        -0.602243959903717, 
        0.4878946542739868, 
        -0.21191926300525665, 
        -0.765872597694397, 
        0.5083228349685669, 
        0.05152478814125061, 
        -0.32467204332351685, 
        0.3162056803703308, 
        0.22393593192100525, 
        0.47506919503211975, 
        0.20758435130119324, 
        -0.47521257400512695, 
        0.305926114320755, 
        -0.7832966446876526, 
        -0.2328435778617859, 
        -0.1632547676563263, 
        -0.18142500519752502, 
        0.08106430619955063, 
        -0.07085805386304855, 
        0.7334262728691101, 
        -0.17855015397071838, 
        0.5908674597740173, 
        0.11998803168535233, 
        -0.713283360004425, 
        0.03186088800430298, 
        0.7179994583129883, 
        -0.0843435600399971, 
        0.5613338947296143, 
        -0.4760870337486267, 
        -0.45840689539909363, 
        0.3154444992542267, 
        -0.25073859095573425, 
        -0.47109296917915344, 
        -0.2093251347541809, 
        -0.7105609178543091, 
        -0.6862770318984985, 
        0.2279796600341797, 
        0.6273883581161499, 
        -0.11975157260894775, 
        0.6383676528930664, 
        -0.6384963989257812, 
        -0.4207049012184143, 
        -0.6797938942909241, 
        0.3360477387905121, 
        0.7307809591293335, 
        0.6716442108154297, 
        0.24138058722019196, 
        -0.2043178528547287, 
        0.1326659619808197, 
        -0.4642249643802643, 
        0.24946460127830505, 
        0.40597519278526306, 
        0.6119285821914673, 
        0.3887782692909241, 
        -0.22028818726539612, 
        -0.3076205849647522, 
        -0.20244090259075165, 
        0.5343901515007019, 
        -0.49813300371170044, 
        0.07193367928266525, 
        -0.24606844782829285, 
        -0.4344567060470581, 
        0.5293178558349609, 
        -0.14635063707828522, 
        0.19386687874794006, 
        0.11547528952360153, 
        -0.5343422889709473, 
        -0.02905220165848732, 
        0.4907638132572174, 
        -0.4226185083389282, 
        -0.4537181556224823, 
        -0.7322086691856384, 
        -0.3407861888408661, 
        0.34100139141082764, 
        -0.10058185458183289, 
        -0.3636528551578522, 
        -0.47137895226478577, 
        -0.18973737955093384, 
        0.49215275049209595, 
        -0.3397180438041687, 
        0.41716209053993225, 
        -0.40464314818382263, 
        -0.3059806525707245, 
        0.013745388947427273, 
        -0.3698362708091736, 
        0.31825923919677734, 
        0.25907769799232483, 
        -0.11054538190364838, 
        0.759940505027771, 
        0.36538028717041016, 
        0.25302374362945557, 
        0.5232701897621155, 
        -0.4662081003189087, 
        -0.623805046081543, 
        0.33903077244758606, 
        -0.6134752035140991, 
        0.7799652814865112, 
        -0.31231358647346497, 
        0.18553103506565094, 
        0.5253692865371704, 
        -0.6789503693580627, 
        0.7130776643753052, 
        -0.7159998416900635, 
        -0.0370139479637146, 
        -0.005129262339323759, 
        -0.5792592763900757, 
        -0.5883840918540955, 
        0.5064301490783691, 
        0.3188974857330322, 
        0.3216167092323303, 
        -0.4540621042251587, 
        -0.4736008644104004, 
        0.3831106126308441, 
        0.4731638431549072, 
        -0.7220466136932373, 
        0.05131751671433449, 
        0.6131196618080139, 
        -0.1592145562171936, 
        0.6828585863113403, 
        -0.3289480209350586, 
        0.18376867473125458, 
        -0.14053042232990265, 
        0.6202750205993652, 
        0.4773114025592804, 
        -0.5760610699653625, 
        0.39994436502456665, 
        -0.6338613033294678, 
        -0.44143909215927124, 
        0.6047936677932739, 
        0.4692530035972595, 
        0.366717129945755, 
        0.6851059198379517, 
        0.6245782375335693, 
        0.04481292888522148, 
        -0.5196368098258972, 
        0.06722430139780045, 
        0.35142239928245544, 
        -0.3301246166229248, 
        -0.5360254049301147, 
        0.7124846577644348, 
        -0.16596360504627228, 
        0.7862563729286194, 
        -0.662795901298523, 
        -0.1896321028470993, 
        -0.7268060445785522, 
        0.09448463469743729, 
        0.40775012969970703, 
        -0.5799685120582581, 
        0.6600877046585083, 
        0.5269306898117065, 
        -0.34672725200653076, 
        -0.5142807960510254, 
        0.4959809184074402, 
        0.37559425830841064, 
        0.7603995203971863, 
        -0.4036092460155487, 
        -0.25611412525177, 
        -0.0073021529242396355, 
        -0.5127488970756531, 
        -0.714474081993103, 
        0.7251139283180237, 
        -0.29020655155181885, 
        0.4544198513031006, 
        0.0432685986161232, 
        0.7630743980407715, 
        -0.49489885568618774, 
        0.470382958650589, 
        0.64249587059021, 
        0.2128067910671234, 
        -0.17486053705215454, 
        -0.6210914850234985, 
        0.40427520871162415, 
        0.14679133892059326, 
        0.7289785146713257, 
        -0.6764353513717651, 
        -0.5638311505317688, 
        -0.7414414286613464, 
        0.15996718406677246, 
        0.42126378417015076, 
        0.02877337858080864, 
        0.6801363229751587, 
        0.17298194766044617, 
        -0.2864943742752075, 
        -0.7297192811965942, 
        0.7811823487281799, 
        -0.13855060935020447, 
        0.24449299275875092, 
        -0.661747395992279, 
        0.1600925624370575, 
        -0.31894639134407043, 
        0.5359281897544861, 
        0.5659884810447693, 
        -0.10873876512050629, 
        -0.6124539375305176, 
        -0.5500540137290955, 
        0.45221421122550964, 
        -0.5296820402145386, 
        0.1888875663280487, 
        -0.7276329398155212, 
        -0.028295109048485756, 
        0.010578823275864124, 
        0.4542800188064575, 
        -0.2761301100254059, 
        0.7700799107551575, 
        0.7689920663833618, 
        0.3664860427379608, 
        0.5941311717033386, 
        -0.5219801664352417, 
        0.10239726305007935, 
        -0.3216027319431305, 
        -0.6551903486251831, 
        -0.7428433299064636, 
        -0.6991789937019348, 
        0.8218449354171753, 
        0.11767736077308655, 
        0.10317402333021164, 
        -0.14036446809768677, 
        -0.7110832929611206, 
        -0.6216123104095459, 
        0.46835753321647644, 
        -0.23864245414733887, 
        0.605803370475769, 
        0.139642596244812, 
        0.43813765048980713, 
        -0.4084673225879669, 
        0.09463399648666382, 
        -0.7158695459365845, 
        -0.31797096133232117, 
        -0.721310555934906, 
        0.7499012351036072, 
        0.0776115357875824, 
        0.3064020574092865, 
        0.6168838739395142, 
        -0.7129111289978027, 
        0.4211634397506714, 
        0.1407189965248108, 
        0.6677750945091248, 
        -0.551069974899292, 
        -0.44277212023735046, 
        -0.12021654099225998, 
        0.38397619128227234, 
        -0.16804799437522888, 
        0.051521845161914825, 
        0.45959025621414185, 
        0.14566636085510254, 
        -0.6625555157661438, 
        0.23902928829193115, 
        0.5644487738609314, 
        -0.232019305229187, 
        0.7273982763290405, 
        0.5397375822067261, 
        -0.45806413888931274, 
        0.1564178615808487, 
        0.20364528894424438, 
        0.5590202212333679, 
        0.7247036099433899, 
        0.5516977906227112, 
        -0.27021634578704834, 
        -0.5520419478416443, 
        -0.302386999130249, 
        -0.024993907660245895, 
        -0.1903308629989624, 
        0.4990758001804352, 
        -0.03985502943396568, 
        0.42866051197052, 
        -0.42714259028434753, 
        0.7900822162628174, 
        -0.09649334102869034, 
        -0.31184178590774536, 
        0.5704723000526428, 
        0.04128538817167282, 
        -0.6863545775413513, 
        -0.5362761616706848, 
        -0.034723736345767975, 
        -0.42682912945747375, 
        0.7215842008590698, 
        -0.11011579632759094, 
        -0.49568620324134827, 
        -0.3069801926612854, 
        0.48532533645629883, 
        0.649517297744751, 
        -0.47464925050735474, 
        -0.42016538977622986, 
        0.5476941466331482, 
        0.15662990510463715, 
        -0.4558129608631134, 
        0.07717480510473251, 
        -0.6386086940765381, 
        0.5505763292312622, 
        0.6393151879310608, 
        -0.02578899823129177, 
        0.6986624598503113, 
        -0.3014056980609894, 
        0.109064482152462, 
        -0.14638015627861023, 
        0.2690354883670807, 
        -0.45080941915512085, 
        -0.3175511360168457, 
        -0.40522468090057373, 
        0.5777431130409241, 
        0.2586406469345093, 
        0.23370672762393951, 
        -0.7516225576400757, 
        0.03413700312376022, 
        -0.3015165627002716, 
        -0.5648604035377502, 
        -0.7235312461853027, 
        -0.355103075504303, 
        -0.6707569360733032, 
        -0.47880983352661133, 
        -0.08419006317853928, 
        0.037853412330150604, 
        -0.0928570032119751, 
        -0.1703127771615982, 
        0.21367193758487701, 
        0.37477636337280273, 
        0.5568879842758179, 
        0.5530062913894653, 
        -0.5039434432983398, 
        0.675189197063446, 
        0.483875572681427, 
        -0.6688092350959778, 
        0.15299569070339203, 
        -0.7969491481781006, 
        0.6319605708122253, 
        0.2608014643192291, 
        -0.6610104441642761, 
        -0.35248398780822754, 
        -0.4313145875930786, 
        -0.7877700328826904, 
        0.3841124475002289, 
        -0.14998780190944672, 
        0.48465150594711304, 
        0.17167946696281433, 
        0.002616338897496462, 
        0.40110906958580017, 
        0.6718116998672485, 
        0.05027192831039429, 
