{
  "input_sequences": [], 
  "inputs": [
    {
      "name": "node_0", 
      "variables": [
        {
          "name": "variable_0", 
          "offset": 0, 
          "scale": 1
        }, 
        {
          "name": "variable_1", 
          "offset": 0, 
          "scale": 1
        }, 
        {
          "name": "variable_2", 
          "offset": 0, 
          "scale": 1
        }, 
        {
          "name": "variable_3", 
          "offset": 0, 
          "scale": 1
        }, 
        {
          "name": "variable_4", 
          "offset": 0, 
          "scale": 1
        }, 
        {
          "name": "variable_5", 
          "offset": 0, 
          "scale": 1
        }, 
        {
          "name": "variable_6", 
          "offset": 0, 
          "scale": 1
        }, 
        {
          "name": "variable_7", 
          "offset": 0, 
          "scale": 1
        }, 
        {
          "name": "variable_8", 
          "offset": 0, 
          "scale": 1
        }, 
        {
          "name": "variable_9", 
          "offset": 0, 
          "scale": 1
        }, 
        {
          "name": "variable_10", 
          "offset": 0, 
          "scale": 1
        }
      ]
    }
  ], 
  "layers": [
    {
      "architecture": "normalization", 
      "bias": [
        -526897.75, 
        -168428.234375, 
        -0.2415023297071457, 
        -2.483135223388672, 
        -2.6527786254882812, 
        -0.3819865584373474, 
        -6.428304672241211, 
        -4.731712341308594, 
        -3.197476625442505, 
        -1.050420880317688, 
        -15.25875473022461
      ], 
      "weights": [
        1.1147353689011652e-06, 
        8.29647160571767e-06, 
        5.227776050567627, 
        0.5149511098861694, 
        2.0371506214141846, 
        1.6310795545578003, 
        0.5115576982498169, 
        0.3222227990627289, 
        0.31921377778053284, 
        1.114405632019043, 
        0.08585286885499954
      ]
    }, 
    {
      "activation": "tanh", 
      "architecture": "dense", 
      "bias": [
        0.2492171674966812, 
        0.0034982720389962196, 
        0.10476385056972504, 
        0.04898854345083237, 
        0.23167899250984192, 
        -0.2479846477508545, 
        0.10189671069383621, 
        -0.06522161513566971, 
        0.030357984825968742, 
        0.16663679480552673, 
        -0.13636983931064606, 
        0.10112404823303223, 
        -0.011027338914573193, 
        -0.16714854538440704, 
        0.05991638824343681, 
        -0.051367659121751785, 
        -0.18926116824150085, 
        -0.05422211438417435, 
        0.20200766623020172, 
        -0.2566579282283783, 
        -0.1419195979833603, 
        0.06436493247747421, 
        -0.28109681606292725, 
        0.0479336641728878, 
        0.058635856956243515, 
        -0.08188987523317337, 
        -0.10518649220466614, 
        0.04873160272836685, 
        -0.07899731397628784, 
        0.10173866152763367, 
        0.13055142760276794, 
        0.08185972273349762, 
        0.26695191860198975, 
        -0.13598547875881195, 
        0.04971333220601082, 
        0.17592138051986694, 
        0.025548642501235008, 
        -0.06682175397872925, 
        -0.15793220698833466, 
        -0.024277107790112495, 
        -0.2810207009315491, 
        -0.08517128974199295, 
        -0.10478991270065308, 
        -0.1475992202758789, 
        0.13041386008262634, 
        0.11985800415277481, 
        -0.014569534920156002, 
        -0.030124804005026817, 
        0.13961133360862732, 
        -0.04934290051460266, 
        -0.0836358442902565, 
        -0.2478625476360321, 
        0.25598421692848206, 
        0.13237783312797546, 
        -0.18490485846996307, 
        -0.2912285327911377, 
        -0.2020445317029953, 
        -0.14911022782325745, 
        0.12667901813983917, 
        -0.1028747633099556, 
        0.015816856175661087, 
        0.1289864182472229, 
        0.11942180246114731, 
        -0.2394498735666275, 
        0.17104381322860718, 
        -0.16107286512851715, 
        -0.09791170060634613, 
        0.17409855127334595, 
        0.1935468167066574, 
        -0.12259040027856827, 
        -0.23977628350257874, 
        0.11825775355100632, 
        0.1898425668478012, 
        0.05565381795167923, 
        0.3037916123867035, 
        0.01215654518455267, 
        0.002692196285352111, 
        0.2952084541320801, 
        -0.09059768170118332, 
        -0.10977350920438766, 
        -0.21473398804664612, 
        -0.10394517332315445, 
        -0.13080109655857086, 
        -0.24763032793998718, 
        0.09796573221683502, 
        -0.03730098903179169, 
        -0.07108607888221741, 
        -0.10870350152254105, 
        0.10408446937799454, 
        0.11446812003850937, 
        0.103044793009758, 
        0.14889156818389893, 
        -0.04628947377204895, 
        0.17911408841609955, 
        0.12441586703062057, 
        -0.08931015431880951, 
        0.24691174924373627, 
        0.09131889790296555, 
        -0.10336750745773315, 
        0.02506328746676445, 
        0.10374107956886292, 
        -0.19532279670238495, 
        0.0746992975473404, 
        -0.10341839492321014, 
        -0.054535217583179474, 
        -0.09021466225385666, 
        -0.03725093603134155, 
        0.16576962172985077, 
        -0.04910697788000107, 
        0.16954068839550018, 
        -0.08677076548337936, 
        -0.20002000033855438, 
        0.05476866289973259, 
        -0.10154242813587189, 
        -0.14712899923324585, 
        -0.1302490085363388, 
        0.09852713346481323, 
        0.08935550600290298, 
        -0.16196192800998688, 
        -0.06450507044792175, 
        -0.0967988446354866, 
        -0.08929353207349777, 
        0.11420299857854843, 
        0.11233683675527573, 
        -0.14638753235340118, 
        -0.03167806938290596, 
        -0.14731137454509735, 
        0.20330868661403656, 
        0.26122742891311646, 
        0.05098150670528412, 
        0.04745058715343475, 
        -0.24584151804447174, 
        0.05876278132200241, 
        0.0595673993229866, 
        -0.1355888992547989, 
        0.07470467686653137, 
        -0.13442370295524597, 
        0.044065508991479874, 
        -0.05280831828713417, 
        0.11407867074012756, 
        0.2292523831129074, 
        -0.08226455748081207, 
        -0.1845509558916092, 
        0.19297495484352112, 
        0.043095700442790985, 
        -0.23704709112644196, 
        0.2335694581270218, 
        -0.0962018296122551, 
        -0.06950902193784714, 
        -0.06485660374164581, 
        -0.10508598387241364, 
        -0.07318325340747833, 
        0.23984219133853912, 
        0.13458167016506195, 
        -0.25313234329223633, 
        0.2286289781332016, 
        0.22930122911930084, 
        0.0967792272567749, 
        -0.06320085376501083, 
        0.14782465994358063, 
        0.047405216842889786, 
        0.12065005302429199, 
        0.0660480335354805, 
        0.10732757300138474, 
        0.2481379359960556, 
        0.07860226184129715, 
        0.10552702844142914, 
        -0.06776659190654755, 
        0.059070803225040436, 
        -0.24780471622943878, 
        0.05275609344244003, 
        0.05997929349541664, 
        0.13440221548080444, 
        -0.26650065183639526, 
        -0.21311147511005402, 
        -0.10095668584108353, 
        -0.31715428829193115, 
        -0.06538131088018417, 
        -0.1200554147362709, 
        0.1101340800523758, 
        0.12443561106920242, 
        0.019404184073209763, 
        -0.098330557346344, 
        -0.027314091101288795, 
        -0.15010103583335876, 
        -0.18419066071510315, 
        0.07808741927146912, 
        0.1905006617307663, 
        -0.008624952286481857, 
        0.18218807876110077, 
        0.23424962162971497, 
        0.060478080064058304, 
        -0.15927956998348236, 
        -0.14581161737442017, 
        0.17870624363422394, 
        -0.02907116338610649, 
        -0.22615942358970642, 
        -0.15632939338684082, 
        0.18843312561511993, 
        0.19207483530044556, 
        -0.057333074510097504, 
        0.10638101398944855, 
        0.1866166740655899, 
        0.2726508677005768, 
        0.07579315453767776, 
        -0.20065699517726898, 
        0.013953874818980694, 
        0.14542825520038605, 
        -0.1252129226922989, 
        -0.13157640397548676, 
        -0.22060047090053558, 
        -0.22334975004196167, 
        0.12139018625020981, 
        -0.04026840254664421, 
        -0.09014368802309036, 
        -0.10614922642707825, 
        -0.12698855996131897, 
        -0.09884350001811981, 
        0.1543523371219635, 
        -0.006592439487576485, 
        -0.11075040698051453, 
        -0.1290593445301056, 
        -0.13860101997852325, 
        -0.06650938838720322, 
        -0.30065247416496277, 
        -0.14911413192749023, 
        -0.23401737213134766, 
        0.12950657308101654, 
        0.2183922380208969, 
        -0.14711254835128784, 
        0.0996207594871521, 
        0.16808867454528809, 
        -0.1511661559343338, 
        0.11730414628982544, 
        -0.1466291844844818, 
        -0.12439238280057907, 
        0.07597604393959045, 
        0.22874733805656433, 
        -0.17701099812984467, 
        -0.11387016624212265, 
        0.21942020952701569, 
        -0.12117060273885727, 
        -0.18493345379829407, 
        0.09242846071720123, 
        0.12250502407550812, 
        -0.10961173474788666, 
        0.07426445186138153, 
        -0.09589990973472595, 
        -0.14028657972812653, 
        0.2012195736169815, 
        0.008327586576342583, 
        -0.1657714694738388, 
        0.19286596775054932, 
        -0.0841694250702858, 
        -0.155217707157135, 
        -0.22866183519363403, 
        -0.15191492438316345, 
        -0.256499707698822, 
        0.13891643285751343, 
        -0.12754808366298676, 
        -0.25346386432647705, 
        -0.18187548220157623, 
        0.05204299837350845, 
        -0.08507999777793884, 
        -0.04121917486190796, 
        -0.10104060173034668, 
        0.23186911642551422, 
        0.12663713097572327, 
        0.1441148817539215, 
        0.2047705352306366, 
        -0.09908924996852875, 
        0.21535319089889526, 
        0.1530362367630005, 
        -0.0521286204457283, 
        0.06059114634990692, 
        0.09702463448047638, 
        0.09343104809522629, 
        -0.20415014028549194, 
        -0.14124813675880432, 
        -0.0005363388918340206, 
        0.1275629997253418, 
        -0.12571004033088684, 
        0.0624963641166687, 
        -0.09783703088760376, 
        -0.0890585333108902, 
        -0.0843283012509346, 
        0.28730645775794983, 
        -0.3599133789539337, 
        0.09996414929628372, 
        0.11517409980297089, 
        -0.2994742691516876, 
        -0.13948437571525574, 
        -0.07332300394773483, 
        0.055962078273296356, 
        0.059555038809776306, 
        -0.018712902441620827, 
        -0.09332816302776337, 
        -0.09839916229248047, 
        -0.14555248618125916, 
        -0.09626122564077377, 
        0.07415139675140381, 
        -0.06394202262163162, 
        -0.21654321253299713, 
        -0.01218885462731123, 
        0.15360482037067413, 
        -0.05282316356897354, 
        -0.14028306305408478, 
        0.07383566349744797, 
        -0.12928062677383423, 
        0.10975924879312515, 
        0.07703150808811188, 
        -0.12121153622865677, 
        0.05233810842037201, 
        0.08896385133266449, 
        0.27633294463157654, 
        0.14603710174560547, 
        -0.2719128429889679, 
        0.12298744916915894, 
        -0.19011299312114716, 
        0.12493837624788284, 
        0.21893088519573212, 
        0.0038618387188762426, 
        -0.25691163539886475, 
        0.09192658215761185, 
        0.10156291723251343, 
        0.12953218817710876, 
        -0.18312418460845947, 
        0.13438791036605835, 
        -0.08909489214420319, 
        -0.20541566610336304, 
        -0.11313902586698532, 
        0.11845312267541885, 
        0.08879832178354263, 
        0.13271895051002502, 
        0.10228811204433441, 
        0.12824437022209167, 
        -0.11199942231178284, 
        -0.10326043516397476, 
        -0.2171832174062729, 
        0.22237488627433777, 
        -0.05275920405983925, 
        -0.2347109019756317, 
        0.2430311143398285, 
        0.20118007063865662, 
        0.19913481175899506, 
        0.30303746461868286, 
        -0.2771064341068268, 
        -0.12932206690311432, 
        0.2614726126194, 
        -0.08846216648817062, 
        0.09395051747560501, 
        0.1665826141834259, 
        0.0952339693903923, 
        -0.1402018964290619, 
        -0.12313763797283173, 
        -0.10730048269033432, 
        0.21991270780563354, 
        -0.11762508749961853, 
        -0.08351127803325653, 
        0.23430389165878296, 
        0.04658561199903488, 
        0.17673981189727783, 
        -0.19496764242649078, 
        -0.026928730309009552, 
        -0.23838908970355988, 
        0.13138361275196075, 
        0.17073185741901398, 
        -0.09541035443544388, 
        -0.18275399506092072, 
        -0.10736323148012161, 
        0.2885367274284363, 
        0.2455519139766693, 
        0.17107483744621277, 
        -0.1582348644733429, 
        0.25027480721473694, 
        0.2548084259033203, 
        -0.22433297336101532, 
        0.20927850902080536, 
        0.10277840495109558, 
        -0.2259628027677536, 
        -0.08630713075399399, 
        -0.1568376123905182, 
        0.1060667634010315, 
        0.16999715566635132, 
        0.21449698507785797, 
        0.22097520530223846, 
        -0.26422664523124695, 
        0.0989001914858818, 
        -0.06460969150066376, 
        0.12858974933624268, 
        0.15950320661067963, 
        0.09365233033895493, 
        -0.1113242655992508, 
        0.15968333184719086, 
        -0.17997851967811584, 
        -0.14675039052963257, 
        -0.11692973226308823, 
        -0.15057308971881866, 
        0.2005545049905777, 
        0.19420941174030304, 
        -0.16779685020446777, 
        -0.13896845281124115, 
        0.2619551420211792, 
        0.17047545313835144, 
        0.10459471493959427, 
        0.12308882176876068, 
        -0.14436781406402588, 
        -0.22232283651828766, 
        0.10192232578992844, 
        -0.1042705848813057, 
        0.15017227828502655, 
        -0.19480487704277039, 
        0.11181854456663132, 
        0.15962383151054382, 
        0.2004203498363495, 
        -0.00715263606980443, 
        -0.15470068156719208, 
        0.11780115216970444, 
        0.10685534030199051, 
        0.09076885133981705, 
        0.24632076919078827, 
        -0.06266941875219345, 
        0.06060833856463432, 
        -0.07862575352191925, 
        0.09142976999282837, 
        0.07684578746557236, 
        0.07447359710931778, 
        0.11735343933105469, 
        -0.14558754861354828, 
        0.07249169796705246, 
        0.14191797375679016, 
        -0.04149229824542999, 
        -0.06796140223741531, 
        -0.16010282933712006, 
        0.06307947635650635, 
        -0.16655504703521729, 
        0.09855005890130997, 
        -0.11704343557357788, 
        -0.1494750827550888, 
        0.22670011222362518, 
        0.11865004897117615, 
        0.24745996296405792, 
        0.08212883025407791, 
        -0.09324740618467331, 
        -0.1278168112039566, 
        -0.09044294059276581, 
        -0.2946282625198364, 
        0.2463645339012146, 
        -0.06289136409759521, 
        -0.12037500739097595, 
        0.04631200432777405, 
        0.19236703217029572, 
        0.11871878802776337, 
        -0.09733659029006958, 
        0.24184460937976837, 
        -0.2724035084247589, 
        0.10430167615413666, 
        0.3047623932361603, 
        -0.23538294434547424, 
        -0.2572418749332428, 
        -0.09826720505952835, 
        0.07952681928873062, 
        -0.09296030551195145, 
        0.009611440822482109, 
        -0.1777995228767395, 
        0.19046340882778168, 
        0.09385686367750168, 
        -0.08252834528684616, 
        0.1172209158539772, 
        0.04622887447476387, 
        0.01099283155053854, 
        0.15381339192390442, 
        -0.09470748901367188, 
        -0.022531678900122643, 
        0.06445237994194031, 
        -0.061761509627103806, 
        0.09977903962135315, 
        0.09915446490049362, 
        -0.2562631070613861, 
        0.261148601770401, 
        -0.22909003496170044, 
        -0.21199461817741394, 
        0.18208880722522736, 
        0.1089458018541336, 
        -0.02702213265001774, 
        0.11803029477596283, 
        -0.2091689556837082, 
        -0.09211939573287964, 
        -0.10687340050935745, 
        0.12264421582221985, 
        0.09619423002004623, 
        0.0661572739481926, 
        0.14698481559753418, 
        -0.11351338028907776, 
        -0.11172749847173691, 
        0.08995229750871658, 
        0.12669311463832855, 
        0.15428929030895233, 
        -0.20762276649475098, 
        0.11596204340457916, 
        -0.12898588180541992, 
        -0.23244145512580872, 
        0.1260523796081543, 
        0.08746685832738876, 
        0.1371667981147766, 
        0.21408739686012268, 
        0.1078440323472023, 
        0.10105237364768982, 
        0.04388750344514847, 
        -0.19044619798660278, 
        0.058396946638822556, 
        0.1799241602420807
      ], 
      "weights": [
        0.5875151753425598, 
        -0.35795167088508606, 
        -0.33978134393692017, 
        0.3946917951107025, 
        -0.2970046401023865, 
        -0.33755698800086975, 
        0.5366328954696655, 
        0.7052232623100281, 
        0.38555532693862915, 
        0.09037116169929504, 
        0.4743499755859375, 
        0.6484203338623047, 
        0.22156420350074768, 
        0.07154648005962372, 
        -0.2827584445476532, 
        0.553364634513855, 
        -0.4537138342857361, 
        0.13177336752414703, 
        0.608306884765625, 
        0.261771559715271, 
        -0.35763949155807495, 
        -0.15962733328342438, 
        0.34287500381469727, 
        -0.5349305868148804, 
        0.05415954440832138, 
        -0.17611466348171234, 
        -0.13994979858398438, 
        -0.7263615727424622, 
        0.34251123666763306, 
        -0.4804445505142212, 
        0.5130370855331421, 
        0.5356534719467163, 
        0.030766425654292107, 
        0.6675714254379272, 
        -0.35369741916656494, 
        0.49631911516189575, 
        -0.43348264694213867, 
        -0.4044360816478729, 
        -0.24253451824188232, 
        0.5192161202430725, 
        -0.12650984525680542, 
        -0.5372876524925232, 
        -0.18407310545444489, 
        0.48055481910705566, 
        0.2601394057273865, 
        0.3491726815700531, 
        0.5030551552772522, 
        -0.43285778164863586, 
        -0.3361915349960327, 
        -0.3958618938922882, 
        -0.23240186274051666, 
        -0.06043576821684837, 
        0.4575154483318329, 
        -0.15432949364185333, 
        -0.19226352870464325, 
        -0.3092009723186493, 
        -0.4647769629955292, 
        0.19368460774421692, 
        0.5035973787307739, 
        -0.5635966062545776, 
        -0.142354354262352, 
        0.38954657316207886, 
        -0.45488613843917847, 
        0.5423406362533569, 
        0.0627773255109787, 
        0.2652752101421356, 
        0.1085263043642044, 
        0.4771835207939148, 
        -0.3307151794433594, 
        -0.3155618906021118, 
        0.19547554850578308, 
        -0.30167481303215027, 
        0.4121007025241852, 
        -0.5204063057899475, 
        -0.15732046961784363, 
        0.5723095536231995, 
        -0.5392017960548401, 
        0.31281840801239014, 
        0.5904442667961121, 
        0.13198845088481903, 
        0.2879858613014221, 
        -0.4581228494644165, 
        0.1019599586725235, 
        0.4882528483867645, 
        -0.024723872542381287, 
        -0.05340038239955902, 
        0.49450621008872986, 
        -0.5215169787406921, 
        -0.45795586705207825, 
        0.06072200462222099, 
        -0.06767545640468597, 
        -0.3587009906768799, 
        -0.24787457287311554, 
        0.06282936036586761, 
        -0.16948044300079346, 
        0.4999684691429138, 
        0.5660660266876221, 
        -0.1501549333333969, 
        0.2978092133998871, 
        0.039732832461595535, 
        0.47339513897895813, 
        -0.24372516572475433, 
        0.2713678479194641, 
        0.6352840662002563, 
        0.5842410922050476, 
        -0.46874892711639404, 
        0.3167053461074829, 
        -0.11149977147579193, 
        -0.05858069285750389, 
        0.5107429027557373, 
        -0.4569067060947418, 
        0.044914912432432175, 
        0.1575203686952591, 
        -0.0017568818293511868, 
        -0.5887521505355835, 
        0.5705288648605347, 
        0.5065399408340454, 
        0.45046138763427734, 
        0.0643097534775734, 
        0.15877290070056915, 
        -0.2368614822626114, 
        0.32929661870002747, 
        0.2520860433578491, 
        0.13657139241695404, 
        -0.2062966227531433, 
        -0.2236539125442505, 
        0.7488400936126709, 
        0.6696001291275024, 
        0.06471110880374908, 
        0.4756285548210144, 
        0.045300956815481186, 
        0.6594817638397217, 
        1.0013068914413452, 
        0.5491620898246765, 
        0.3023717999458313, 
        0.023343529552221298, 
        0.2934437096118927, 
        0.16952215135097504, 
        -0.3666380047798157, 
        -0.5068766474723816, 
        0.384508341550827, 
        -0.28765442967414856, 
        -0.23775836825370789, 
        -0.0270449947565794, 
        0.02851155586540699, 
        -0.5315502285957336, 
        -0.1709817796945572, 
        -0.48793500661849976, 
        0.3166489005088806, 
        -0.10671179741621017, 
        -0.47768059372901917, 
        0.04525551199913025, 
        0.2238086611032486, 
        0.0795430839061737, 
        0.1776246875524521, 
        0.17711417376995087, 
        0.36705607175827026, 
        -0.11745186150074005, 
        0.36988475918769836, 
        -0.5268797278404236, 
        -0.1624087244272232, 
        0.3085915744304657, 
        0.635750412940979, 
        -0.5972059369087219, 
        0.6257261633872986, 
        0.5959084033966064, 
        0.6305779814720154, 
        -0.05647790804505348, 
        0.4560576379299164, 
        0.14381445944309235, 
        0.5730324387550354, 
        0.6272780895233154, 
        0.17270715534687042, 
        0.140767440199852, 
        0.23131488263607025, 
        0.21446339786052704, 
        -0.4174273610115051, 
        -0.47075340151786804, 
        -0.08406610786914825, 
        0.46851468086242676, 
        0.18593370914459229, 
        -0.12957067787647247, 
        0.3156920373439789, 
        0.19328199326992035, 
        -0.648970365524292, 
        0.18451684713363647, 
        -0.46250656247138977, 
        -0.1730499267578125, 
        -0.5037980675697327, 
        0.003487743204459548, 
        -0.5608096718788147, 
        0.6910131573677063, 
        0.19247128069400787, 
        -0.28284087777137756, 
        -0.2692021131515503, 
        0.29297977685928345, 
        0.013985984958708286, 
        0.15681184828281403, 
        -0.6393436789512634, 
        0.16579680144786835, 
        -0.726628303527832, 
        -0.5710403919219971, 
        -0.07665178924798965, 
        -0.6404525637626648, 
        0.4980447590351105, 
        -0.6832864880561829, 
        0.4309486150741577, 
        0.28494301438331604, 
        0.29001593589782715, 
        0.38947826623916626, 
        0.21790969371795654, 
        -0.2795760929584503, 
        0.07757093012332916, 
        0.4931974709033966, 
        -0.7287347912788391, 
        -0.3871605694293976, 
        0.11539532244205475, 
        -0.6109545826911926, 
        0.1636078804731369, 
        0.4822961986064911, 
        0.7184748649597168, 
        0.3893142640590668, 
        0.09461545944213867, 
        -0.019131271168589592, 
        -0.3719247281551361, 
        -0.14035703241825104, 
        0.3069751560688019, 
        -0.08557670563459396, 
        -0.7113420963287354, 
        0.15271614491939545, 
        -0.6579402685165405, 
        -0.7744778990745544, 
        0.1155860498547554, 
        0.6561284065246582, 
        0.0774206593632698, 
        0.6570876240730286, 
        -0.0017384939128533006, 
        0.02575027383863926, 
        -0.049095820635557175, 
        -0.12214445322751999, 
        0.386943519115448, 
        0.35214942693710327, 
        0.016788825392723083, 
        0.4887639582157135, 
        0.8196201324462891, 
        0.03231973201036453, 
        -0.24022696912288666, 
        0.42152872681617737, 
        0.12483584880828857, 
        0.08378339558839798, 
        -0.6243703961372375, 
        -0.6355201601982117, 
        -0.19629265367984772, 
        -0.24396121501922607, 
        -0.07554511725902557, 
        -0.33684852719306946, 
        0.09725123643875122, 
        0.10086480528116226, 
        0.6110467910766602, 
        -0.44180768728256226, 
        -0.15862606465816498, 
        0.5445656180381775, 
        -0.15021391212940216, 
        -0.26284223794937134, 
        0.22920000553131104, 
        -0.4757092297077179, 
        0.19945953786373138, 
        0.44716960191726685, 
        -0.02573264203965664, 
        -0.3699667155742645, 
        -0.14151568710803986, 
        0.207074373960495, 
        -0.07472813129425049, 
        -0.623509407043457, 
        0.6028521060943604, 
        -0.5560821294784546, 
        0.3223226070404053, 
        -0.7405157089233398, 
        0.12395203858613968, 
        -0.36566901206970215, 
        0.23674003779888153, 
        -0.06611716747283936, 
        -0.18501657247543335, 
        -0.06603220850229263, 
        0.5846951603889465, 
        -0.41609877347946167, 
        0.370361328125, 
        -0.4537252187728882, 
        0.27992138266563416, 
        0.32509201765060425, 
        -0.7150595188140869, 
        0.5379874110221863, 
        0.4624124765396118, 
        -0.6708616614341736, 
        0.6015301942825317, 
        0.2892177700996399, 
        -0.6110947728157043, 
        0.26833561062812805, 
        -0.5221394896507263, 
        -0.682281494140625, 
        0.22613349556922913, 
        0.6271258592605591, 
        -0.41289398074150085, 
        -0.007050775922834873, 
        -0.7195907831192017, 
        0.533994197845459, 
        -0.26121002435684204, 
        -0.36105528473854065, 
        1.3198645114898682, 
        -0.11649315059185028, 
        0.19733303785324097, 
        -0.4689734876155853, 
        0.07957500964403152, 
        -0.5123640894889832, 
        -0.6439181566238403, 
        -0.46248239278793335, 
        -0.1188378557562828, 
        -0.2451947033405304, 
        -0.7042413949966431, 
        0.33732870221138, 
        0.5844976902008057, 
        -0.1571332812309265, 
        0.6985359191894531, 
        -0.19606930017471313, 
        0.26344364881515503, 
        0.4875313341617584, 
        -0.16431641578674316, 
        0.7027004361152649, 
        0.0004642067360691726, 
        0.6275076270103455, 
        -0.7397323250770569, 
        0.34152519702911377, 
        0.29464495182037354, 
        -0.036234401166439056, 
        -0.10391491651535034, 
        -0.46564656496047974, 
        -0.510941207408905, 
        -0.6667470932006836, 
        0.40464580059051514, 
        0.40427595376968384, 
        0.25611573457717896, 
        -0.3078526556491852, 
        0.3485006093978882, 
        -0.3175472915172577, 
        -0.2097783237695694, 
        -0.247920423746109, 
        -0.5525653958320618, 
        0.2050521820783615, 
        -0.27003148198127747, 
        -0.30593201518058777, 
        0.7077596187591553, 
        0.15809763967990875, 
        0.3779323697090149, 
        -0.6294512152671814, 
        -0.646428644657135, 
        0.3413828909397125, 
        -0.582729160785675, 
        0.17485204339027405, 
        0.5404907464981079, 
        0.604735791683197, 
        0.3412509262561798, 
        0.6037038564682007, 
        -0.4581091105937958, 
        0.17467805743217468, 
        -0.044420838356018066, 
        0.12759508192539215, 
        -0.03337360918521881, 
        0.08718985319137573, 
        0.1675572544336319, 
        0.7219122052192688, 
        0.5826088786125183, 
        -0.5248275399208069, 
        0.21038058400154114, 
        0.4052068889141083, 
        -0.6084232926368713, 
        -0.3199446499347687, 
        -0.6955671906471252, 
        -0.7723475694656372, 
        0.5070711374282837, 
        0.49510321021080017, 
        0.6623623967170715, 
        -0.07738054543733597, 
        -0.16134966909885406, 
        -0.5492275357246399, 
        -0.40668612718582153, 
        -0.35272473096847534, 
        -0.541374683380127, 
        0.6467705368995667, 
        -0.8148519992828369, 
        0.6381452083587646, 
        0.7317129373550415, 
        0.22681660950183868, 
        0.31194913387298584, 
        0.1430683434009552, 
        -0.4019697904586792, 
        0.5124334692955017, 
        -0.16525737941265106, 
        -0.03712907433509827, 
        -0.18626165390014648, 
        0.33617058396339417, 
        -0.5994578003883362, 
        -0.31267136335372925, 
        0.6539056301116943, 
        -0.5712457895278931, 
        -0.6012136936187744, 
        0.6605424284934998, 
        0.7121242880821228, 
        -0.1834368109703064, 
        0.2128237932920456, 
        0.25238120555877686, 
        -0.022439587861299515, 
        -0.5812504291534424, 
        0.09605072438716888, 
        0.6639532446861267, 
        -0.2333800196647644, 
        0.31975889205932617, 
        0.3985675275325775, 
        0.22643615305423737, 
        0.18790146708488464, 
        -0.5112822651863098, 
        -0.36461108922958374, 
        0.18972933292388916, 
        -0.2807270586490631, 
        -0.30994805693626404, 
        0.4556920826435089, 
        0.3549698293209076, 
        -0.574702799320221, 
        0.288237601518631, 
        -0.16219112277030945, 
        0.3908565640449524, 
        -0.40609344840049744, 
        -0.595624566078186, 
        -0.1228460818529129, 
        -0.720834493637085, 
        -0.08094603568315506, 
        0.4115687608718872, 
        -0.6233130693435669, 
        -0.3596402406692505, 
        0.21614357829093933, 
        -0.30330607295036316, 
        0.09031675010919571, 
        0.011995960026979446, 
        0.07580056041479111, 
        -0.16864095628261566, 
        0.0739213079214096, 
        0.2033149152994156, 
        -0.30188360810279846, 
        0.4673086404800415, 
        -0.7762606739997864, 
        -0.37964245676994324, 
        0.0005746451206505299, 
        1.1029036045074463, 
        0.02165280655026436, 
        -0.5751569867134094, 
        -0.33053532242774963, 
        -0.4270983338356018, 
        0.3182178735733032, 
        -0.570785641670227, 
        -0.4852064847946167, 
        0.2313849776983261, 
        0.048711709678173065, 
        -0.12106703966856003, 
        0.5544539093971252, 
        0.6520625352859497, 
        -0.05071575939655304, 
        -0.077341727912426, 
        0.5555687546730042, 
        -0.6878964304924011, 
        -0.5413967370986938, 
        -0.16874031722545624, 
        -0.45937106013298035, 
        0.43847203254699707, 
        -0.20020829141139984, 
        -0.20871177315711975, 
        -0.1457798033952713, 
        0.5350614190101624, 
        0.0959303230047226, 
        -0.2621670663356781, 
        0.18034613132476807, 
        0.4263576865196228, 
        0.5426249504089355, 
        -0.03481397032737732, 
        -0.10218147933483124, 
        -0.12147138267755508, 
        -0.2602173686027527, 
        -0.4982479214668274, 
        0.5004779100418091, 
        -0.6283060908317566, 
        -0.27431339025497437, 
        0.3155401349067688, 
        -0.09141138195991516, 
        -0.45292750000953674, 
        0.4159315526485443, 
        0.42585691809654236, 
        -0.35557055473327637, 
        0.504845917224884, 
        0.5716580748558044, 
        0.5942226052284241, 
        0.49598419666290283, 
        0.1560341715812683, 
        -0.15403635799884796, 
        0.06439601629972458, 
        -0.8080826997756958, 
        -0.8565260171890259, 
        -0.2393287867307663, 
        0.447051465511322, 
        -1.2508224248886108, 
        -0.11502242088317871, 
        0.0607895627617836, 
        0.043532680720090866, 
        0.026600509881973267, 
        0.573680579662323, 
        0.6089046001434326, 
        -0.15071190893650055, 
        0.4819374978542328, 
        0.6050882339477539, 
        0.5195068120956421, 
        -0.456437349319458, 
        -0.1928434520959854, 
        0.8199446201324463, 
        -0.6698182821273804, 
        -0.7452078461647034, 
        0.43886101245880127, 
        0.0977398082613945, 
        0.3364652991294861, 
        -0.45137909054756165, 
        -0.053344160318374634, 
        -0.26187077164649963, 
        0.2626669704914093, 
        -0.5025150179862976, 
        -0.19139796495437622, 
        -0.08781982213258743, 
        -0.22387507557868958, 
        -0.182230606675148, 
        0.13220623135566711, 
        -0.4924068748950958, 
        0.43767377734184265, 
        0.2844429016113281, 
        0.10318870097398758, 
        0.6114863157272339, 
        0.5781323909759521, 
        -0.4206242561340332, 
        -0.27967512607574463, 
        -0.5844352841377258, 
        -0.07826509326696396, 
        0.1036899983882904, 
        0.06664375215768814, 
        -0.061477359384298325, 
        0.0810966044664383, 
        -0.6623199582099915, 
        -0.3753240406513214, 
        -0.31529700756073, 
        0.4532207250595093, 
        -0.16678036749362946, 
        0.5033935308456421, 
        0.028910469263792038, 
        0.4154914319515228, 
        -0.2628547251224518, 
        0.4768753945827484, 
        -0.5799441933631897, 
        -0.38659119606018066, 
        -0.307757169008255, 
        -0.1756715029478073, 
        0.15263858437538147, 
        0.5656691789627075, 
        0.058779388666152954, 
        -0.2554430365562439, 
        0.5128502249717712, 
        0.7038707137107849, 
        -0.7512496113777161, 
        0.023303542286157608, 
        -0.30526819825172424, 
        0.30796265602111816, 
        0.35971131920814514, 
        -0.7645426988601685, 
        -0.29138457775115967, 
        -0.11500201374292374, 
        -0.3887026906013489, 
        0.44211411476135254, 
        -0.33743810653686523, 
        0.7073056101799011, 
        -0.21169961988925934, 
        -0.26129212975502014, 
        -0.4750147759914398, 
        -0.6788149476051331, 
        0.23499634861946106, 
        -0.45226922631263733, 
        -0.04599015787243843, 
        -0.17292311787605286, 
        0.38474148511886597, 
        -0.2462674379348755, 
        -0.1660921275615692, 
        0.003648916259407997, 
        -0.7620646357536316, 
        -0.10324227064847946, 
        -0.19662441313266754, 
        0.3355633318424225, 
        -0.43409961462020874, 
        0.6414713263511658, 
        -0.37878483533859253, 
        0.8564066886901855, 
        -0.2831386923789978, 
        0.29026687145233154, 
        0.2158791720867157, 
        -0.12155789136886597, 
        -0.13449133932590485, 
        -0.02525702491402626, 
        0.4135473966598511, 
        -0.5308161377906799, 
        0.19055528938770294, 
        -0.13007256388664246, 
        -0.21337182819843292, 
        0.2965858280658722, 
        -0.15598434209823608, 
        -0.6514158844947815, 
        -0.30662816762924194, 
        -0.3416731655597687, 
        -0.5880263447761536, 
        0.019117487594485283, 
        -0.03358644247055054, 
        -0.49267882108688354, 
        0.3610905408859253, 
        -0.28115221858024597, 
        0.7165378928184509, 
        0.1066688746213913, 
        0.6331548094749451, 
        0.4820505380630493, 
        0.0355449877679348, 
        -0.4574446678161621, 
        -0.2215031534433365, 
        0.009487594477832317, 
        0.24924546480178833, 
        -0.01678568497300148, 
        0.6736963391304016, 
        -0.44494906067848206, 
        0.5458564758300781, 
        0.28047195076942444, 
        0.33664339780807495, 
        -0.05025642737746239, 
        0.2294611781835556, 
        -0.6587247252464294, 
        0.05697986111044884, 
        0.7938784956932068, 
        0.35201573371887207, 
        0.33280104398727417, 
        -0.03811873495578766, 
        -0.004079649690538645, 
        0.34314221143722534, 
        0.3766363859176636, 
        0.4677797853946686, 
        -0.005216597113758326, 
        0.07256586104631424, 
        0.2816793918609619, 
        -0.7087789177894592, 
        -0.06537459790706635, 
        -0.12270618975162506, 
        -0.20834428071975708, 
        -0.011562127619981766, 
        0.5110684633255005, 
        -0.38035905361175537, 
        0.04769373685121536, 
        0.7065288424491882, 
        0.36115407943725586, 
        -0.36435920000076294, 
        0.4145050346851349, 
        -0.7184903621673584, 
        0.1690758913755417, 
        0.1324017345905304, 
        -0.7540887594223022, 
        -0.03382544219493866, 
        -0.4099741578102112, 
        -0.45042407512664795, 
        -0.13141226768493652, 
        -0.500201940536499, 
        0.28794896602630615, 
        0.5427987575531006, 
        0.023942485451698303, 
        -0.5708937048912048, 
        0.027490178123116493, 
        0.04111258313059807, 
        0.1652110517024994, 
        -0.5079227685928345, 
        -0.6854588985443115, 
        0.3801451623439789, 
        -0.24696733057498932, 
        0.05983549728989601, 
        -0.25149768590927124, 
        -0.42405080795288086, 
        -0.2731844484806061, 
        -0.315885454416275, 
        0.5593788623809814, 
        0.4843411147594452, 
        0.45673659443855286, 
        0.06845244020223618, 
        -0.12228294461965561, 
        -0.5197367668151855, 
        0.21214120090007782, 
        -0.45219331979751587, 
        -0.17255280911922455, 
        -0.1073017418384552, 
        0.6449227333068848, 
        0.4429450035095215, 
        0.5540634989738464, 
        0.4144272208213806, 
        -0.0851580798625946, 
        0.4013011157512665, 
        0.3664931356906891, 
        -0.402215838432312, 
        0.6693885922431946, 
        -0.29455164074897766, 
        0.1645401120185852, 
        0.6785441637039185, 
        -0.34868717193603516, 
        -0.3535035252571106, 
        -0.5002642869949341, 
        0.34294700622558594, 
        -0.25970596075057983, 
        0.365235298871994, 
        0.049114786088466644, 
        -0.6712386608123779, 
        -0.01516461931169033, 
        0.49381357431411743, 
        -0.12811613082885742, 
        -0.12720642983913422, 
        -0.5121173858642578, 
        0.5766251087188721, 
        0.7650865316390991, 
        0.13345646858215332, 
        -0.47934913635253906, 
        0.4079815745353699, 
        0.5895437002182007, 
        0.7922958135604858, 
        0.20984821021556854, 
        0.4311958849430084, 
        -0.17176182568073273, 
        0.6246667504310608, 
        0.09334588050842285, 
        0.3710353672504425, 
        0.16651983559131622, 
        -0.44855087995529175, 
        -0.28817111253738403, 
        0.11906375735998154, 
        -0.1706474870443344, 
        0.026955045759677887, 
        -0.547615647315979, 
        0.7582265734672546, 
        0.4898298978805542, 
        -0.5696974992752075, 
        -0.1897411197423935, 
        -0.11410283297300339, 
        0.3523380756378174, 
        -0.20917272567749023, 
        0.1413998305797577, 
        -0.3344360888004303, 
        0.19676361978054047, 
        -0.4447280168533325, 
        -0.6627580523490906, 
        -0.5584082007408142, 
        0.3031429350376129, 
        0.3124881386756897, 
        -0.6224279999732971, 
        -0.2210182398557663, 
        0.27998432517051697, 
        -0.18764419853687286, 
        -0.1187148466706276, 
        0.2521718740463257, 
        0.7929242849349976, 
        0.5424713492393494, 
        -0.4540483355522156, 
        0.37546399235725403, 
        0.3935743570327759, 
        0.29473820328712463, 
        -0.057110171765089035, 
        -0.05859706550836563, 
        0.2063598334789276, 
        0.699937105178833, 
        0.1399887353181839, 
        0.4522133767604828, 
        0.339104562997818, 
        -0.1942632794380188, 
        0.23270417749881744, 
        -0.2892352342605591, 
        -0.0270726066082716, 
        0.061280008405447006, 
        0.6871006488800049, 
        -0.6061012744903564, 
        -0.7391791939735413, 
        0.21714268624782562, 
        -0.36999693512916565, 
        0.3984299898147583, 
        0.13471797108650208, 
        0.4225634038448334, 
        0.5847082734107971, 
        0.2811545431613922, 
        0.17399653792381287, 
        0.05243702605366707, 
        0.1255735456943512, 
        0.44261544942855835, 
        0.3913729190826416, 
        0.48247891664505005, 
        -0.1113225594162941, 
        -0.16105282306671143, 
        0.5126794576644897, 
        -0.27015000581741333, 
        -0.5928148031234741, 
        -0.5526278614997864, 
        -0.13210676610469818, 
        -0.16251881420612335, 
        0.8421637415885925, 
        0.4590209722518921, 
        -0.16172832250595093, 
        -0.12292106449604034, 
        0.6399083733558655, 
        -0.08247660100460052, 
        0.1028444692492485, 
        -0.45799821615219116, 
        -0.47828397154808044, 
        0.09268923103809357, 
        -0.3615027070045471, 
        -0.20403741300106049, 
        0.15115678310394287, 
        -0.492923766374588, 
        0.632517397403717, 
        -0.25048109889030457, 
        -0.46602457761764526, 
        -0.5588874816894531, 
        -0.6499454975128174, 
        -0.33700495958328247, 
        -0.16566960513591766, 
        -0.36887526512145996, 
        0.5463561415672302, 
        0.10900792479515076, 
        0.11344006657600403, 
        -0.2576959431171417, 
        0.3661704659461975, 
        -0.6956748962402344, 
        0.10076811909675598, 
        -0.6937160491943359, 
        -0.5400382876396179, 
        -0.1409347802400589, 
        -0.07152687758207321, 
        0.47323375940322876, 
        -0.1963340938091278, 
        0.6310046315193176, 
        0.5968711972236633, 
        0.4898202121257782, 
        0.567365288734436, 
        -0.06087014824151993, 
        -0.06320779770612717, 
        -0.05987304449081421, 
        0.45135170221328735, 
        -0.3905484080314636, 
        -0.03449572995305061, 
        -0.5733256340026855, 
        -0.10302236676216125, 
        -0.32170534133911133, 
        0.6154242157936096, 
        -0.6189773678779602, 
        -0.28855133056640625, 
        0.09101452678442001, 
        0.46317869424819946, 
        0.5363897681236267, 
        0.6586899161338806, 
        -0.738474428653717, 
        -0.3428807258605957, 
        0.08101075887680054, 
        0.33655989170074463, 
        0.4021918773651123, 
        -0.005991101730614901, 
        0.46554476022720337, 
        -0.12376146018505096, 
        -0.35886338353157043, 
        0.7726641297340393, 
        0.22247524559497833, 
        -0.013224126771092415, 
        -0.5984965562820435, 
        -0.2966209352016449, 
        -0.24225883185863495, 
        -0.2857063114643097, 
        -0.2721058428287506, 
        -0.37251409888267517, 
        0.8333215713500977, 
        0.37209630012512207, 
        -0.4263537526130676, 
        0.06028071418404579, 
        -0.4502011835575104, 
        0.04393473640084267, 
        -0.14212185144424438, 
        0.1022101640701294, 
        0.35476043820381165, 
        -0.5730918049812317, 
        0.2696656286716461, 
        -0.40268003940582275, 
        -0.24825617671012878, 
        0.28695228695869446, 
        -0.39791256189346313, 
        0.5485451817512512, 
        0.30712512135505676, 
        -0.4217129945755005, 
        -0.15697287023067474, 
        0.0606248639523983, 
        -2.180157753173262e-05, 
        0.2251218557357788, 
        -0.17925913631916046, 
        -0.1024317592382431, 
        0.44745972752571106, 
        -0.6155971884727478, 
        0.2424830049276352, 
        -0.505855917930603, 
        0.0024237169418483973, 
        0.8016872406005859, 
        -0.1229783371090889, 
        -0.3519376516342163, 
        -0.5087153911590576, 
        -0.08311114460229874, 
        0.34008073806762695, 
        -0.4771391749382019, 
        -0.8521810173988342, 
        -0.33602240681648254, 
        0.44841110706329346, 
        -0.29107555747032166, 
        0.11899229884147644, 
        -0.34737756848335266, 
        -0.2797998785972595, 
        -0.1811426430940628, 
        0.5318772196769714, 
        0.40168383717536926, 
        0.35457611083984375, 
        -0.5048156976699829, 
        0.029051020741462708, 
        0.19744834303855896, 
        -0.24885444343090057, 
        -0.2892357110977173, 
        -0.5370782613754272, 
        -0.41249966621398926, 
        0.6082113981246948, 
        -0.6222228407859802, 
        -0.15575705468654633, 
        -0.7251853346824646, 
        -0.5976774096488953, 
        -0.7141488790512085, 
        0.171791210770607, 
        -0.5902202725410461, 
        -0.4539276659488678, 
        0.47371065616607666, 
        0.6385465860366821, 
        -0.5197517275810242, 
        0.09377885609865189, 
        0.5350548028945923, 
        0.2725977599620819, 
        0.5359237194061279, 
        -0.0959792360663414, 
        -0.548094630241394, 
        0.5685444474220276, 
        -0.4068145453929901, 
        -0.5056596994400024, 
        0.06723526120185852, 
        -0.24753567576408386, 
        0.5187190175056458, 
        -0.3280317485332489, 
        -0.12362810224294662, 
        0.4219888746738434, 
        -0.6247995495796204, 
        -0.45749151706695557, 
        0.502734899520874, 
        -0.30283626914024353, 
        0.4088788628578186, 
        0.4043983221054077, 
        0.2733613848686218, 
        -0.3517936170101166, 
        -0.2487713247537613, 
        -0.5565661191940308, 
        0.30329322814941406, 
        -0.07284780591726303, 
        0.4572909474372864, 
        -0.30746394395828247, 
        0.4645266830921173, 
        0.689734160900116, 
        0.03933199867606163, 
        -0.125355526804924, 
        -0.7581639289855957, 
        -0.029426289722323418, 
        0.26046162843704224, 
        -0.19337446987628937, 
        -0.6993957161903381, 
        -0.1386607587337494, 
        0.4108187258243561, 
        -0.22513584792613983, 
        0.15292885899543762, 
        0.4093542993068695, 
        -0.03294573724269867, 
        -0.5434145927429199, 
        0.06470267474651337, 
        0.5635335445404053, 
        -0.4060998558998108, 
        -0.32989501953125, 
        0.4123537242412567, 
        -0.6629301905632019, 
        0.6928218603134155, 
        -0.6265254020690918, 
        -0.2203965187072754, 
        -0.052488215267658234, 
        -0.08883847296237946, 
        0.16496770083904266, 
        0.38609740138053894, 
        -0.23409414291381836, 
        0.38314732909202576, 
        -0.34569424390792847, 
        0.26234158873558044, 
        -0.4662769138813019, 
        -0.5381948947906494, 
        -0.06406646966934204, 
        0.15618549287319183, 
        0.7331619262695312, 
        -0.010142654180526733, 
        0.2716712951660156, 
        0.21243040263652802, 
        -0.7768324613571167, 
        -0.330199271440506, 
        0.22237206995487213, 
        -0.3377874195575714, 
        0.296326607465744, 
        0.32891416549682617, 
        0.6869929432868958, 
        0.5464162826538086, 
        -0.07333917915821075, 
        -0.5034340023994446, 
        -0.1935216188430786, 
        -0.6195184588432312, 
        0.122963547706604, 
        -0.515242338180542, 
        -0.3227427005767822, 
        0.11082596331834793, 
        -0.08586888015270233, 
        -0.29297658801078796, 
        -0.08204612880945206, 
        0.5365751385688782, 
        -0.08802957832813263, 
        -0.5078681707382202, 
        -0.6662183403968811, 
        0.10333448648452759, 
        -0.34216052293777466, 
        -0.20166906714439392, 
        -0.6836249828338623, 
        -0.6553905606269836, 
        -0.5963667631149292, 
        -0.4825517237186432, 
        -0.21617765724658966, 
        -0.3997972905635834, 
        0.5351353883743286, 
        -0.20959366858005524, 
        0.03157831355929375, 
        0.14050793647766113, 
        -0.5531949400901794, 
        -0.7000812292098999, 
        -0.23225301504135132, 
        0.2433592826128006, 
        0.3183841407299042, 
        -0.3607137203216553, 
        -0.013074755668640137, 
        -0.6812444925308228, 
        0.1908099204301834, 
        0.25440749526023865, 
        -0.17354169487953186, 
        -0.0005990111967548728, 
        0.49599021673202515, 
        -0.5675014853477478, 
        0.4813891649246216, 
        0.4407532513141632, 
        0.4835745096206665, 
        0.5386667251586914, 
        -0.3381255269050598, 
        0.180644690990448, 
        -0.7071686387062073, 
        0.5981801152229309, 
        -0.3193446695804596, 
        -0.5590935349464417, 
        -0.19233179092407227, 
        -0.2709116041660309, 
        -0.024631256237626076, 
        0.0289471372961998, 
        0.4884369373321533, 
        0.6278195977210999, 
        0.18619531393051147, 
        -0.4406628906726837, 
        0.3843293786048889, 
        -0.19228217005729675, 
        0.6471141576766968, 
        0.4731074273586273, 
        -0.4867899417877197, 
        -0.6893300414085388, 
        -0.6515112519264221, 
        0.13765954971313477, 
        0.05385156348347664, 
        0.5501775741577148, 
        0.43580833077430725, 
        -0.2066623866558075, 
        -0.2547147572040558, 
        -0.4992586672306061, 
        -0.6010144948959351, 
        0.37146586179733276, 
        -0.38583508133888245, 
        -0.05039338394999504, 
        0.5872287750244141, 
        0.5058683156967163, 
        0.46393343806266785, 
        0.40006861090660095, 
        0.024357499554753304, 
        -0.3211964964866638, 
        -0.4510376751422882, 
        -0.08614283055067062, 
        -0.44568395614624023, 
        -0.09403833001852036, 
        0.04590249061584473, 
        -0.10717149823904037, 
        0.21972644329071045, 
        -0.10188376903533936, 
        0.826948881149292, 
        0.46749210357666016, 
        -0.6004844307899475, 
        -0.0400114506483078, 
        0.0016347354976460338, 
        0.35404467582702637, 
        -0.16479668021202087, 
        -0.5081206560134888, 
        0.045828353613615036, 
        -0.728105902671814, 
        -0.019046595320105553, 
        -0.2583070993423462, 
        0.1691133975982666, 
        -0.18191246688365936, 
        -0.27212655544281006, 
        0.08715949952602386, 
        0.5089163780212402, 
        0.45760831236839294, 
        0.2763056457042694, 
        0.20463456213474274, 
        -0.39813727140426636, 
        0.6633119583129883, 
        -0.4977792501449585, 
        0.4059688448905945, 
        0.17542605102062225, 
        -0.14355558156967163, 
        -0.49711257219314575, 
        0.05836491659283638, 
        -0.23417828977108002, 
        -0.7331213355064392, 
        -0.37471434473991394, 
        0.35730478167533875, 
        0.07322333753108978, 
        0.293423593044281, 
        0.3226386308670044, 
        -0.2143603414297104, 
        0.21943385899066925, 
        0.6959598064422607, 
        -0.3229227364063263, 
        -0.11719997972249985, 
        -0.025757327675819397, 
        0.5523427724838257, 
        0.06234043836593628, 
        -0.08883293718099594, 
        -0.5432940721511841, 
        -0.6452436447143555, 
        -0.2652865946292877, 
        0.2292434722185135, 
        0.1397140920162201, 
        1.1918401718139648, 
        -0.272135466337204, 
        0.2493920773267746, 
        -0.36549678444862366, 
        -0.34681272506713867, 
        -0.5575624108314514, 
        -0.5683497190475464, 
        -0.18103431165218353, 
        0.10407714545726776, 
        0.048050373792648315, 
        -0.2634504437446594, 
        0.0711943507194519, 
        0.34256523847579956, 
        0.31809619069099426, 
        0.448187917470932, 
        0.13835562765598297, 
        -0.12205401062965393, 
        -0.7105854749679565, 
        -0.38364729285240173, 
        0.2030744105577469, 
        0.42864856123924255, 
        0.06608917564153671, 
        0.25434020161628723, 
        -0.4013541340827942, 
        -0.1721525639295578, 
        -0.6511147618293762, 
        0.027613146230578423, 
        0.1932765245437622, 
        -0.3101089596748352, 
        0.561106264591217, 
        0.5097259283065796, 
        -0.3617454767227173, 
        -0.22933019697666168, 
        0.6194949150085449, 
        -0.47729814052581787, 
        0.09459009021520615, 
        0.41690149903297424, 
        0.5239648818969727, 
        0.27319714426994324, 
        -0.6542384028434753, 
        -0.6114262938499451, 
        0.39544302225112915, 
        -0.10851838439702988, 
        -0.3862549364566803, 
        0.10566720366477966, 
        -0.14684441685676575, 
        -0.10307085514068604, 
        0.6374011635780334, 
        -0.09839337319135666, 
        -0.4784332513809204, 
        -0.3320510685443878, 
        0.6133222579956055, 
        0.4422576427459717, 
        0.1039644181728363, 
        -0.0262033399194479, 
        -0.22109170258045197, 
        -0.1442726105451584, 
        0.061201926320791245, 
        0.0019559531938284636, 
        -0.4185357093811035, 
        -0.31223881244659424, 
        -0.0016038705362007022, 
        0.0920349508523941, 
        -0.34879812598228455, 
        0.2910412549972534, 
        0.4895630180835724, 
        -0.08446415513753891, 
        0.6953256130218506, 
        0.46665826439857483, 
        -0.01323245745152235, 
        -0.3704233765602112, 
        -0.45369040966033936, 
        0.3714626729488373, 
        -0.1941441297531128, 
        0.4047267735004425, 
        0.4623488187789917, 
        0.3376106321811676, 
        0.7873356342315674, 
        0.11371134966611862, 
        -0.10159607231616974, 
        0.3832670748233795, 
        0.396470844745636, 
        0.32962197065353394, 
        -0.5954518914222717, 
        -0.19437874853610992, 
        -0.2964780330657959, 
        0.5671620965003967, 
        -0.4442005753517151, 
        0.40186628699302673, 
        0.753253698348999, 
        -0.06780415773391724, 
        0.07384615391492844, 
        0.6313695311546326, 
        -0.6938759684562683, 
        -0.41117116808891296, 
        -0.42673614621162415, 
        -0.5769175291061401, 
        0.410961389541626, 
        0.236646831035614, 
        -0.172769233584404, 
        -0.09623059630393982, 
        -0.4945008456707001, 
        -0.5369266271591187, 
        -0.042880039662122726, 
        0.6537550687789917, 
        -0.30779123306274414, 
        -0.12216189503669739, 
        0.08443289995193481, 
        -0.6518232822418213, 
        0.0920959934592247, 
        0.09288811683654785, 
        -0.5171070098876953, 
        -0.5113892555236816, 
        0.1884300261735916, 
        0.2247305065393448, 
        0.2037840187549591, 
        -0.7115622758865356, 
        -0.28966498374938965, 
        0.14656662940979004, 
        -0.3598395884037018, 
        0.03429131209850311, 
        -0.4617128074169159, 
        0.33450034260749817, 
        -0.5724979639053345, 
        0.2696285843849182, 
        0.5325300097465515, 
        0.16896721720695496, 
        0.3435659408569336, 
        0.17273610830307007, 
        -0.2951270043849945, 
        0.42876195907592773, 
        0.5948513150215149, 
        0.2042004019021988, 
        0.24064631760120392, 
        0.06369481235742569, 
        -0.6119046211242676, 
        0.31722134351730347, 
        -0.6501284837722778, 
        0.8570787310600281, 
        -0.5924428105354309, 
        0.2031923085451126, 
        0.6030178070068359, 
        -0.655123233795166, 
        0.2898995280265808, 
        -0.6670199036598206, 
        0.5883369445800781, 
        -0.1324836164712906, 
        0.48644083738327026, 
        0.1901179552078247, 
        -0.0031230351887643337, 
        0.3238508999347687, 
        0.29309824109077454, 
        0.5360541343688965, 
        -0.6005793213844299, 
        -0.6202303767204285, 
        0.004275408107787371, 
        -0.27449050545692444, 
        -0.2927648723125458, 
        0.49644213914871216, 
        0.2427985817193985, 
        -0.18622782826423645, 
        -0.6158155202865601, 
        0.6649108529090881, 
        -0.7179847359657288, 
        0.5134362578392029, 
        0.35852107405662537, 
        -0.5309330224990845, 
        0.2959977090358734, 
        0.12426906079053879, 
        0.2849065065383911, 
        0.45317724347114563, 
        0.8013396263122559, 
        -0.5139856934547424, 
        0.2645835876464844, 
        0.17906148731708527, 
        -0.5127341747283936, 
        0.5421525239944458, 
        -0.6827775239944458, 
        -0.5721930265426636, 
        0.5565261244773865, 
        -0.6162581443786621, 
        0.10806338489055634, 
        0.5083678960800171, 
        0.22226469218730927, 
        0.13148774206638336, 
        0.26519152522087097, 
        -0.017956307157874107, 
        -0.02666245400905609, 
        -0.20246882736682892, 
        -0.22238574922084808, 
        -0.2814047336578369, 
        0.5102647542953491, 
        -0.4403337836265564, 
        -0.7116146087646484, 
        0.40336135029792786, 
        -0.2596380114555359, 
        -0.3573542535305023, 
        -0.2858322560787201, 
        0.2804071009159088, 
        -0.08096426725387573, 
        -0.32673922181129456, 
        -0.13915440440177917, 
        -0.6909722089767456, 
        0.6698407530784607, 
        -0.07135357707738876, 
        0.24840353429317474, 
        -0.642242968082428, 
        0.4487304389476776, 
        0.45139870047569275, 
        0.8606227040290833, 
        -0.17243774235248566, 
        -0.5365725159645081, 
        0.3313491940498352, 
        -0.21736161410808563, 
        -0.452163428068161, 
        -0.5099338889122009, 
        0.04795629158616066, 
        -0.5664877891540527, 
        -0.6288757920265198, 
        -0.674778938293457, 
        -0.5830296874046326, 
        -0.3661341667175293, 
        0.002354813739657402, 
        -0.20848947763442993, 
        -0.002055493649095297, 
        0.3376098573207855, 
        -0.5646786689758301, 
        -0.15283116698265076, 
        0.37963229417800903, 
        -0.6412040591239929, 
        0.541600227355957, 
        0.22038835287094116, 
        0.5326820015907288, 
        0.05563148856163025, 
        -0.16409015655517578, 
        0.5579718947410583, 
        0.621256411075592, 
        0.567439079284668, 
        -0.4092848300933838, 
        -0.6707049012184143, 
        0.3790367543697357, 
        0.5129238963127136, 
        -0.33110153675079346, 
        -0.06498554348945618, 
        0.2953135073184967, 
        0.3163730502128601, 
        -0.28538304567337036, 
        0.3144863545894623, 
        -0.09947089105844498, 
        0.34772831201553345, 
        0.05233310908079147, 
        -0.45996811985969543, 
        -0.06245064735412598, 
        -0.35901352763175964, 
        -0.12370921671390533, 
        0.5053203701972961, 
        -0.35558369755744934, 
        0.14713098108768463, 
        0.426930695772171, 
        0.43180060386657715, 
        -0.6914142966270447, 
        -0.14642472565174103, 
        0.3040628731250763, 
        0.2508261799812317, 
        0.9711388349533081, 
        0.22232574224472046, 
        -0.4335058927536011, 
        0.23106446862220764, 
        -0.15560351312160492, 
        -0.8561092615127563, 
        -0.5650824308395386, 
        0.03672181814908981, 
        0.5933231115341187, 
        -0.2893236577510834, 
        -0.5960315465927124, 
        -0.6563000679016113, 
        0.3191962242126465, 
        0.6537773013114929, 
        -0.22261351346969604, 
        0.1342001110315323, 
        0.13601407408714294, 
        -0.09282226115465164, 
        0.12593623995780945, 
        0.6737715005874634, 
        0.14839906990528107, 
        0.03408744931221008, 
        -0.7102408409118652, 
        -0.5756754279136658, 
        -0.17997726798057556, 
        -0.6807098984718323, 
        0.34292933344841003, 
        0.1457158625125885, 
        -0.058788713067770004, 
        0.6171423196792603, 
        0.6888332366943359, 
        -0.23797643184661865, 
        0.30049875378608704, 
        0.3727262616157532, 
        -0.003271549241617322, 
        0.16721107065677643, 
        0.18295340240001678, 
        0.3032037019729614, 
        0.08708257973194122, 
        -0.10181226581335068, 
        -0.8653072714805603, 
        -0.46774107217788696, 
        0.11160481721162796, 
        0.2197001576423645, 
        0.06126171723008156, 
        -0.06042003631591797, 
        -0.21099330484867096, 
        -0.0660969614982605, 
        0.17349697649478912, 
        -0.12505190074443817, 
        0.35670509934425354, 
        0.528157114982605, 
        0.19174312055110931, 
        -0.6387568712234497, 
        0.4661921560764313, 
        0.1327599287033081, 
        0.08075891435146332, 
        -0.37969619035720825, 
        0.014700530096888542, 
        -0.18883521854877472, 
        0.4776441156864166, 
        0.3303871154785156, 
        -0.4171893894672394, 
        -0.6602472066879272, 
        0.3705272376537323, 
        0.09332828223705292, 
        -0.019292371347546577, 
        0.562270998954773, 
        0.5313689708709717, 
        0.5313621163368225, 
        0.44138503074645996, 
        -0.4746897518634796, 
        -0.13044467568397522, 
        0.5127449631690979, 
        0.31070676445961, 
        -0.07694881409406662, 
        -0.3200862407684326, 
        -0.25328487157821655, 
        -0.25440701842308044, 
        -0.6486439108848572, 
        -0.05373850464820862, 
        -0.06505119055509567, 
        -0.04106902703642845, 
        -0.3507477939128876, 
        0.5273723602294922, 
        0.09986159950494766, 
        0.5205593705177307, 
        0.2751791477203369, 
        0.8300879597663879, 
        0.37953320145606995, 
        -0.6456381678581238, 
        -0.8355661630630493, 
        0.5265711545944214, 
        0.5199702382087708, 
        0.5685437917709351, 
        0.4035550355911255, 
        0.42399799823760986, 
        0.636380136013031, 
        -0.5386241674423218, 
        -0.2938540577888489, 
        0.08483757078647614, 
        -0.5007654428482056, 
        -0.3111549913883209, 
        0.13810241222381592, 
        0.5357018709182739, 
        -0.3905230760574341, 
        -0.3884521424770355, 
        0.7208503484725952, 
        -0.28680548071861267, 
        -0.14169852435588837, 
        0.2496427446603775, 
        -0.22548460960388184, 
        0.5510262250900269, 
        -0.3235560655593872, 
        0.10654255002737045, 
        -0.457089364528656, 
        0.239699125289917, 
        0.6311348676681519, 
        -0.048482563346624374, 
        -0.35501232743263245, 
        0.16544915735721588, 
        0.37523943185806274, 
        -0.5166547298431396, 
        -0.5824490189552307, 
        0.15989325940608978, 
        -0.25888633728027344, 
        -0.1776808500289917, 
        0.15852227807044983, 
        0.11787423491477966, 
        0.6204968690872192, 
        0.5100783109664917, 
        -0.6812413334846497, 
        -0.5085712671279907, 
        0.31984201073646545, 
        0.18497149646282196, 
        0.02985316514968872, 
        0.12402422726154327, 
        -0.24241550266742706, 
        -0.18353407084941864, 
        0.01823268085718155, 
        0.7851907014846802, 
        -0.15778812766075134, 
        -0.5654383897781372, 
        0.3745286166667938, 
        0.2736835479736328, 
        0.7123715281486511, 
        0.35696330666542053, 
        0.580191969871521, 
        -0.6174412965774536, 
        -0.1225648894906044, 
        -0.3729192018508911, 
        -0.0666622593998909, 
        0.2855451703071594, 
        -0.6394782066345215, 
        0.08012183755636215, 
        0.03368229791522026, 
        0.6029538512229919, 
        0.5092134475708008, 
        0.14912012219429016, 
        -0.542706310749054, 
        0.54912930727005, 
        0.2998867928981781, 
        0.4307801127433777, 
        -0.01970553956925869, 
        0.2028001844882965, 
        -0.23491021990776062, 
        -0.493705689907074, 
        -0.40658652782440186, 
        -0.05499551445245743, 
        0.24719306826591492, 
        -0.15234380960464478, 
        0.018949666991829872, 
        -0.6059616804122925, 
        0.5612176656723022, 
        0.2037779986858368, 
        -0.3207254707813263, 
        -0.46715492010116577, 
        0.6250255107879639, 
        0.014328984543681145, 
        -0.11007382720708847, 
        -0.451176255941391, 
        0.0509294755756855, 
        -0.3453456461429596, 
        0.3474268913269043, 
        -0.43993136286735535, 
        -0.17811620235443115, 
        0.024493662640452385, 
        0.18234720826148987, 
        0.42765459418296814, 
        -0.021775415167212486, 
        -0.5294144749641418, 
        0.14628265798091888, 
        0.005282615311443806, 
        0.035311512649059296, 
        0.29946592450141907, 
        -0.6032856106758118, 
        -0.029481632634997368, 
        0.4777566194534302, 
        -0.45695388317108154, 
        -0.3480137288570404, 
        -0.604736328125, 
        0.4730377495288849, 
        -0.6475254893302917, 
        0.1079021692276001, 
        0.7827410101890564, 
        0.5803991556167603, 
        -0.5653617978096008, 
        0.11141379922628403, 
        -0.4089152216911316, 
        -0.04686152935028076, 
        -0.5762270092964172, 
        -0.36569634079933167, 
        0.5514636039733887, 
        -0.3115694522857666, 
        0.07105711847543716, 
        -0.5329909324645996, 
        0.5566643476486206, 
        0.8290523290634155, 
        0.5126916766166687, 
        -0.7028843760490417, 
        0.8768864274024963, 
        0.026002122089266777, 
        0.5917719006538391, 
        -0.49272215366363525, 
        0.6131129264831543, 
        -0.20884351432323456, 
        0.3145926594734192, 
        0.5156448483467102, 
        -0.3864322602748871, 
        -0.3878025412559509, 
        -0.8123252391815186, 
        0.2594652771949768, 
        -0.39434874057769775, 
        0.39969536662101746, 
        -0.3436368405818939, 
        0.38573840260505676, 
        0.2185029238462448, 
        0.6909476518630981, 
        -0.3627139627933502, 
        0.6300222873687744, 
        0.370388925075531, 
        -0.4145296812057495, 
        0.008146082982420921, 
        0.4290125072002411, 
        -0.25351482629776, 
        -0.2310473620891571, 
        -0.6753315925598145, 
        0.16431231796741486, 
        -0.2675335705280304, 
        0.10142065584659576, 
        -0.5152408480644226, 
        0.4070575535297394, 
        -0.283201664686203, 
        0.5365373492240906, 
        -0.3953346908092499, 
        -0.22862306237220764, 
        -0.03752237930893898, 
        -0.6288679838180542, 
        -0.3478919565677643, 
        0.08390264958143234, 
        0.5626023411750793, 
        -0.1957448422908783, 
        0.16266661882400513, 
        0.2314515858888626, 
        -0.1850855052471161, 
        0.4921523928642273, 
        0.5324528217315674, 
        -0.3934282660484314, 
        0.40704092383384705, 
        0.416900098323822, 
        -0.008741126395761967, 
        -0.011413798667490482, 
        -0.12450482696294785, 
        0.1506885588169098, 
        0.3537537455558777, 
        0.24109771847724915, 
        0.3789357841014862, 
        0.06788282841444016, 
        0.28603050112724304, 
        -0.017087845131754875, 
        -0.21042200922966003, 
        -0.7701249718666077, 
        -0.5963859558105469, 
        0.6308115124702454, 
        -0.4488812983036041, 
        0.17606893181800842, 
        -0.8469760417938232, 
        0.3509041666984558, 
        0.10757271200418472, 
        0.6236398816108704, 
        -0.4138011038303375, 
        -0.44503843784332275, 
        0.38580211997032166, 
        -0.6172409057617188, 
        0.6226810812950134, 
        -0.004267772193998098, 
        0.19739116728305817, 
        0.4359573721885681, 
        0.007141241803765297, 
        -0.3822154402732849, 
        -0.532254159450531, 
        -0.25416314601898193, 
        -0.320106565952301, 
        -0.1022278293967247, 
        0.6503088474273682, 
        -0.5650473237037659, 
        -0.07193788886070251, 
        0.3435596227645874, 
        0.02631036750972271, 
        -0.8308923840522766, 
        -0.5418615341186523, 
        -0.3175932466983795, 
        0.5649188160896301, 
        0.009755300357937813, 
        0.7436535358428955, 
        0.45030051469802856, 
        -0.15666471421718597, 
        -0.2801315486431122, 
        -0.8181804418563843, 
        0.021945931017398834, 
        0.346914678812027, 
        0.6371574997901917, 
        0.06612621992826462, 
        0.21761077642440796, 
        0.32933309674263, 
        -0.575287938117981, 
        0.4275616705417633, 
        -0.5051682591438293, 
        0.33563634753227234, 
        -0.49964919686317444, 
        -0.014875239692628384, 
        -0.7016966938972473, 
        0.40119320154190063, 
        -0.1469673216342926, 
        0.6667729616165161, 
        0.7192879319190979, 
        0.24282847344875336, 
        -0.06225701421499252, 
        -0.43989935517311096, 
        0.478378027677536, 
        -0.3667353689670563, 
        -0.04480312019586563, 
        0.15053796768188477, 
        0.11388210952281952, 
        -0.26486167311668396, 
        -0.0937546044588089, 
        0.01356658898293972, 
        0.5233984589576721, 
        0.20108124613761902, 
        0.2863259017467499, 
        -0.4435650110244751, 
        -0.3063410222530365, 
        0.02246524766087532, 
        -0.1819853037595749, 
        -0.6166901588439941, 
        0.04118897020816803, 
        0.3082561492919922, 
        -0.3030432462692261, 
        -0.49306684732437134, 
        0.6858112812042236, 
        -0.48397794365882874, 
        -0.46285632252693176, 
        -0.12698258459568024, 
        -0.07568622380495071, 
        0.19410306215286255, 
        0.13393472135066986, 
        0.4232463538646698, 
        -0.09374959021806717, 
        0.738368809223175, 
        0.506646990776062, 
        0.04623251408338547, 
        0.43500983715057373, 
        -0.4825761914253235, 
        0.7131154537200928, 
        0.6514112949371338, 
        -0.046848129481077194, 
        -0.039108194410800934, 
        0.25613507628440857, 
        0.29061707854270935, 
        -0.599498987197876, 
        -0.18092723190784454, 
        -0.34035220742225647, 
        -0.6762234568595886, 
        0.510408878326416, 
        -0.4013950228691101, 
        -0.1849682778120041, 
        -0.5282723307609558, 
        -0.5803022980690002, 
        -0.05407833307981491, 
        -0.05217256397008896, 
        0.05282760411500931, 
        -0.5272389650344849, 
        -0.3615536391735077, 
        0.21415558457374573, 
        0.4503157436847687, 
        0.6123652458190918, 
        0.3593921661376953, 
        -0.6194672584533691, 
        0.6705156564712524, 
        0.37985628843307495, 
        -0.41607221961021423, 
        -0.4393326938152313, 
        -0.3625938892364502, 
        0.0346950925886631, 
        0.25425204634666443, 
        0.0001590198080521077, 
        -0.7004808187484741, 
        -0.6420629620552063, 
        -0.41759371757507324, 
        -0.45382755994796753, 
        0.28256481885910034, 
        0.6608976125717163, 
        -0.7380717992782593, 
        0.03773925080895424, 
        0.1007719486951828, 
        0.16881325840950012, 
        -0.21713274717330933, 
        0.7053384184837341, 
        0.5086811780929565, 
        -0.5984115600585938, 
        -0.4383513331413269, 
        -0.35451698303222656, 
        -0.4682193398475647, 
        0.28749996423721313, 
        0.14427639544010162, 
        0.3723618984222412, 
        -0.49168235063552856, 
        0.4251430332660675, 
        -0.50961834192276, 
        0.2139403522014618, 
        0.26346269249916077, 
        -0.6787302494049072, 
        0.1698930412530899, 
        -0.004062419291585684, 
        0.7975009083747864, 
        0.4006909430027008, 
        0.347175657749176, 
        -0.49423134326934814, 
        -0.277323454618454, 
        -0.5064370036125183, 
        0.06461785733699799, 
        -0.4953223764896393, 
        0.48502910137176514, 
        -0.40234243869781494, 
        -0.13393354415893555, 
        0.35353755950927734, 
        0.11257355660200119, 
        0.19630615413188934, 
        -0.2723780572414398, 
        -0.5500576496124268, 
        -0.6481913328170776, 
        0.5841967463493347, 
        0.17098471522331238, 
        -0.44291532039642334, 
        0.6222308874130249, 
        -0.7861298322677612, 
        -0.06552009284496307, 
        -0.19286710023880005, 
        -0.042615167796611786, 
        0.20266275107860565, 
        -0.5916246771812439, 
        0.523735761642456, 
        0.44015899300575256, 
        0.22550298273563385, 
        0.23015731573104858, 
        0.6137809157371521, 
        0.34926873445510864, 
        0.13556990027427673, 
        0.026426974684000015, 
        0.03690330684185028, 
        0.17944157123565674, 
        -0.4917666018009186, 
        -0.368587851524353, 
        0.22927427291870117, 
        -0.2687309682369232, 
        -0.09957973659038544, 
        0.1810620278120041, 
        0.09813593327999115, 
        0.06254419684410095, 
        0.059815190732479095, 
        -0.35812312364578247, 
        0.31122449040412903, 
        0.22615563869476318, 
        -0.15768899023532867, 
        -0.1712173968553543, 
        0.07210421562194824, 
        -0.5976567268371582, 
        0.15057432651519775, 
        -0.11292750388383865, 
        0.30015942454338074, 
        0.47986480593681335, 
        0.4425085484981537, 
        -0.5975812077522278, 
        -0.2448471486568451, 
        0.3701886832714081, 
        -0.23407691717147827, 
        -0.18757028877735138, 
        0.6916380524635315, 
        0.7589300870895386, 
        -0.418382465839386, 
        0.3299713432788849, 
        -0.1341942697763443, 
        0.13011734187602997, 
        -0.5544098615646362, 
        0.5655613541603088, 
        -0.5697824358940125, 
        0.26110705733299255, 
        0.3060992956161499, 
        0.5387845039367676, 
        0.023809315636754036, 
        0.5042886734008789, 
        0.5454288125038147, 
        -0.0056457314640283585, 
        0.5645390748977661, 
        0.31333237886428833, 
        0.37931177020072937, 
        0.5129005908966064, 
        -0.6118146181106567, 
        -0.12186188995838165, 
        0.3671453595161438, 
        0.460976243019104, 
        0.30686166882514954, 
        0.7783250212669373, 
        0.5354345440864563, 
        -0.17360816895961761, 
        0.1127510592341423, 
        0.43362730741500854, 
        0.8530020713806152, 
        0.6193814873695374, 
        -0.6541232466697693, 
        0.2566308379173279, 
        0.07710983604192734, 
        0.3187832236289978, 
        0.6572030782699585, 
        -0.08219828456640244, 
        0.3155868947505951, 
        0.6903990507125854, 
        0.5205904841423035, 
        0.07289014011621475, 
        -0.5905884504318237, 
        0.35760653018951416, 
        -0.2923307418823242, 
        -0.15322187542915344, 
        -0.44549795985221863, 
        -0.5544471740722656, 
        -0.08942356705665588, 
        -0.037342991679906845, 
        0.4332079589366913, 
        0.28028908371925354, 
        0.4941245913505554, 
        -0.5625303387641907, 
        -0.13174480199813843, 
        0.027709128335118294, 
        -0.3235485851764679, 
        -0.4560870826244354, 
        0.013398248702287674, 
        -0.7325180768966675, 
        0.10682319849729538, 
        -0.048287905752658844, 
        -0.5655822157859802, 
        -0.18100975453853607, 
        -0.48143449425697327, 
        -0.31815651059150696, 
        -0.016730012372136116, 
        0.6590147614479065, 
        -0.035832323133945465, 
        -0.22694487869739532, 
        0.2443379908800125, 
        -0.6732379794120789, 
        -0.4839114546775818, 
        0.20114946365356445, 
        -0.15598228573799133, 
        -0.5959455370903015, 
        -0.6002740263938904, 
        0.5897975564002991, 
        -0.5101252198219299, 
        -0.20120686292648315, 
        0.41372501850128174, 
        0.5494391918182373, 
        0.5221520662307739, 
        -0.5484222769737244, 
        -0.25112318992614746, 
        0.23045614361763, 
        -0.4980413019657135, 
        0.668647050857544, 
        0.10804332047700882, 
        0.15546423196792603, 
        -0.5801553726196289, 
        0.7251677513122559, 
        -0.0660211518406868, 
        0.10362039506435394, 
        -0.3666929006576538, 
        0.1726907640695572, 
        -0.0032074369955807924, 
        -0.13222236931324005, 
        0.36144697666168213, 
        -0.5513944625854492, 
        0.4268473982810974, 
        0.053194381296634674, 
        -0.06823216378688812, 
        -0.43245038390159607, 
        -0.6168743371963501, 
        -0.08031514286994934, 
        0.1592872440814972, 
        0.1974242925643921, 
        -0.08044629544019699, 
        0.5022146105766296, 
        0.376604288816452, 
        -0.18103744089603424, 
        0.11853143572807312, 
        0.1565786898136139, 
        -0.3474743366241455, 
        0.019622765481472015, 
        0.5552045702934265, 
        0.31423211097717285, 
        0.3758243918418884, 
        0.582972526550293, 
        -0.18266813457012177, 
        -0.7839067578315735, 
        0.6795651912689209, 
        0.5343638062477112, 
        -0.37115412950515747, 
        -0.46303585171699524, 
        0.20653265714645386, 
        -0.1868724524974823, 
        -0.4941912889480591, 
        0.12234058231115341, 
        0.38757166266441345, 
        0.34627044200897217, 
        0.43345391750335693, 
        0.03043677844107151, 
        0.730309784412384, 
        0.4547559320926666, 
        -0.14666856825351715, 
        -0.3848560154438019, 
        0.6586552858352661, 
        0.6341778635978699, 
        -0.12254027277231216, 
        -0.20634885132312775, 
        0.09003783762454987, 
        -0.4330175518989563, 
        -0.4607861042022705, 
        -0.16371241211891174, 
        0.6817858219146729, 
        0.47304150462150574, 
        -0.6649354696273804, 
        -0.5990039110183716, 
        0.15295179188251495, 
        -0.47657641768455505, 
        0.04518423601984978, 
        0.10064112395048141, 
        0.5706549286842346, 
        0.16544651985168457, 
        0.16581431031227112, 
        0.16738829016685486, 
        -0.7255622148513794, 
        -0.3864947259426117, 
        0.5606275200843811, 
        -0.16330842673778534, 
        -0.29564982652664185, 
        -0.05293772742152214, 
        -0.4394795894622803, 
        -0.20235970616340637, 
        0.02613072283565998, 
        -0.11609330028295517, 
        -0.296356737613678, 
        -0.2981541156768799, 
        -0.3795776069164276, 
        -0.8499998450279236, 
        -0.18379656970500946, 
        -0.15764658153057098, 
        -0.10883942246437073, 
        -0.48872849345207214, 
        -0.5991425514221191, 
        -0.4781962037086487, 
        -0.20725032687187195, 
        0.00689517380669713, 
        0.15466317534446716, 
        0.13532622158527374, 
        -0.5039410591125488, 
        0.2597140371799469, 
        0.10959777981042862, 
        -0.364713191986084, 
        -0.0425792895257473, 
        -0.33028027415275574, 
        -0.6027699112892151, 
        -0.3436232805252075, 
        0.3375966548919678, 
        -0.019326284527778625, 
        0.5160457491874695, 
        0.35379284620285034, 
        -0.03452166169881821, 
        0.225176140666008, 
        0.4425298571586609, 
        0.35507315397262573, 
        0.24327073991298676, 
        0.5878086686134338, 
        0.4226653575897217, 
        0.5307072997093201, 
        -0.3288620412349701, 
        -0.03990451619029045, 
        -0.3622666597366333, 
        0.0424124151468277, 
        -0.3323473036289215, 
        -0.06490423530340195, 
        0.4460614323616028, 
        -0.7754132151603699, 
        -0.18695823848247528, 
        -0.047230690717697144, 
        -0.1590825915336609, 
        0.5846583843231201, 
        0.21590015292167664, 
        0.4976116418838501, 
        -0.4081477224826813, 
        -0.6549094319343567, 
        0.2873125672340393, 
        0.10306344926357269, 
        0.6024374961853027, 
        -0.4567820131778717, 
        -0.2536253035068512, 
        0.33062314987182617, 
        0.09850715845823288, 
        -0.5794680714607239, 
        -0.6398667097091675, 
        -0.1167890876531601, 
        -0.2827340364456177, 
        -0.3586357831954956, 
        0.30025339126586914, 
        -0.05643993988633156, 
        0.4842318892478943, 
        0.3421120047569275, 
        -0.6381798982620239, 
        0.371220201253891, 
        0.6664683222770691, 
        -0.4782739579677582, 
        0.06629930436611176, 
        -0.04565697908401489, 
        0.7173835635185242, 
        -0.5311707854270935, 
        -0.038314495235681534, 
        -0.5815106630325317, 
        0.002146588172763586, 
        -0.5226200222969055, 
        -0.04452348127961159, 
        0.23966945707798004, 
        -0.16533470153808594, 
        0.28321486711502075, 
        -0.37091073393821716, 
        -0.2664681673049927, 
        0.4603104293346405, 
        -0.013647712767124176, 
        0.398672878742218, 
        0.07848033308982849, 
        -0.16652646660804749, 
        0.2616616487503052, 
        -0.026937440037727356, 
        0.41048452258110046, 
        0.44635215401649475, 
        -0.4527307152748108, 
        0.6530537009239197, 
        0.5277793407440186, 
        0.6402651071548462, 
        0.16850236058235168, 
        0.1626064032316208, 
        0.617179274559021, 
        -0.4640946388244629, 
        0.1416025310754776, 
        -0.5995984673500061, 
        0.09327133744955063, 
        0.4542433023452759, 
        0.4508435130119324, 
        -0.6139151453971863, 
        0.44192928075790405, 
        0.5866792798042297, 
        -0.3491537272930145, 
        0.0975903645157814, 
        0.49028801918029785, 
        0.31668034195899963, 
        -0.014034576714038849, 
        -0.054170362651348114, 
        0.19432397186756134, 
        -0.1304710954427719, 
        0.46952754259109497, 
        0.055558446794748306, 
        0.005511194467544556, 
        -0.16890762746334076, 
        0.49552151560783386, 
        0.3950760066509247, 
        -0.8258241415023804, 
        -0.3343200087547302, 
        -0.36971569061279297, 
        -0.5254170894622803, 
        -0.2871011197566986, 
        -0.6511723399162292, 
        0.25805386900901794, 
        0.36212339997291565, 
        0.06778587400913239, 
        -0.28525689244270325, 
        -0.3734223246574402, 
        -0.5890004634857178, 
        -0.4054127335548401, 
        -0.0013466892996802926, 
        -0.5263422131538391, 
        0.014837409369647503, 
        0.4251537024974823, 
        -0.18812838196754456, 
        0.4127873480319977, 
        0.8594985008239746, 
        -0.46959030628204346, 
        0.5484235286712646, 
        -0.20998401939868927, 
        0.7949663996696472, 
        -0.2792161703109741, 
        -0.29862725734710693, 
        -0.4977002441883087, 
        0.6098839044570923, 
        -0.10557693988084793, 
        -0.41729384660720825, 
        -0.5523291826248169, 
        0.6253406405448914, 
        0.4083895683288574, 
        -0.5737099647521973, 
        -0.0427408330142498, 
        -0.4791935980319977, 
        -0.05950333550572395, 
        -0.5850303769111633, 
        -0.22779403626918793, 
        0.24303793907165527, 
        0.15935532748699188, 
        -0.10329729318618774, 
        0.5957175493240356, 
        -0.044403400272130966, 
        0.7380607724189758, 
        0.21074824035167694, 
        0.09450004249811172, 
        0.6267699599266052, 
        -0.4421856105327606, 
        -0.5480942130088806, 
        0.0333898663520813, 
        -0.2293773740530014, 
        -0.09852160513401031, 
        0.021912476047873497, 
        0.39372509717941284, 
        -0.42472657561302185, 
        -0.6967566013336182, 
        -0.6479768753051758, 
        -0.09484277665615082, 
        0.2657833695411682, 
        -0.2504453957080841, 
        -0.6320745348930359, 
        0.4097384810447693, 
        0.3655223846435547, 
        0.1503530591726303, 
        0.41382095217704773, 
        -0.4456736147403717, 
        -0.638439953327179, 
        0.27002111077308655, 
        -0.3080427646636963, 
        -0.35651662945747375, 
        -0.3546362519264221, 
        0.4765459895133972, 
        0.4944762885570526, 
        0.28189268708229065, 
        -0.3027121424674988, 
        -0.10361997783184052, 
        0.2069300264120102, 
        0.582085907459259, 
        0.6153606176376343, 
        -0.5890772938728333, 
        -0.434133380651474, 
        -0.3397274911403656, 
        0.1785779893398285, 
        0.00833937805145979, 
        -0.7327784299850464, 
        0.06340130418539047, 
        0.3260321319103241, 
        0.13095708191394806, 
        0.10327789932489395, 
        0.025279168039560318, 
        -0.188913494348526, 
        -0.076632060110569, 
        -0.2153644561767578, 
        0.5208781361579895, 
        -0.34784939885139465, 
        0.5056565999984741, 
        0.07878976315259933, 
        0.20214849710464478, 
        -0.19617262482643127, 
        -0.22633510828018188, 
        -0.5927183628082275, 
        -0.2603386342525482, 
        0.2583560347557068, 
        -0.3662790060043335, 
        -0.15061195194721222, 
        -0.2543509006500244, 
        0.1317417472600937, 
        0.12380173802375793, 
        -0.2772470712661743, 
        -0.5971513986587524, 
        0.7072999477386475, 
        0.43350231647491455, 
        0.7489126324653625, 
        0.36849451065063477, 
        0.10097471624612808, 
        0.22911755740642548, 
        0.016414055600762367, 
        -0.24897132813930511, 
        0.27177876234054565, 
        -0.3002166450023651, 
        -0.7595270276069641, 
        -0.6522587537765503, 
        -0.050963375717401505, 
        0.24015235900878906, 
        0.5511183142662048, 
        -0.03754623606801033, 
        0.4093654751777649, 
        0.37941479682922363, 
        0.3413159251213074, 
        -0.6315608620643616, 
        -0.4732659161090851, 
        -0.5191742181777954, 
        -0.07023755460977554, 
        0.11067081242799759, 
        -0.04043614864349365, 
        -0.6641162633895874, 
        0.5747177600860596, 
        -0.188391774892807, 
        0.01981632597744465, 
        0.3282018303871155, 
        -0.7694210410118103, 
        -0.19754579663276672, 
        0.2558002769947052, 
        -0.4910927712917328, 
        0.10701034218072891, 
        -0.35769855976104736, 
        0.4984833896160126, 
        0.6198716759681702, 
        0.4958617091178894, 
        -0.02865050733089447, 
        0.3192988634109497, 
        -0.06562366336584091, 
        -0.163343146443367, 
        -0.10303209722042084, 
        -0.471784770488739, 
        0.2046428918838501, 
        0.15690726041793823, 
        0.5629422068595886, 
        0.06584541499614716, 
        -0.27787351608276367, 
        -0.42434653639793396, 
        -0.28469839692115784, 
        0.6080278158187866, 
        -0.5594288110733032, 
        -0.6096371412277222, 
        0.7122278213500977, 
        -0.3404112160205841, 
        0.5930417776107788, 
        0.20719513297080994, 
        -0.04851290211081505, 
        0.6562590003013611, 
        -0.11847300827503204, 
        -0.7905319929122925, 
        -0.3685402572154999, 
        0.6040787696838379, 
        0.2760649025440216, 
        0.3506998121738434, 
        0.0039012646302580833, 
        -0.3131585121154785, 
        -0.28687337040901184, 
        0.4643416702747345, 
        -0.46963948011398315, 
        -0.3262229561805725, 
        -0.12145844101905823, 
        0.23726296424865723, 
        0.6097325086593628, 
        0.4461066424846649, 
        -0.042630475014448166, 
        0.12170549482107162, 
        0.06487305462360382, 
        -0.635897159576416, 
        -0.24851572513580322, 
        -0.41551467776298523, 
        0.17766940593719482, 
        -0.2923228144645691, 
        -0.26071831583976746, 
        0.39224010705947876, 
        -0.43428513407707214, 
        -0.37946024537086487, 
        0.3908535838127136, 
        0.168373703956604, 
        -0.2335674911737442, 
        -0.30450400710105896, 
        0.3418366312980652, 
        -0.5695250630378723, 
        0.09230252355337143, 
        -0.45469266176223755, 
        -0.3701190948486328, 
        0.30739912390708923, 
        -0.3975454270839691, 
        0.3850390911102295, 
        -0.22040630877017975, 
        0.4477963149547577, 
        0.27568235993385315, 
        0.6095901131629944, 
        -0.16487501561641693, 
        -0.7475006580352783, 
        0.011614362709224224, 
        -0.487595796585083, 
        -0.6208657026290894, 
        0.3342745900154114, 
        -0.24194931983947754, 
        -0.5198858380317688, 
        -0.5862542986869812, 
        -0.3665352761745453, 
        0.6624256372451782, 
        -0.5908457636833191, 
        -0.10662426054477692, 
        -0.5956789255142212, 
        -0.5272351503372192, 
        0.33276787400245667, 
        0.32764920592308044, 
        0.5609182119369507, 
        0.7216185331344604, 
        -0.20011331140995026, 
        -0.5920858383178711, 
        -0.06647966057062149, 
        0.4481918215751648, 
        -0.5352817177772522, 
        0.3409559726715088, 
        -0.3060474395751953, 
        -0.5096707344055176, 
        -0.6815510392189026, 
        -0.4910883605480194, 
        0.03313547745347023, 
        -0.3205515444278717, 
        0.5982404351234436, 
        -0.3213493525981903, 
        0.3390331268310547, 
        -0.3708191215991974, 
        -0.3968670666217804, 
        -0.10441276431083679, 
        -0.3182639479637146, 
        0.21671514213085175, 
        -0.3878476321697235, 
        0.5943124890327454, 
        -0.14227727055549622, 
        -0.37693852186203003, 
        0.3267999291419983, 
        -0.20616137981414795, 
        0.7104625105857849, 
        -0.29959625005722046, 
        0.5848767757415771, 
        -0.42163342237472534, 
        0.5548551082611084, 
        0.2731214463710785, 
        0.06648578494787216, 
        -0.3862246870994568, 
        -0.1376112848520279, 
        0.7987955212593079, 
        0.5092040300369263, 
        -0.4366481602191925, 
        0.42707663774490356, 
        -0.5212456583976746, 
        -0.05699647217988968, 
        0.1971009224653244, 
        -0.3214079439640045, 
        0.21137379109859467, 
        -0.045322149991989136, 
        0.45503583550453186, 
        0.5420789122581482, 
        -0.005196983460336924, 
        -0.42161282896995544, 
        0.31164416670799255, 
        -0.17333564162254333, 
        -0.7866217494010925, 
        -0.7635902166366577, 
        0.5407392382621765, 
        -0.2783280313014984, 
        0.03740384429693222, 
        0.11649871617555618, 
        -0.3052603304386139, 
        0.6098872423171997, 
        -0.3276757299900055, 
        -0.6650224924087524, 
        -0.3457131087779999, 
        -0.5785934925079346, 
        -0.5940448045730591, 
        -0.43588879704475403, 
        -0.12523140013217926, 
        -0.6031605005264282, 
        -0.24496455490589142, 
        -0.3340946435928345, 
        0.07185502350330353, 
        -0.2334946244955063, 
        -0.3556397259235382, 
        -0.27247244119644165, 
        -0.44786128401756287, 
        -0.39175522327423096, 
        0.045523907989263535, 
        -0.36838462948799133, 
        -0.1372966766357422, 
        -0.22385740280151367, 
        0.6064903736114502, 
        -0.1821780502796173, 
        -0.17001329362392426, 
        -0.7596560716629028, 
        -0.05159762501716614, 
        0.43118786811828613, 
        -0.1927531361579895, 
        -0.5129085183143616, 
        -0.13513809442520142, 
        0.04833710938692093, 
        -0.13660928606987, 
        0.6934042572975159, 
        0.6945019960403442, 
        0.4636296331882477, 
        0.5056214928627014, 
        -0.3512234091758728, 
        -0.27641749382019043, 
        0.06275525689125061, 
        -0.12884806096553802, 
        -0.7034609913825989, 
        -0.22955429553985596, 
        -0.21986131370067596, 
        -0.11322761327028275, 
        -0.25998637080192566, 
        -0.4975435435771942, 
        -0.2189718782901764, 
        0.19673044979572296, 
        0.753101110458374, 
        -0.8000057935714722, 
        0.31683847308158875, 
        0.33010825514793396, 
        0.7257295250892639, 
        -0.4590340554714203, 
        -0.05272502824664116, 
        0.5346264839172363, 
        0.44137313961982727, 
        -0.13537374138832092, 
        0.13207592070102692, 
        0.07403204590082169, 
        -0.4593488872051239, 
        -0.20243331789970398, 
        0.34451937675476074, 
        0.06521350890398026, 
        0.27137988805770874, 
        -0.5643330812454224, 
        -0.231454536318779, 
        -0.11098409444093704, 
        0.5707734227180481, 
        -0.05362493544816971, 
        0.3955153524875641, 
        -0.6888890266418457, 
        -0.2621893584728241, 
        0.14493921399116516, 
        -0.11469486355781555, 
        -0.22160033881664276, 
        -0.7007449865341187, 
        -0.6477874517440796, 
        -0.4067366421222687, 
        -0.6265377402305603, 
        -0.2658577561378479, 
        -0.18015238642692566, 
        -0.31468135118484497, 
        -0.37536942958831787, 
        -0.5194919109344482, 
        0.5512843132019043, 
        0.598662793636322, 
        0.3257485032081604, 
        -0.7182057499885559, 
        0.5740653872489929, 
        -0.046537134796381, 
        0.2851751148700714, 
        -0.5310752391815186, 
        -0.027936048805713654, 
        0.6005257964134216, 
        0.13132549822330475, 
        0.35531243681907654, 
        -0.015048949047923088, 
        0.2323504537343979, 
        0.12469828128814697, 
        0.5574490427970886, 
        0.06558607518672943, 
        -0.026439137756824493, 
        -0.5386121273040771, 
        -0.9310322999954224, 
        0.041007913649082184, 
        -0.04032270237803459, 
        0.042048804461956024, 
        0.059976957738399506, 
        0.6556128263473511, 
        -0.05555013194680214, 
        -0.13242411613464355, 
        0.05733954533934593, 
        -0.3858746290206909, 
        0.6302757263183594, 
        0.5027787685394287, 
        -0.32833823561668396, 
        0.21914924681186676, 
        0.5824815630912781, 
        0.22655923664569855, 
        -0.4716838002204895, 
        -0.30412840843200684, 
        -0.6637436151504517, 
        0.708452582359314, 
        -0.6565016508102417, 
        -0.11899248510599136, 
        0.18504661321640015, 
        -0.531000018119812, 
        -0.6058558225631714, 
        0.17970117926597595, 
        -0.16165518760681152, 
        -0.19753398001194, 
        -0.2898009419441223, 
        -0.14748436212539673, 
        -0.5877408981323242, 
        -0.4783751666545868, 
        -0.8430025577545166, 
        -0.5615931153297424, 
        -0.04197292402386665, 
        -0.12633371353149414, 
        0.12200168520212173, 
        -0.14434556663036346, 
        0.26275426149368286, 
        0.41378480195999146, 
        0.7074075937271118, 
        0.2521376609802246, 
        -0.12589897215366364, 
        -0.409349650144577, 
        0.3525896668434143, 
        0.36124658584594727, 
        0.31574055552482605, 
        -0.742643415927887, 
        -0.5666643381118774, 
        -0.06362418085336685, 
        0.26500701904296875, 
        -0.5629938840866089, 
        0.2413385659456253, 
        -0.3489566147327423, 
        0.4981590807437897, 
        0.0631837397813797, 
        0.5264008045196533, 
        0.14132912456989288, 
        0.10847502946853638, 
        0.5842994451522827, 
        0.5941362380981445, 
        0.42909619212150574, 
        -0.4931291937828064, 
        0.0739670917391777, 
        -0.34047478437423706, 
        -0.595962405204773, 
        -0.576600968837738, 
        -0.4589596390724182, 
        0.0776059553027153, 
        0.16623729467391968, 
        -0.7561522126197815, 
        0.390805184841156, 
        -0.26796239614486694, 
        -0.14008085429668427, 
        0.37376663088798523, 
        -0.5645496845245361, 
        -0.04070363938808441, 
        -0.7050514817237854, 
        -0.5314438343048096, 
        -0.3084441125392914, 
        0.4962044358253479, 
        0.3958483040332794, 
        0.045086268335580826, 
        -0.2954016625881195, 
        -0.3718623220920563, 
        0.4955350458621979, 
        -0.4004002511501312, 
        -0.14837102591991425, 
        0.5862638354301453, 
        -0.4880712926387787, 
        -0.12412434816360474, 
        -0.8524805903434753, 
        0.17599192261695862, 
        -0.4555686116218567, 
        -0.5718175172805786, 
        -0.3919256031513214, 
        -0.17846009135246277, 
        -0.17936888337135315, 
        0.13396501541137695, 
        -0.20342473685741425, 
        -0.48946109414100647, 
        0.5685198903083801, 
        0.2386104315519333, 
        -0.24357293546199799, 
        -0.6610114574432373, 
        -0.11167441308498383, 
        -0.32321205735206604, 
        0.3217827081680298, 
        0.7207698822021484, 
        -0.30617448687553406, 
        0.46056291460990906, 
        0.5518969893455505, 
        -0.6693896651268005, 
        0.27805832028388977, 
        0.6912916898727417, 
        0.3965723216533661, 
        -0.14257153868675232, 
        -0.794805645942688, 
        -0.28642091155052185, 
        -0.254364550113678, 
        0.20145361125469208, 
        -0.4624688923358917, 
        0.03791247680783272, 
        -0.3697831630706787, 
        -0.5638799071311951, 
        -0.4800485372543335, 
        0.15970183908939362, 
        -0.04996249079704285, 
        0.0320558063685894, 
        -0.6909858584403992, 
        0.48865488171577454, 
        0.24128411710262299, 
        0.2222800999879837, 
        -0.4264451563358307, 
        -0.39528217911720276, 
