{
  "input_sequences": [], 
  "inputs": [
    {
      "name": "node_0", 
      "variables": [
        {
          "name": "variable_0", 
          "offset": 0, 
          "scale": 1
        }, 
        {
          "name": "variable_1", 
          "offset": 0, 
          "scale": 1
        }, 
        {
          "name": "variable_2", 
          "offset": 0, 
          "scale": 1
        }, 
        {
          "name": "variable_3", 
          "offset": 0, 
          "scale": 1
        }, 
        {
          "name": "variable_4", 
          "offset": 0, 
          "scale": 1
        }, 
        {
          "name": "variable_5", 
          "offset": 0, 
          "scale": 1
        }, 
        {
          "name": "variable_6", 
          "offset": 0, 
          "scale": 1
        }, 
        {
          "name": "variable_7", 
          "offset": 0, 
          "scale": 1
        }, 
        {
          "name": "variable_8", 
          "offset": 0, 
          "scale": 1
        }, 
        {
          "name": "variable_9", 
          "offset": 0, 
          "scale": 1
        }, 
        {
          "name": "variable_10", 
          "offset": 0, 
          "scale": 1
        }
      ]
    }
  ], 
  "layers": [
    {
      "architecture": "normalization", 
      "bias": [
        -488289.0625, 
        -116753.28125, 
        -0.1599355936050415, 
        -2.3292150497436523, 
        -2.5876665115356445, 
        0.11571304500102997, 
        -6.386471271514893, 
        -3.375588893890381, 
        -4.24304723739624, 
        -0.5693435072898865, 
        -7.390182018280029
      ], 
      "weights": [
        1.0807821126945782e-06, 
        9.800003681448288e-06, 
        5.557510852813721, 
        0.48344069719314575, 
        1.9608451128005981, 
        1.9370038509368896, 
        0.5298837423324585, 
        0.3534802198410034, 
        0.3361380100250244, 
        1.1445406675338745, 
        0.1118900403380394
      ]
    }, 
    {
      "activation": "tanh", 
      "architecture": "dense", 
      "bias": [
        0.2935510575771332, 
        0.18557888269424438, 
        -0.2755478322505951, 
        -0.10930654406547546, 
        -0.04965933412313461, 
        0.06261857599020004, 
        -0.10024219006299973, 
        -0.12424401193857193, 
        -0.10446327924728394, 
        -0.14773191511631012, 
        -0.12262680381536484, 
        -0.14694897830486298, 
        -0.06670975685119629, 
        0.09673367440700531, 
        -0.15222583711147308, 
        -0.1064969077706337, 
        0.20415931940078735, 
        0.09911201894283295, 
        -0.15204034745693207, 
        0.12405212968587875, 
        -0.20926235616207123, 
        -0.11351744830608368, 
        -0.09654542058706284, 
        -0.22049851715564728, 
        -0.02342671900987625, 
        0.1405835598707199, 
        -0.1063566580414772, 
        -0.11009245365858078, 
        0.24206820130348206, 
        0.23992256820201874, 
        0.09406295418739319, 
        -0.1961205154657364, 
        -0.14313896000385284, 
        0.1616688072681427, 
        0.008335635997354984, 
        -0.023408574983477592, 
        0.10659758001565933, 
        0.11398927867412567, 
        0.2253899872303009, 
        -0.09631261229515076, 
        0.11091163009405136, 
        -0.1696382611989975, 
        0.2550496459007263, 
        -0.12363238632678986, 
        0.03755246475338936, 
        -0.0949583649635315, 
        0.19857609272003174, 
        0.10984073579311371, 
        0.0038415133021771908, 
        -0.05325827747583389, 
        -0.1646489053964615, 
        0.14305545389652252, 
        -0.025733524933457375, 
        0.17533117532730103, 
        0.19560986757278442, 
        -0.2810184955596924, 
        -0.25147825479507446, 
        0.14322932064533234, 
        0.13405132293701172, 
        -0.19757673144340515, 
        -0.08013757318258286, 
        -0.2107504904270172, 
        0.2426649034023285, 
        0.13719721138477325, 
        0.1665722131729126, 
        -0.1728900521993637, 
        -0.1801166832447052, 
        -0.3692748248577118, 
        -0.14128825068473816, 
        0.11820559948682785, 
        -0.09910748153924942, 
        0.14057433605194092, 
        0.11484634131193161, 
        -0.31622210144996643, 
        0.08045466989278793, 
        -0.2726811170578003, 
        -0.06239712983369827, 
        0.15672849118709564, 
        0.17334021627902985, 
        0.12249752879142761, 
        0.06416121125221252, 
        -0.15629154443740845, 
        0.057932037860155106, 
        -0.06751076877117157, 
        0.1719433218240738, 
        -0.12170839309692383, 
        0.05318976938724518, 
        -0.14443674683570862, 
        -0.21549683809280396, 
        -0.13368293642997742, 
        -0.07801935821771622, 
        0.22932136058807373, 
        -0.11249593645334244, 
        0.04831884056329727, 
        0.14578686654567719, 
        -0.10911916196346283, 
        -0.33662688732147217, 
        0.15113958716392517, 
        -0.11982951313257217, 
        -0.13706734776496887, 
        -0.13073717057704926, 
        0.19909249246120453, 
        0.053556472063064575, 
        -0.05293406918644905, 
        -0.15969966351985931, 
        0.26156798005104065, 
        0.15728844702243805, 
        -0.1735667586326599, 
        -0.18857209384441376, 
        0.16200296580791473, 
        0.06613173335790634, 
        -0.07197600603103638, 
        -0.18389983475208282, 
        0.2509315013885498, 
        0.10452646762132645, 
        0.18168437480926514, 
        -0.18345224857330322, 
        0.15966561436653137, 
        -0.1675461232662201, 
        -0.2504778802394867, 
        0.1704849898815155, 
        -0.06645099818706512, 
        -0.14603900909423828, 
        0.13503514230251312, 
        0.12403758615255356, 
        -0.18653978407382965, 
        0.17691558599472046, 
        0.07591570168733597, 
        0.06949732452630997, 
        -0.07391861826181412, 
        -0.07877971231937408, 
        -0.30238741636276245, 
        -0.08355256170034409, 
        -0.17588135600090027, 
        -0.0924801304936409, 
        0.14674456417560577, 
        0.13317906856536865, 
        -0.0315420888364315, 
        0.25171181559562683, 
        -0.19302192330360413, 
        -0.03790159896016121, 
        -0.0014598933048546314, 
        0.02172607183456421, 
        -0.22671087086200714, 
        0.18049977719783783, 
        0.08652559667825699, 
        -0.12993521988391876, 
        -0.11812745034694672, 
        -0.20143742859363556, 
        -0.16248685121536255, 
        0.10679661482572556, 
        0.022948993369936943, 
        -0.18411360681056976, 
        -0.14066356420516968, 
        -0.10394810140132904, 
        -0.19700919091701508, 
        0.1680045872926712, 
        0.1089593842625618, 
        0.1554492563009262, 
        -0.015582072548568249, 
        0.2549154758453369, 
        -0.19516530632972717, 
        0.16426411271095276, 
        0.12123475223779678, 
        -0.19772346317768097, 
        0.23567460477352142, 
        0.19075696170330048, 
        0.012694478034973145, 
        0.08575545251369476, 
        -0.05927236005663872, 
        0.14874880015850067, 
        0.07732950150966644, 
        -0.17809239029884338, 
        0.21567438542842865, 
        0.03746291249990463, 
        -0.09823859483003616, 
        -0.13600926101207733, 
        -0.13376742601394653, 
        -0.1649474799633026, 
        0.21662335097789764, 
        0.1834159940481186, 
        -0.21276286244392395, 
        -0.20698583126068115, 
        0.14377683401107788, 
        -0.09537053853273392, 
        -0.13535016775131226, 
        -0.11890731006860733, 
        -0.08566981554031372, 
        0.08218744397163391, 
        0.09916315972805023, 
        -0.15099599957466125, 
        -0.1757759004831314, 
        -0.21423175930976868, 
        -0.05526008829474449, 
        0.13160735368728638, 
        -0.20441289246082306, 
        0.13395048677921295, 
        -0.2969103753566742, 
        0.08342954516410828, 
        0.03541477024555206, 
        -0.23097197711467743, 
        -0.28870493173599243, 
        0.14459191262722015, 
        -0.08596036583185196, 
        0.1595926731824875, 
        0.19799695909023285, 
        -0.17205305397510529, 
        0.06268339604139328, 
        -0.1031145304441452, 
        -0.0336126871407032, 
        0.05679047480225563, 
        -0.06992986798286438, 
        0.1008877381682396, 
        -0.1410466879606247, 
        -0.05466115474700928, 
        0.07614821940660477, 
        0.25838780403137207, 
        0.35679957270622253, 
        -0.12166489660739899, 
        -0.11605007201433182, 
        0.0767478197813034, 
        0.001733636250719428, 
        -0.20657052099704742, 
        -0.13869185745716095, 
        -0.005272535141557455, 
        -0.13171447813510895, 
        0.09106510132551193, 
        -0.1377420276403427, 
        0.17448005080223083, 
        -0.17609210312366486, 
        0.1547108292579651, 
        0.014492920599877834, 
        0.17709855735301971, 
        0.2390597015619278, 
        -0.11734455078840256, 
        0.04434855282306671, 
        0.09972359240055084, 
        -0.13771921396255493, 
        -0.16849857568740845, 
        0.16205285489559174, 
        -0.19277556240558624, 
        0.17542128264904022, 
        -0.37994641065597534, 
        0.1581578105688095, 
        -0.15513451397418976, 
        -0.14925597608089447, 
        0.13121214509010315, 
        0.15596747398376465, 
        -0.19941093027591705, 
        0.08921518176794052, 
        0.14967146515846252, 
        0.12594208121299744, 
        -0.07264993339776993, 
        -0.14033985137939453, 
        0.18041665852069855, 
        0.20167909562587738, 
        0.1189810037612915, 
        0.12281987816095352, 
        -0.1340024471282959, 
        -0.14171423017978668, 
        0.1449645757675171, 
        0.1142929419875145, 
        0.135965496301651, 
        -0.07892550528049469, 
        0.105068139731884, 
        -0.2599296271800995, 
        0.1440926045179367, 
        -0.277312308549881, 
        -0.0993095189332962, 
        0.1183130145072937, 
        -0.15345926582813263, 
        -0.17832639813423157, 
        0.002793606137856841, 
        -0.14420786499977112, 
        0.07223756611347198, 
        0.30524858832359314, 
        0.27392902970314026, 
        0.0930730402469635, 
        -0.12475529313087463, 
        -0.13224436342716217, 
        0.15722092986106873, 
        0.16342054307460785, 
        -0.2545512616634369, 
        -0.1706114560365677, 
        0.139577254652977, 
        -0.007138737477362156, 
        0.06153179332613945, 
        -0.16237223148345947, 
        0.1227656677365303, 
        0.1486055999994278, 
        0.09594922512769699, 
        0.13961687684059143, 
        0.07401230186223984, 
        -0.11446107178926468, 
        0.053403519093990326, 
        0.17161381244659424, 
        0.32000717520713806, 
        -0.13597439229488373, 
        -0.12281303852796555, 
        0.19796156883239746, 
        -0.20074112713336945, 
        -0.12648096680641174, 
        0.14971546828746796, 
        0.10290949046611786, 
        -0.19703546166419983, 
        0.31437090039253235, 
        -0.11083143949508667, 
        -0.1940363645553589, 
        0.12966188788414001, 
        0.11876945942640305, 
        -0.08131405711174011, 
        -0.22813665866851807, 
        0.21094481647014618, 
        0.03214045241475105, 
        -0.1984345018863678, 
        0.15728221833705902, 
        -0.09266151487827301, 
        0.057420119643211365, 
        0.05297151207923889, 
        0.19825580716133118, 
        -0.10807786881923676, 
        -0.13570724427700043, 
        0.08901716768741608, 
        0.10263009369373322, 
        0.09491965174674988, 
        -0.02963225357234478, 
        0.06518358737230301, 
        -0.04882993921637535, 
        0.15564417839050293, 
        -0.13775578141212463, 
        0.07084564119577408, 
        -0.02099739946424961, 
        -0.01156254205852747, 
        -0.16180840134620667, 
        0.282951682806015, 
        -0.10164408385753632, 
        0.06041659787297249, 
        0.21303658187389374, 
        -0.2964459955692291, 
        0.16352076828479767, 
        -0.09120728820562363, 
        -0.19207635521888733, 
        -0.11482830345630646, 
        0.04982757940888405, 
        0.09718827903270721, 
        0.020757075399160385, 
        0.1587161123752594, 
        -0.17583608627319336, 
        -0.160457044839859, 
        0.14638099074363708, 
        0.004625536035746336, 
        -0.06637389957904816, 
        -0.11996142566204071, 
        -0.21509557962417603, 
        -0.2547105848789215, 
        0.23240718245506287, 
        0.06844108551740646, 
        -0.1572466790676117, 
        0.08214467763900757, 
        0.002092985436320305, 
        -0.1568426936864853, 
        -0.20134103298187256, 
        -0.22202804684638977, 
        0.10175047814846039, 
        0.11949431151151657, 
        -0.08985446393489838, 
        -0.16625790297985077, 
        -0.0897810161113739, 
        0.22273963689804077, 
        0.15800859034061432, 
        -0.11012238264083862, 
        -0.15157687664031982, 
        -0.15420183539390564, 
        -0.05012921243906021, 
        -0.11964518576860428, 
        0.18970640003681183, 
        -0.21070758998394012, 
        -0.08798113465309143, 
        -0.13583965599536896, 
        0.11582259088754654, 
        -0.20771412551403046, 
        -0.07286196947097778, 
        -0.11846502125263214, 
        0.11675410717725754, 
        -0.0944751501083374, 
        0.022456729784607887, 
        0.22318300604820251, 
        0.3157658278942108, 
        -0.16734115779399872, 
        -0.2550770938396454, 
        0.15304812788963318, 
        -0.18255256116390228, 
        0.1738920658826828, 
        0.18248330056667328, 
        0.16222181916236877, 
        -0.24693483114242554, 
        0.05846536159515381, 
        -0.13781800866127014, 
        0.02641754224896431, 
        -0.09201628714799881, 
        -0.006579765118658543, 
        -0.0242182444781065, 
        0.1042720302939415, 
        -0.1537390798330307, 
        0.12269292026758194, 
        0.14921307563781738, 
        -0.23643895983695984, 
        -0.05508885160088539, 
        -0.224187433719635, 
        0.11375559121370316, 
        0.05273887515068054, 
        0.3615865409374237, 
        -0.22396516799926758, 
        -0.13943488895893097, 
        -0.1954125016927719, 
        0.1908336579799652, 
        -0.00311440066434443, 
        0.13704043626785278, 
        -0.0808556005358696, 
        0.06251081079244614, 
        0.260200560092926, 
        0.1907847672700882, 
        0.1095091924071312, 
        -0.06962377578020096, 
        -0.22964172065258026, 
        0.02940610609948635, 
        -0.15742728114128113, 
        -0.17542491853237152, 
        -0.2567329704761505, 
        -0.20123988389968872, 
        -0.05876241624355316, 
        -0.20734447240829468, 
        -0.038749586790800095, 
        0.1374235302209854, 
        0.17794382572174072, 
        -0.06584057211875916, 
        0.11114811897277832, 
        0.02117491140961647, 
        0.1917172372341156, 
        -0.11399736255407333, 
        0.03890834376215935, 
        0.02027827501296997, 
        0.19749051332473755, 
        0.2372264713048935, 
        0.08759582042694092, 
        -0.20299305021762848, 
        -0.09730233997106552, 
        -0.22259649634361267, 
        -0.09050823003053665, 
        -0.13046857714653015, 
        0.20035788416862488, 
        0.18416906893253326, 
        -0.28132838010787964, 
        0.13601604104042053, 
        0.0709918960928917, 
        0.02777934819459915, 
        0.08705778419971466, 
        0.12238714098930359, 
        0.1459924876689911, 
        0.2759554386138916, 
        0.16632813215255737, 
        0.15183879435062408, 
        -0.2365923672914505, 
        -0.03400043025612831, 
        -0.30845344066619873, 
        -0.06419125199317932, 
        0.3214736878871918, 
        0.31408098340034485, 
        -0.11318855732679367, 
        -0.2962660491466522, 
        0.17224375903606415, 
        0.3670624792575836, 
        -0.14302298426628113, 
        0.20032590627670288, 
        -0.14701220393180847, 
        0.21651437878608704, 
        0.19201773405075073, 
        -0.1287631392478943, 
        -0.25124815106391907, 
        0.2459162324666977, 
        0.14959637820720673, 
        0.18942378461360931, 
        0.0572909377515316, 
        0.053141698241233826, 
        0.07403550297021866, 
        0.2922053635120392, 
        0.11731865257024765, 
        0.12351186573505402, 
        0.13088445365428925, 
        -0.15847592055797577, 
        -0.1321086585521698, 
        -0.00942815188318491, 
        -0.1782183200120926, 
        0.2367732971906662, 
        -0.08478885143995285, 
        0.19321589171886444, 
        -0.19223271310329437, 
        0.056060172617435455, 
        -0.09045694768428802, 
        0.048777248710393906, 
        -0.10766814649105072, 
        0.2904881238937378, 
        -0.1749265491962433, 
        0.051163092255592346, 
        0.04041973128914833, 
        0.0715780183672905, 
        0.23617632687091827, 
        -0.19300812482833862, 
        0.1679830402135849, 
        0.05010434612631798, 
        0.16706769168376923, 
        -0.0644637942314148
      ], 
      "weights": [
        -0.36203962564468384, 
        0.5879306793212891, 
        0.598581075668335, 
        0.091879703104496, 
        -0.11987876147031784, 
        0.36092740297317505, 
        -0.6883888840675354, 
        0.43054378032684326, 
        -0.3277023732662201, 
        -0.32575204968452454, 
        0.4213053584098816, 
        -0.37702512741088867, 
        0.387041300535202, 
        -0.45107266306877136, 
        0.22466813027858734, 
        -0.6867102980613708, 
        0.15338967740535736, 
        -0.8809730410575867, 
        0.029316140338778496, 
        0.08817920088768005, 
        -0.1239892989397049, 
        0.14399494230747223, 
        0.3188043534755707, 
        -0.41050705313682556, 
        -0.545646607875824, 
        0.09046537429094315, 
        -0.6566261649131775, 
        0.3787083327770233, 
        0.22636298835277557, 
        0.47649577260017395, 
        0.9463983178138733, 
        -0.010179007425904274, 
        0.3574344515800476, 
        0.13714711368083954, 
        -0.2627473473548889, 
        0.49175646901130676, 
        0.5512298345565796, 
        0.6796972155570984, 
        0.33907386660575867, 
        -0.3077344000339508, 
        -0.5360152721405029, 
        0.6323279738426208, 
        -0.6105989813804626, 
        0.14828157424926758, 
        -0.4087740480899811, 
        0.4413682818412781, 
        0.28049132227897644, 
        0.2813660800457001, 
        -0.3274633288383484, 
        0.7666441202163696, 
        0.4626421332359314, 
        0.22237743437290192, 
        0.5820056200027466, 
        0.6574119925498962, 
        -0.5868209004402161, 
        -0.24541598558425903, 
        0.479606568813324, 
        -0.317371129989624, 
        -0.0508374385535717, 
        0.6443203091621399, 
        0.1064002513885498, 
        -0.5954287052154541, 
        -0.3623214066028595, 
        0.6057735681533813, 
        0.1760559380054474, 
        -0.6108514666557312, 
        0.1935696303844452, 
        -0.42880138754844666, 
        -0.02344878762960434, 
        -0.4876878261566162, 
        0.09394270181655884, 
        0.2654528021812439, 
        -0.28669965267181396, 
        -0.3883776366710663, 
        0.07085858285427094, 
        0.6408634185791016, 
        -0.5865492224693298, 
        -0.00806210283190012, 
        0.5322040915489197, 
        -0.23355433344841003, 
        -0.2627759873867035, 
        -0.25751131772994995, 
        -0.3195555508136749, 
        0.20847804844379425, 
        -0.09018977731466293, 
        0.044568441808223724, 
        -0.3390554189682007, 
        0.7100157141685486, 
        -0.47738534212112427, 
        -0.5771464109420776, 
        0.5641527771949768, 
        -0.5067349672317505, 
        0.0865679532289505, 
        0.5367465615272522, 
        -0.3590773046016693, 
        0.6618430018424988, 
        -0.5995647311210632, 
        0.18128199875354767, 
        0.5302860140800476, 
        -0.32245540618896484, 
        0.4951897859573364, 
        0.521672785282135, 
        0.26091715693473816, 
        -0.05879444628953934, 
        0.2623758912086487, 
        -0.18723130226135254, 
        1.0109962224960327, 
        0.3686164617538452, 
        -0.09961924701929092, 
        -0.01510242186486721, 
        -0.2797970473766327, 
        0.683438777923584, 
        0.8499051928520203, 
        0.38811594247817993, 
        -0.5526148080825806, 
        0.0418064147233963, 
        0.3654235005378723, 
        -0.06751057505607605, 
        0.09682582318782806, 
        -0.0426301546394825, 
        -0.02837226539850235, 
        -0.6282011866569519, 
        -0.2629692852497101, 
        -0.11044329404830933, 
        -0.3524208068847656, 
        -0.40359511971473694, 
        -0.6057884693145752, 
        -0.09307050704956055, 
        -0.4581593871116638, 
        0.08798965066671371, 
        -0.40342384576797485, 
        -0.37811478972435, 
        -0.6350851655006409, 
        0.6621401309967041, 
        0.727508544921875, 
        0.707919180393219, 
        -0.38908469676971436, 
        0.11271250993013382, 
        -0.04395944997668266, 
        0.23910640180110931, 
        0.3372003734111786, 
        0.17630062997341156, 
        0.291403591632843, 
        -0.3118343651294708, 
        0.5688429474830627, 
        -0.5467219948768616, 
        -0.13785549998283386, 
        -0.6125152111053467, 
        0.5995309948921204, 
        0.4849506616592407, 
        0.3070160150527954, 
        0.6912135481834412, 
        0.38366076350212097, 
        -0.30711862444877625, 
        -0.41283032298088074, 
        0.26579588651657104, 
        0.8273426294326782, 
        0.10640688985586166, 
        -0.7522956132888794, 
        0.3267005980014801, 
        -0.5861579775810242, 
        -0.6688651442527771, 
        -0.04292173683643341, 
        0.016851967200636864, 
        0.2792071998119354, 
        0.189010888338089, 
        0.0018709897994995117, 
        0.012883825227618217, 
        -0.5056800842285156, 
        0.5684467554092407, 
        -0.01178061030805111, 
        -0.4521561563014984, 
        0.5846499800682068, 
        0.10917393118143082, 
        0.11999731510877609, 
        -0.26007574796676636, 
        0.4017992913722992, 
        0.306747168302536, 
        0.4661960303783417, 
        -0.5307579636573792, 
        0.5265591740608215, 
        0.2323230355978012, 
        -0.6500633955001831, 
        -0.3241863250732422, 
        0.42257362604141235, 
        0.4416681230068207, 
        0.08127385377883911, 
        -0.02959941141307354, 
        0.5148583650588989, 
        -0.44752225279808044, 
        -0.4583026170730591, 
        -0.6379321217536926, 
        0.3386097550392151, 
        0.06022791936993599, 
        0.29984259605407715, 
        -0.49821972846984863, 
        -0.4443510174751282, 
        -0.2797528803348541, 
        0.4184114336967468, 
        -0.5420838594436646, 
        -0.6516749262809753, 
        -0.3577522337436676, 
        0.3516337275505066, 
        -0.6222994327545166, 
        0.3356400430202484, 
        0.07400012016296387, 
        0.3381790816783905, 
        -0.3675834834575653, 
        0.3692319393157959, 
        0.6424654126167297, 
        -0.22692935168743134, 
        -0.41652899980545044, 
        0.019851895049214363, 
        -0.33806291222572327, 
        0.2640712857246399, 
        -0.025076307356357574, 
        0.18213748931884766, 
        -0.5907542705535889, 
        0.5933733582496643, 
        0.21708227694034576, 
        0.17259134352207184, 
        -0.5127362012863159, 
        -0.5308822989463806, 
        0.08143573999404907, 
        0.23182298243045807, 
        -0.46017250418663025, 
        0.3121328353881836, 
        0.7743467092514038, 
        0.32837042212486267, 
        0.02643643319606781, 
        -0.30431219935417175, 
        -0.5612362027168274, 
        0.4466927945613861, 
        -0.5114866495132446, 
        0.29511314630508423, 
        -0.1590549200773239, 
        0.3668802082538605, 
        -0.3611603379249573, 
        0.4466354548931122, 
        -0.32610857486724854, 
        -0.35329458117485046, 
        -0.4422304928302765, 
        0.39097124338150024, 
        0.513427197933197, 
        0.5738852024078369, 
        0.4941514730453491, 
        -0.45786967873573303, 
        -0.346800833940506, 
        -0.11659131944179535, 
        0.5897948741912842, 
        -0.2659666836261749, 
        -0.2554021179676056, 
        -0.6180346608161926, 
        -0.5193102955818176, 
        0.10609057545661926, 
        0.3435783088207245, 
        -0.2881901264190674, 
        -0.22135786712169647, 
        -0.622578501701355, 
        -0.5181263089179993, 
        -0.37303000688552856, 
        -0.2518676221370697, 
        -0.5678383111953735, 
        0.08225860446691513, 
        1.3523979187011719, 
        0.5370489954948425, 
        0.0886024534702301, 
        -0.3620610237121582, 
        -0.6483134627342224, 
        0.17709746956825256, 
        -0.3949812650680542, 
        0.5285657048225403, 
        -0.5460397005081177, 
        -0.029100541025400162, 
        -0.24332496523857117, 
        -0.2580533027648926, 
        -0.39162570238113403, 
        -0.5279167890548706, 
        0.5773935317993164, 
        0.16758045554161072, 
        0.06444311887025833, 
        -0.0003367066674400121, 
        -0.03205838054418564, 
        0.13604964315891266, 
        -0.04400920495390892, 
        -0.2913304269313812, 
        0.19728784263134003, 
        0.04611845314502716, 
        0.16909770667552948, 
        -0.6104632019996643, 
        0.32905086874961853, 
        -0.6070905923843384, 
        -0.789220929145813, 
        -0.5500602126121521, 
        -0.27265599370002747, 
        -0.0685855820775032, 
        -0.36735495924949646, 
        0.3970549702644348, 
        -0.43436694145202637, 
        -0.19923852384090424, 
        0.18047532439231873, 
        -0.08693379908800125, 
        0.32209429144859314, 
        -0.5870943069458008, 
        -0.337048202753067, 
        -0.158669114112854, 
        0.4518302381038666, 
        0.6273972392082214, 
        0.6094558835029602, 
        -0.3957253694534302, 
        0.45710596442222595, 
        0.10268751531839371, 
        -0.10062505304813385, 
        -0.08874168992042542, 
        -0.19444894790649414, 
        0.6539735198020935, 
        0.2830811142921448, 
        0.33362823724746704, 
        -0.09952088445425034, 
        0.34834644198417664, 
        -0.12565359473228455, 
        0.7130373120307922, 
        0.20971029996871948, 
        0.40799984335899353, 
        0.09177879989147186, 
        -0.41772496700286865, 
        0.5255582332611084, 
        -0.4292026162147522, 
        -0.048810236155986786, 
        0.28843140602111816, 
        -0.5504549741744995, 
        0.16482940316200256, 
        0.5492895841598511, 
        0.08435965329408646, 
        0.5260012149810791, 
        0.6589844226837158, 
        0.7295486927032471, 
        -0.020558105781674385, 
        -0.037607867270708084, 
        0.0741313248872757, 
        -0.49495917558670044, 
        0.2944629490375519, 
        -0.17000950872898102, 
        0.41102826595306396, 
        0.4675598740577698, 
        0.24127981066703796, 
        0.2743266820907593, 
        0.9021086692810059, 
        -0.20058967173099518, 
        0.12912142276763916, 
        0.5509421229362488, 
        0.20641367137432098, 
        -0.09111250191926956, 
        0.23155811429023743, 
        -0.37383848428726196, 
        0.06368095427751541, 
        0.2023611068725586, 
        0.18529565632343292, 
        0.14398103952407837, 
        -0.18896836042404175, 
        0.043626200407743454, 
        -0.10012748837471008, 
        0.23638500273227692, 
        0.338922381401062, 
        0.192058727145195, 
        -0.23205435276031494, 
        0.04573274776339531, 
        0.3447515368461609, 
        -0.05575224757194519, 
        -0.8225428462028503, 
        -0.2981150150299072, 
        0.07152573764324188, 
        0.39537400007247925, 
        0.10107874125242233, 
        1.080135703086853, 
        -0.26116955280303955, 
        -0.4264030158519745, 
        -0.5777561068534851, 
        0.02016432024538517, 
        -0.18158195912837982, 
        0.2382241040468216, 
        0.6725621223449707, 
        -0.4286169111728668, 
        -0.339359849691391, 
        -0.2589262127876282, 
        -0.8598036766052246, 
        -0.4115670323371887, 
        0.3758297264575958, 
        0.2478421926498413, 
        0.42242592573165894, 
        -0.2692640721797943, 
        -0.596980094909668, 
        0.3653382956981659, 
        -0.7152953147888184, 
        -0.22645731270313263, 
        0.7225064635276794, 
        -0.748211145401001, 
        0.1412297934293747, 
        0.19409503042697906, 
        0.5873538255691528, 
        -0.5530833005905151, 
        0.2913620173931122, 
        0.02889855206012726, 
        0.10899606347084045, 
        -0.4072936177253723, 
        0.375173419713974, 
        -0.6112786531448364, 
        -0.18911835551261902, 
        0.3486289978027344, 
        0.6856946349143982, 
        0.10825716704130173, 
        -0.17535749077796936, 
        0.30660542845726013, 
        -0.2291194349527359, 
        -0.39731764793395996, 
        0.10197538882493973, 
        0.5831955671310425, 
        -0.19164270162582397, 
        0.13482309877872467, 
        -0.10843759775161743, 
        -0.2234383076429367, 
        -0.1659565418958664, 
        0.747779369354248, 
        -0.22551581263542175, 
        -0.21422995626926422, 
        -0.3302977979183197, 
        0.4613369405269623, 
        0.24043400585651398, 
        -0.07335808873176575, 
        -0.016797151416540146, 
        0.7001590728759766, 
        0.6109649538993835, 
        -0.0002484397264197469, 
        0.09515375643968582, 
        0.39100295305252075, 
        -0.3525331914424896, 
        0.3024897873401642, 
        -0.43528854846954346, 
        -0.5701401829719543, 
        -0.6143431663513184, 
        -0.4580943286418915, 
        0.31180083751678467, 
        -0.4418732225894928, 
        0.10081835091114044, 
        0.3389643728733063, 
        0.5669606924057007, 
        0.6463742852210999, 
        -0.058548349887132645, 
        0.5672025084495544, 
        0.1712666004896164, 
        -0.2430490106344223, 
        -0.6010876893997192, 
        0.1790611743927002, 
        -0.3151911795139313, 
        0.37987157702445984, 
        0.05327969044446945, 
        0.0778392106294632, 
        -0.07163005322217941, 
        -0.35276705026626587, 
        0.7118609547615051, 
        0.4244273900985718, 
        0.10818740725517273, 
        0.1927613765001297, 
        -0.34293103218078613, 
        0.7889155745506287, 
        -0.6169500350952148, 
        0.4608564078807831, 
        -0.251644104719162, 
        0.4959832727909088, 
        0.3555169105529785, 
        -0.8170419931411743, 
        0.5176022052764893, 
        -0.24942843616008759, 
        -0.6470710635185242, 
        0.5420584678649902, 
        0.10558081418275833, 
        0.30232498049736023, 
        0.6520193219184875, 
        0.08852217346429825, 
        0.010160408914089203, 
        -0.30073535442352295, 
        0.37734076380729675, 
        -0.21344193816184998, 
        -0.634709894657135, 
        -0.5320972204208374, 
        -0.1083109974861145, 
        0.08495365083217621, 
        0.587712824344635, 
        0.3379126787185669, 
        0.6268235445022583, 
        0.3199944496154785, 
        0.1398695856332779, 
        0.028416557237505913, 
        -0.6615471243858337, 
        0.32988131046295166, 
        0.5589631795883179, 
        0.39325058460235596, 
        -0.3846396803855896, 
        0.02095634490251541, 
        -0.2769571542739868, 
        0.6896904706954956, 
        0.15236210823059082, 
        -0.3937655985355377, 
        -0.5252792239189148, 
        0.4138166010379791, 
        -0.716717541217804, 
        0.27950233221054077, 
        0.4784059226512909, 
        -0.567374587059021, 
        -0.3928714394569397, 
        0.6750006675720215, 
        0.4400041699409485, 
        0.4338092803955078, 
        0.5087385177612305, 
        -0.4696657061576843, 
        -0.01899261772632599, 
        0.28344622254371643, 
        -0.5067627429962158, 
        0.6642841696739197, 
        -0.17049339413642883, 
        0.4094485342502594, 
        -0.6169990301132202, 
        0.3635551333427429, 
        0.6732226014137268, 
        0.5345844626426697, 
        -0.05959285795688629, 
        0.035318050533533096, 
        -0.2831496000289917, 
        1.1887102127075195, 
        -0.5216789245605469, 
        0.05361567810177803, 
        -0.24151255190372467, 
        0.3141639530658722, 
        -0.1922328621149063, 
        -0.4601554870605469, 
        -0.003097153501585126, 
        -0.07859843969345093, 
        0.16778023540973663, 
        -0.06193038821220398, 
        1.2167235612869263, 
        0.21501579880714417, 
        0.03109690733253956, 
        -0.2796974182128906, 
        -0.1614091396331787, 
        -0.2866685092449188, 
        -0.3692924380302429, 
        0.20273908972740173, 
        -0.24225981533527374, 
        0.46155858039855957, 
        -0.608991801738739, 
        0.0036511525977402925, 
        0.5122319459915161, 
        -0.30395734310150146, 
        0.5329157114028931, 
        0.31555718183517456, 
        -0.5915645360946655, 
        -0.5597845911979675, 
        -0.4650866389274597, 
        -0.5757154226303101, 
        -0.5444871783256531, 
        0.12023754417896271, 
        -0.09471572935581207, 
        0.3595227897167206, 
        0.03151200711727142, 
        0.2693445682525635, 
        0.32903796434402466, 
        0.5775318741798401, 
        -0.2428506463766098, 
        0.8734899163246155, 
        -0.6920207142829895, 
        -0.014775276184082031, 
        -0.4076990485191345, 
        0.323795348405838, 
        0.25074177980422974, 
        -0.12872019410133362, 
        0.2019103765487671, 
        0.37525996565818787, 
        -0.5556400418281555, 
        -0.1203276738524437, 
        0.17825552821159363, 
        -0.04512355104088783, 
        -0.38733866810798645, 
        0.6396579146385193, 
        0.18828576803207397, 
        -0.5288228988647461, 
        -0.10081678628921509, 
        0.5710830688476562, 
        0.31752490997314453, 
        -0.16587041318416595, 
        0.14066660404205322, 
        -0.6511015892028809, 
        -0.619503378868103, 
        -0.6878771781921387, 
        0.3773418962955475, 
        0.10410007834434509, 
        -0.03980468213558197, 
        -0.5213903188705444, 
        0.2359841912984848, 
        0.0332290455698967, 
        -0.38400253653526306, 
        -0.847091019153595, 
        -0.1733008623123169, 
        0.692062258720398, 
        0.27634039521217346, 
        -0.2060963213443756, 
        -0.35462403297424316, 
        0.45616614818573, 
        0.33530330657958984, 
        -0.24982775747776031, 
        -0.3738095462322235, 
        0.483535498380661, 
        0.8728339076042175, 
        0.4092441499233246, 
        -0.764320433139801, 
        -0.3077540397644043, 
        0.08046179264783859, 
        -0.13709890842437744, 
        0.0052339741960167885, 
        0.31786975264549255, 
        0.20190122723579407, 
        0.4317862093448639, 
        -0.20360317826271057, 
        -0.28805771470069885, 
        0.8245109915733337, 
        0.16527463495731354, 
        -0.27881869673728943, 
        -0.06359271705150604, 
        -0.03752152994275093, 
        -0.7754435539245605, 
        -0.09759094566106796, 
        0.1990530639886856, 
        0.6091845631599426, 
        0.3653859794139862, 
        0.38781559467315674, 
        0.42218032479286194, 
        -0.5231578946113586, 
        0.08744151145219803, 
        0.03463706001639366, 
        -0.06354179978370667, 
        0.3239193856716156, 
        -0.28552010655403137, 
        0.2582096457481384, 
        -0.41897276043891907, 
        0.20447486639022827, 
        0.1663619577884674, 
        0.08898740261793137, 
        -0.014809275045990944, 
        -0.30718883872032166, 
        -0.06239248067140579, 
        -0.10943736881017685, 
        0.679776668548584, 
        0.43674442172050476, 
        -0.2348063737154007, 
        -0.3759194016456604, 
        0.01628410816192627, 
        -0.5763890743255615, 
        -0.05873514711856842, 
        -0.49640610814094543, 
        -0.4515298306941986, 
        0.2879718542098999, 
        -0.3677520453929901, 
        0.5560386180877686, 
        0.5644094347953796, 
        0.7024246454238892, 
        0.3042806386947632, 
        0.158344104886055, 
        0.34085050225257874, 
        -0.11964452266693115, 
        -0.5171782374382019, 
        0.29276108741760254, 
        0.26287686824798584, 
        0.2205243706703186, 
        -0.03513793647289276, 
        -0.04710134491324425, 
        0.6791689395904541, 
        0.6243109703063965, 
        -0.18684205412864685, 
        0.25268805027008057, 
        0.23616370558738708, 
        -0.344728946685791, 
        0.5886442065238953, 
        0.36542344093322754, 
        -0.13315069675445557, 
        0.18111978471279144, 
        0.40147462487220764, 
        0.42435577511787415, 
        0.019389137625694275, 
        0.3969596326351166, 
        0.26839521527290344, 
        -0.18722671270370483, 
        0.6148775219917297, 
        0.5312918424606323, 
        0.39029309153556824, 
        -0.005732489284127951, 
        -0.46837618947029114, 
        0.35740306973457336, 
        0.5511411428451538, 
        0.3695037364959717, 
        0.7511950731277466, 
        0.024585453793406487, 
        -0.07802487164735794, 
        -0.6448388695716858, 
        0.20803605020046234, 
        -0.36407580971717834, 
        0.3078548312187195, 
        0.5439104437828064, 
        0.3548037111759186, 
        -0.23665784299373627, 
        0.6190171837806702, 
        -0.11968406289815903, 
        -0.6353767514228821, 
        0.16747832298278809, 
        -0.3304998576641083, 
        0.20159189403057098, 
        -0.32109344005584717, 
        -0.1475396603345871, 
        0.7123135328292847, 
        0.2001020759344101, 
        0.530259370803833, 
        -0.11602326482534409, 
        0.45209646224975586, 
        0.664499044418335, 
        0.18901242315769196, 
        -0.5253792405128479, 
        0.25806349515914917, 
        0.23260851204395294, 
        0.07350699603557587, 
        -0.5136439800262451, 
        -0.44868969917297363, 
        -0.0388820506632328, 
        0.5620909333229065, 
        0.21942530572414398, 
        0.05733327940106392, 
        0.6297160387039185, 
        0.8203858733177185, 
        0.23672014474868774, 
        -0.2889035642147064, 
        0.30684611201286316, 
        -0.6267864108085632, 
        0.5454954504966736, 
        0.1118694543838501, 
        -0.9357342720031738, 
        -0.25263142585754395, 
        0.29175421595573425, 
        0.585239052772522, 
        -0.7970961332321167, 
        0.10471470654010773, 
        0.5653800964355469, 
        -0.4822281301021576, 
        -0.12361502647399902, 
        -0.686021625995636, 
        0.1570752114057541, 
        -0.15389084815979004, 
        -0.60065096616745, 
        -0.26847079396247864, 
        0.3826019763946533, 
        0.4492679834365845, 
        0.494818776845932, 
        0.48806527256965637, 
        -0.1513877511024475, 
        -0.40210413932800293, 
        -0.2553885281085968, 
        0.5319006443023682, 
        0.13443872332572937, 
        -0.5717917084693909, 
        0.23803181946277618, 
        -0.11607401072978973, 
        -0.029124649241566658, 
        -0.6362497210502625, 
        0.7167951464653015, 
        -0.4055703580379486, 
        -0.29420748353004456, 
        0.4601064622402191, 
        -0.27867409586906433, 
        0.17001569271087646, 
        -0.19367235898971558, 
        -0.3072560131549835, 
        -0.3751300573348999, 
        0.16468855738639832, 
        -0.2884255647659302, 
        -0.28979620337486267, 
        -0.08455953001976013, 
        -0.2629528343677521, 
        -0.35473084449768066, 
        -0.5801648497581482, 
        -0.4800069034099579, 
        0.74118572473526, 
        0.576973021030426, 
        -0.3247585892677307, 
        0.6220345497131348, 
        -0.2351359724998474, 
        0.5379464030265808, 
        0.0994347408413887, 
        0.15267138183116913, 
        0.6034533977508545, 
        -0.47025513648986816, 
        0.4375651776790619, 
        -0.14508533477783203, 
        0.10052885860204697, 
        0.4960153102874756, 
        0.204067200422287, 
        -0.6547333002090454, 
        0.6671757698059082, 
        -0.2425273060798645, 
        0.1415424346923828, 
        0.34265851974487305, 
        0.15932343900203705, 
        -0.8780389428138733, 
        -0.18625938892364502, 
        -0.4215026795864105, 
        -0.7578351497650146, 
        0.48052358627319336, 
        0.1862146109342575, 
        0.16610504686832428, 
        0.4284939169883728, 
        0.20535123348236084, 
        -0.1178489625453949, 
        0.015761714428663254, 
        0.4949837327003479, 
        0.6035369634628296, 
        -0.2129845768213272, 
        0.8807249665260315, 
        -0.7538583278656006, 
        0.18686452507972717, 
        0.07268296182155609, 
        -0.06165536120533943, 
        -0.3792824447154999, 
        0.7494545578956604, 
        -0.5038765668869019, 
        -0.7843837738037109, 
        0.4010157883167267, 
        0.030444886535406113, 
        0.5951758027076721, 
        -0.8936998248100281, 
        -0.598061203956604, 
        0.03168487548828125, 
        0.7229747176170349, 
        0.29659199714660645, 
        0.4049745202064514, 
        0.8347320556640625, 
        0.27302858233451843, 
        0.4829685389995575, 
        0.702469527721405, 
        -0.5329484939575195, 
        -0.6354564428329468, 
        0.035916201770305634, 
        0.7431727051734924, 
        0.6449912190437317, 
        0.47639045119285583, 
        0.2115127593278885, 
        -0.1435612440109253, 
        0.3992553651332855, 
        0.037611715495586395, 
        0.09791482239961624, 
        -0.2758708894252777, 
        -0.09736894816160202, 
        -0.41717684268951416, 
        0.26770535111427307, 
        -0.5186541080474854, 
        0.5308783054351807, 
        0.46126803755760193, 
        -0.6048523187637329, 
        -0.671038806438446, 
        -0.08847710490226746, 
        -0.16904565691947937, 
        0.2015782594680786, 
        0.6133481860160828, 
        -0.12131804972887039, 
        -0.6280321478843689, 
        0.44097739458084106, 
        0.2351185381412506, 
        0.41154801845550537, 
        0.2776968479156494, 
        -0.12986154854297638, 
        0.37299755215644836, 
        -0.055714886635541916, 
        -0.478213906288147, 
        0.44604673981666565, 
        0.08430689573287964, 
        -0.24360282719135284, 
        -0.5607057809829712, 
        0.5759153366088867, 
        -0.3840286433696747, 
        0.07312361150979996, 
        -0.7365833520889282, 
        0.2754775583744049, 
        -0.302127867937088, 
        -0.3162918984889984, 
        0.04881430044770241, 
        -0.3685941994190216, 
        0.744849443435669, 
        0.2583255171775818, 
        -0.19137771427631378, 
        0.11149665713310242, 
        0.2658679187297821, 
        0.6020495891571045, 
        -0.5748260021209717, 
        -0.6148312091827393, 
        -0.34248366951942444, 
        -0.21203617751598358, 
        -0.3850187659263611, 
        -0.048104606568813324, 
        0.49648112058639526, 
        0.664864718914032, 
        -0.09958286583423615, 
        0.24524758756160736, 
        -0.710839569568634, 
        -0.5667979121208191, 
        0.4290209710597992, 
        -0.7054623365402222, 
        0.6965258121490479, 
        0.01132963877171278, 
        -0.7488223910331726, 
        0.7265931963920593, 
        -0.2587187588214874, 
        0.43421393632888794, 
        0.6244891881942749, 
        0.022518204525113106, 
        0.5172654390335083, 
        -0.6650568246841431, 
        -0.2719605267047882, 
        0.0338679738342762, 
        0.28566208481788635, 
        -0.3694736361503601, 
        -0.07755598425865173, 
        -0.5371224880218506, 
        0.7331498265266418, 
        0.1354687213897705, 
        -0.04696880280971527, 
        0.7823792099952698, 
        -0.1760173887014389, 
        0.14506056904792786, 
        0.017279762774705887, 
        -0.3471955955028534, 
        0.468155175447464, 
        0.3998199999332428, 
        -0.4476792812347412, 
        0.4475216567516327, 
        0.5579003095626831, 
        0.7325549721717834, 
        0.22837936878204346, 
        -0.7060506939888, 
        0.10411429405212402, 
        -0.5140829086303711, 
        0.17558453977108002, 
        0.30837488174438477, 
        -0.4319545030593872, 
        -0.45457983016967773, 
        -0.0947343111038208, 
        0.5739923119544983, 
        -0.532662034034729, 
        0.07555296272039413, 
        0.027990935370326042, 
        -0.12330692261457443, 
        -0.4186655879020691, 
        0.42458459734916687, 
        0.15900154411792755, 
        0.2987184226512909, 
        -0.5186902284622192, 
        -0.02059948444366455, 
        -0.3592382073402405, 
        -0.004702896811068058, 
        0.5922107100486755, 
        -0.4372384548187256, 
        -0.49616140127182007, 
        0.711493730545044, 
        0.16493384540081024, 
        0.6062762141227722, 
        -0.0498475581407547, 
        -0.21619759500026703, 
        0.41100019216537476, 
        0.016971243545413017, 
        -0.7331995368003845, 
        -0.14921832084655762, 
        0.511669397354126, 
        0.5942175388336182, 
        -0.5120817422866821, 
        0.05726338177919388, 
        0.25162824988365173, 
        -0.3499981462955475, 
        -0.6436294913291931, 
        0.72679203748703, 
        0.5083315968513489, 
        0.45067745447158813, 
        -0.6130210161209106, 
        -0.3289671540260315, 
        -0.35173916816711426, 
        -0.0005309015978127718, 
        -0.6276734471321106, 
        0.4764840006828308, 
        -0.05446091666817665, 
        0.6126013994216919, 
        0.3348214030265808, 
        0.2126251608133316, 
        0.22789379954338074, 
        0.8119692206382751, 
        -0.4136103689670563, 
        0.14621299505233765, 
        -0.0911397784948349, 
        0.00048772606533020735, 
        -0.13260316848754883, 
        -0.44925233721733093, 
        0.46663686633110046, 
        0.5538223385810852, 
        -0.4422510266304016, 
        -0.5017997622489929, 
        -0.25710734724998474, 
        0.20204609632492065, 
        0.05918651446700096, 
        -0.7470815777778625, 
        0.22182993590831757, 
        -0.004497017245739698, 
        -0.15147455036640167, 
        -0.22080115973949432, 
        0.5454705357551575, 
        0.36321499943733215, 
        -0.3999546468257904, 
        -0.031570885330438614, 
        -0.21973802149295807, 
        0.6815140843391418, 
        -0.08311554044485092, 
        -0.5374507904052734, 
        -0.721586287021637, 
        0.5539577603340149, 
        0.06932199001312256, 
        0.6708883047103882, 
        -0.6180304288864136, 
        -0.3328647017478943, 
        0.653167724609375, 
        -0.38605234026908875, 
        -0.40025919675827026, 
        0.5175301432609558, 
        -0.6263963580131531, 
        0.6351203322410583, 
        -0.03327951207756996, 
        -0.5568069815635681, 
        0.0799802616238594, 
        0.033415358513593674, 
        0.308824360370636, 
        -0.6893513798713684, 
        0.2284059226512909, 
        -0.6301553845405579, 
        -0.12812687456607819, 
        0.6350681185722351, 
        0.1361939162015915, 
        0.15183304250240326, 
        -0.2584453225135803, 
        -0.4934837520122528, 
        0.08962088823318481, 
        0.045743390917778015, 
        0.4468696415424347, 
        -0.5750248432159424, 
        -0.013244961388409138, 
        -0.6045776009559631, 
        -0.05828537046909332, 
        0.3741909861564636, 
        -0.13717907667160034, 
        -0.3309301435947418, 
        0.866760790348053, 
        -0.4832577407360077, 
        -0.6141397953033447, 
        0.11860143393278122, 
        -0.5549450516700745, 
        -0.7638362050056458, 
        0.17935234308242798, 
        -0.42966797947883606, 
        -0.08585254102945328, 
        -0.11158174276351929, 
        0.5004512071609497, 
        -0.2888813018798828, 
        0.05044640228152275, 
        0.03283214196562767, 
        -0.09115058928728104, 
        -0.8436595797538757, 
        -0.5475319623947144, 
        0.16191574931144714, 
        -0.06606486439704895, 
        -0.043432869017124176, 
        0.005699480418115854, 
        0.17217540740966797, 
        0.13034988939762115, 
        0.4990556240081787, 
        -0.04155798256397247, 
        0.48287683725357056, 
        -0.6838383078575134, 
        0.4921450614929199, 
        -0.32751545310020447, 
        0.5567659735679626, 
        -0.6081590056419373, 
        -0.3452487885951996, 
        0.6704171299934387, 
        0.5825234651565552, 
        0.22295165061950684, 
        0.12108433246612549, 
        -0.317575603723526, 
        0.5451341867446899, 
        -0.25934654474258423, 
        0.011527137830853462, 
        -0.10108079016208649, 
        0.5816139578819275, 
        -0.21718646585941315, 
        -0.2555728554725647, 
        -0.09161723405122757, 
        0.004196623805910349, 
        -0.4841540455818176, 
        -0.06733232736587524, 
        0.3949090540409088, 
        -0.5612360239028931, 
        0.3595427870750427, 
        -0.4211115539073944, 
        -0.15087305009365082, 
        0.7737606167793274, 
        -0.4108327329158783, 
        0.17039471864700317, 
        0.6321160793304443, 
        -0.30563828349113464, 
        0.5340072512626648, 
        0.43094494938850403, 
        0.1721707582473755, 
        -0.5797286033630371, 
        0.5165864825248718, 
        0.08238853514194489, 
        -0.4545396566390991, 
        0.6767684817314148, 
        0.30147120356559753, 
        -0.7919475436210632, 
        -0.19185248017311096, 
        -0.26073503494262695, 
        -0.6900719404220581, 
        0.5214410424232483, 
        0.11490758508443832, 
        -0.5453909635543823, 
        -0.23339256644248962, 
        0.5339341163635254, 
        0.7717467546463013, 
        -0.2534453272819519, 
        0.6246204376220703, 
        0.5922949314117432, 
        -0.09724102914333344, 
        0.5756842494010925, 
        -0.005439215339720249, 
        0.19105808436870575, 
        0.7244382500648499, 
        0.6746708154678345, 
        -0.32089272141456604, 
        -0.34750187397003174, 
        -0.19163177907466888, 
        -0.37962669134140015, 
        -0.13882504403591156, 
        -0.03099788725376129, 
        -0.27921202778816223, 
        -0.4916656017303467, 
        -0.163737952709198, 
        0.20126846432685852, 
        -0.13321150839328766, 
        0.5108519196510315, 
        0.3411819338798523, 
        0.30626291036605835, 
        0.41089093685150146, 
        0.23055905103683472, 
        0.5766728520393372, 
        0.5430461168289185, 
        0.26945409178733826, 
        0.5668458938598633, 
        -0.25760847330093384, 
        0.2382654994726181, 
        -0.4269372224807739, 
        0.27414026856422424, 
        -0.026354646310210228, 
        -0.16517992317676544, 
        0.717875599861145, 
        0.09339937567710876, 
        -0.7603532671928406, 
        -0.517328143119812, 
        0.01298917829990387, 
        -0.49188846349716187, 
        0.07760607451200485, 
        0.35821855068206787, 
        -0.65269935131073, 
        -0.48262888193130493, 
        0.3403546214103699, 
        0.5817359685897827, 
        -0.5068780183792114, 
        0.4727782607078552, 
        -0.2652337849140167, 
        0.34001919627189636, 
        -0.0315447635948658, 
        0.02657891996204853, 
        0.09594888985157013, 
        -0.24870607256889343, 
        -0.5449357032775879, 
        0.07438019663095474, 
        -0.3699781000614166, 
        -0.062192246317863464, 
        -0.26834815740585327, 
        0.3576301038265228, 
        0.5305178165435791, 
        0.09621410071849823, 
        -0.43657615780830383, 
        -0.4669835865497589, 
        0.5391703248023987, 
        0.6377301812171936, 
        -0.12088729441165924, 
        -0.15385319292545319, 
        0.023653728887438774, 
        0.1164398044347763, 
        0.44674405455589294, 
        -0.07994651049375534, 
        -0.5721371173858643, 
        0.33594265580177307, 
        -0.10945103317499161, 
        -0.24600572884082794, 
        0.13411614298820496, 
        0.3802279233932495, 
        0.27815014123916626, 
        -0.08508943766355515, 
        -0.4450073838233948, 
        0.6691669225692749, 
        0.592374324798584, 
        0.352339506149292, 
        -0.6610350608825684, 
        0.037695541977882385, 
        -0.2630684971809387, 
        -0.14987176656723022, 
        -0.190716952085495, 
        0.18196401000022888, 
        0.6044636964797974, 
        -0.3071534037590027, 
        -0.7472421526908875, 
        0.6867706179618835, 
        -0.6525428891181946, 
        -0.4566444754600525, 
        0.30585625767707825, 
        -0.3881309926509857, 
        -0.43697357177734375, 
        -0.32838937640190125, 
        -0.43038052320480347, 
        0.4574291706085205, 
        -0.3907352089881897, 
        0.9101754426956177, 
        -0.2473955750465393, 
        -0.5712404847145081, 
        0.3495458960533142, 
        0.3926727771759033, 
        -0.05120505020022392, 
        0.1817280352115631, 
        0.2634161412715912, 
        0.38544684648513794, 
        0.47344332933425903, 
        0.4630424380302429, 
        0.5831596255302429, 
        -0.07495059818029404, 
        -0.27324071526527405, 
        0.30900293588638306, 
        -0.10755156725645065, 
        0.4920768737792969, 
        0.3543320894241333, 
        0.5073649883270264, 
        -0.49350830912590027, 
        -0.5671082735061646, 
        -0.25757986307144165, 
        0.3540531098842621, 
        -0.44619837403297424, 
        -0.02599586546421051, 
        -0.5690584182739258, 
        0.19338278472423553, 
        -0.23877115547657013, 
        -0.10143297910690308, 
        0.36105069518089294, 
        0.6131134033203125, 
        -0.4060874879360199, 
        -0.3159284293651581, 
        0.3391311466693878, 
        -0.18296769261360168, 
        -0.19159385561943054, 
        -0.35170841217041016, 
        0.07410796731710434, 
        -0.4608452022075653, 
        -0.6355918049812317, 
        -0.4684939384460449, 
        -0.4768820106983185, 
        -0.6627598404884338, 
        -0.5399153828620911, 
        0.8864662051200867, 
        -0.0006201782380230725, 
        -0.6022981405258179, 
        -0.6837601065635681, 
        -0.09443443268537521, 
        -0.45981407165527344, 
        -0.6438412070274353, 
        0.01413988322019577, 
        0.6333151459693909, 
        -0.005374078173190355, 
        -0.4391513466835022, 
        -0.17306269705295563, 
        0.1189005970954895, 
        -0.1749834567308426, 
        -0.10503989458084106, 
        -0.46235817670822144, 
        0.15506823360919952, 
        -0.49978867173194885, 
        0.23013293743133545, 
        -0.7097691893577576, 
        0.246141716837883, 
        0.08563630282878876, 
        0.16407471895217896, 
        -0.33564186096191406, 
        0.412859171628952, 
        -0.5291591286659241, 
        -0.02303953841328621, 
        0.11647450178861618, 
        0.7356774210929871, 
        0.350302517414093, 
        -0.6708914637565613, 
        0.16118404269218445, 
        0.5391136407852173, 
        -0.6267597079277039, 
        0.21850912272930145, 
        -0.042555127292871475, 
        -0.3292701542377472, 
        0.29365846514701843, 
        -0.10507633537054062, 
        -0.3572466969490051, 
        -0.7464811205863953, 
        -0.27320441603660583, 
        -0.632614254951477, 
        -0.18901105225086212, 
        -0.5547439455986023, 
        0.7023652791976929, 
        0.24557681381702423, 
        0.06503788381814957, 
        -0.27182304859161377, 
        0.13548898696899414, 
        -0.36332759261131287, 
        0.15585742890834808, 
        0.6233267188072205, 
        0.8058524131774902, 
        -0.6255524158477783, 
        -0.061834849417209625, 
        -0.516392707824707, 
        0.5117431282997131, 
        -0.41097110509872437, 
        0.6193535327911377, 
        -0.23695704340934753, 
        0.3264038860797882, 
        0.6084926724433899, 
        -0.1171303316950798, 
        0.343571275472641, 
        0.6400651335716248, 
        0.6938895583152771, 
        -0.707831621170044, 
        -0.6151977181434631, 
        -0.1444646269083023, 
        -0.40708833932876587, 
        -0.5022739171981812, 
        -0.45609650015830994, 
        0.36287063360214233, 
        0.7697647213935852, 
        -0.24425040185451508, 
        0.22242626547813416, 
        -0.33705028891563416, 
        0.6021809577941895, 
        -0.5073142051696777, 
        0.01962864212691784, 
        0.4275200366973877, 
        0.27687036991119385, 
        -0.451618492603302, 
        0.2206086814403534, 
        -0.5519776940345764, 
        -0.24126902222633362, 
        -0.03594609722495079, 
        0.6388826370239258, 
        0.4875183403491974, 
        -0.5597782731056213, 
        -0.09019481390714645, 
        0.3586800992488861, 
        -0.23515304923057556, 
        -0.5992089509963989, 
        0.5976027846336365, 
        0.17157402634620667, 
        -0.04269413277506828, 
        0.7877613306045532, 
        0.041098035871982574, 
        -0.16472741961479187, 
        -0.5462952256202698, 
        0.07996316254138947, 
        -0.05800611898303032, 
        0.3674602508544922, 
        -0.11699027568101883, 
        0.18120244145393372, 
        -0.4453067183494568, 
        -0.31579509377479553, 
        -0.045586347579956055, 
        -0.31057238578796387, 
        -0.80821692943573, 
        0.44008225202560425, 
        -0.5995879769325256, 
        -0.8947823643684387, 
        0.3284567892551422, 
        0.599276602268219, 
        -0.10291457176208496, 
        -0.40054816007614136, 
        0.42019790410995483, 
        0.25538790225982666, 
        -0.11047348380088806, 
        0.23741984367370605, 
        0.15822619199752808, 
        0.4228256642818451, 
        0.26353785395622253, 
        -0.16442687809467316, 
        -0.0939275249838829, 
        -0.0030763885006308556, 
        -0.3956916630268097, 
        -0.21229928731918335, 
        0.4293152391910553, 
        -0.26838821172714233, 
        0.5686468482017517, 
        -0.7620936632156372, 
        -0.1769847869873047, 
        0.40603315830230713, 
        0.38875409960746765, 
        -0.189417764544487, 
        0.5780940651893616, 
        0.5910145044326782, 
        0.3299007713794708, 
        -0.40162715315818787, 
        0.09481129795312881, 
        0.427390992641449, 
        -0.6075199842453003, 
        0.508276641368866, 
        -0.07465783506631851, 
        -0.12246877700090408, 
        0.2639436721801758, 
        -0.0829346552491188, 
        -0.3148805499076843, 
        -0.4710483253002167, 
        0.1624050736427307, 
        0.20128419995307922, 
        0.5487500429153442, 
        -0.10516362637281418, 
        -0.7472828030586243, 
        -0.38195404410362244, 
        0.024909496307373047, 
        0.056556958705186844, 
        -0.14837269484996796, 
        -0.008372127078473568, 
        -0.5705955028533936, 
        -0.15556462109088898, 
        0.30038195848464966, 
        0.8376717567443848, 
        0.4102991819381714, 
        0.19242103397846222, 
        0.35633328557014465, 
        -0.33082515001296997, 
        -0.38088881969451904, 
        -0.05053771287202835, 
        0.7030978202819824, 
        0.09484249353408813, 
        0.30364739894866943, 
        0.2625952661037445, 
        0.34034085273742676, 
        -0.49577805399894714, 
        0.02659391239285469, 
        0.4763820469379425, 
        -0.04943548142910004, 
        -0.5649232268333435, 
        -0.3056400418281555, 
        -0.5457909107208252, 
        0.14157137274742126, 
        0.4061490297317505, 
        0.3995530903339386, 
        -0.5135499238967896, 
        -0.07233516871929169, 
        -0.044214244931936264, 
        -0.4140106439590454, 
        0.1712302565574646, 
        -0.33138105273246765, 
        -0.6107089519500732, 
        0.63361656665802, 
        -0.7257874608039856, 
        0.4237790107727051, 
        -0.23141266405582428, 
        0.20857349038124084, 
        0.46274539828300476, 
        -0.5703539848327637, 
        0.41284868121147156, 
        0.6819648742675781, 
        -0.6834577918052673, 
        -0.0154471006244421, 
        -0.39679718017578125, 
        0.4150201678276062, 
        0.701440691947937, 
        0.7040315270423889, 
        0.4311359226703644, 
        -0.08186223357915878, 
        -0.5389285087585449, 
        0.7964590787887573, 
        -0.7289740443229675, 
        -0.25854480266571045, 
        -0.30975478887557983, 
        0.21321982145309448, 
        0.6853565573692322, 
        -0.19524700939655304, 
        -0.4025883674621582, 
        -0.3455253839492798, 
        0.41493430733680725, 
        0.5537183880805969, 
        0.8496779799461365, 
        -0.2218352109193802, 
        0.6497458815574646, 
        0.5447992086410522, 
        0.13607168197631836, 
        -0.49883463978767395, 
        -0.8650012612342834, 
        -0.4180459976196289, 
        0.34852734208106995, 
        -0.007364222779870033, 
        -0.43063196539878845, 
        0.09987509995698929, 
        0.13463877141475677, 
        0.09650837630033493, 
        -0.28621622920036316, 
        0.687780499458313, 
        -0.06506981700658798, 
        -0.08220687508583069, 
        -0.2272382527589798, 
        0.3384895920753479, 
        -0.1100340485572815, 
        0.22669990360736847, 
        0.364656537771225, 
        -0.21442905068397522, 
        -0.28762608766555786, 
        -0.3698212206363678, 
        0.24019484221935272, 
        0.38922375440597534, 
        -0.5600908398628235, 
        0.06460428237915039, 
        0.6580278873443604, 
        -0.5337432026863098, 
        0.33599045872688293, 
        -0.6303489804267883, 
        0.39120951294898987, 
        0.5229851603507996, 
        -0.02641068957746029, 
        -0.4921383261680603, 
        0.5032779574394226, 
        -0.21687333285808563, 
        -0.5868605971336365, 
        -0.7350212931632996, 
        0.288203626871109, 
        0.13738824427127838, 
        -0.4982980489730835, 
        -0.24466046690940857, 
        -0.6765498518943787, 
        0.5507184267044067, 
        -0.21968676149845123, 
        0.22038985788822174, 
        -0.2546575367450714, 
        -0.270959734916687, 
        -0.42350083589553833, 
        0.2106958031654358, 
        -0.3327244818210602, 
        -0.6962592005729675, 
        -0.36849498748779297, 
        0.6958083510398865, 
        0.28291574120521545, 
        0.5754571557044983, 
        -0.36566799879074097, 
        -0.4652075469493866, 
        0.06597205996513367, 
        -0.6853448152542114, 
        0.6598305702209473, 
        -0.09114999324083328, 
        -0.3625026047229767, 
        0.034763142466545105, 
        0.35722169280052185, 
        -0.5449042916297913, 
        -0.06887467205524445, 
        -0.03204284608364105, 
        0.03264408931136131, 
        0.27829301357269287, 
        -0.5248058438301086, 
        0.2789267897605896, 
        0.33763009309768677, 
        0.4213806092739105, 
        0.6139764785766602, 
        -0.778180718421936, 
        0.5093361139297485, 
        -0.6205334663391113, 
        0.19999469816684723, 
        0.024104665964841843, 
        -0.20680566132068634, 
        0.7760481238365173, 
        0.09066779911518097, 
        0.4352492392063141, 
        0.4605061411857605, 
        -0.5998656153678894, 
        0.3596893548965454, 
        -0.47557148337364197, 
        -0.2150595337152481, 
        0.5029077529907227, 
        0.32328030467033386, 
        0.3521210849285126, 
        -0.2729586362838745, 
        -0.2807433307170868, 
        0.5074308514595032, 
        -0.007555940188467503, 
        -0.07160262763500214, 
        -0.023192310705780983, 
        0.1514974981546402, 
        -0.09621316939592361, 
        0.0457904152572155, 
        -0.38303515315055847, 
        0.3441409468650818, 
        0.5015681385993958, 
        0.055752042680978775, 
        -0.06475961208343506, 
        -0.007350686937570572, 
        0.40087202191352844, 
        0.17799687385559082, 
        -0.7576206922531128, 
        0.04288440942764282, 
        0.47796446084976196, 
        0.3250267207622528, 
        0.7006905674934387, 
        -0.4268949031829834, 
        -0.6417529582977295, 
        0.3153638541698456, 
        0.14112257957458496, 
        0.6363158226013184, 
        0.32372039556503296, 
        -0.5904839634895325, 
        -0.5118892192840576, 
        -0.4766857624053955, 
        0.17536325752735138, 
        -0.1984567791223526, 
        0.10200250893831253, 
        0.39382824301719666, 
        -0.014750845730304718, 
        0.2745480239391327, 
        -0.7490672469139099, 
        0.7655661106109619, 
        0.618336021900177, 
        0.187354177236557, 
        -0.4028433859348297, 
        0.7901055812835693, 
        -0.5985863208770752, 
        0.21530522406101227, 
        -0.4253978133201599, 
        0.024970155209302902, 
        -0.30194056034088135, 
        -0.49202755093574524, 
        0.24185730516910553, 
        -0.4921590983867645, 
        0.5735662579536438, 
        -0.27198293805122375, 
        0.2244960218667984, 
        -0.46282845735549927, 
        -0.21842382848262787, 
        0.37422874569892883, 
        -0.29023176431655884, 
        -0.41577163338661194, 
        -0.7348659038543701, 
        -0.7300387620925903, 
        -0.029009466990828514, 
        -0.13530971109867096, 
        0.45513996481895447, 
        -0.3408253490924835, 
        -0.20446765422821045, 
        -0.4841265380382538, 
        -0.5482804775238037, 
        -0.02366621233522892, 
        -0.24959486722946167, 
        0.5080085396766663, 
        -0.37131467461586, 
        0.1346716582775116, 
        -0.2229490429162979, 
        -0.1764179766178131, 
        -0.2430298626422882, 
        -0.09616023302078247, 
        0.6312586069107056, 
        0.12466411292552948, 
        0.2061055302619934, 
        0.509040117263794, 
        0.5381070375442505, 
        -0.32127317786216736, 
        0.3140397071838379, 
        -0.03540772199630737, 
        0.5136024951934814, 
        0.24523226916790009, 
        -0.10882619768381119, 
        0.3514263927936554, 
        -0.17423488199710846, 
        -0.40162262320518494, 
        -0.5228419303894043, 
        -0.1424863636493683, 
        -0.28456324338912964, 
        0.2515782415866852, 
        0.09191155433654785, 
        -0.5323897004127502, 
        0.7699516415596008, 
        -0.2385648638010025, 
        0.16855540871620178, 
        0.0377580001950264, 
        0.16203804314136505, 
        0.4138338267803192, 
        -0.32874444127082825, 
        0.11151653528213501, 
        0.008914899080991745, 
        -0.15754730999469757, 
        0.5408311486244202, 
        -0.5983511209487915, 
        0.2581315338611603, 
        0.635269045829773, 
        0.3104434013366699, 
        -0.15276628732681274, 
        0.4615548551082611, 
        0.17692069709300995, 
        0.259586364030838, 
        0.54780513048172, 
        0.4835202395915985, 
        -0.7403643727302551, 
        -0.6088093519210815, 
        -0.8466302752494812, 
        -0.7271891832351685, 
        -0.028049787506461143, 
        -0.34115126729011536, 
        -0.5664786696434021, 
        0.5897504687309265, 
        0.3146815598011017, 
        0.50611412525177, 
        -0.5493695139884949, 
        0.049773141741752625, 
        -0.4075500965118408, 
        0.28416284918785095, 
        -0.8143147826194763, 
        0.3833220899105072, 
        0.5274885296821594, 
        -0.009596558287739754, 
        0.2347789853811264, 
        0.31813451647758484, 
        0.37776055932044983, 
        -0.1498652845621109, 
        -0.4253776967525482, 
        0.12475180625915527, 
        -0.4019100069999695, 
        0.7211909890174866, 
        0.46635502576828003, 
        -0.15485388040542603, 
        -1.2706748247146606, 
        -0.1346297413110733, 
        -0.1652650237083435, 
        0.7342328429222107, 
        -0.1000845804810524, 
        -0.3511696457862854, 
        -0.17373798787593842, 
        0.06865274906158447, 
        -0.2563796937465668, 
        -0.2064657360315323, 
        0.1536490023136139, 
        0.3112454414367676, 
        0.377962201833725, 
        -0.6031835079193115, 
        0.17144396901130676, 
        -0.1758834272623062, 
        0.4475478231906891, 
        -0.08589272946119308, 
        -0.7891639471054077, 
        -0.8055596351623535, 
        0.416758269071579, 
        0.13871102035045624, 
        -0.1881701797246933, 
        0.10743124037981033, 
        0.5952620506286621, 
        -0.2502754032611847, 
        0.5915143489837646, 
        -0.5051303505897522, 
        -0.33716481924057007, 
        -0.1758681684732437, 
        0.6202344298362732, 
        0.5538607835769653, 
        -0.41051220893859863, 
        -0.22555747628211975, 
        0.3899221122264862, 
        -0.7675716280937195, 
        0.3915410041809082, 
        0.8188013434410095, 
        -0.11232011020183563, 
        -0.6364067792892456, 
        0.5109794735908508, 
        -0.12930415570735931, 
        0.053798653185367584, 
        -0.09852485358715057, 
        -0.332706093788147, 
        -0.7889603972434998, 
        0.5896595120429993, 
        -0.7199229001998901, 
        -0.2550840675830841, 
        0.5963355302810669, 
        -0.20157331228256226, 
        0.43780916929244995, 
        0.5285040736198425, 
        -0.14191123843193054, 
        0.5381184816360474, 
        0.13059915602207184, 
        -0.042739223688840866, 
        -0.4369109272956848, 
        0.12522585690021515, 
        -0.3644126057624817, 
        -0.32096192240715027, 
        0.0726451501250267, 
        0.37192273139953613, 
        0.5720465183258057, 
        0.4916578531265259, 
        0.31644952297210693, 
        0.44486328959465027, 
        -0.4224728047847748, 
        -0.21777214109897614, 
        0.37038397789001465, 
        0.5957711935043335, 
        0.07544071227312088, 
        -0.11371371150016785, 
        0.0684078186750412, 
        0.4708143472671509, 
        0.10253269970417023, 
        -0.5245222449302673, 
        0.30741801857948303, 
        -0.4278463125228882, 
        0.18979622423648834, 
        0.20837174355983734, 
        0.7111732363700867, 
        0.18133024871349335, 
        -0.6745397448539734, 
        0.3727342188358307, 
        -0.10060814768075943, 
        -0.4046831727027893, 
        0.47337502241134644, 
        -0.8807942867279053, 
        -0.6248947978019714, 
        0.17854660749435425, 
        0.22129741311073303, 
        -0.011549686081707478, 
        0.2550082802772522, 
        -0.08370862901210785, 
        -0.6618289351463318, 
        0.6126430630683899, 
        0.11574924737215042, 
        -0.47903209924697876, 
        0.48928213119506836, 
        0.17315641045570374, 
        -0.24252331256866455, 
        -0.1269439309835434, 
        -0.4822026491165161, 
        0.18294478952884674, 
        0.2665097415447235, 
        -0.1417655199766159, 
        0.5224918723106384, 
        -0.0006307463627308607, 
        0.41376927495002747, 
        -0.6876934170722961, 
        0.7488793134689331, 
        0.19184930622577667, 
        -0.45132672786712646, 
        0.7893368601799011, 
        -0.3298395276069641, 
        0.20800605416297913, 
        0.2718425989151001, 
        0.07887949049472809, 
        0.7574729323387146, 
        0.7676565647125244, 
        0.4966725707054138, 
        0.654457688331604, 
        0.1560267060995102, 
        0.028233526274561882, 
        0.7731459736824036, 
        -0.05653665214776993, 
        -0.37215718626976013, 
        -0.2192734330892563, 
        -0.5470209121704102, 
        0.40918463468551636, 
        -0.12855690717697144, 
        -0.5086847543716431, 
        0.6781378388404846, 
        0.17255930602550507, 
        -0.0344671793282032, 
        -0.058894652873277664, 
        0.11003164947032928, 
        -0.6480659246444702, 
        0.487164705991745, 
        -0.08062098920345306, 
        0.19832883775234222, 
        -0.5598782300949097, 
        -0.4697644114494324, 
        -0.30655086040496826, 
        -0.43411752581596375, 
        0.14867842197418213, 
        -0.7769863605499268, 
        0.22605523467063904, 
        0.35916802287101746, 
        0.722973108291626, 
        -0.815545380115509, 
        -0.4691467881202698, 
        -0.2743470370769501, 
        0.37405332922935486, 
        -0.1425284892320633, 
        -0.684657871723175, 
        0.010332067497074604, 
        -0.13339589536190033, 
        0.12575362622737885, 
        -0.2558046877384186, 
        -0.34728923439979553, 
        0.336943656206131, 
        0.20733284950256348, 
        0.3136632740497589, 
        -0.3676479458808899, 
        0.14115311205387115, 
        -0.21716471016407013, 
        0.268620103597641, 
        0.2677766680717468, 
        0.7670196294784546, 
        -0.31674638390541077, 
        -0.6251237988471985, 
        -0.18779465556144714, 
        -0.6077355146408081, 
        -0.45562463998794556, 
        -0.13796067237854004, 
        0.4079754054546356, 
        0.5129808783531189, 
        -0.33676618337631226, 
        0.4246608316898346, 
        0.3113832473754883, 
        0.11613575369119644, 
        0.3136700391769409, 
        0.16397389769554138, 
        -0.4390407204627991, 
        0.1079903095960617, 
        -0.2913832366466522, 
        -0.4534943997859955, 
        -0.40091726183891296, 
        0.08562418073415756, 
        0.0003872185479849577, 
        -0.12261020392179489, 
        0.018845906481146812, 
        -0.6545040011405945, 
        0.6224914193153381, 
        0.034723907709121704, 
        -0.12412098795175552, 
        -0.03102678805589676, 
        -0.011332148686051369, 
        0.3789742887020111, 
        0.15392103791236877, 
        -0.6243199706077576, 
        -0.12031406909227371, 
        0.4530895948410034, 
        -0.2898697853088379, 
        0.05100798234343529, 
        -0.6375073790550232, 
        -0.42374762892723083, 
        0.593966543674469, 
        -0.26744621992111206, 
        0.43929851055145264, 
        -0.43653959035873413, 
        -0.251816987991333, 
        -0.1529555469751358, 
        0.6877832412719727, 
        -0.7962208390235901, 
        0.6517751812934875, 
        0.054702915251255035, 
        0.3152720034122467, 
        0.35421836376190186, 
        0.2649845778942108, 
        0.314261794090271, 
        -0.4767247438430786, 
        0.7183330655097961, 
        0.031060906127095222, 
        0.1346944272518158, 
        -0.40072569251060486, 
        0.6956329345703125, 
        0.07384033501148224, 
        0.32391634583473206, 
        0.2313723862171173, 
        0.22496363520622253, 
        -0.5071835517883301, 
        0.3626226782798767, 
        0.3828560709953308, 
        0.20084422826766968, 
        -0.1790955513715744, 
        -0.25095975399017334, 
        0.5154320597648621, 
        0.5549508929252625, 
        -0.33874696493148804, 
        0.10896028578281403, 
        -0.3597773313522339, 
        -0.23184995353221893, 
        -0.11886417865753174, 
        0.35115182399749756, 
        -0.07754939794540405, 
        -0.6968552470207214, 
        -0.5584978461265564, 
        -0.338298499584198, 
        -0.15388445556163788, 
        0.3263853192329407, 
        0.032860562205314636, 
        0.26639699935913086, 
        0.21655087172985077, 
        0.07465694099664688, 
        0.02941790595650673, 
        0.3434027135372162, 
        -0.3226577639579773, 
        0.44189873337745667, 
        0.7443462014198303, 
        0.002252502366900444, 
        0.3089485168457031, 
        -0.17051316797733307, 
        -0.29746341705322266, 
        0.39154404401779175, 
        -0.448904812335968, 
        -0.37191471457481384, 
        0.43505245447158813, 
        -0.2122800201177597, 
        0.23263876140117645, 
        0.5632095336914062, 
        0.4089071750640869, 
        -0.27418380975723267, 
        -0.1350783407688141, 
        0.0057605295442044735, 
        0.5161324143409729, 
        -0.2928646206855774, 
        0.6744345426559448, 
        -0.4402311146259308, 
        -0.52790367603302, 
        0.5404744744300842, 
        0.3484734296798706, 
        0.34354910254478455, 
        0.036434125155210495, 
        -0.2726622223854065, 
        -0.6614850759506226, 
        0.6146712899208069, 
        -0.3105630874633789, 
        0.7456974983215332, 
        -0.5026842951774597, 
        0.6353530287742615, 
        -0.20422489941120148, 
        -0.18132725358009338, 
        -0.07289978116750717, 
        -0.15044748783111572, 
        0.3003498315811157, 
        -0.21184103190898895, 
        -0.3473791480064392, 
        0.542025089263916, 
        0.6192023158073425, 
        0.06513074785470963, 
        -0.5469796061515808, 
        0.7091915607452393, 
        0.5748172998428345, 
        0.3941037356853485, 
        -0.5973142981529236, 
        -0.4608190059661865, 
        0.6571226716041565, 
        0.14195945858955383, 
        0.6489642858505249, 
        -0.32103124260902405, 
        -0.17015063762664795, 
        -0.3688044548034668, 
        -0.4458775818347931, 
        -0.4689692556858063, 
        -0.19967782497406006, 
        -0.3544692099094391, 
        0.3973142206668854, 
        0.5433456897735596, 
        -0.900765597820282, 
        0.014050275087356567, 
        0.11271146684885025, 
        -0.54422527551651, 
        -0.32931768894195557, 
        -0.05492159724235535, 
        -0.03793902322649956, 
        0.4186568856239319, 
        -0.44559910893440247, 
        -0.5342639684677124, 
        0.24390289187431335, 
        0.05914270505309105, 
        0.053735967725515366, 
        0.25402089953422546, 
        -0.6556311249732971, 
        -0.09922278672456741, 
        -0.13842153549194336, 
        -0.25648635625839233, 
        -0.7143766283988953, 
        0.4830528497695923, 
        1.0622024536132812, 
        0.6620797514915466, 
        0.35937365889549255, 
        0.5447728633880615, 
        0.2162264734506607, 
        -0.21969377994537354, 
        -0.43794819712638855, 
        0.1281091570854187, 
        -0.281990110874176, 
        0.003676778171211481, 
        -0.1567145437002182, 
        0.17741335928440094, 
        0.33180946111679077, 
        0.605868399143219, 
        -0.2753361165523529, 
        -0.716136634349823, 
        0.4939559996128082, 
        -0.5757650136947632, 
        -0.5693682432174683, 
        -0.6749056577682495, 
        0.5601664185523987, 
        0.027788279578089714, 
        -0.1221226155757904, 
        -0.4622900187969208, 
        0.5635350942611694, 
        -0.13034680485725403, 
        -0.7118274569511414, 
        -0.32292330265045166, 
        -0.12174186110496521, 
        0.12333274632692337, 
        0.04584324732422829, 
        0.1346270740032196, 
        -0.2048964649438858, 
        0.13774901628494263, 
        0.12167765200138092, 
        0.5484753251075745, 
        -0.18739235401153564, 
        0.3927210569381714, 
        -0.6812528371810913, 
        0.11775341629981995, 
        -0.26152247190475464, 
        -0.6646446585655212, 
        -0.25990113615989685, 
        -0.5041589140892029, 
        0.24835151433944702, 
        0.05290640518069267, 
        0.6476550698280334, 
        -0.5686484575271606, 
        0.4614449441432953, 
        -0.33857059478759766, 
        -0.425918310880661, 
        -0.3391907811164856, 
        0.037946756929159164, 
        -0.6676207184791565, 
        -0.23238155245780945, 
        -0.47603583335876465, 
        -0.46965888142585754, 
        0.5526112914085388, 
        -0.23471622169017792, 
        -0.5652520060539246, 
        -0.46654269099235535, 
        0.570387601852417, 
        0.093510702252388, 
        -0.08873368054628372, 
        0.568514883518219, 
        0.19165365397930145, 
        0.2493905872106552, 
        0.641951322555542, 
        0.5139318704605103, 
        0.08519528061151505, 
        0.6684570908546448, 
        0.43317967653274536, 
        -0.6399049162864685, 
        0.3861439526081085, 
        -0.3194226026535034, 
        -0.41862815618515015, 
        0.04044995456933975, 
        -0.46350133419036865, 
        0.4993891417980194, 
        -0.1491135209798813, 
        -0.3246641755104065, 
        -0.0835389643907547, 
        -0.27199864387512207, 
        0.6130744218826294, 
        -0.4928300976753235, 
        0.496805876493454, 
        0.13268345594406128, 
        0.07128147035837173, 
        0.4719574451446533, 
        0.13863179087638855, 
        -0.15733088552951813, 
        0.21211332082748413, 
        0.23433035612106323, 
        -0.33185073733329773, 
        -0.534063994884491, 
        0.42930877208709717, 
        -0.42139962315559387, 
        0.1252591758966446, 
        0.0670306608080864, 
        -0.5494547486305237, 
        -0.23044900596141815, 
        -0.24431274831295013, 
        -0.08292730152606964, 
        -0.04294927418231964, 
        -0.551298201084137, 
        -0.03979725018143654, 
        0.16173577308654785, 
        0.1987464427947998, 
        -0.6823757886886597, 
        0.07479748874902725, 
        -0.22106708586215973, 
        -0.1930781453847885, 
        -0.3118300139904022, 
        -0.14510326087474823, 
        0.09413495659828186, 
        -0.1859472543001175, 
        0.7904519438743591, 
        0.5871744751930237, 
        -0.6462869048118591, 
        0.3527463972568512, 
        0.2314523160457611, 
        0.45413634181022644, 
        -0.3722652196884155, 
        0.6376697421073914, 
        0.1644001603126526, 
        -0.6608259081840515, 
        -0.0008849567384459078, 
        0.9477538466453552, 
        0.4437148869037628, 
        -0.5365789532661438, 
        -0.11113512516021729, 
        0.21977971494197845, 
        0.08603457361459732, 
        0.35413339734077454, 
        0.2251342087984085, 
        -0.2545073330402374, 
        0.332511842250824, 
        0.028345875442028046, 
        -0.2623014450073242, 
        0.7522656321525574, 
        -0.5662768483161926, 
        0.049586713314056396, 
        0.18861894309520721, 
        -0.5869558453559875, 
        -0.38265785574913025, 
        0.5915895104408264, 
        -0.3057927191257477, 
        0.17555047571659088, 
        0.0984707847237587, 
        -0.18243084847927094, 
        0.6311396956443787, 
        0.21036696434020996, 
        0.5942153334617615, 
        -0.5516676306724548, 
        0.639130711555481, 
        -0.5497351288795471, 
        -0.17847615480422974, 
        0.3066979944705963, 
        0.5459746718406677, 
        0.20155224204063416, 
        0.33556923270225525, 
        -0.358254611492157, 
        -0.3280881345272064, 
        0.6731743812561035, 
        -0.5348295569419861, 
        0.39667439460754395, 
        0.6626200079917908, 
        0.3497167229652405, 
        0.12210889905691147, 
        -0.22979938983917236, 
        -0.3080134093761444, 
        -0.6881232261657715, 
        0.012797370553016663, 
        0.4391079246997833, 
        0.49612975120544434, 
        -0.5667043924331665, 
        0.14602410793304443, 
        -0.1565617173910141, 
        -0.08819164335727692, 
        -0.5487431287765503, 
        0.03005877323448658, 
        0.21766498684883118, 
        0.059677716344594955, 
        0.4904952943325043, 
        -0.3327047824859619, 
        -0.1850016564130783, 
        0.14968138933181763, 
        0.1436140388250351, 
        -0.6168223023414612, 
        -0.5802352428436279, 
        0.14411179721355438, 
        -0.4034428596496582, 
        -0.6319121718406677, 
        0.5661464929580688, 
        0.33774513006210327, 
        0.1486620455980301, 
        0.14012035727500916, 
        0.6663469076156616, 
        -0.366717129945755, 
        0.6256897449493408, 
        0.685310423374176, 
        0.4153880178928375, 
        0.34076133370399475, 
        0.2821209728717804, 
        0.7004780769348145, 
        -0.4544115364551544, 
        0.614590048789978, 
        -0.44432276487350464, 
        0.14669287204742432, 
        -0.39435315132141113, 
        -0.15829305350780487, 
        0.28765255212783813, 
        -0.5818783640861511, 
        -0.45290154218673706, 
        0.35489097237586975, 
        0.004248328041285276, 
        -0.7319785952568054, 
        -0.3185323178768158, 
        -0.33918818831443787, 
        -0.48825880885124207, 
        0.3828582465648651, 
        -0.012663066387176514, 
        -0.3541717827320099, 
        -0.4350506365299225, 
        0.1472480297088623, 
        -0.5828510522842407, 
        -0.40855029225349426, 
        0.6911432147026062, 
        0.29420456290245056, 
        -0.6372230648994446, 
        0.5602686405181885, 
        0.17430850863456726, 
        0.4224477708339691, 
        -0.019868038594722748, 
        0.2611469626426697, 
        0.4189855456352234, 
        -0.44200074672698975, 
        -0.3986234664916992, 
        0.6083737015724182, 
        0.22323933243751526, 
        0.5683733224868774, 
        -0.5712826251983643, 
        0.3710312247276306, 
        -0.4462069272994995, 
        0.06349625438451767, 
        0.32315129041671753, 
        -0.40612366795539856, 
        0.37545305490493774, 
        0.02247263491153717, 
        -0.05741259083151817, 
        0.08303695917129517, 
        -0.13549360632896423, 
        0.6189006567001343, 
        -0.315002977848053, 
        -0.39863234758377075, 
        0.5195817351341248, 
        0.43556860089302063, 
        -0.6691972017288208, 
        -0.4206516444683075, 
        -0.36026066541671753, 
        -0.3595708906650543, 
        -0.3614858090877533, 
        0.38321900367736816, 
        0.1534939408302307, 
        0.5855143666267395, 
        -0.4405556917190552, 
        -0.20656946301460266, 
        -0.6534339785575867, 
        -0.04803836718201637, 
        -0.6304566860198975, 
        0.2218722105026245, 
        -0.3503091335296631, 
        -0.3720017075538635, 
        0.0999816432595253, 
        -0.4861510694026947, 
        -0.5272558331489563, 
        -0.8281470537185669, 
        0.10953051596879959, 
        0.2737167477607727, 
        0.5841063261032104, 
        -0.29937779903411865, 
        0.5361462831497192, 
        0.33014506101608276, 
        -0.02166219986975193, 
        -0.40394169092178345, 
        -0.4271541237831116, 
        0.1529926359653473, 
        0.0040998077020049095, 
        0.46901264786720276, 
        0.0408921092748642, 
        0.16610893607139587, 
        -0.16453419625759125, 
        0.14732380211353302, 
        0.08729451149702072, 
        -0.8415698409080505, 
        -0.02178804762661457, 
        -0.038384322077035904, 
        0.13349922001361847, 
        0.3031279444694519, 
        0.33857792615890503, 
        -0.43998050689697266, 
        -0.3536412715911865, 
        0.5161228775978088, 
        0.32096925377845764, 
        0.1645113080739975, 
        -0.8539054989814758, 
        -0.16701985895633698, 
        -0.4037116765975952, 
        0.049883026629686356, 
        -0.3199971914291382, 
        0.46969613432884216, 
        0.4927535951137543, 
        0.3857302665710449, 
        -0.04738679528236389, 
        0.32494765520095825, 
        0.12978798151016235, 
        -0.25359249114990234, 
        0.01212054118514061, 
        -0.5232555270195007, 
        0.19716374576091766, 
        0.12538382411003113, 
        -0.30293264985084534, 
        0.3368663191795349, 
        -0.11856164783239365, 
        0.23258599638938904, 
        0.13973203301429749, 
        0.6473379135131836, 
        0.06479447335004807, 
        -0.11848147958517075, 
        0.7035739421844482, 
        -0.4608694016933441, 
        -0.5373830199241638, 
        0.31887108087539673, 
        -0.6676493883132935, 
        -0.7109737992286682, 
        -0.23945902287960052, 
        0.46667802333831787, 
        -0.3277572691440582, 
        -0.6033345460891724, 
        0.4615795612335205, 
        0.16224196553230286, 
        1.138124942779541, 
        0.03133510798215866, 
        0.2132706195116043, 
        -0.7726982235908508, 
        -0.0036557212006300688, 
        0.1306721717119217, 
        0.21384242177009583, 
        0.4818083345890045, 
        -0.24662452936172485, 
        0.1847149133682251, 
        -0.6056960821151733, 
        0.13575564324855804, 
        -0.46244490146636963, 
        -0.21576350927352905, 
        -0.5597220063209534, 
        0.42052367329597473, 
        0.26607412099838257, 
        0.2839545011520386, 
        0.5314668416976929, 
        -0.63587486743927, 
        -0.07619071006774902, 
        0.1003277599811554, 
        -0.4192136824131012, 
        -0.38837578892707825, 
        0.6415159702301025, 
        -0.5117999315261841, 
        -0.05360487848520279, 
        0.11373889446258545, 
        -0.23973560333251953, 
        0.5695370435714722, 
        -0.29222747683525085, 
        0.2813798785209656, 
        -0.10483185946941376, 
        0.17211976647377014, 
        0.38757002353668213, 
        0.6453737616539001, 
        0.5543681979179382, 
        0.41452842950820923, 
        -0.16595323383808136, 
        0.18068020045757294, 
        -0.23297607898712158, 
        0.09877967089414597, 
        0.6985957622528076, 
        0.5673742890357971, 
        0.19370877742767334, 
        0.3473859131336212, 
        -0.5460529923439026, 
        0.3732217252254486, 
        0.030983436852693558, 
        0.29125064611434937, 
        0.6229302287101746, 
        -0.08312218636274338, 
        -0.37414294481277466, 
        -0.4088900685310364, 
        -0.178722083568573, 
        0.8904789090156555, 
        0.7170642614364624, 
        -0.4767225980758667, 
        0.08569707721471786, 
        -0.2803829312324524, 
        0.6414328813552856, 
        0.16027192771434784, 
        -0.020514797419309616, 
        0.32633495330810547, 
        -0.02358470857143402, 
        -0.4580231308937073, 
        0.14372217655181885, 
        0.5283599495887756, 
        0.2668103575706482, 
        0.5139325857162476, 
        -0.7359876036643982, 
        0.07504034787416458, 
        -0.6842623353004456, 
        -0.0025461718905717134, 
        -0.2480633705854416, 
        -0.43144598603248596, 
        0.26509004831314087, 
        -0.08346637338399887, 
        0.1325865387916565, 
        0.30511200428009033, 
        -0.5566257238388062, 
        -0.23314054310321808, 
        0.16975037753582, 
        0.10952433198690414, 
        0.5381101369857788, 
        -0.12405303120613098, 
        -0.06867774575948715, 
        0.2244432121515274, 
        0.5534080266952515, 
        -0.48100516200065613, 
        0.29336684942245483, 
        0.3362886905670166, 
        0.6690648794174194, 
        0.6439104676246643, 
        -0.40815040469169617, 
        -0.5813563466072083, 
        0.0954929068684578, 
        -0.40900754928588867, 
        -0.5987300872802734, 
        0.5273139476776123, 
        -0.487133651971817, 
        -0.47920697927474976, 
        -0.002787458011880517, 
        -0.7408481240272522, 
        0.5333474278450012, 
        0.02597266621887684, 
        0.26232701539993286, 
        0.48417598009109497, 
        -0.7892613410949707, 
        0.36836156249046326, 
        -0.5513820648193359, 
        0.6224152445793152, 
        0.4656025469303131, 
        0.48442795872688293, 
        -0.5653947591781616, 
        -0.25453981757164, 
        0.38538429141044617, 
        -0.6512541770935059, 
        -0.4354417324066162, 
        0.3216586112976074, 
        -0.44411501288414, 
        0.1485714316368103, 
        0.3082190752029419, 
        0.2293129861354828, 
        -0.023523570969700813, 
        -0.3913973271846771, 
        0.3033002018928528, 
        -0.23916508257389069, 
        0.517583429813385, 
        -0.5151757001876831, 
        0.20157335698604584, 
        0.20275644958019257, 
        -0.4299234449863434, 
        0.5075801014900208, 
        0.6528775095939636, 
        0.1565476506948471, 
        -0.1111537516117096, 
        -0.28607577085494995, 
        0.02708510123193264, 
        -0.07209273427724838, 
        -0.06266660988330841, 
        -0.12254105508327484, 
        0.2921537160873413, 
        0.007957696914672852, 
        0.7867889404296875, 
        0.008662594482302666, 
        0.5415899753570557, 
        0.0840679407119751, 
        0.24406716227531433, 
        0.6548407077789307, 
        0.009379145689308643, 
        -0.3340550661087036, 
        0.42671868205070496, 
        -0.15673179924488068, 
        0.5908643007278442, 
        -0.6405885815620422, 
        -0.0648927390575409, 
        -0.6988680958747864, 
        -0.7600154876708984, 
        -0.16880111396312714, 
        0.16357208788394928, 
        0.1316106915473938, 
        -0.04441973194479942, 
        0.5880034565925598, 
        -0.40458518266677856, 
        -0.1592726856470108, 
        0.44152742624282837, 
        0.5099329352378845, 
        -0.5603280067443848, 
        0.38018807768821716, 
        -0.06998700648546219, 
        -0.32794737815856934, 
        -0.20623911917209625, 
        -0.2958638668060303, 
        -0.5383694767951965, 
        -0.5674836039543152, 
        -0.24210889637470245, 
        -0.599694550037384, 
        -0.2254674881696701, 
        -0.01828247494995594, 
        -0.18292535841464996, 
        -0.17193464934825897, 
        -0.2878430485725403, 
        -0.4571685791015625, 
        -0.2234996259212494, 
        0.5695096850395203, 
        0.13936631381511688, 
        -0.29727688431739807, 
        -0.0015634464798495173, 
        -0.4779953360557556, 
        0.3715435862541199, 
        -0.6777961850166321, 
        0.358646422624588, 
        0.11184705048799515, 
        0.8838427662849426, 
        0.7540361285209656, 
        -0.0304871853441, 
        -0.33332890272140503, 
        0.6291490197181702, 
        0.2368205040693283, 
        -0.13991990685462952, 
        0.6203351616859436, 
        0.5656106472015381, 
        0.3333623707294464, 
        0.3000110685825348, 
        -0.7579929232597351, 
        -0.32296115159988403, 
        -0.14847025275230408, 
        -0.5297071933746338, 
        -0.086260125041008, 
        -0.13533684611320496, 
        -0.37043583393096924, 
        0.005822925362735987, 
        0.2036864012479782, 
        -0.4327210485935211, 
        -0.09673250466585159, 
        -0.4140583872795105, 
        0.6952807307243347, 
        -0.00518481619656086, 
        -0.2075771689414978, 
        -0.23234832286834717, 
        -0.3460693359375, 
        0.5043696761131287, 
        0.32001641392707825, 
        0.30229538679122925, 
        0.5266282558441162, 
        -0.31883519887924194, 
        0.3659713864326477, 
        -0.06256517022848129, 
        0.29046717286109924, 
        -0.0555458702147007, 
        0.4973211884498596, 
        0.0457364097237587, 
        -0.6173889636993408, 
        0.10418602079153061, 
        -0.6987488269805908, 
        -0.5045621991157532, 
        0.10550758987665176, 
        0.5317161083221436, 
        0.32227975130081177, 
        0.22566381096839905, 
        -0.5627570152282715, 
        -0.22642821073532104, 
        0.6021286845207214, 
        0.07806555926799774, 
        -0.2756712734699249, 
        -0.40283843874931335, 
        0.5644509196281433, 
        0.4902111291885376, 
        -0.7114413976669312, 
        -0.07975137233734131, 
        -0.5110138058662415, 
        -0.40753254294395447, 
        -0.08854398876428604, 
        -0.5954636931419373, 
        -0.6855678558349609, 
        -0.3536567986011505, 
        0.20224688947200775, 
        0.20179906487464905, 
        0.6825386881828308, 
        0.5571449398994446, 
        0.019299311563372612, 
        0.6212456226348877, 
        -0.7769936919212341, 
        0.44011232256889343, 
        0.15688356757164001, 
        -0.03557911142706871, 
        0.046545132994651794, 
        -0.0506846122443676, 
        -0.23009373247623444, 
        -0.480623722076416, 
        0.6510141491889954, 
        0.48928165435791016, 
        -0.173627570271492, 
        -0.30360713601112366, 
        0.38470977544784546, 
        0.49465399980545044, 
        -0.7917386293411255, 
        -0.4914228916168213, 
        0.5047183632850647, 
        -0.06170031428337097, 
        0.36344388127326965, 
        0.7649485468864441, 
        -0.6352980136871338, 
        -0.37838172912597656, 
        0.10025845468044281, 
        0.18103313446044922, 
        0.5299263596534729, 
        -0.2212211787700653, 
        0.2920650243759155, 
        -0.07148080319166183, 
        -0.3999636769294739, 
        0.2822054922580719, 
        0.6674438714981079, 
        0.060889966785907745, 
        -0.2518811523914337, 
        -0.1609368473291397, 
        -0.26368314027786255, 
        0.6164270639419556, 
        0.522578239440918, 
        -0.025687241926789284, 
        -0.3562653362751007, 
        -0.40629810094833374, 
        0.8278524875640869, 
        0.18409544229507446, 
        -0.19247232377529144, 
        -0.12063010036945343, 
        0.4457623064517975, 
        0.025931445881724358, 
        0.0544145293533802, 
        0.22921103239059448, 
        0.11240606009960175, 
        -0.31464123725891113, 
        0.6382432579994202, 
        0.5785354375839233, 
        0.1759505569934845, 
        0.28639474511146545, 
        0.0030158166773617268, 
        0.5563147664070129, 
        -0.2589857280254364, 
        -0.5294384360313416, 
        -0.33953484892845154, 
