{
  "input_sequences": [], 
  "inputs": [
    {
      "name": "node_0", 
      "variables": [
        {
          "name": "variable_0", 
          "offset": 0, 
          "scale": 1
        }, 
        {
          "name": "variable_1", 
          "offset": 0, 
          "scale": 1
        }, 
        {
          "name": "variable_2", 
          "offset": 0, 
          "scale": 1
        }, 
        {
          "name": "variable_3", 
          "offset": 0, 
          "scale": 1
        }, 
        {
          "name": "variable_4", 
          "offset": 0, 
          "scale": 1
        }, 
        {
          "name": "variable_5", 
          "offset": 0, 
          "scale": 1
        }, 
        {
          "name": "variable_6", 
          "offset": 0, 
          "scale": 1
        }, 
        {
          "name": "variable_7", 
          "offset": 0, 
          "scale": 1
        }, 
        {
          "name": "variable_8", 
          "offset": 0, 
          "scale": 1
        }, 
        {
          "name": "variable_9", 
          "offset": 0, 
          "scale": 1
        }, 
        {
          "name": "variable_10", 
          "offset": 0, 
          "scale": 1
        }, 
        {
          "name": "variable_11", 
          "offset": 0, 
          "scale": 1
        }, 
        {
          "name": "variable_12", 
          "offset": 0, 
          "scale": 1
        }
      ]
    }
  ], 
  "layers": [
    {
      "architecture": "normalization", 
      "bias": [
        -780348.625, 
        -178140.546875, 
        -0.17185446619987488, 
        -2.8539440631866455, 
        -2.9510393142700195, 
        -0.365414023399353, 
        -4.443758487701416, 
        -7.061102867126465, 
        -0.7092253565788269, 
        -0.7813515663146973, 
        -115815.375, 
        -78246.7578125, 
        -11.348906517028809
      ], 
      "weights": [
        1.2472576145228231e-06, 
        1.1283755156910047e-05, 
        8.009700775146484, 
        0.5936369895935059, 
        4.23943567276001, 
        1.8225241899490356, 
        0.22574511170387268, 
        0.19750554859638214, 
        1.8018558025360107, 
        1.7776386737823486, 
        1.7880624000099488e-05, 
        2.7796213544206694e-05, 
        0.12388772517442703
      ]
    }, 
    {
      "activation": "tanh", 
      "architecture": "dense", 
      "bias": [
        -0.14110854268074036, 
        0.114547498524189, 
        0.18010936677455902, 
        -0.15383006632328033, 
        -0.0904143676161766, 
        0.2428842931985855, 
        0.08231155574321747, 
        0.08606231212615967, 
        -0.102406345307827, 
        0.0820746198296547, 
        0.08372730761766434, 
        -0.15672163665294647, 
        -0.1882687509059906, 
        -0.07061339914798737, 
        0.02129535749554634, 
        0.17061114311218262, 
        0.0789654403924942, 
        0.09053055942058563, 
        0.11799117177724838, 
        -0.03430197015404701, 
        0.20204520225524902, 
        -0.06157659366726875, 
        0.1060587614774704, 
        0.14669112861156464, 
        -0.12595023214817047, 
        0.04077369347214699, 
        0.08856459707021713, 
        0.13566197454929352, 
        -0.07011418044567108, 
        -0.10664977133274078, 
        0.1869061142206192, 
        0.18122389912605286, 
        0.17799827456474304, 
        0.10176248103380203, 
        -0.09530659765005112, 
        -0.1571035534143448, 
        -0.36288702487945557, 
        0.14251351356506348, 
        -0.0764562264084816, 
        0.13817967474460602, 
        0.1398114264011383, 
        -0.08901804685592651, 
        -0.08357121795415878, 
        0.12117529660463333, 
        0.05130671709775925, 
        0.03715848922729492, 
        -0.12975792586803436, 
        -0.1037847101688385, 
        0.21765939891338348, 
        -0.05299580842256546, 
        -0.1258307248353958, 
        -0.12603525817394257, 
        -0.12226416170597076, 
        0.11557501554489136, 
        0.11736695468425751, 
        0.07654453068971634, 
        -0.25613492727279663, 
        -0.10439889878034592, 
        -0.08548973500728607, 
        0.08195403963327408, 
        0.04726298153400421, 
        -0.15638041496276855, 
        0.25635698437690735, 
        0.20694592595100403, 
        -0.08896304666996002, 
        -0.12909813225269318, 
        0.09639379382133484, 
        -0.11248282343149185, 
        -0.1274878978729248, 
        0.07543399184942245, 
        0.12149451673030853, 
        -0.1141243502497673, 
        -0.09442161023616791, 
        -0.20323455333709717, 
        -0.17218545079231262, 
        -0.09918652474880219, 
        0.10854274034500122, 
        -0.17997384071350098, 
        0.09984774887561798, 
        -0.09797249734401703, 
        -0.12811510264873505, 
        -0.07203441858291626, 
        -0.14255790412425995, 
        0.14172063767910004, 
        0.11205289512872696, 
        0.13850794732570648, 
        -0.09707220643758774, 
        -0.18771696090698242, 
        0.16458828747272491, 
        -0.0740208551287651, 
        -0.14299704134464264, 
        -0.046623554080724716, 
        0.12468568980693817, 
        0.04567709192633629, 
        0.07893166691064835, 
        -0.1040959358215332, 
        0.1442478746175766, 
        0.23560313880443573, 
        -0.029605600982904434, 
        0.1810407042503357, 
        0.08220649510622025, 
        0.08849117159843445, 
        0.09969993680715561, 
        -0.13186755776405334, 
        -0.25810205936431885, 
        -0.17464867234230042, 
        0.14565804600715637, 
        0.14509791135787964, 
        0.07452397048473358, 
        0.12927104532718658, 
        -0.054854460060596466, 
        -0.06961246579885483, 
        -0.07930473238229752, 
        -0.18053512275218964, 
        -0.11458248645067215, 
        0.05496370047330856, 
        -0.16616861522197723, 
        0.002968066604807973, 
        0.13598835468292236, 
        -0.11673750728368759, 
        -0.0903274416923523, 
        -0.10810600221157074, 
        0.0796888992190361, 
        0.1943475604057312, 
        0.02495373971760273, 
        -0.17999058961868286, 
        -0.21401649713516235, 
        -0.2553400993347168, 
        -0.1649070829153061, 
        -0.0652816966176033, 
        -0.12176861613988876, 
        0.12898126244544983, 
        -0.13311120867729187, 
        -0.10553085058927536, 
        0.0773688331246376, 
        0.08438549190759659, 
        -0.14415644109249115, 
        -0.12095122784376144, 
        0.15968528389930725, 
        -0.07561273127794266, 
        -0.07600807398557663, 
        -0.21359993517398834, 
        -0.06028096377849579, 
        0.1696113795042038, 
        0.15961319208145142, 
        -0.1615338772535324, 
        0.08900338411331177, 
        0.10939893126487732, 
        -0.07261590659618378, 
        0.12040729075670242, 
        -0.1276610791683197, 
        -0.07876911759376526, 
        0.04868791624903679, 
        -0.14135192334651947, 
        0.221967414021492, 
        -0.06801366060972214, 
        0.16246363520622253, 
        0.23679547011852264, 
        -0.05734929069876671, 
        0.1477595716714859, 
        -0.16921696066856384, 
        -0.11804605275392532, 
        0.1793603003025055, 
        -0.0343782939016819, 
        0.060981687158346176, 
        0.04773467406630516, 
        0.19268031418323517, 
        -0.061611954122781754, 
        -0.12449658662080765, 
        0.05250728875398636, 
        -0.16657865047454834, 
        0.11986716836690903, 
        0.17817258834838867, 
        0.12318913638591766, 
        0.2524075508117676, 
        -0.05054924637079239, 
        -0.08430605381727219, 
        0.12637194991111755, 
        0.15192607045173645, 
        -0.07417049258947372, 
        -0.12091760337352753, 
        0.12259486317634583, 
        0.07376189529895782, 
        0.16569535434246063, 
        0.13509930670261383, 
        -0.11744308471679688, 
        0.16121526062488556, 
        0.056311920285224915, 
        -0.1423400342464447, 
        0.21989858150482178, 
        0.16387949883937836, 
        0.08515983074903488, 
        0.1698462814092636, 
        0.1840197890996933, 
        -0.09380749613046646, 
        -0.08046943694353104, 
        -0.05427764728665352, 
        -0.09874770045280457, 
        0.1913307160139084, 
        0.2628624141216278, 
        0.05962801352143288, 
        -0.15804065763950348, 
        0.2600735127925873, 
        -0.09120386093854904, 
        -0.13842527568340302, 
        0.10972905158996582, 
        -0.06936588138341904, 
        0.09220539033412933, 
        0.15975326299667358, 
        0.184356689453125, 
        0.05792306736111641, 
        0.137094184756279, 
        0.2195088118314743, 
        0.1892836093902588, 
        0.24762237071990967, 
        -0.2265080064535141, 
        0.07732176035642624, 
        -0.13331729173660278, 
        -0.11576858907938004, 
        -0.07453112304210663, 
        -0.06548308581113815, 
        0.21517741680145264, 
        0.13691715896129608, 
        0.08623987436294556, 
        0.11743304133415222, 
        -0.08182669430971146, 
        0.07976099103689194, 
        -0.07621736079454422, 
        -0.16681356728076935, 
        -0.03742241859436035, 
        -0.060773324221372604, 
        -0.08071479946374893, 
        -0.1567513346672058, 
        -0.1444772481918335, 
        -0.15808705985546112, 
        -0.1277378797531128, 
        -0.1274065375328064, 
        -0.17281490564346313, 
        -0.16326260566711426, 
        0.158910870552063, 
        -0.12921242415905, 
        0.08129635453224182, 
        -0.10870177298784256, 
        -0.12348898500204086, 
        -0.0895477682352066, 
        -0.15491461753845215, 
        0.09568177908658981, 
        -0.12390067428350449, 
        0.19628752768039703, 
        0.13957013189792633, 
        0.1157260537147522, 
        -0.1219182088971138, 
        0.08687038719654083, 
        -0.04698902368545532, 
        -0.11494024097919464, 
        -0.06687881797552109, 
        0.1276097148656845, 
        0.13945776224136353, 
        0.1393464058637619, 
        0.1209355890750885, 
        -0.03372572734951973, 
        -0.2213670015335083, 
        -0.019827380776405334, 
        -0.12286806851625443, 
        -0.06155826896429062, 
        0.052780136466026306, 
        0.12353985011577606, 
        -0.07351547479629517, 
        0.048924803733825684, 
        0.18909640610218048, 
        -0.04987136274576187, 
        -0.07055927813053131, 
        0.062353745102882385, 
        0.08378327637910843, 
        -0.057967133820056915, 
        -0.10809215158224106, 
        -0.09048929065465927, 
        0.1227872371673584, 
        -0.22329404950141907, 
        -0.16990457475185394, 
        -0.0673939511179924, 
        -0.17462462186813354, 
        0.14277207851409912, 
        -0.12213453650474548, 
        0.10901956260204315, 
        -0.13446044921875, 
        -0.12958002090454102, 
        0.016175227239727974, 
        -0.10064902901649475, 
        -0.11444024741649628, 
        -0.19216524064540863, 
        0.13371028006076813, 
        0.1401149481534958, 
        0.06145736575126648, 
        0.11564581841230392, 
        -0.07381235808134079, 
        0.08240649849176407, 
        -0.18541443347930908, 
        -0.05015825107693672, 
        -0.11172123998403549, 
        -0.12035466730594635, 
        -0.11862201988697052, 
        0.2055492401123047, 
        0.0849343091249466, 
        0.1683095544576645, 
        0.09902127087116241, 
        0.11052808165550232, 
        -0.09504170715808868, 
        0.09348125010728836, 
        -0.16829125583171844, 
        -0.09372173994779587, 
        0.08937203884124756, 
        0.13945671916007996, 
        0.11671584844589233, 
        0.09240852296352386, 
        -0.18257540464401245, 
        -0.04307515174150467, 
        -0.10190132260322571, 
        -0.1482360064983368, 
        -0.09926367551088333, 
        0.12708912789821625, 
        -0.21590682864189148, 
        0.07613316178321838, 
        -0.04782718047499657, 
        -0.10993944853544235, 
        0.049735553562641144, 
        -0.11900071799755096, 
        -0.13429084420204163, 
        0.11846385896205902, 
        -0.11515782028436661, 
        0.13522513210773468, 
        0.08367074280977249, 
        -0.195179283618927, 
        -0.14632952213287354, 
        0.08773160725831985, 
        -0.06821880489587784, 
        0.07597951591014862, 
        -0.2007436603307724, 
        -0.12007617950439453, 
        -0.04662755876779556, 
        0.12270915508270264, 
        -0.11210213601589203, 
        -0.06563042104244232, 
        0.13478326797485352, 
        0.11281298100948334, 
        -0.1371501088142395, 
        0.12719905376434326, 
        -0.2525823414325714, 
        -0.09627831727266312, 
        -0.1573600322008133, 
        0.1831066906452179, 
        -0.20178192853927612, 
        0.06687664240598679, 
        0.1376596838235855, 
        0.16342481970787048, 
        -0.0885327085852623, 
        0.24966783821582794, 
        -0.08273591101169586, 
        0.1217801496386528, 
        0.10133105516433716, 
        -0.041654422879219055, 
        0.25220006704330444, 
        -0.14621268212795258, 
        -0.17283834517002106, 
        0.07236624509096146, 
        -0.2544708549976349, 
        0.10538581758737564, 
        -0.13786204159259796, 
        -0.09014135599136353, 
        0.09182217717170715, 
        0.2751172184944153, 
        0.18413186073303223, 
        0.2500578463077545, 
        0.11052458733320236, 
        -0.3269609808921814, 
        0.1161288395524025, 
        0.06191335245966911, 
        -0.13988399505615234, 
        -0.09693403542041779, 
        -0.10201556235551834, 
        -0.14516009390354156, 
        0.1800025999546051, 
        -0.08852600306272507, 
        -0.10668814927339554, 
        -0.11874418705701828, 
        0.016122110188007355, 
        0.05510697513818741, 
        0.20007909834384918, 
        0.07560858130455017, 
        0.05992504581809044, 
        -0.0418473519384861, 
        -0.14969997107982635, 
        0.03941616043448448, 
        0.11405093222856522, 
        -0.11191491782665253, 
        0.10097027570009232, 
        -0.09843511134386063, 
        -0.08992816507816315, 
        -0.08956730365753174, 
        -0.14831727743148804, 
        -0.3151278495788574, 
        -0.1243680790066719, 
        0.035625047981739044, 
        -0.06357714533805847, 
        0.12657895684242249, 
        -0.11154814064502716, 
        0.15968461334705353, 
        0.14346225559711456, 
        -0.17586958408355713, 
        0.16748125851154327, 
        0.10365941375494003, 
        -0.07255885750055313, 
        -0.07994897663593292, 
        -0.06775271892547607, 
        -0.20906509459018707, 
        0.07047554850578308, 
        -0.044138193130493164, 
        -0.06021938845515251, 
        0.10688211768865585, 
        -0.03301233798265457, 
        0.14812666177749634, 
        0.07573714852333069, 
        -0.20989468693733215, 
        -0.1061723604798317, 
        0.11458069086074829, 
        0.11979039013385773, 
        0.07611817866563797, 
        -0.0982036292552948, 
        -0.10432251542806625, 
        0.10289819538593292, 
        0.1400362104177475, 
        0.10840155929327011, 
        0.10986555367708206, 
        -0.12486019730567932, 
        0.21491582691669464, 
        0.033737409859895706, 
        -0.09888945519924164, 
        -0.26255688071250916, 
        0.2253769040107727, 
        0.10451274365186691, 
        -0.20770826935768127, 
        -0.11911666393280029, 
        -0.17444735765457153, 
        0.055766016244888306, 
        0.02386561967432499, 
        0.01334147248417139, 
        -0.12535005807876587, 
        0.23128145933151245, 
        -0.1006963774561882, 
        0.12145958840847015, 
        0.14163242280483246, 
        -0.09943816810846329, 
        0.13398690521717072, 
        -0.09008079022169113, 
        -0.10343033075332642, 
        0.10068102926015854, 
        0.11204810440540314, 
        0.16773714125156403, 
        -0.15127022564411163, 
        -0.13039307296276093, 
        -0.04800558462738991, 
        0.14754058420658112, 
        0.06430106610059738, 
        0.15186470746994019, 
        0.10023745149374008, 
        -0.05374675616621971, 
        -0.14797617495059967, 
        -0.11062673479318619, 
        -0.201760932803154, 
        -0.1584942787885666, 
        -0.0668519139289856, 
        0.08775676786899567, 
        0.07643770426511765, 
        -0.09629156440496445, 
        -0.2036571502685547, 
        0.3083329200744629, 
        -0.043707072734832764, 
        0.025793034583330154, 
        0.1563945859670639, 
        0.19223806262016296, 
        0.08978462964296341, 
        -0.1303742527961731, 
        0.2294316291809082, 
        0.1722467690706253, 
        -0.08926321566104889, 
        -0.15579773485660553, 
        -0.06622102856636047, 
        -0.25945132970809937, 
        -0.12304282933473587, 
        -0.23960940539836884, 
        0.08648672699928284, 
        -0.1488170623779297, 
        -0.15567320585250854, 
        0.16395211219787598, 
        0.15394678711891174, 
        -0.11826899647712708, 
        0.08294986933469772, 
        0.15048359334468842, 
        -0.07021357119083405, 
        0.12174037843942642, 
        0.13489773869514465, 
        0.18827998638153076, 
        0.053668756037950516, 
        -0.12831982970237732, 
        -0.12671048939228058, 
        -0.10262608528137207, 
        -0.21989066898822784, 
        -0.15948821604251862, 
        -0.21061959862709045, 
        -0.11987318098545074, 
        -0.13908684253692627, 
        0.15403243899345398
      ], 
      "weights": [
        0.25910210609436035, 
        0.4314362108707428, 
        -0.6047787070274353, 
        -0.2935546934604645, 
        -0.05902053415775299, 
        -0.30704841017723083, 
        0.1697278916835785, 
        -0.38367289304733276, 
        -0.6817708015441895, 
        -0.10967951267957687, 
        -0.5683637261390686, 
        0.338706910610199, 
        -0.053836360573768616, 
        -0.2722632586956024, 
        -0.6288266777992249, 
        -0.694122850894928, 
        0.22711414098739624, 
        0.5291747450828552, 
        0.2104877531528473, 
        -0.11320305615663528, 
        -0.02333124913275242, 
        0.13718704879283905, 
        -0.23145119845867157, 
        -0.2817493975162506, 
        0.4029892086982727, 
        0.4417158365249634, 
        0.13533779978752136, 
        0.34228190779685974, 
        -0.5062223672866821, 
        0.5602084398269653, 
        0.21102619171142578, 
        -0.4430635869503021, 
        -0.7077972888946533, 
        -0.725247859954834, 
        -0.12453263252973557, 
        0.19816865026950836, 
        -0.05051559954881668, 
        0.014407324604690075, 
        0.5178553462028503, 
        -0.030254952609539032, 
        -0.19168059527873993, 
        -0.6559367179870605, 
        -0.40396833419799805, 
        -0.5948927402496338, 
        -0.350475549697876, 
        -0.49054980278015137, 
        0.30068305134773254, 
        -0.19044187664985657, 
        -0.3523513078689575, 
        0.6283234357833862, 
        -0.45469871163368225, 
        0.6584072113037109, 
        -0.15773449838161469, 
        0.4745068848133087, 
        0.690129816532135, 
        0.021832305938005447, 
        -0.4757636487483978, 
        -0.4937242567539215, 
        -0.5521268248558044, 
        -0.6692298054695129, 
        -0.5695684552192688, 
        0.0156544242054224, 
        -0.28885379433631897, 
        0.46515703201293945, 
        0.6250699758529663, 
        0.3702915906906128, 
        -0.2327253818511963, 
        -0.57123202085495, 
        -0.22135695815086365, 
        -0.5317344665527344, 
        -0.19285409152507782, 
        0.4862370789051056, 
        -0.0933622419834137, 
        -0.3631257116794586, 
        -0.5329126119613647, 
        0.021269822493195534, 
        0.15343448519706726, 
        0.2619289457798004, 
        0.20686550438404083, 
        -0.006888203788548708, 
        0.1279444545507431, 
        0.48083430528640747, 
        0.19549253582954407, 
        0.24420131742954254, 
        0.31521108746528625, 
        -0.48398011922836304, 
        -0.12415936589241028, 
        0.16475681960582733, 
        -0.04257071763277054, 
        -0.48558926582336426, 
        0.648485004901886, 
        0.3198915421962738, 
        -0.3274747133255005, 
        0.28955429792404175, 
        -0.09648362547159195, 
        0.2029726505279541, 
        0.5288862586021423, 
        -0.5676093697547913, 
        0.6300629377365112, 
        -0.5975004434585571, 
        -0.3634941279888153, 
        -0.43312519788742065, 
        -0.792895495891571, 
        0.3712359070777893, 
        0.30042752623558044, 
        0.8213741779327393, 
        0.12716451287269592, 
        -0.6562463045120239, 
        0.4723941683769226, 
        -0.5590835213661194, 
        -0.2453780174255371, 
        -0.3942638337612152, 
        0.2736286222934723, 
        0.43009892106056213, 
        -0.5449591875076294, 
        0.02856869250535965, 
        -0.3568160831928253, 
        -0.14860108494758606, 
        -0.2024732530117035, 
        0.6146966218948364, 
        0.3703033924102783, 
        0.2846944034099579, 
        0.8910056948661804, 
        -0.2424554079771042, 
        0.47130754590034485, 
        0.0986323356628418, 
        0.1701267957687378, 
        -0.13158373534679413, 
        0.1686500459909439, 
        -0.45621004700660706, 
        0.43145108222961426, 
        0.6265286207199097, 
        -0.055086649954319, 
        -0.5198397040367126, 
        -0.6510980129241943, 
        -0.29276999831199646, 
        0.5907721519470215, 
        -0.5092085003852844, 
        -0.001016688533127308, 
        -0.40787839889526367, 
        -0.3377114534378052, 
        -0.15552812814712524, 
        0.1692400872707367, 
        0.2267671823501587, 
        -0.4674062728881836, 
        -0.47134512662887573, 
        -0.07339952141046524, 
        0.48008987307548523, 
        0.5879127979278564, 
        0.3198584318161011, 
        -0.14863894879817963, 
        0.2016822099685669, 
        0.1668536365032196, 
        -0.2993066906929016, 
        -0.15830187499523163, 
        0.4464815557003021, 
        -0.44057637453079224, 
        -0.12468384951353073, 
        0.7233883142471313, 
        0.5327222347259521, 
        -0.32756999135017395, 
        -0.541847825050354, 
        -0.6638920903205872, 
        0.3478383421897888, 
        -0.5116934776306152, 
        -0.5290579199790955, 
        0.22504648566246033, 
        0.296354740858078, 
        -0.06425762921571732, 
        -0.496091365814209, 
        0.4348309636116028, 
        0.29694533348083496, 
        0.6374991536140442, 
        -0.13330915570259094, 
        0.15850789844989777, 
        0.15790687501430511, 
        0.34145301580429077, 
        0.10008394718170166, 
        -0.27039191126823425, 
        0.017164187505841255, 
        0.34333372116088867, 
        -0.5294281840324402, 
        0.7907773852348328, 
        -0.5109270811080933, 
        0.3822994828224182, 
        -0.7909996509552002, 
        0.2138606160879135, 
        -0.7203124761581421, 
        0.0813383013010025, 
        -0.051638055592775345, 
        0.45116114616394043, 
        0.14655297994613647, 
        0.09179296344518661, 
        0.16849277913570404, 
        0.28929921984672546, 
        0.4588017761707306, 
        0.2035951018333435, 
        -0.39330601692199707, 
        0.2098158448934555, 
        -0.36166122555732727, 
        -0.29294726252555847, 
        -0.3926396071910858, 
        -0.7422906756401062, 
        -0.3724263310432434, 
        -0.009596948511898518, 
        0.454525887966156, 
        -0.6189113259315491, 
        0.2513735890388489, 
        -0.2657416760921478, 
        -0.13520483672618866, 
        0.6594701409339905, 
        -0.299468070268631, 
        -0.18086682260036469, 
        0.050836652517318726, 
        0.13839514553546906, 
        0.3535120189189911, 
        0.15154705941677094, 
        -0.36211279034614563, 
        -0.3431186079978943, 
        -0.5307371616363525, 
        -0.6005232334136963, 
        -0.540700376033783, 
        0.5250299572944641, 
        0.5346512794494629, 
        0.26564472913742065, 
        0.42702656984329224, 
        0.3777572810649872, 
        -0.6466149687767029, 
        -0.28379130363464355, 
        0.5126330852508545, 
        0.6480210423469543, 
        0.13021574914455414, 
        0.048177335411310196, 
        0.20117785036563873, 
        0.4312931001186371, 
        0.19066786766052246, 
        0.13291975855827332, 
        0.09990865737199783, 
        -0.23978255689144135, 
        0.4266761839389801, 
        -0.09131118655204773, 
        0.1450338065624237, 
        -0.39700278639793396, 
        0.2542915344238281, 
        0.4556896388530731, 
        0.055129967629909515, 
        0.2747269570827484, 
        0.39065682888031006, 
        0.2933194041252136, 
        0.15700337290763855, 
        0.6425612568855286, 
        -0.1541225165128708, 
        -0.4655734598636627, 
        0.05050181597471237, 
        -0.11619759351015091, 
        -0.23470909893512726, 
        -0.5798934698104858, 
        -0.2758755683898926, 
        -0.018408572301268578, 
        -0.4969857633113861, 
        -0.2646496295928955, 
        -0.2912592887878418, 
        0.22061452269554138, 
        -0.33758533000946045, 
        0.365790456533432, 
        -0.28337618708610535, 
        -0.15904392302036285, 
        0.14998790621757507, 
        -0.17426742613315582, 
        0.263657808303833, 
        0.4061933159828186, 
        -0.33478307723999023, 
        -0.29409968852996826, 
        0.5397648215293884, 
        0.8029723763465881, 
        0.018596002832055092, 
        -0.46340078115463257, 
        0.33539071679115295, 
        0.583993136882782, 
        -0.030124694108963013, 
        -0.2813228666782379, 
        0.2105393409729004, 
        0.5901390910148621, 
        0.04511737823486328, 
        0.04741673171520233, 
        -0.19828368723392487, 
        0.43176373839378357, 
        0.39672279357910156, 
        -0.32012051343917847, 
        0.03507089242339134, 
        -0.0016939779743552208, 
        -0.09631446748971939, 
        0.01530125830322504, 
        -0.27589935064315796, 
        -0.4440549910068512, 
        0.38252148032188416, 
        -0.41101306676864624, 
        -0.15973524749279022, 
        -0.5852921009063721, 
        -0.5612202286720276, 
        0.14888782799243927, 
        -0.4768662452697754, 
        -0.27559563517570496, 
        0.5271322131156921, 
        0.29052048921585083, 
        0.5144612193107605, 
        -0.6616660356521606, 
        0.40914830565452576, 
        0.5125079154968262, 
        0.37151071429252625, 
        0.13120177388191223, 
        0.1319868564605713, 
        0.07480040192604065, 
        -0.33745402097702026, 
        -0.35461753606796265, 
        -0.3703412711620331, 
        0.4328843355178833, 
        0.5833960175514221, 
        -0.29356423020362854, 
        -0.6232728362083435, 
        -0.4780905544757843, 
        -0.4490596354007721, 
        -0.5785238742828369, 
        -0.06561458855867386, 
        0.5737493634223938, 
        -0.9631116986274719, 
        0.03657294809818268, 
        -0.4605221152305603, 
        0.32833972573280334, 
        -0.5658555626869202, 
        -0.13404439389705658, 
        -0.5101679563522339, 
        0.384831964969635, 
        0.3346516788005829, 
        0.08979290723800659, 
        0.2845398187637329, 
        -0.0580938383936882, 
        0.3604147732257843, 
        0.6689093708992004, 
        0.5632175803184509, 
        0.5391446352005005, 
        -0.06133769080042839, 
        0.5964360237121582, 
        0.0506536029279232, 
        0.019524164497852325, 
        -0.04582706466317177, 
        0.4320708215236664, 
        -0.03117268905043602, 
        0.18378233909606934, 
        -0.5637944936752319, 
        0.48496997356414795, 
        -0.12807266414165497, 
        0.179201140999794, 
        -0.040171071887016296, 
        -0.19358666241168976, 
        -0.5354461073875427, 
        -0.02967497520148754, 
        -0.08749163895845413, 
        -0.5462725758552551, 
        -0.4370681345462799, 
        0.18651743233203888, 
        0.5576586723327637, 
        -0.5670188069343567, 
        0.6289334893226624, 
        -0.5453981161117554, 
        0.03765730932354927, 
        0.4897376000881195, 
        0.5627806186676025, 
        0.4582630395889282, 
        -0.5971659421920776, 
        0.44475117325782776, 
        0.6726219654083252, 
        0.5497919321060181, 
        0.32262369990348816, 
        -0.1800565868616104, 
        0.16242891550064087, 
        0.2616029977798462, 
        0.07349342852830887, 
        -0.18086615204811096, 
        0.5824780464172363, 
        -0.1776292473077774, 
        0.4492577612400055, 
        0.4807977080345154, 
        -0.34753966331481934, 
        -0.19515487551689148, 
        -0.29104116559028625, 
        0.37804752588272095, 
        0.08687637746334076, 
        0.011102457530796528, 
        -0.05919218808412552, 
        -0.0496198832988739, 
        -0.26056405901908875, 
        0.562291145324707, 
        -0.3301961123943329, 
        0.020837165415287018, 
        -0.6245445609092712, 
        -0.36549362540245056, 
        0.32216814160346985, 
        0.22783038020133972, 
        0.3978511393070221, 
        -0.37343478202819824, 
        0.3370502293109894, 
        -0.0051569389179348946, 
        -0.31459519267082214, 
        -0.5067203640937805, 
        -0.618462860584259, 
        -0.36681175231933594, 
        0.39925116300582886, 
        -0.024640241637825966, 
        0.49092966318130493, 
        -0.7210978865623474, 
        0.3799982964992523, 
        -0.38302627205848694, 
        0.039039965718984604, 
        0.6277283430099487, 
        -0.43396392464637756, 
        0.2910889685153961, 
        -0.0668739527463913, 
        0.4689098596572876, 
        0.04756958782672882, 
        0.4488482177257538, 
        -0.5465487837791443, 
        -0.06963065266609192, 
        -0.20535439252853394, 
        -0.28998616337776184, 
        0.08306949585676193, 
        0.31806445121765137, 
        0.5401774644851685, 
        -0.12209826707839966, 
        -0.26459068059921265, 
        -0.720399796962738, 
        -0.5971887707710266, 
        -0.45653027296066284, 
        -0.265420138835907, 
        0.324595183134079, 
        0.21798384189605713, 
        0.3981902599334717, 
        0.4594709277153015, 
        0.2790837287902832, 
        -0.1304132640361786, 
        -0.24137288331985474, 
        0.23916848003864288, 
        -0.1571175456047058, 
        0.15722322463989258, 
        0.44801053404808044, 
        0.3572721779346466, 
        0.17546044290065765, 
        -0.42115655541419983, 
        0.49774637818336487, 
        0.005398882552981377, 
        0.038561366498470306, 
        -0.15734823048114777, 
        -0.30739110708236694, 
        -0.46969127655029297, 
        0.18075031042099, 
        0.5550737977027893, 
        -0.24045918881893158, 
        0.1426941603422165, 
        0.5146376490592957, 
        -0.3849640190601349, 
        -0.5271459221839905, 
        -0.18484100699424744, 
        0.28027886152267456, 
        0.16592255234718323, 
        0.5303347110748291, 
        -0.21781080961227417, 
        -0.4447234272956848, 
        0.447895348072052, 
        -0.42421799898147583, 
        -0.34097301959991455, 
        0.5445126295089722, 
        0.3462292551994324, 
        -0.8353356122970581, 
        -0.35481834411621094, 
        -0.616298258304596, 
        0.285136878490448, 
        -0.08222488313913345, 
        0.22935166954994202, 
        -0.00735444575548172, 
        -0.24395538866519928, 
        -0.08080333471298218, 
        0.08561962842941284, 
        0.2963627278804779, 
        -0.47655707597732544, 
        0.29114800691604614, 
        0.3416338562965393, 
        -0.5714280009269714, 
        -0.5241856575012207, 
        -0.6013824343681335, 
        -0.2733592689037323, 
        0.5499635934829712, 
        -0.058976393193006516, 
        -0.5083652138710022, 
        0.011509905569255352, 
        0.5984079241752625, 
        0.266862690448761, 
        -0.4446602463722229, 
        0.6113283038139343, 
        0.39988577365875244, 
        0.12262804806232452, 
        0.058376021683216095, 
        0.17619666457176208, 
        0.05583678185939789, 
        0.5356608629226685, 
        0.675388514995575, 
        0.07147115468978882, 
        -0.06535971909761429, 
        0.4990180432796478, 
        0.45889830589294434, 
        -0.22284691035747528, 
        0.26687443256378174, 
        0.5546450018882751, 
        0.12694761157035828, 
        0.26204097270965576, 
        -0.40388545393943787, 
        -0.5532659888267517, 
        0.5838167071342468, 
        -0.3397473096847534, 
        -0.5910417437553406, 
        0.4726715087890625, 
        0.5035833716392517, 
        -0.6422709226608276, 
        -0.4116419553756714, 
        -0.36123937368392944, 
        0.6519783139228821, 
        0.2740897834300995, 
        0.11521433293819427, 
        -0.3165600299835205, 
        -0.31360113620758057, 
        0.03048766404390335, 
        -0.12384707480669022, 
        -0.41957786679267883, 
        0.03679739683866501, 
        0.3087596595287323, 
        -0.18165980279445648, 
        -0.05938216298818588, 
        -0.33729952573776245, 
        0.5185920000076294, 
        0.403433233499527, 
        -0.3633866608142853, 
        0.33189746737480164, 
        0.5419158339500427, 
        0.10419563204050064, 
        -0.5460911989212036, 
        -0.5391263365745544, 
        -0.20392650365829468, 
        0.09457028657197952, 
        0.6066589951515198, 
        -0.31753480434417725, 
        0.33451583981513977, 
        0.3190416693687439, 
        0.030908048152923584, 
        -0.016258908435702324, 
        -0.547922670841217, 
        0.09937989711761475, 
        -0.6245308518409729, 
        0.5938019752502441, 
        0.7245153188705444, 
        0.3310527801513672, 
        0.44645410776138306, 
        0.36062586307525635, 
        -0.006901483982801437, 
        -0.5638041496276855, 
        0.2101147323846817, 
        0.33127066493034363, 
        0.4320008158683777, 
        -0.013564948923885822, 
        0.06614658236503601, 
        -0.6218932867050171, 
        -0.22194860875606537, 
        0.45440852642059326, 
        0.23762783408164978, 
        -0.7127394676208496, 
        -0.15838749706745148, 
        0.3358096182346344, 
        0.22493454813957214, 
        -0.16670124232769012, 
        0.160994753241539, 
        0.33184877038002014, 
        -0.2887362241744995, 
        -0.43252038955688477, 
        -0.47670406103134155, 
        0.167051762342453, 
        -0.03996464982628822, 
        0.3543759882450104, 
        -0.612588107585907, 
        -0.20633342862129211, 
        -0.37051182985305786, 
        0.12515407800674438, 
        -0.07913197576999664, 
        0.658962070941925, 
        0.4382634460926056, 
        0.3686838448047638, 
        -0.5881028771400452, 
        0.3878462612628937, 
        0.21223077178001404, 
        0.18609435856342316, 
        0.24735502898693085, 
        -0.4859890043735504, 
        -0.15741747617721558, 
        0.6585239171981812, 
        -0.3275534510612488, 
        -0.5802891850471497, 
        -0.24363626539707184, 
        0.3079870939254761, 
        -0.5238126516342163, 
        0.5261694192886353, 
        0.48013627529144287, 
        -0.04706211015582085, 
        -0.059164341539144516, 
        0.17379847168922424, 
        -0.3775143325328827, 
        0.2655489146709442, 
        0.46760886907577515, 
        0.35167041420936584, 
        0.7294648885726929, 
        -0.13135139644145966, 
        -0.4927678108215332, 
        -0.6209309101104736, 
        0.0005970083293505013, 
        0.30319535732269287, 
        0.4194140136241913, 
        -0.18212875723838806, 
        -0.27858638763427734, 
        0.4099908769130707, 
        -0.04447266831994057, 
        0.6420938372612, 
        0.013379384763538837, 
        0.118080273270607, 
        -0.5272239446640015, 
        0.5354024767875671, 
        -0.585090160369873, 
        0.18993492424488068, 
        -0.558707594871521, 
        0.5299066305160522, 
        -0.19383268058300018, 
        0.08816646039485931, 
        0.9721119999885559, 
        0.4576554596424103, 
        0.1196267232298851, 
        -0.1668286770582199, 
        -0.1118367463350296, 
        -0.3479796051979065, 
        0.535777747631073, 
        -0.4638870656490326, 
        0.3307540714740753, 
        0.3247115910053253, 
        -0.10010676831007004, 
        -0.09576927125453949, 
        -0.17015662789344788, 
        0.15600402653217316, 
        -0.07595603168010712, 
        0.006704980507493019, 
        -0.5040463805198669, 
        0.5161164999008179, 
        -0.31369316577911377, 
        0.06215549260377884, 
        -0.4352855682373047, 
        -0.1639106124639511, 
        0.3066006898880005, 
        -0.23389235138893127, 
        -0.46539628505706787, 
        0.5112869739532471, 
        0.6006585359573364, 
        0.5829809308052063, 
        0.34480687975883484, 
        -0.5545755624771118, 
        0.6556817293167114, 
        -0.08130182325839996, 
        0.012184815481305122, 
        -0.36305639147758484, 
        0.13006526231765747, 
        0.3144204318523407, 
        -0.39150357246398926, 
        0.5434221625328064, 
        -0.49589401483535767, 
        -0.2659982144832611, 
        0.5788912177085876, 
        0.10277219861745834, 
        -0.0651254802942276, 
        -0.30173325538635254, 
        -0.061659689992666245, 
        -0.38437619805336, 
        -0.43863657116889954, 
        -0.4604349434375763, 
        -0.28193554282188416, 
        0.33230647444725037, 
        0.14973212778568268, 
        0.13701477646827698, 
        -0.7396587133407593, 
        -0.4206690192222595, 
        0.18312591314315796, 
        -0.007316014263778925, 
        0.3195277452468872, 
        0.3289332687854767, 
        -0.09409258514642715, 
        -0.3884926736354828, 
        0.41479387879371643, 
        0.22328728437423706, 
        -0.30011260509490967, 
        -0.29754140973091125, 
        0.7669147849082947, 
        -0.9166600108146667, 
        0.012731116265058517, 
        0.6578883528709412, 
        0.43740710616111755, 
        0.5872712731361389, 
        0.7167425155639648, 
        0.012801378965377808, 
        -0.2202199250459671, 
        0.3508908748626709, 
        0.4506845474243164, 
        0.33544600009918213, 
        0.506909966468811, 
        0.20362810790538788, 
        -0.21071119606494904, 
        -0.7692164182662964, 
        -0.6102012991905212, 
        0.45752909779548645, 
        0.4047882854938507, 
        0.6673769950866699, 
        -0.4856303036212921, 
        0.5776920914649963, 
        0.15001210570335388, 
        0.36685511469841003, 
        0.4598471522331238, 
        0.13620278239250183, 
        -0.2115408331155777, 
        -0.3082925081253052, 
        -0.14955000579357147, 
        0.2653188109397888, 
        -0.0879436507821083, 
        0.0007570339948870242, 
        0.042723529040813446, 
        -0.32542502880096436, 
        0.6675584316253662, 
        0.516965389251709, 
        -0.3952620327472687, 
        -0.010880054906010628, 
        0.4689730703830719, 
        -0.38910263776779175, 
        0.29303881525993347, 
        0.5312634110450745, 
        -0.38500726222991943, 
        -0.33533310890197754, 
        0.26809948682785034, 
        0.6336172223091125, 
        0.2851509749889374, 
        -0.5990228056907654, 
        -0.07527299225330353, 
        -0.5270717740058899, 
        -0.4738476574420929, 
        -0.17008624970912933, 
        -0.02212582714855671, 
        0.40310078859329224, 
        0.5205985903739929, 
        0.2995399236679077, 
        -0.11356230825185776, 
        -0.6840696334838867, 
        0.5551263093948364, 
        -0.020708518102765083, 
        -0.2453470081090927, 
        -0.09888547658920288, 
        0.21180881559848785, 
        0.26161548495292664, 
        -0.03729689493775368, 
        -0.476444810628891, 
        -0.3987847864627838, 
        0.17788425087928772, 
        -0.5058376789093018, 
        -0.6851025819778442, 
        -0.15332816541194916, 
        -0.5871487855911255, 
        0.41941118240356445, 
        0.4368707239627838, 
        -0.23549547791481018, 
        0.3154284358024597, 
        -0.4055403769016266, 
        -0.23562224209308624, 
        -0.20731087028980255, 
        -0.7440250515937805, 
        0.6498652696609497, 
        -0.19989201426506042, 
        0.47306498885154724, 
        0.46731674671173096, 
        0.3786124289035797, 
        -0.5209409594535828, 
        0.06898555904626846, 
        0.3832571506500244, 
        -0.21470822393894196, 
        -0.608133852481842, 
        0.2110566645860672, 
        0.32126787304878235, 
        -0.5310308337211609, 
        -0.5091731548309326, 
        -0.1481304168701172, 
        -0.06438565254211426, 
        0.4885871410369873, 
        0.023929918184876442, 
        -0.6467726826667786, 
        -0.1559091955423355, 
        0.4804116189479828, 
        0.33306097984313965, 
        0.1811886876821518, 
        0.5659174919128418, 
        -0.05965038388967514, 
        0.48109740018844604, 
        0.19861768186092377, 
        -0.6738278269767761, 
        0.16276070475578308, 
        0.5770393013954163, 
        0.16837340593338013, 
        0.6116207242012024, 
        0.0026020472869277, 
        -0.12490127235651016, 
        -0.007214593701064587, 
        0.46087896823883057, 
        0.5273878574371338, 
        -0.05397067591547966, 
        0.2176452875137329, 
        0.027693888172507286, 
        0.1129932552576065, 
        0.1282719522714615, 
        0.19553999602794647, 
        -0.17951977252960205, 
        -0.1334003061056137, 
        -0.6791630983352661, 
        0.015247412957251072, 
        0.23559513688087463, 
        0.37344086170196533, 
        -0.3958686888217926, 
        -0.30867063999176025, 
        -0.33241012692451477, 
        -0.026080144569277763, 
        -0.248994380235672, 
        0.17997869849205017, 
        0.32264986634254456, 
        -0.14857718348503113, 
        -0.017187608405947685, 
        -0.5054358243942261, 
        0.08652202039957047, 
        -0.47086647152900696, 
        -0.49349328875541687, 
        -0.320329874753952, 
        -0.3626045286655426, 
        0.0778721272945404, 
        -0.06028582900762558, 
        -0.4845106303691864, 
        -0.40065786242485046, 
        0.38912615180015564, 
        -0.10270616412162781, 
        0.4898073971271515, 
        -0.23216208815574646, 
        0.1931648552417755, 
        -0.6685721278190613, 
        -0.3136870265007019, 
        0.4072815477848053, 
        -0.6629297733306885, 
        0.5686583518981934, 
        -0.24342457950115204, 
        0.3825293779373169, 
        -0.49323320388793945, 
        0.6325241327285767, 
        0.3586890697479248, 
        -0.47685885429382324, 
        0.17622031271457672, 
        -0.5605612397193909, 
        0.6152270436286926, 
        -0.26421472430229187, 
        0.5240681171417236, 
        0.19341984391212463, 
        0.6470963358879089, 
        -0.12091194093227386, 
        0.6282984614372253, 
        0.5133512020111084, 
        0.44499778747558594, 
        0.09241878241300583, 
        -0.6175802946090698, 
        0.42615967988967896, 
        -0.0003007708000950515, 
        -0.5263895988464355, 
        0.6347562074661255, 
        0.23384329676628113, 
        -0.36598989367485046, 
        0.2555808424949646, 
        -0.3638567328453064, 
        0.031424380838871, 
        0.6127972602844238, 
        -0.28817322850227356, 
        0.2253069281578064, 
        0.4358721375465393, 
        -0.23892387747764587, 
        -0.4308167099952698, 
        0.19685950875282288, 
        -0.3187224268913269, 
        -0.3922962546348572, 
        0.4459269940853119, 
        0.5821611881256104, 
        0.04032640904188156, 
        -0.3489881753921509, 
        0.5970639586448669, 
        0.34790539741516113, 
        -0.08577583730220795, 
        -0.09550299495458603, 
        -0.5972142815589905, 
        0.23857121169567108, 
        0.6652347445487976, 
        -0.3005576729774475, 
        -0.41508156061172485, 
        -0.4589763283729553, 
        0.39967218041419983, 
        -0.16182680428028107, 
        0.6389344930648804, 
        0.09414929151535034, 
        -0.26931631565093994, 
        0.08637981116771698, 
        -0.8029201030731201, 
        -0.5689870119094849, 
        -0.378652423620224, 
        0.10007116943597794, 
        -0.07055004686117172, 
        -0.07190759479999542, 
        -0.06720228493213654, 
        0.2593335807323456, 
        0.1904199719429016, 
        0.2311968207359314, 
        0.0626053512096405, 
        0.4911191463470459, 
        -0.2643887996673584, 
        0.6474797129631042, 
        0.27092599868774414, 
        -0.17931851744651794, 
        0.36549052596092224, 
        -0.0545928068459034, 
        -0.42775219678878784, 
        0.7292852401733398, 
        -0.5079106092453003, 
        0.2354029417037964, 
        -0.0700383111834526, 
        0.31944310665130615, 
        -0.4569654166698456, 
        0.48377692699432373, 
        0.7406513690948486, 
        0.3401683568954468, 
        0.2820003032684326, 
        0.3009791374206543, 
        0.35877856612205505, 
        -0.34171590209007263, 
        0.09516829997301102, 
        0.06441228091716766, 
        0.3649931848049164, 
        -0.4608635902404785, 
        0.4952094256877899, 
        -0.04788966104388237, 
        0.005905295722186565, 
        -0.34691354632377625, 
        0.4112471342086792, 
        -0.2670588791370392, 
        -0.07391707599163055, 
        -0.513871431350708, 
        -0.025015054270625114, 
        -0.3895648121833801, 
        -0.287008672952652, 
        -0.08384565263986588, 
        -0.5307762026786804, 
        0.007417035289108753, 
        -0.40245383977890015, 
        -0.2883935570716858, 
        -0.33742639422416687, 
        -0.4087471663951874, 
        -0.01436343789100647, 
        -0.5931844115257263, 
        0.07982474565505981, 
        -0.6068093776702881, 
        0.648845374584198, 
        0.3760819137096405, 
        0.19548477232456207, 
        -0.1525513231754303, 
        0.1720556616783142, 
        0.057384178042411804, 
        -0.07469730079174042, 
        0.18889859318733215, 
        -0.4210011661052704, 
        -0.3508051335811615, 
        0.5563762187957764, 
        0.6370605230331421, 
        0.22003310918807983, 
        0.04606377333402634, 
        -0.09867018461227417, 
        0.45264413952827454, 
        0.5049917101860046, 
        0.38539358973503113, 
        -0.5542200803756714, 
        -0.6756280064582825, 
        -0.38836216926574707, 
        0.5747128129005432, 
        0.45303547382354736, 
        -0.006276676896959543, 
        -0.6866394877433777, 
        0.4742008149623871, 
        -0.12145497649908066, 
        -0.09261002391576767, 
        0.08986581116914749, 
        0.08327522873878479, 
        -0.2875702679157257, 
        0.3033263385295868, 
        0.4838123321533203, 
        0.2059013992547989, 
        -0.5693321228027344, 
        0.2473384141921997, 
        0.5427261590957642, 
        -0.3312695026397705, 
        -0.05425838753581047, 
        0.4489020109176636, 
        0.49913865327835083, 
        0.5095396637916565, 
        0.6809885501861572, 
        -0.5264361500740051, 
        -0.3853246569633484, 
        -0.2708580493927002, 
        -0.28487589955329895, 
        -0.5420749187469482, 
        -0.25693610310554504, 
        0.5957023501396179, 
        -0.11979581415653229, 
        0.12957386672496796, 
        0.2366788685321808, 
        -0.17224276065826416, 
        0.3294835388660431, 
        -0.5863643288612366, 
        -0.4724857807159424, 
        -0.11885858327150345, 
        0.3944407105445862, 
        -0.39603671431541443, 
        0.5163782835006714, 
        0.6527405977249146, 
        0.4526049792766571, 
        -0.12335032224655151, 
        -0.574664831161499, 
        -0.11957364529371262, 
        -0.25072765350341797, 
        0.06726639717817307, 
        -0.3499237298965454, 
        -0.38007619976997375, 
        0.3259786069393158, 
        -0.27129366993904114, 
        0.5640192627906799, 
        0.5931723713874817, 
        -0.49734237790107727, 
        -0.4887809455394745, 
        0.13285064697265625, 
        -0.37792402505874634, 
        -0.11950283497571945, 
        0.03407758101820946, 
        -0.5456913709640503, 
        0.3950978219509125, 
        -0.41148602962493896, 
        -0.10080325603485107, 
        0.03843417391180992, 
        -0.3087902367115021, 
        -0.636722981929779, 
        0.2551126778125763, 
        -0.6415348052978516, 
        -0.2137228101491928, 
        -0.3135994076728821, 
        -0.40028706192970276, 
        0.05580329895019531, 
        -0.005807405337691307, 
        -0.47766220569610596, 
        0.20630906522274017, 
        -0.10671060532331467, 
        0.13986314833164215, 
        -0.3119184374809265, 
        0.7141541838645935, 
        -0.2309882789850235, 
        -0.28288406133651733, 
        -0.16781125962734222, 
        -0.5852324366569519, 
        0.46317118406295776, 
        -0.2918988764286041, 
        0.2560498118400574, 
        -0.5476669073104858, 
        0.07956993579864502, 
        -0.6414368152618408, 
        0.1720172017812729, 
        0.6209476590156555, 
        -0.48718374967575073, 
        -0.19724127650260925, 
        0.03145131468772888, 
        -0.3328472375869751, 
        0.10124882310628891, 
        0.42994290590286255, 
        -0.23253968358039856, 
        0.41983452439308167, 
        0.652791440486908, 
        0.28818896412849426, 
        0.3972008228302002, 
        -0.0928812325000763, 
        0.4484163522720337, 
        -0.11440496146678925, 
        -0.16887319087982178, 
        0.570229172706604, 
        -0.6454474329948425, 
        -0.5129726529121399, 
        -0.5406420826911926, 
        0.3826603293418884, 
        0.5379628539085388, 
        -0.40893200039863586, 
        0.49596506357192993, 
        0.6570577621459961, 
        0.008931221440434456, 
        -0.13208867609500885, 
        -0.5224359631538391, 
        0.1428050398826599, 
        -0.5576023459434509, 
        0.06924503296613693, 
        -0.21940141916275024, 
        -0.11139006912708282, 
        0.5515704154968262, 
        -0.17519305646419525, 
        0.6123170852661133, 
        -0.030148031190037727, 
        0.13960886001586914, 
        -0.14829161763191223, 
        0.2938477098941803, 
        -0.5279994606971741, 
        0.013050323352217674, 
        0.07635963708162308, 
        -0.25863364338874817, 
        0.25726351141929626, 
        0.1607171893119812, 
        0.18316562473773956, 
        -0.5419395565986633, 
        -0.5041248202323914, 
        0.6804892420768738, 
        0.3465549051761627, 
        -0.19626790285110474, 
        0.5037223100662231, 
        -0.36519455909729004, 
        0.5975384712219238, 
        -0.31061336398124695, 
        0.18685419857501984, 
        -0.24538856744766235, 
        0.229920893907547, 
        0.3006371855735779, 
        0.003346905577927828, 
        0.06902508437633514, 
        0.22483280301094055, 
        0.042701076716184616, 
        -0.5926716327667236, 
        0.30475741624832153, 
        0.07852260768413544, 
        0.16728714108467102, 
        -0.3809802532196045, 
        0.37187322974205017, 
        -0.5051040649414062, 
        -0.3616238236427307, 
        0.5988441705703735, 
        -0.08855500817298889, 
        0.5264589190483093, 
        0.3201921880245209, 
        -0.3726859390735626, 
        -0.3231598138809204, 
        -0.3492116332054138, 
        -0.18828916549682617, 
        0.5719154477119446, 
        -0.128556489944458, 
        0.37499815225601196, 
        0.27389025688171387, 
        0.09113407880067825, 
        -0.13417619466781616, 
        -0.029333047568798065, 
        0.4478920102119446, 
        -0.5441821217536926, 
        -0.2292066365480423, 
        0.5637540817260742, 
        -0.678989052772522, 
        -0.5863857269287109, 
        -0.11756820976734161, 
        -0.520520806312561, 
        -0.6229711771011353, 
        0.0021291952580213547, 
        -0.20033597946166992, 
        0.506162166595459, 
        0.7516111135482788, 
        0.05046237260103226, 
        0.6264126300811768, 
        0.1409420520067215, 
        0.43222033977508545, 
        -0.3887459337711334, 
        0.14994525909423828, 
        0.5872347354888916, 
        0.31513530015945435, 
        -0.3105623722076416, 
        0.6080331206321716, 
        0.06359843164682388, 
        -0.264121949672699, 
        0.39692580699920654, 
        0.1781286746263504, 
        0.5778127312660217, 
        0.24107950925827026, 
        0.15484139323234558, 
        -0.08488400280475616, 
        0.452021986246109, 
        -0.40571343898773193, 
        0.12243842333555222, 
        -0.6137698888778687, 
        -0.5600461959838867, 
        -0.29497188329696655, 
        -0.7485904693603516, 
        -0.529841959476471, 
        0.4950235188007355, 
        -0.10602248460054398, 
        0.6561928391456604, 
        0.17180009186267853, 
        0.5311732292175293, 
        -0.3160971701145172, 
        0.5477110743522644, 
        -0.4387480616569519, 
        0.40419724583625793, 
        0.14231006801128387, 
        0.5973644852638245, 
        -0.12767165899276733, 
        0.101434126496315, 
        0.5685592293739319, 
        -0.1942029446363449, 
        0.12377659976482391, 
        0.3111913800239563, 
        0.4566432237625122, 
        -0.6530880928039551, 
        0.3844376802444458, 
        0.33194899559020996, 
        -0.38945528864860535, 
        -0.2333110123872757, 
        -0.5745418667793274, 
        0.3310319781303406, 
        -0.3774288594722748, 
        0.3909081518650055, 
        0.26618537306785583, 
        0.09034092724323273, 
        0.16275164484977722, 
        0.08899129927158356, 
        -0.49648618698120117, 
        -0.1098487600684166, 
        -0.5323038697242737, 
        -0.14185388386249542, 
        -0.0592527836561203, 
        0.21605826914310455, 
        0.27774035930633545, 
        0.12208589911460876, 
        0.5559412837028503, 
        0.08649840205907822, 
        -0.28761428594589233, 
        0.3745531141757965, 
        -0.5213004350662231, 
        -0.31504541635513306, 
        -0.46117618680000305, 
        -0.07977559417486191, 
        0.1365261822938919, 
        -0.1365569531917572, 
        -0.10742530226707458, 
        0.3222119212150574, 
        0.36416274309158325, 
        -0.35670045018196106, 
        -0.07823105156421661, 
        0.47121837735176086, 
        -0.11177144944667816, 
        -0.3982464671134949, 
        0.4820576310157776, 
        0.22477088868618011, 
        0.24635733664035797, 
        -0.06336987018585205, 
        0.24382160604000092, 
        -0.0967872366309166, 
        0.13084162771701813, 
        -0.7044872045516968, 
        0.5762866735458374, 
        -0.25939133763313293, 
        0.6491112112998962, 
        -0.6194006204605103, 
        0.32811427116394043, 
        0.13205164670944214, 
        -0.17414550483226776, 
        -0.04166123643517494, 
        0.2173202782869339, 
        0.09660132974386215, 
        0.09931597113609314, 
        0.007955733686685562, 
        0.12418673187494278, 
        -0.4453119933605194, 
        0.002626259345561266, 
        -0.23714125156402588, 
        -0.501167356967926, 
        0.5827158093452454, 
        -0.7091566324234009, 
        -0.27528810501098633, 
        0.3083440959453583, 
        -0.6133716702461243, 
        0.4062449634075165, 
        -0.17626352608203888, 
        0.25736117362976074, 
        0.39862146973609924, 
        0.11277391761541367, 
        0.22291244566440582, 
        -0.3018646836280823, 
        -0.5495259165763855, 
        -0.5342796444892883, 
        0.34101390838623047, 
        0.5203689932823181, 
        -0.18287533521652222, 
        -0.2831554710865021, 
        0.3917078375816345, 
        -0.6465290784835815, 
        -0.7210169434547424, 
        0.3064422607421875, 
        0.2964000403881073, 
        0.31951621174812317, 
        0.5913586020469666, 
        0.04274912178516388, 
        -0.18504929542541504, 
        0.14550216495990753, 
        0.4492587447166443, 
        0.13075099885463715, 
        -0.35539206862449646, 
        -0.4930768311023712, 
        0.17782020568847656, 
        0.33711183071136475, 
        -0.15561789274215698, 
        0.20823214948177338, 
        0.5077001452445984, 
        0.20641212165355682, 
        -0.23484285175800323, 
        0.31617429852485657, 
        -0.7331684827804565, 
        0.3875553607940674, 
        -0.3569334149360657, 
        -0.1095280721783638, 
        -0.3971056342124939, 
        -0.12101860344409943, 
        -0.23589350283145905, 
        -0.3321215808391571, 
        0.16245901584625244, 
        -0.31837716698646545, 
        0.5291090607643127, 
        -0.20683668553829193, 
        0.35855498909950256, 
        -0.5969948768615723, 
        -0.24498385190963745, 
        0.08220384269952774, 
        -0.19366244971752167, 
        -0.13243992626667023, 
        -0.5023108124732971, 
        -0.16875861585140228, 
        -0.37111273407936096, 
        0.05095994472503662, 
        0.13714009523391724, 
        -0.5366765856742859, 
        0.2372571974992752, 
        -0.6270092129707336, 
        0.610381543636322, 
        0.26109468936920166, 
        0.007596035022288561, 
        0.058286819607019424, 
        -0.09211410582065582, 
        0.35413694381713867, 
        0.5163149833679199, 
        -0.21391695737838745, 
        -0.3357512056827545, 
        0.4638685882091522, 
        0.1377743035554886, 
        0.030099641531705856, 
        -0.45051053166389465, 
        0.30275025963783264, 
        0.22092393040657043, 
        -0.09174488484859467, 
        0.039341993629932404, 
        0.053224965929985046, 
        0.4957120716571808, 
        0.1369718462228775, 
        -0.3867247700691223, 
        -0.0651429072022438, 
        -0.18175290524959564, 
        -0.12188081443309784, 
        0.16761909425258636, 
        0.13472403585910797, 
        0.26968929171562195, 
        0.07578632980585098, 
        0.4873354732990265, 
        -0.6471490859985352, 
        0.501378059387207, 
        0.3332901895046234, 
        0.1474924385547638, 
        -0.10529761761426926, 
        0.4906274378299713, 
        -0.26956743001937866, 
        -0.32593217492103577, 
        -0.38415560126304626, 
        0.4632205367088318, 
        -0.0830724686384201, 
        -0.05620848014950752, 
        0.2766548693180084, 
        -0.4702315330505371, 
        0.4489331543445587, 
        0.2515508532524109, 
        -0.6306880712509155, 
        -0.5482689738273621, 
        -0.30118364095687866, 
        -0.3911699652671814, 
        -0.2795286774635315, 
        -0.45906755328178406, 
        -0.11064525693655014, 
        0.3948962390422821, 
        0.41702693700790405, 
        -0.4851226508617401, 
        0.25546208024024963, 
        0.6582483649253845, 
        -0.5334558486938477, 
        -0.08796814829111099, 
        -0.25773051381111145, 
        0.14883862435817719, 
        0.27917206287384033, 
        0.3385125398635864, 
        0.8493519425392151, 
        0.3517419695854187, 
        -0.5895258784294128, 
        -0.3941018283367157, 
        0.16294525563716888, 
        -0.18233585357666016, 
        -0.1878511905670166, 
        0.09778296202421188, 
        -0.17396259307861328, 
        -0.5867756605148315, 
        0.27912038564682007, 
        0.19161784648895264, 
        -0.06997775286436081, 
        0.43427136540412903, 
        0.10140912979841232, 
        0.5561568737030029, 
        0.2906266748905182, 
        0.2853686213493347, 
        0.5482336282730103, 
        0.2166220098733902, 
        -0.5907523036003113, 
        0.03012933023273945, 
        -0.08469560742378235, 
        -0.5227270722389221, 
        -0.5777957439422607, 
        -0.7012798190116882, 
        -0.26164761185646057, 
        -0.48475971817970276, 
        -0.5777949690818787, 
        -0.612321674823761, 
        0.49203383922576904, 
        0.3754589557647705, 
        0.5248236060142517, 
        0.2024693489074707, 
        0.5771144032478333, 
        0.40506207942962646, 
        0.0038989821914583445, 
        0.03638165444135666, 
        -0.4755590260028839, 
        -0.15817271173000336, 
        -0.007938926108181477, 
        0.5130206346511841, 
        0.46987345814704895, 
        -0.5404927730560303, 
        0.001232113572768867, 
        0.7266824245452881, 
        -0.01625830866396427, 
        0.11104147881269455, 
        -0.496817946434021, 
        0.03998960554599762, 
        0.5518813133239746, 
        0.26196664571762085, 
        -0.34215247631073, 
        0.15683947503566742, 
        -0.46565645933151245, 
        -0.5544495582580566, 
        -0.009514803998172283, 
        -0.29759901762008667, 
        -0.30921944975852966, 
        -0.16635672748088837, 
        -0.6745302081108093, 
        -0.10961613804101944, 
        -0.3566395044326782, 
        -0.35245758295059204, 
        -0.0544721819460392, 
        -0.26772138476371765, 
        0.38624101877212524, 
        0.5863960981369019, 
        0.6228074431419373, 
        0.6694327592849731, 
        0.14470304548740387, 
        -0.2165897935628891, 
        -0.5134407877922058, 
        0.42022621631622314, 
        -0.16068284213542938, 
        -0.2927214801311493, 
        -0.4037356376647949, 
        -0.3922441303730011, 
        0.552000105381012, 
        -0.37420204281806946, 
        -0.02942097745835781, 
        -0.40869858860969543, 
        0.1825157254934311, 
        0.09370843321084976, 
        -0.37163981795310974, 
        0.45369952917099, 
        -0.27803003787994385, 
        0.26730212569236755, 
        0.5796242356300354, 
        -0.4583120346069336, 
        0.5501900911331177, 
        0.4338814616203308, 
        -0.13701362907886505, 
        -0.11660775542259216, 
        0.311530739068985, 
        0.4138569235801697, 
        -0.2988658845424652, 
        -0.23108035326004028, 
        0.4686427116394043, 
        -0.5393078327178955, 
        0.5427632331848145, 
        0.6346600651741028, 
        0.5435779690742493, 
        0.4284938871860504, 
        -0.007936080917716026, 
        0.5118140578269958, 
        -0.18987204134464264, 
        -0.667443573474884, 
        -0.06699057668447495, 
        -0.18523041903972626, 
        -0.2851111590862274, 
        0.7124894857406616, 
        -0.607580840587616, 
        0.4036550223827362, 
        0.3763221502304077, 
        -0.10024546086788177, 
        -0.6194285750389099, 
        0.758599579334259, 
        0.1475105583667755, 
        -0.10655700415372849, 
        0.08399658650159836, 
        0.46768492460250854, 
        0.25804704427719116, 
        -0.14398984611034393, 
        -0.19410373270511627, 
        -0.28053635358810425, 
        0.4375600814819336, 
        -0.3959861993789673, 
        0.6138728857040405, 
        -0.46690633893013, 
        -0.38340523838996887, 
        0.5819324851036072, 
        -0.3145156502723694, 
        -0.4446161091327667, 
        0.19520723819732666, 
        -0.6175107955932617, 
        0.7135237455368042, 
        -0.35013726353645325, 
        0.2806539535522461, 
        -0.3838857412338257, 
        -0.06596998870372772, 
        0.6096590757369995, 
        -0.03784427419304848, 
        0.11683697253465652, 
        -0.49801692366600037, 
        -0.05722563713788986, 
        -0.052888624370098114, 
        0.6841585636138916, 
        0.15344847738742828, 
        0.07657532393932343, 
        -0.5430266857147217, 
        0.36026719212532043, 
        0.49605584144592285, 
        0.13789373636245728, 
        -0.7372506260871887, 
        -0.15213046967983246, 
        0.08966376632452011, 
        0.666617751121521, 
        0.4720765948295593, 
        -0.455404132604599, 
        0.4520713686943054, 
        0.3080854117870331, 
        0.09838072955608368, 
        -0.7069507837295532, 
        -0.5242997407913208, 
        -0.03858281299471855, 
        -0.578305721282959, 
        0.05054875463247299, 
        0.6726595163345337, 
        0.23807275295257568, 
        -0.016550874337553978, 
        0.0660615935921669, 
        -0.2546153664588928, 
        -0.1391463428735733, 
        -0.5854060053825378, 
        0.4471786320209503, 
        0.28447839617729187, 
        0.383194237947464, 
        0.0549691766500473, 
        0.3390372693538666, 
        -0.29346004128456116, 
        0.28980574011802673, 
        0.5941048264503479, 
        -0.34304922819137573, 
        -0.6649256348609924, 
        -0.15341170132160187, 
        0.13669353723526, 
        0.136412113904953, 
        0.22332370281219482, 
        0.5596635341644287, 
        0.45034101605415344, 
        0.14276190102100372, 
        0.5956979393959045, 
        0.5086884498596191, 
        0.0038732546381652355, 
        -0.49549248814582825, 
        -0.7249208092689514, 
        0.21081407368183136, 
        0.6216166019439697, 
        0.4018160402774811, 
        0.0048091113567352295, 
        -0.12612465023994446, 
        0.5600113868713379, 
        0.19731688499450684, 
        -0.6359217166900635, 
        0.2982270419597626, 
        0.036506034433841705, 
        0.5371817350387573, 
        0.45274028182029724, 
        0.6008902192115784, 
        0.5849135518074036, 
        0.6934053897857666, 
        0.2994895875453949, 
        0.006606269162148237, 
        -0.3590591847896576, 
        -0.22686947882175446, 
        -0.5129339098930359, 
        -0.14643850922584534, 
        -0.41519683599472046, 
        -0.15807349979877472, 
        -0.13679656386375427, 
        0.26107800006866455, 
        0.21839876472949982, 
        0.038477297872304916, 
        0.5549598932266235, 
        -0.5317464470863342, 
        -0.2750794291496277, 
        -0.3591097593307495, 
        0.43488189578056335, 
        -0.04382745549082756, 
        -0.5104898810386658, 
        0.58733731508255, 
        0.2007857710123062, 
        -0.32260337471961975, 
        0.5192736983299255, 
        -0.26848968863487244, 
        -0.5460459589958191, 
        0.46950528025627136, 
        0.143549844622612, 
        -0.2436678260564804, 
        0.2619136571884155, 
        0.4675649106502533, 
        -0.1556718945503235, 
        0.09825294464826584, 
        -0.39403441548347473, 
        -0.19694750010967255, 
        -0.3955695629119873, 
        -0.21864330768585205, 
        -0.3410263955593109, 
        -0.49799802899360657, 
        -0.34836000204086304, 
        0.20531772077083588, 
        -0.5850712060928345, 
        -0.6604515910148621, 
        -0.056345272809267044, 
        0.00252108764834702, 
        0.6452708840370178, 
        0.218084916472435, 
        0.4379621148109436, 
        -0.26292479038238525, 
        -0.20427872240543365, 
        0.01775907538831234, 
        0.20275172591209412, 
        -0.45860975980758667, 
        -0.4950536787509918, 
        0.3062652051448822, 
        -0.6279932856559753, 
        0.13059280812740326, 
        0.1995897889137268, 
        0.0509512796998024, 
        0.22144246101379395, 
        0.6234943270683289, 
        0.5340052843093872, 
        -0.303193598985672, 
        -0.2993459403514862, 
        -0.11839822679758072, 
        0.21324045956134796, 
        0.5513513088226318, 
        -0.6176841259002686, 
        -0.1452261507511139, 
        0.2658803462982178, 
        -0.2781580984592438, 
        0.029240721836686134, 
        -0.34967246651649475, 
        -0.0019585120026022196, 
        0.1667892187833786, 
        0.01678277924656868, 
        0.3832966387271881, 
        -0.4210019111633301, 
        0.10859766602516174, 
        -0.35739192366600037, 
        0.3125658929347992, 
        -0.08638837933540344, 
        -0.37477388978004456, 
        -0.18741706013679504, 
        -0.28363779187202454, 
        0.011675551533699036, 
        0.4204499125480652, 
        0.46329525113105774, 
        -0.3455645740032196, 
        0.1496189385652542, 
        0.007418075576424599, 
        0.5660892128944397, 
        -0.17568561434745789, 
        0.012742413207888603, 
        -0.4243420362472534, 
        0.29327094554901123, 
        0.0848885327577591, 
        -0.22341421246528625, 
        -0.6419051885604858, 
        -0.447125643491745, 
        -0.09472156316041946, 
        0.13263778388500214, 
        -0.1957225203514099, 
        -0.16437675058841705, 
        -0.3268703818321228, 
        0.5291389226913452, 
        -0.5116124749183655, 
        0.2364135980606079, 
        0.2988521456718445, 
        -0.5956354141235352, 
        -0.6804705262184143, 
        0.15155720710754395, 
        0.015379291959106922, 
        -0.2586117088794708, 
        -0.31369921565055847, 
        0.181771382689476, 
        -0.1009034812450409, 
        -0.31074094772338867, 
        -0.11761092394590378, 
        0.24913473427295685, 
        0.4913077652454376, 
        0.29795342683792114, 
        -0.3289365768432617, 
        -0.14480622112751007, 
        -0.5922423005104065, 
        0.6898576021194458, 
        0.611534059047699, 
        0.7077344059944153, 
        0.5428168773651123, 
        0.18979009985923767, 
        -0.12458346784114838, 
        -0.0399402417242527, 
        0.11250416189432144, 
        -0.5213954448699951, 
        -0.6103585362434387, 
        0.1927724927663803, 
        0.0619816929101944, 
        0.31393134593963623, 
        0.6780253648757935, 
        0.5694605112075806, 
        -0.32604745030403137, 
        -0.1753668189048767, 
        0.2650560736656189, 
        -0.2711682617664337, 
        0.5359349846839905, 
        -0.20538674294948578, 
        -0.04591415449976921, 
        -0.2295323759317398, 
        -0.39815273880958557, 
        -0.07104596495628357, 
        -0.15931831300258636, 
        0.18385197222232819, 
        0.6082388162612915, 
        0.3181067407131195, 
        -0.30548936128616333, 
        -0.38275182247161865, 
        0.15399998426437378, 
        -0.13065269589424133, 
        0.3296142816543579, 
        -0.4697808623313904, 
        0.2233850061893463, 
        -0.03293429687619209, 
        0.3618243336677551, 
        0.370805561542511, 
        -0.3645467460155487, 
        -0.35814589262008667, 
        -0.04902201145887375, 
        -0.5046728849411011, 
        0.13724835216999054, 
        -0.6038883328437805, 
        0.4417451322078705, 
        0.5043959021568298, 
        0.245945543050766, 
        -0.1806826889514923, 
        0.3392361104488373, 
        -0.54255610704422, 
        0.3302282691001892, 
        -0.6456152200698853, 
        -0.4183499813079834, 
        -0.07612154632806778, 
        -0.5555906891822815, 
        -0.2253679782152176, 
        -0.34817230701446533, 
        0.17963702976703644, 
        0.7157706618309021, 
        -0.5197927355766296, 
        0.6426762938499451, 
        0.5877516269683838, 
        0.15819762647151947, 
        -0.08104994893074036, 
        -0.3891770541667938, 
        -0.39990726113319397, 
        0.2762618064880371, 
        -0.14014871418476105, 
        -0.08383135497570038, 
        0.18000030517578125, 
        -0.27594393491744995, 
        0.45307445526123047, 
        -0.5866237282752991, 
        0.018888842314481735, 
        0.4427751302719116, 
        0.14763210713863373, 
        -0.37131497263908386, 
        -0.3745630383491516, 
        -0.02963130921125412, 
        -0.09978245198726654, 
        -0.08074772357940674, 
        0.04501659795641899, 
        0.42646530270576477, 
        -0.12585371732711792, 
        0.6164706945419312, 
        -0.20662443339824677, 
        -0.6363722085952759, 
        -0.48963457345962524, 
        -0.5894240736961365, 
        -0.520220935344696, 
        -0.30414897203445435, 
        -0.2144136130809784, 
        -0.572393000125885, 
        -0.46047160029411316, 
        -0.45679354667663574, 
        -0.5988145470619202, 
        -0.3285604417324066, 
        -0.3787786662578583, 
        -0.6489530801773071, 
        0.2582058906555176, 
        0.60953688621521, 
        -0.2661898732185364, 
        -0.25824683904647827, 
        -0.43090367317199707, 
        -0.08579770475625992, 
        0.19952736794948578, 
        -0.7009174227714539, 
        -0.767449140548706, 
        0.1469605267047882, 
        0.35041090846061707, 
        -0.10639751702547073, 
        0.5127059817314148, 
        -0.2902214527130127, 
        -0.7856413722038269, 
        -0.36365455389022827, 
        0.4795529246330261, 
        0.1227058619260788, 
        -0.4995866119861603, 
        0.517918586730957, 
        0.12946656346321106, 
        0.6097536087036133, 
        0.46025532484054565, 
        0.0387108214199543, 
        0.375049889087677, 
        0.1942584067583084, 
        0.5492619872093201, 
        -0.2849813997745514, 
        0.17633067071437836, 
        0.015690116211771965, 
        0.26130685210227966, 
        0.20317815244197845, 
        0.5881651043891907, 
        0.6838410496711731, 
        0.31263673305511475, 
        -0.19483834505081177, 
        0.4020594656467438, 
        -0.26679033041000366, 
        -0.3244034945964813, 
        0.21044404804706573, 
        0.42615658044815063, 
        0.6612759232521057, 
        -0.6552996635437012, 
        -0.6042063236236572, 
        -0.3637637794017792, 
        0.514174222946167, 
        -0.5896949768066406, 
        0.6065348386764526, 
        -0.2890518605709076, 
        -0.46634724736213684, 
        -0.41175708174705505, 
        0.07702142000198364, 
        -0.25239643454551697, 
        -1.011220932006836, 
        -0.252786785364151, 
        0.4736151397228241, 
        -0.031666047871112823, 
        0.5519192814826965, 
        0.4854389429092407, 
        -0.181440070271492, 
        0.10889458656311035, 
        -0.6229877471923828, 
        0.023059958592057228, 
        -0.25625839829444885, 
        0.22153516113758087, 
        0.5466269254684448, 
        0.402048796415329, 
        0.5493181943893433, 
        0.17182740569114685, 
        -0.2896764576435089, 
        0.49775105714797974, 
        0.4061388075351715, 
        -0.37472811341285706, 
        0.23449647426605225, 
        0.6010861396789551, 
        -0.24079492688179016, 
        -0.1593407690525055, 
        -0.25723448395729065, 
        0.11173883825540543, 
        -0.004407754633575678, 
        0.26784223318099976, 
        0.5753613710403442, 
        0.1794174462556839, 
        -0.3182462751865387, 
        0.33122575283050537, 
        -0.5725824236869812, 
        -0.344402551651001, 
        -0.5391974449157715, 
        0.10303091257810593, 
        0.4216020405292511, 
        -0.40335968136787415, 
        0.17552928626537323, 
        0.15000781416893005, 
        -0.2516689896583557, 
        0.49960365891456604, 
        0.6134744882583618, 
        0.4924529790878296, 
        0.1675920933485031, 
        -0.25956666469573975, 
        0.6504484415054321, 
        -0.26911476254463196, 
        0.5126994252204895, 
        -0.09879433363676071, 
        0.16824562847614288, 
        0.06686213612556458, 
        0.17885099351406097, 
        0.2184450328350067, 
        0.05986960232257843, 
        0.06660919636487961, 
        0.061132632195949554, 
        0.5725827217102051, 
        0.598172664642334, 
        0.4223497211933136, 
        0.4902876913547516, 
        0.5246666073799133, 
        -0.14453208446502686, 
        0.1282150000333786, 
        0.5795580744743347, 
        0.3838309943675995, 
        -0.40643250942230225, 
        -0.384809285402298, 
        -0.19730673730373383, 
        0.20772340893745422, 
        0.5211776494979858, 
        -0.08649052679538727, 
        0.05654158070683479, 
        0.4769528806209564, 
        0.14640788733959198, 
        0.4411071538925171, 
        -0.3418143391609192, 
        -0.3030804395675659, 
        -0.12537971138954163, 
        -0.1511862426996231, 
        0.21037524938583374, 
        0.041333720088005066, 
        0.637945294380188, 
        0.47970083355903625, 
        -0.03794659674167633, 
        -0.6685382127761841, 
        -0.16728031635284424, 
        0.5011540651321411, 
        0.5452382564544678, 
        -0.24071583151817322, 
        -0.3309687077999115, 
        -0.19118379056453705, 
        -0.5119560360908508, 
        -0.03932824358344078, 
        0.32851049304008484, 
        -0.2548845708370209, 
        0.10346677154302597, 
        0.11508964747190475, 
        0.3675626814365387, 
        0.20367470383644104, 
        -0.06857872754335403, 
        0.46201494336128235, 
        0.16827531158924103, 
        -0.6434621214866638, 
        0.478935569524765, 
        -0.6338509321212769, 
        0.37295666337013245, 
        0.4255973994731903, 
        0.17861390113830566, 
        0.4825323820114136, 
        -0.13177020847797394, 
        -0.16777324676513672, 
        -0.4281492829322815, 
        0.4847402572631836, 
        -0.4531903862953186, 
        -0.6324933767318726, 
        -0.5373016595840454, 
        0.21703407168388367, 
        -0.3413274586200714, 
        0.08714454621076584, 
        0.09351927787065506, 
        0.5679441094398499, 
        -0.6020423769950867, 
        0.31028223037719727, 
        -0.2807362377643585, 
        -0.039132192730903625, 
        -0.3762369155883789, 
        -0.4303414821624756, 
        -0.041442256420850754, 
        -0.30029064416885376, 
        -0.010010186582803726, 
        0.08154354244470596, 
        -0.4363011121749878, 
        0.1134970411658287, 
        0.3063919246196747, 
        -0.49240607023239136, 
        0.28911346197128296, 
        -0.20979806780815125, 
        0.3925870954990387, 
        0.2306762933731079, 
        0.24070686101913452, 
        -0.41342461109161377, 
        0.020218871533870697, 
        -0.2427004873752594, 
        -0.509239137172699, 
        -0.5121119022369385, 
        -0.545332133769989, 
        -0.41467660665512085, 
        -0.3290313184261322, 
        0.720085084438324, 
        0.15209828317165375, 
        -0.308564156293869, 
        -0.03920118138194084, 
        0.1686989963054657, 
        0.5358977913856506, 
        -0.44479691982269287, 
        -0.05446312576532364, 
        -0.11589104682207108, 
        0.24792695045471191, 
        -0.017446117475628853, 
        0.049636151641607285, 
        -0.2327873706817627, 
        0.1085677370429039, 
        0.33626216650009155, 
        0.05583427473902702, 
        -0.24550601840019226, 
        0.38760942220687866, 
        -0.46839722990989685, 
        -0.1886499971151352, 
        0.4034518301486969, 
        -0.3652244806289673, 
        0.5507161021232605, 
        -0.17929360270500183, 
        0.6134878396987915, 
        0.17796939611434937, 
        0.4540729224681854, 
        0.08818531036376953, 
        -0.08873055130243301, 
        0.3976033627986908, 
        -0.36676886677742004, 
        0.5076299905776978, 
        0.31172823905944824, 
        0.04445883631706238, 
        0.26902610063552856, 
        0.12793540954589844, 
        -0.3450712561607361, 
        0.2024245262145996, 
        0.5352967977523804, 
        0.5692981481552124, 
        -0.22711828351020813, 
        -0.315096914768219, 
        -0.3868725597858429, 
        0.6656587719917297, 
        0.03879428282380104, 
        0.2106976956129074, 
        -0.01769660972058773, 
        -0.40021899342536926, 
        0.6188926100730896, 
        0.6127365827560425, 
        -0.4368757903575897, 
        0.18556222319602966, 
        -0.6320247650146484, 
        -0.5603270530700684, 
        -0.4159109592437744, 
        -0.34076327085494995, 
        0.224968820810318, 
        -0.06149747595191002, 
        -0.2731507122516632, 
        -0.18619202077388763, 
        0.6618743538856506, 
        0.6375470161437988, 
        -0.09351702779531479, 
        0.45942938327789307, 
        -0.3752627968788147, 
        0.5495604872703552, 
        -0.5399158000946045, 
        0.6874001026153564, 
        0.640795886516571, 
        0.03934522718191147, 
        -0.5403517484664917, 
        -0.08778653293848038, 
        0.2966027855873108, 
        -0.4812001883983612, 
        -0.4297304153442383, 
        0.16031083464622498, 
        -0.3159460723400116, 
        -0.2523033916950226, 
        -0.22825029492378235, 
        0.39740845561027527, 
        0.20511969923973083, 
        -0.6791888475418091, 
        -0.5828180313110352, 
        0.6366251707077026, 
        0.5546140670776367, 
        -0.14027054607868195, 
        -0.05273469537496567, 
        -0.29306215047836304, 
        0.6531209349632263, 
        0.2583768367767334, 
        0.20378124713897705, 
        -0.4618171155452728, 
        -0.5045785307884216, 
        0.41748180985450745, 
        -0.6931938529014587, 
        0.4091946482658386, 
        -0.6386963725090027, 
        0.3251594305038452, 
        -0.1942899525165558, 
        0.18297366797924042, 
        -0.09387633949518204, 
        -0.623965859413147, 
        0.5505621433258057, 
        -0.1941247135400772, 
        0.2403908669948578, 
        0.07686236500740051, 
        0.4446755647659302, 
        -0.31710153818130493, 
        0.4355641305446625, 
        0.37601226568222046, 
        0.3320770859718323, 
        -0.6183426976203918, 
        0.1374281346797943, 
        -0.12148252129554749, 
        0.04789131134748459, 
        -0.46874260902404785, 
        -0.5663201808929443, 
        0.08468635380268097, 
        0.47852468490600586, 
        -0.29824724793434143, 
        -0.28882262110710144, 
        0.18368904292583466, 
        0.05473450571298599, 
        -0.6046485900878906, 
        -0.012217595241963863, 
        0.5778079032897949, 
        -0.43482497334480286, 
        -0.09624213725328445, 
        0.3424360156059265, 
        0.6147500276565552, 
        -0.1659681648015976, 
        0.7329924702644348, 
        -0.10301747918128967, 
        0.3303811848163605, 
        -0.2685973048210144, 
        -0.4082261919975281, 
        -0.08023540675640106, 
        -0.2231762558221817, 
        -0.16420002281665802, 
        -0.4416557252407074, 
        -0.4022471010684967, 
        -0.10783161967992783, 
        0.062197569757699966, 
        -0.6497438549995422, 
        0.39522257447242737, 
        0.5448501110076904, 
        0.412605881690979, 
        -0.6286467909812927, 
        0.5530580282211304, 
        0.5584871768951416, 
        -0.2708321213722229, 
        -0.1470571905374527, 
        -0.4409818649291992, 
        -0.44580626487731934, 
        0.18115119636058807, 
        0.047559402883052826, 
        -0.42101284861564636, 
        0.6808956861495972, 
        0.22866998612880707, 
        -0.02146197482943535, 
        -0.1384924352169037, 
        -0.4201045036315918, 
        0.0753999799489975, 
        0.47935622930526733, 
        -0.3467887341976166, 
        -0.3394222855567932, 
        0.33629608154296875, 
        -0.5886836051940918, 
        0.5694454312324524, 
        -0.14614972472190857, 
        -0.7266265749931335, 
        0.516078770160675, 
        0.319696843624115, 
        0.5248916745185852, 
        -0.13391552865505219, 
        0.12026716023683548, 
        0.2679910361766815, 
        0.06738950312137604, 
        -0.35678020119667053, 
        -0.02366117760539055, 
        -0.5553246736526489, 
        -0.18749742209911346, 
        0.5030958652496338, 
        -0.1672280728816986, 
        0.17392359673976898, 
        -0.021762311458587646, 
        -0.41290679574012756, 
        0.4318681061267853, 
        -0.538563072681427, 
        0.039920467883348465, 
        -0.1420646756887436, 
        -0.04300779104232788, 
        -0.4137592911720276, 
        -0.6048195958137512, 
        -0.2682653069496155, 
        0.1631893813610077, 
        -0.6638743281364441, 
        0.6074778437614441, 
        -0.5964598059654236, 
        0.42112642526626587, 
        0.5245015025138855, 
        0.5171674489974976, 
        0.40709784626960754, 
        -0.4949025511741638, 
        -0.08628878742456436, 
        -0.27790188789367676, 
        -0.474947065114975, 
        -0.6183071136474609, 
        0.7208548784255981, 
        -0.4411577582359314, 
        0.01221038494259119, 
        0.2249673753976822, 
        -0.06850673258304596, 
        -0.17818871140480042, 
        -0.4045448899269104, 
        0.03458795323967934, 
        0.4955471158027649, 
        0.41995540261268616, 
        -0.5661535859107971, 
        0.45243221521377563, 
        0.5877000093460083, 
        -0.25071096420288086, 
        -0.60526442527771, 
        0.49595528841018677, 
        0.45028379559516907, 
        0.5815092921257019, 
        0.1952112466096878, 
        -0.16373977065086365, 
        0.712064802646637, 
        0.619989275932312, 
        0.0130724236369133, 
        0.394580602645874, 
        -0.15236720442771912, 
        0.35295864939689636, 
        0.5295144319534302, 
        -0.5260553359985352, 
        -0.14581654965877533, 
        0.6418211460113525, 
        0.4982454776763916, 
        0.6271010041236877, 
        0.12428974360227585, 
        -0.09078314900398254, 
        -0.3850567936897278, 
        -0.24861407279968262, 
        0.17506301403045654, 
        0.37246519327163696, 
        -0.19486208260059357, 
        -0.16541710495948792, 
        -0.04289337620139122, 
        -0.11961853504180908, 
        -0.05354774743318558, 
        0.6479763388633728, 
        0.5184580683708191, 
        0.4221276640892029, 
        -0.17647410929203033, 
        0.379391610622406, 
        0.09277201443910599, 
        0.022903328761458397, 
        -0.5832279324531555, 
        -0.6112540364265442, 
        -0.22859664261341095, 
        -0.40558695793151855, 
        -0.40600302815437317, 
        -0.21368566155433655, 
        -0.20710018277168274, 
        -0.278968870639801, 
        0.41666144132614136, 
        -0.34057262539863586, 
        0.6695806980133057, 
        0.08441995084285736, 
        -0.1044442430138588, 
        -0.3229779005050659, 
        -0.3863587975502014, 
        -0.2169174998998642, 
        -0.44390061497688293, 
        0.1720726490020752, 
        0.4357299506664276, 
        0.05947167053818703, 
        0.40912672877311707, 
        -0.38673946261405945, 
        0.009363248012959957, 
        -0.5507952570915222, 
        -0.44319331645965576, 
        0.3476036489009857, 
        -0.3975171148777008, 
        0.31346896290779114, 
        0.5554172396659851, 
        -0.17879343032836914, 
        0.014603210613131523, 
        -0.3420729339122772, 
        -0.5998972058296204, 
        -0.07746719568967819, 
        -0.029525429010391235, 
        -0.3242832124233246, 
        -0.7401744723320007, 
        0.3612634241580963, 
        -0.32385534048080444, 
        -0.5361554622650146, 
        0.15022116899490356, 
        -0.012475907802581787, 
        -0.17828908562660217, 
        -0.1359556019306183, 
        -0.3185366094112396, 
        -0.5281996726989746, 
        0.20885571837425232, 
        0.1392711102962494, 
        0.002946013119071722, 
        0.2173156440258026, 
        0.6774043440818787, 
        -0.2567232847213745, 
        -0.41155967116355896, 
        -0.4512776732444763, 
        -0.6091340780258179, 
        -0.2379777878522873, 
        0.6772542595863342, 
        0.6613960862159729, 
        0.5999282598495483, 
        -0.3894321620464325, 
        0.024738740175962448, 
        0.4845397472381592, 
        0.08650529384613037, 
        -0.2279905378818512, 
        -0.10358726233243942, 
        -0.04836998134851456, 
        -0.2690070569515228, 
        -0.3601725399494171, 
        -0.7489035725593567, 
        -0.1671663373708725, 
        -0.5719820857048035, 
        -0.5196793675422668, 
        0.232351154088974, 
        -0.2436838299036026, 
        0.10134635865688324, 
        0.3300074636936188, 
        0.5535650849342346, 
        0.5335088968276978, 
        -0.37823352217674255, 
        -0.27177703380584717, 
        -0.20935547351837158, 
        -0.6389257907867432, 
        -0.16364216804504395, 
        -0.6111271977424622, 
        0.4497072994709015, 
        0.23426426947116852, 
        0.09530290961265564, 
        -0.260371595621109, 
        -0.30210575461387634, 
        -0.38129034638404846, 
        -0.44080838561058044, 
        0.2795249819755554, 
        0.5649425983428955, 
        -0.5899066925048828, 
        -0.5393725633621216, 
        -0.4280916154384613, 
        0.16126160323619843, 
        0.08138707280158997, 
        -0.06942947208881378, 
        -0.3282712697982788, 
        0.23289097845554352, 
        0.23634737730026245, 
        0.5435937643051147, 
        -0.3553122282028198, 
        -0.40884774923324585, 
        0.005846748128533363, 
        0.5626603960990906, 
        -0.23428991436958313, 
        -0.31352636218070984, 
        -0.26854535937309265, 
        -0.21306103467941284, 
        0.24867528676986694, 
        0.3534996211528778, 
        -0.6511396169662476, 
        -0.2293882519006729, 
        -0.14780674874782562, 
        -0.3884986639022827, 
        0.483914852142334, 
        -0.3935171365737915, 
        -0.25270363688468933, 
        -0.13959085941314697, 
        0.1118590235710144, 
        0.16336770355701447, 
        -0.5339893102645874, 
        -0.6079917550086975, 
        0.593637228012085, 
        -0.29920893907546997, 
        -0.4737893342971802, 
        0.23071444034576416, 
        -0.5009617209434509, 
        0.4514419138431549, 
        0.34967243671417236, 
        -0.2508124113082886, 
        0.3686883747577667, 
        0.4974345266819, 
        -0.1595410257577896, 
        -0.3603458106517792, 
        -0.3563094139099121, 
        0.5071197748184204, 
        -0.14538751542568207, 
        0.3306024968624115, 
        -0.1737145185470581, 
        -0.4010193645954132, 
        0.7024190425872803, 
        -0.3993171453475952, 
        0.16750241816043854, 
        0.4597642421722412, 
        -0.36087438464164734, 
        0.478558212518692, 
        0.032179370522499084, 
        0.4319126307964325, 
        -0.5273076891899109, 
        -0.03135019913315773, 
        -0.2645513117313385, 
        0.5311423540115356, 
        -0.26977887749671936, 
        -0.1542350947856903, 
        0.19167880713939667, 
        -0.4990004301071167, 
        -0.6738725900650024, 
        -0.3974669873714447, 
        -0.07325243949890137, 
        -0.4105043113231659, 
        0.2813042402267456, 
        -0.07407789677381516, 
        0.060604527592659, 
        -0.3345802426338196, 
        -0.5490289330482483, 
        -0.493187814950943, 
        -0.1996280550956726, 
        -0.2628205418586731, 
        -0.6198449730873108, 
        -0.07787761837244034, 
        0.4647281765937805, 
        -0.07469553500413895, 
        -0.1465979367494583, 
        -0.5768246650695801, 
        0.2461550384759903, 
        0.054412592202425, 
        -0.6046030521392822, 
        0.5535403490066528, 
        -0.3014506697654724, 
        0.046170465648174286, 
        0.4443035423755646, 
        -0.10578227043151855, 
        0.6033757925033569, 
        0.438066691160202, 
        0.06991708278656006, 
        -0.16411647200584412, 
        0.11773785203695297, 
        0.45957377552986145, 
        0.24894265830516815, 
        -0.5559835433959961, 
        -0.701448917388916, 
        0.2570321559906006, 
        0.17390970885753632, 
        -0.6192945837974548, 
        0.16835510730743408, 
        0.38418659567832947, 
        0.021874990314245224, 
        0.30320239067077637, 
        -0.4994260370731354, 
        0.44820961356163025, 
        -0.5050179362297058, 
        -0.23432883620262146, 
        0.5540450215339661, 
        0.43080535531044006, 
        0.15422561764717102, 
        0.37476152181625366, 
        0.17825168371200562, 
        -0.10950561612844467, 
        0.152185320854187, 
        -0.018097223713994026, 
        0.15860910713672638, 
        0.651875913143158, 
        0.7221705317497253, 
        0.49135449528694153, 
        0.14892235398292542, 
        -0.6059265732765198, 
        -0.6520593762397766, 
        0.14235195517539978, 
        -0.5748528242111206, 
        0.1298607736825943, 
        0.5901380777359009, 
        -0.3350871205329895, 
        -0.4154356122016907, 
        -0.4176425635814667, 
        0.3874224126338959, 
        0.6995724439620972, 
        0.5221002101898193, 
        0.5130981206893921, 
        -0.5041311979293823, 
        -0.0006781133124604821, 
        0.17986954748630524, 
        -0.030217206105589867, 
        0.182892844080925, 
        -0.13021528720855713, 
        -0.35899436473846436, 
        -0.48069220781326294, 
        0.1686987429857254, 
        0.4136751890182495, 
        0.2982284426689148, 
        0.6293630003929138, 
        0.5848838686943054, 
        0.47147050499916077, 
        0.46197348833084106, 
        -0.13875232636928558, 
        0.33933278918266296, 
        -0.4149754047393799, 
        0.4269353449344635, 
        -0.03510196879506111, 
        -0.36669403314590454, 
        0.44764673709869385, 
        -0.3244323432445526, 
        0.6137179732322693, 
        0.6316936016082764, 
        0.10359162092208862, 
        0.047203242778778076, 
        0.3014127314090729, 
        0.16975337266921997, 
        -0.18503789603710175, 
        -0.3496987521648407, 
        0.13216334581375122, 
        0.10304207354784012, 
        -0.42225727438926697, 
        -0.25036200881004333, 
        0.20416471362113953, 
        0.3128350079059601, 
        -0.3167324662208557, 
        0.20033599436283112, 
        0.558707058429718, 
        -0.3761148154735565, 
        -0.3712310791015625, 
        0.7225804924964905, 
        -0.2896096110343933, 
        0.2178185135126114, 
        -0.14508262276649475, 
        0.14975419640541077, 
        -0.17483867704868317, 
        -0.12264835089445114, 
        0.3938244581222534, 
        -0.3629920482635498, 
        0.15571263432502747, 
        0.6375709772109985, 
        0.36324548721313477, 
        0.52837735414505, 
        0.2968197762966156, 
        0.07390499114990234, 
        0.1812819093465805, 
        0.4950287938117981, 
        0.30606716871261597, 
        -0.7627663612365723, 
        -0.5313720703125, 
        -0.39421626925468445, 
        -0.19720184803009033, 
        0.22592441737651825, 
        -0.3637336194515228, 
        -0.22477219998836517, 
        -0.4203563332557678, 
        0.22661304473876953, 
        0.2687110900878906, 
        0.35135266184806824, 
        -0.27862492203712463, 
        0.24430835247039795, 
        0.6562068462371826, 
        0.39958763122558594, 
        -0.027357028797268867, 
        -0.23659072816371918, 
        0.08196704089641571, 
        -0.05714675784111023, 
        0.42203742265701294, 
        -0.35768842697143555, 
        0.07681586593389511, 
        -0.00035351503174751997, 
        0.5550645589828491, 
        -0.23018810153007507, 
        0.13968013226985931, 
        -0.23032745718955994, 
        0.3003491163253784, 
        0.378671258687973, 
        -0.08352428674697876, 
        0.09953774511814117, 
        0.6488533020019531, 
        0.22174420952796936, 
        -0.6310392022132874, 
        -0.17560121417045593, 
        -0.6394158601760864, 
        -0.14621469378471375, 
        0.4053005874156952, 
        -0.11392281949520111, 
        -0.2904333472251892, 
        0.3210115134716034, 
        -0.040956128388643265, 
        0.3284595012664795, 
        -0.4160878658294678, 
        0.4000844657421112, 
        0.4656314551830292, 
        -0.07990951091051102, 
        -0.06704734265804291, 
        0.03438650444149971, 
        -0.3286328613758087, 
        -0.3379831314086914, 
        -0.35180771350860596, 
        -0.01327013410627842, 
        -0.6226574778556824, 
        0.3314777910709381, 
        0.5114558935165405, 
        0.33676597476005554, 
        0.2835440933704376, 
        -0.4576340317726135, 
        -0.45103442668914795, 
        0.13092516362667084, 
        0.053814567625522614, 
        -0.061984654515981674, 
        -0.301256000995636, 
        -0.5661853551864624, 
        -0.5518838763237, 
        -0.49613383412361145, 
        0.38970303535461426, 
        -0.09331787377595901, 
        -0.357463538646698, 
        0.15342043340206146, 
        -0.394229918718338, 
        0.09256941080093384, 
        0.06184709444642067, 
        0.041846439242362976, 
        0.6155409216880798, 
        0.5437408685684204, 
        -0.4961375594139099, 
        -0.5574528574943542, 
        0.29798784852027893, 
        -0.09845159947872162, 
        -0.44411638379096985, 
        0.15113972127437592, 
        -0.3030901849269867, 
        0.09150727838277817, 
        0.1604451686143875, 
        0.05974680930376053, 
        -0.41954073309898376, 
        -0.6448208689689636, 
        -0.1119147464632988, 
        -0.42542368173599243, 
        -0.6347938179969788, 
        -0.28834524750709534, 
        -0.15988799929618835, 
        0.10860040038824081, 
        -0.35077324509620667, 
        -0.17098619043827057, 
        -0.4316367208957672, 
        0.26239511370658875, 
        -0.6972522139549255, 
        0.35761481523513794, 
        0.5756215453147888, 
        -0.43552064895629883, 
        0.2596063017845154, 
        0.18108725547790527, 
        0.5641757845878601, 
        0.557915210723877, 
        -0.5607988238334656, 
        0.029827583581209183, 
        -0.48918285965919495, 
        0.45771312713623047, 
        0.4110557436943054, 
        -0.2927897870540619, 
        0.3584240972995758, 
        -0.15690423548221588, 
        -0.08410004526376724, 
        -0.013542852364480495, 
        -0.1663084775209427, 
        -0.6532455086708069, 
        -0.17937198281288147, 
        0.6024593114852905, 
        -0.017774850130081177, 
        -0.377089262008667, 
        0.5951350331306458, 
        0.35321539640426636, 
        -0.37299612164497375, 
        0.39675748348236084, 
        0.2292162925004959, 
        0.19876433908939362, 
        -0.6613271236419678, 
