{
  "input_sequences": [], 
  "inputs": [
    {
      "name": "node_0", 
      "variables": [
        {
          "name": "variable_0", 
          "offset": 0, 
          "scale": 1
        }, 
        {
          "name": "variable_1", 
          "offset": 0, 
          "scale": 1
        }, 
        {
          "name": "variable_2", 
          "offset": 0, 
          "scale": 1
        }, 
        {
          "name": "variable_3", 
          "offset": 0, 
          "scale": 1
        }, 
        {
          "name": "variable_4", 
          "offset": 0, 
          "scale": 1
        }, 
        {
          "name": "variable_5", 
          "offset": 0, 
          "scale": 1
        }, 
        {
          "name": "variable_6", 
          "offset": 0, 
          "scale": 1
        }, 
        {
          "name": "variable_7", 
          "offset": 0, 
          "scale": 1
        }, 
        {
          "name": "variable_8", 
          "offset": 0, 
          "scale": 1
        }, 
        {
          "name": "variable_9", 
          "offset": 0, 
          "scale": 1
        }, 
        {
          "name": "variable_10", 
          "offset": 0, 
          "scale": 1
        }
      ]
    }
  ], 
  "layers": [
    {
      "architecture": "normalization", 
      "bias": [
        -1054691.125, 
        -171685.625, 
        -0.20862701535224915, 
        -2.599348545074463, 
        -2.8188908100128174, 
        -0.050577275454998016, 
        -5.878355026245117, 
        -4.840868949890137, 
        -4.607114315032959, 
        -0.8896031975746155, 
        -5.361763954162598
      ], 
      "weights": [
        1.0918427051365143e-06, 
        1.1746902600862086e-05, 
        5.477599620819092, 
        0.802578866481781, 
        2.116853952407837, 
        2.646239757537842, 
        0.6337136030197144, 
        0.33016759157180786, 
        0.30163487792015076, 
        1.9796991348266602, 
        0.13084247708320618
      ]
    }, 
    {
      "activation": "rectified", 
      "architecture": "dense", 
      "bias": [
        -0.041536055505275726, 
        0.12332938611507416, 
        0.06329448521137238, 
        0.10931030660867691, 
        -0.1017099916934967, 
        -0.03680785000324249, 
        0.052681971341371536, 
        -0.029192617163062096, 
        0.1318824589252472, 
        -0.1172797679901123, 
        -0.03707537800073624, 
        -0.006614662241190672, 
        -0.03656255453824997, 
        0.17569175362586975, 
        -0.06735655665397644, 
        0.08239620178937912, 
        0.2906556725502014, 
        0.04936758056282997, 
        0.1738480031490326, 
        0.09706317633390427, 
        0.18732626736164093, 
        -0.06764308363199234, 
        0.1129554957151413, 
        0.021263226866722107, 
        0.034808576107025146, 
        0.16945908963680267, 
        0.0112484535202384, 
        0.08476484566926956, 
        -0.01544636394828558, 
        0.1325240582227707, 
        0.021669888868927956, 
        0.21660946309566498, 
        0.18607135117053986, 
        0.010930397547781467, 
        -0.009854923002421856, 
        -0.08126110583543777, 
        -0.03637045621871948, 
        0.01027305144816637, 
        0.2314690500497818, 
        -0.019911151379346848, 
        -0.08570290356874466, 
        -0.11232899874448776, 
        0.1623067855834961, 
        -0.11236965656280518, 
        -0.10814233869314194, 
        -0.05431639775633812, 
        -0.09401066601276398, 
        -0.017018772661685944, 
        -0.008615314960479736, 
        0.15501374006271362, 
        0.054241470992565155, 
        0.017838379368185997, 
        -0.1029127761721611, 
        -0.07150179147720337, 
        0.06916500627994537, 
        -0.010956862010061741, 
        -0.04858184605836868, 
        -0.0008862527320161462, 
        0.05081038177013397, 
        -0.035876672714948654, 
        0.051798589527606964, 
        0.012021037749946117, 
        0.09639142453670502, 
        0.06478449702262878, 
        -0.042987436056137085, 
        0.005068087484687567, 
        -0.139286071062088, 
        0.15244190394878387, 
        -0.026925774291157722, 
        -0.03287143260240555, 
        0.00012876038090325892, 
        0.13789702951908112, 
        0.07720127701759338, 
        0.14905241131782532, 
        0.11358416825532913, 
        -0.11749333888292313, 
        -0.12295854836702347, 
        0.023302415385842323, 
        -0.036128878593444824, 
        -0.09096819162368774, 
        0.14460808038711548, 
        0.05918987840414047, 
        0.057565391063690186, 
        -0.14768096804618835, 
        -0.06994066387414932, 
        -0.0730762854218483, 
        0.01220174040645361, 
        -0.025195488706231117, 
        0.0429462306201458, 
        0.07777556031942368, 
        0.03194192424416542, 
        -0.0786730945110321, 
        -0.12640324234962463, 
        -0.0387333482503891, 
        -0.00856414157897234, 
        0.055901188403367996, 
        0.07476474344730377, 
        0.14318066835403442, 
        -0.09284248948097229, 
        0.13756541907787323, 
        0.0842931941151619, 
        0.05012914165854454, 
        -0.08116894960403442, 
        0.11067100614309311, 
        0.07872974872589111, 
        -0.04215843230485916, 
        -0.05517738312482834, 
        0.12812775373458862, 
        -0.09832627326250076, 
        0.1544017344713211, 
        0.03564835712313652, 
        0.03042641654610634, 
        0.06349897384643555, 
        0.12098173052072525, 
        0.13413278758525848, 
        0.2450992614030838, 
        -0.06389486789703369, 
        0.15447953343391418, 
        0.08045981079339981, 
        -0.008186111226677895, 
        0.0923810675740242, 
        0.014915741048753262, 
        0.09047376364469528, 
        -0.16392681002616882, 
        0.06079861894249916, 
        0.040342919528484344, 
        0.20719340443611145, 
        0.03861664608120918, 
        0.11030714213848114, 
        0.1429460644721985, 
        0.09552571177482605, 
        0.10206477344036102, 
        0.047647736966609955, 
        0.04759855568408966, 
        0.16828377544879913, 
        0.07678302377462387, 
        0.007454104255884886, 
        0.056153204292058945, 
        0.0686117485165596, 
        0.04279683902859688, 
        0.025679199025034904, 
        0.019148949533700943, 
        -0.12692870199680328, 
        0.019843168556690216, 
        0.12826959788799286, 
        -0.023759625852108, 
        0.12643182277679443, 
        -0.03900478780269623, 
        0.11568979918956757, 
        -0.013203256763517857, 
        0.2583101689815521, 
        0.005546014290302992, 
        -0.10639594495296478, 
        0.0713791772723198, 
        0.10969895869493484, 
        0.14742989838123322, 
        -0.11692999303340912, 
        0.09252799302339554, 
        -0.07588726282119751, 
        -0.05747229605913162, 
        0.22464250028133392, 
        0.06207798793911934, 
        0.09367375075817108, 
        0.2043464481830597, 
        0.04206949099898338, 
        -0.0161270871758461, 
        0.18637436628341675, 
        0.09355391561985016, 
        -0.193244069814682, 
        -0.03417759761214256, 
        -0.01859045773744583, 
        0.04740500450134277, 
        -0.04480476677417755, 
        -0.04097839817404747, 
        0.12589077651500702, 
        0.023379430174827576, 
        0.036738913506269455, 
        0.0573384128510952, 
        -0.08117687702178955, 
        0.09530674666166306, 
        -0.03367055952548981, 
        0.24095620214939117, 
        -0.07360020279884338, 
        0.26159611344337463, 
        0.15926668047904968, 
        0.01759207807481289, 
        -0.19460844993591309, 
        -0.03034505620598793, 
        -0.002468718448653817, 
        0.03482287377119064, 
        0.14202319085597992, 
        -0.05624724179506302, 
        0.03767624869942665, 
        0.032694701105356216, 
        0.04167277738451958, 
        0.06385598331689835, 
        -0.1168375089764595, 
        0.07136847823858261, 
        0.05813968554139137, 
        0.029231643304228783, 
        0.07211720198392868, 
        0.09258905053138733, 
        -0.0066457949578762054, 
        0.09816335886716843, 
        -0.09458021074533463, 
        -0.03570089861750603, 
        0.04996160790324211, 
        -0.025300616398453712, 
        0.03426702320575714, 
        0.18468479812145233, 
        0.12312619388103485, 
        -0.015352273359894753, 
        0.06192374229431152, 
        0.02725132554769516, 
        -0.022008782252669334, 
        -0.029735585674643517, 
        -0.026376238092780113, 
        0.16989873349666595, 
        -0.02021646872162819, 
        -0.18189901113510132, 
        -0.048813313245773315, 
        -0.017294416204094887, 
        0.03710053116083145, 
        -0.038723237812519073, 
        0.22165507078170776, 
        -0.1313474029302597, 
        -0.06121651455760002, 
        -0.15885262191295624, 
        -0.03169873356819153, 
        0.20505857467651367, 
        0.08034753054380417, 
        0.012289242818951607, 
        -0.08887726813554764, 
        0.13371585309505463, 
        -0.025908207520842552, 
        -0.09546755999326706, 
        0.06717485189437866, 
        0.1703595221042633, 
        -0.15186060965061188, 
        0.013148622587323189, 
        0.1606908142566681, 
        0.10876914858818054, 
        -0.02567141316831112, 
        0.054883137345314026, 
        0.005877300631254911, 
        0.04560470208525658, 
        0.10341585427522659, 
        -0.02514159493148327, 
        0.10736241191625595, 
        -0.02845110557973385, 
        0.05312848091125488, 
        -0.11710724234580994, 
        -0.00852604117244482, 
        0.08654289692640305, 
        0.25752872228622437, 
        -0.11234200745820999
      ], 
      "weights": [
        -0.47841760516166687, 
        -0.12696097791194916, 
        0.21343548595905304, 
        -0.21517325937747955, 
        0.5692523717880249, 
        -0.5141693949699402, 
        0.136165052652359, 
        0.26062244176864624, 
        -0.40411248803138733, 
        0.2224416434764862, 
        0.30727794766426086, 
        -0.4221337139606476, 
        0.6836045384407043, 
        -0.04043344408273697, 
        0.3562239706516266, 
        -0.06740918010473251, 
        0.4935940206050873, 
        0.5338647365570068, 
        0.5253117084503174, 
        -0.5294906497001648, 
        0.650758683681488, 
        0.5973283648490906, 
        -0.4935707449913025, 
        -0.5882200598716736, 
        -0.04143218323588371, 
        0.277893602848053, 
        0.6407796740531921, 
        0.6397771835327148, 
        -0.6273947358131409, 
        0.023465221747756004, 
        -0.4856702387332916, 
        -0.37588363885879517, 
        -0.6393460035324097, 
        -0.4181995689868927, 
        -0.8033958077430725, 
        0.33332258462905884, 
        -0.2196541577577591, 
        -0.14038550853729248, 
        0.32871851325035095, 
        0.49400046467781067, 
        0.168285071849823, 
        -0.16992104053497314, 
        -0.20786263048648834, 
        -0.4082108736038208, 
        0.33439818024635315, 
        0.018107755109667778, 
        0.03730746731162071, 
        -0.5969563722610474, 
        -0.6406416893005371, 
        0.5186903476715088, 
        -0.10161755979061127, 
        0.1950797438621521, 
        -0.41436105966567993, 
        0.6913526654243469, 
        0.6373096108436584, 
        -0.22973892092704773, 
        -0.12695974111557007, 
        0.387198805809021, 
        0.30360567569732666, 
        0.5156600475311279, 
        0.4065345525741577, 
        -0.24403777718544006, 
        0.19839482009410858, 
        0.4871639013290405, 
        -0.5613847970962524, 
        -0.4713326692581177, 
        0.6787074208259583, 
        -0.36899861693382263, 
        0.2713455855846405, 
        -0.4676124155521393, 
        -0.5805904269218445, 
        0.7564903497695923, 
        0.4186015725135803, 
        -0.14531634747982025, 
        0.4492255747318268, 
        0.2789837718009949, 
        -0.1658777892589569, 
        0.22001217305660248, 
        -0.52247154712677, 
        0.4252491593360901, 
        0.7071305513381958, 
        -0.051665764302015305, 
        0.09487002342939377, 
        0.5076887607574463, 
        0.34382152557373047, 
        0.27470892667770386, 
        -0.7459080815315247, 
        0.13362182676792145, 
        -0.39217185974121094, 
        0.4260413348674774, 
        0.3852604031562805, 
        -0.30799636244773865, 
        0.6918332576751709, 
        0.2660808265209198, 
        0.058797258883714676, 
        -0.32756972312927246, 
        0.6837651133537292, 
        0.012052544392645359, 
        0.10001808404922485, 
        0.03418051078915596, 
        -0.4619108736515045, 
        0.7312453389167786, 
        -0.4251055419445038, 
        -0.4151676595211029, 
        0.6786157488822937, 
        0.588301956653595, 
        -0.634080708026886, 
        0.26069021224975586, 
        0.6461390852928162, 
        -0.013538599014282227, 
        0.7247729897499084, 
        0.004710883367806673, 
        -0.37397900223731995, 
        0.3471827208995819, 
        -0.23409348726272583, 
        0.5997756719589233, 
        0.38724735379219055, 
        0.09970452636480331, 
        -0.7611024379730225, 
        0.49102330207824707, 
        0.3082501292228699, 
        0.18317444622516632, 
        0.6741577982902527, 
        0.3465449810028076, 
        0.11571620404720306, 
        -0.1513974964618683, 
        -0.0876406580209732, 
        0.7247998118400574, 
        -0.3606523275375366, 
        0.4877656102180481, 
        0.42212462425231934, 
        -0.6117045283317566, 
        -0.5375316143035889, 
        0.19748003780841827, 
        0.1593368500471115, 
        0.1360713094472885, 
        0.01190178096294403, 
        -0.7020878791809082, 
        -0.5626049637794495, 
        -0.5854300260543823, 
        -0.11941412836313248, 
        0.7802614569664001, 
        0.17171920835971832, 
        0.18550047278404236, 
        0.40668851137161255, 
        0.4429366886615753, 
        0.22741000354290009, 
        0.0725143775343895, 
        -0.0788370817899704, 
        -0.6152989864349365, 
        -0.4537753760814667, 
        -0.31697773933410645, 
        -0.47308996319770813, 
        0.7070373892784119, 
        -0.24701246619224548, 
        0.49491018056869507, 
        -0.49973875284194946, 
        0.34707704186439514, 
        0.6926887631416321, 
        -0.6535003185272217, 
        0.009763151407241821, 
        0.5203177332878113, 
        -0.446213036775589, 
        -0.5059455037117004, 
        -0.6160712838172913, 
        -0.4249992072582245, 
        0.04018458351492882, 
        0.2960963547229767, 
        -0.2485881745815277, 
        0.2239292711019516, 
        -0.603804349899292, 
        -0.2172575443983078, 
        -0.0900101438164711, 
        0.3032669723033905, 
        -0.39453157782554626, 
        0.5202756524085999, 
        -0.37890103459358215, 
        -0.5579624176025391, 
        0.5968195796012878, 
        0.11408791691064835, 
        -0.34791797399520874, 
        -0.36068254709243774, 
        0.6710764169692993, 
        -0.6023593544960022, 
        -0.34051549434661865, 
        -0.594375729560852, 
        0.6564899682998657, 
        0.037330806255340576, 
        -0.5787887573242188, 
        0.634174644947052, 
        -0.7276996970176697, 
        -0.715249240398407, 
        0.0973423421382904, 
        -0.02038862556219101, 
        0.34073570370674133, 
        0.39055898785591125, 
        0.13787701725959778, 
        0.04722445830702782, 
        -0.20534642040729523, 
        0.46041592955589294, 
        -0.0123692462220788, 
        0.004232293926179409, 
        -0.04614158719778061, 
        0.07817982882261276, 
        0.7340025305747986, 
        -0.4483028054237366, 
        0.5870687961578369, 
        -0.17768138647079468, 
        0.7054787874221802, 
        0.6479856371879578, 
        0.6878132224082947, 
        0.5374544262886047, 
        -0.6384912133216858, 
        0.5122804045677185, 
        -0.6672371029853821, 
        -0.5878559947013855, 
        -0.5665475726127625, 
        -0.5943881273269653, 
        0.6405386328697205, 
        -0.15952254831790924, 
        0.5058871507644653, 
        -0.44567716121673584, 
        -0.5955474376678467, 
        0.31718629598617554, 
        -0.191580668091774, 
        -0.6592555642127991, 
        0.2861658036708832, 
        -0.3798964023590088, 
        -0.12891443073749542, 
        -0.2340455949306488, 
        0.02987702563405037, 
        0.25890618562698364, 
        -0.15629546344280243, 
        0.5947256088256836, 
        0.5672382712364197, 
        -0.11245793104171753, 
        0.6689741611480713, 
        -0.7751544117927551, 
        0.20726090669631958, 
        0.33437398076057434, 
        -0.19521111249923706, 
        -0.6579961180686951, 
        0.03412826359272003, 
        0.36292925477027893, 
        -0.1490933895111084, 
        -0.43938297033309937, 
        -0.30702367424964905, 
        -0.2503916323184967, 
        -0.3789309561252594, 
        -0.2366749793291092, 
        -0.07538960874080658, 
        -0.019652944058179855, 
        0.5957502126693726, 
        0.702326238155365, 
        0.023103229701519012, 
        -0.530456006526947, 
        -0.6193857789039612, 
        -0.7378782629966736, 
        0.2995525598526001, 
        -0.35873541235923767, 
        0.6076206564903259, 
        0.730575442314148, 
        0.4405019283294678, 
        -0.5541667938232422, 
        -0.36267170310020447, 
        -0.10473214089870453, 
        0.5044394135475159, 
        -0.2090379297733307, 
        -0.1508726179599762, 
        -0.2219383865594864, 
        -0.7321443557739258, 
        0.6931360960006714, 
        -0.18214784562587738, 
        -0.572662353515625, 
        0.665478527545929, 
        -0.08231490105390549, 
        -0.03570657595992088, 
        -0.5066627264022827, 
        -0.16985854506492615, 
        0.1489257514476776, 
        -0.21625588834285736, 
        -0.1823410540819168, 
        -0.22914281487464905, 
        -0.682087779045105, 
        -0.07769137620925903, 
        -0.4890371263027191, 
        -0.8579540252685547, 
        -0.6089617609977722, 
        -0.7199368476867676, 
        -0.18974840641021729, 
        0.05372658744454384, 
        -0.32663923501968384, 
        0.22715458273887634, 
        0.22751331329345703, 
        -0.09462635219097137, 
        -0.0009854398667812347, 
        -0.4157086908817291, 
        -0.0999850183725357, 
        0.10737738013267517, 
        -0.49168848991394043, 
        0.3447616696357727, 
        -0.296810507774353, 
        0.3834817409515381, 
        -0.7527479529380798, 
        -0.09721846878528595, 
        -0.5407505035400391, 
        -0.531134307384491, 
        -0.6611083745956421, 
        0.14587248861789703, 
        -0.6530039310455322, 
        0.16853287816047668, 
        0.30638569593429565, 
        -0.12202143669128418, 
        -0.07108654826879501, 
        -0.15823417901992798, 
        -0.5535337328910828, 
        0.22613640129566193, 
        0.5084357261657715, 
        -0.7852954864501953, 
        0.03313703462481499, 
        0.6450206637382507, 
        -0.03680846840143204, 
        -0.12864452600479126, 
        -0.15371006727218628, 
        0.5539465546607971, 
        0.4813290238380432, 
        0.38441577553749084, 
        -0.25923722982406616, 
        0.5227020382881165, 
        0.3095477223396301, 
        -0.6700485348701477, 
        0.4411683976650238, 
        -0.16076089441776276, 
        -0.20469573140144348, 
        -0.49213531613349915, 
        -0.1309269517660141, 
        -0.17427200078964233, 
        0.4357636272907257, 
        -0.1182754710316658, 
        -0.1721401810646057, 
        0.7334657311439514, 
        -0.2557067573070526, 
        -0.14583998918533325, 
        -0.42564406991004944, 
        -0.11085083335638046, 
        -0.4568884074687958, 
        -0.06973772495985031, 
        0.2890298068523407, 
        -0.5898647904396057, 
        -0.3947947919368744, 
        0.1686190664768219, 
        -0.6699353456497192, 
        -0.24748103320598602, 
        0.1922839730978012, 
        -0.16845935583114624, 
        0.10943372547626495, 
        0.21533791720867157, 
        0.6590486764907837, 
        0.35110458731651306, 
        0.03361557051539421, 
        -0.5049589276313782, 
        -0.04330801963806152, 
        0.0843711644411087, 
        0.3295934200286865, 
        -0.551348865032196, 
        -0.48509061336517334, 
        0.4940685033798218, 
        -0.46554937958717346, 
        0.4188254773616791, 
        -0.7252742648124695, 
        0.4595911502838135, 
        -0.6798076629638672, 
        0.6715152859687805, 
        -0.5062499046325684, 
        0.7287237048149109, 
        -0.751426100730896, 
        0.40788230299949646, 
        0.6136411428451538, 
        -0.15982213616371155, 
        -0.5356630682945251, 
        0.31940364837646484, 
        -0.5914589762687683, 
        0.7256435751914978, 
        0.02120092324912548, 
        0.22605127096176147, 
        -0.12137361615896225, 
        -0.4865967631340027, 
        0.7507029175758362, 
        -0.13537102937698364, 
        -0.2934829592704773, 
        0.15081050992012024, 
        0.3572833836078644, 
        0.4924168884754181, 
        -0.11977265775203705, 
        -0.31881389021873474, 
        0.13649174571037292, 
        -0.36692529916763306, 
        -0.42075690627098083, 
        0.1610184907913208, 
        -0.2797776758670807, 
        0.12838537991046906, 
        -0.1001042053103447, 
        -0.2517615854740143, 
        0.29341644048690796, 
        -0.05446009710431099, 
        -0.39531660079956055, 
        -0.6471874713897705, 
        0.18990987539291382, 
        0.15186886489391327, 
        -0.5568233132362366, 
        -0.21229314804077148, 
        0.44533854722976685, 
        0.49251222610473633, 
        -0.33437639474868774, 
        -0.5330715775489807, 
        0.05816509574651718, 
        0.6803778409957886, 
        0.4425431787967682, 
        0.5061184167861938, 
        -0.20156097412109375, 
        0.44416260719299316, 
        -0.08736717700958252, 
        -0.07937680184841156, 
        -0.24912793934345245, 
        0.27967169880867004, 
        -0.45071732997894287, 
        0.07875316590070724, 
        0.18916258215904236, 
        0.5140146613121033, 
        -0.6089792251586914, 
        0.5950942039489746, 
        0.7114284038543701, 
        -0.2535621225833893, 
        0.5625740885734558, 
        -0.2890000641345978, 
        0.33520829677581787, 
        -0.7124693989753723, 
        0.6419747471809387, 
        0.38979458808898926, 
        0.8043424487113953, 
        -0.14014822244644165, 
        -0.40621936321258545, 
        0.08891904354095459, 
        -0.09786367416381836, 
        -0.5163382887840271, 
        0.5686690211296082, 
        0.2803565561771393, 
        -0.48932796716690063, 
        0.23242874443531036, 
        -0.3947741985321045, 
        -0.018402835354208946, 
        0.6280429363250732, 
        -0.37678176164627075, 
        0.11496743559837341, 
        0.22828444838523865, 
        0.36559271812438965, 
        -0.3329677879810333, 
        0.2737714350223541, 
        0.06496691703796387, 
        -0.5720879435539246, 
        -0.5284874439239502, 
        0.394675076007843, 
        -0.6636660695075989, 
        -0.1368551105260849, 
        -0.6449191570281982, 
        -0.28731054067611694, 
        -0.3373541235923767, 
        0.02141747996211052, 
        -0.3121122419834137, 
        -0.5109211206436157, 
        -0.24215321242809296, 
        0.36741557717323303, 
        -0.0531466118991375, 
        -0.2869301438331604, 
        0.7126757502555847, 
        -0.352063924074173, 
        -0.5294156074523926, 
        0.2567187249660492, 
        0.23633918166160583, 
        0.6463791728019714, 
        -0.597011923789978, 
        -0.09851303696632385, 
        -0.7075539231300354, 
        0.6797374486923218, 
        -0.26215288043022156, 
        -0.3226783871650696, 
        -0.4844249188899994, 
        0.02086486667394638, 
        0.5620331168174744, 
        -0.7217558026313782, 
        0.5262822508811951, 
        -0.8502680063247681, 
        -0.03752654045820236, 
        0.680875301361084, 
        0.08000176399946213, 
        0.6733500361442566, 
        0.47241514921188354, 
        -0.22251293063163757, 
        0.5523316264152527, 
        -0.5478164553642273, 
        0.541706383228302, 
        -0.38602083921432495, 
        0.10935480147600174, 
        0.15966518223285675, 
        0.3028775453567505, 
        -0.47734636068344116, 
        -0.630193829536438, 
        0.2996010482311249, 
        -0.6445605158805847, 
        0.5673888921737671, 
        -0.1752418875694275, 
        -0.2967621684074402, 
        -0.328437864780426, 
        -0.6153595447540283, 
        0.27612143754959106, 
        0.5305576920509338, 
        -0.1300591379404068, 
        -0.11096855252981186, 
        0.3096327483654022, 
        -0.7627419829368591, 
        -0.2688036859035492, 
        0.08180927485227585, 
        -0.10344630479812622, 
        0.5968816876411438, 
        -0.05926116183400154, 
        0.6164979338645935, 
        -0.432088166475296, 
        -0.48494914174079895, 
        -0.6349544525146484, 
        0.547703742980957, 
        -0.04307619854807854, 
        -0.6194565892219543, 
        0.3858463168144226, 
        0.07734312862157822, 
        -0.06300404667854309, 
        0.4747370779514313, 
        -0.12367932498455048, 
        -0.30432042479515076, 
        -0.7170087099075317, 
        -0.5954947471618652, 
        -0.07112838327884674, 
        -0.5583347082138062, 
        0.3900451958179474, 
        -0.44332584738731384, 
        0.4653802216053009, 
        -0.6100329160690308, 
        -0.5090967416763306, 
        -0.30288439989089966, 
        0.058670248836278915, 
        -0.7461788058280945, 
        -0.41758716106414795, 
        -0.3809835910797119, 
        -0.68963223695755, 
        0.1158405989408493, 
        -0.740958571434021, 
        -0.18750593066215515, 
        -0.3919147551059723, 
        0.28269651532173157, 
        0.20544087886810303, 
        -0.003058091504499316, 
        0.22291797399520874, 
        -0.2126733958721161, 
        0.46735140681266785, 
        -0.01795985735952854, 
        0.6142169237136841, 
        -0.03262284770607948, 
        0.24310390651226044, 
        -0.7143980264663696, 
        0.00025913678109645844, 
        0.13834817707538605, 
        0.3771369159221649, 
        0.31725579500198364, 
        0.5864379405975342, 
        -0.38253819942474365, 
        0.46429669857025146, 
        0.6320517659187317, 
        0.26537713408470154, 
        -0.35264113545417786, 
        0.5626705288887024, 
        0.5163750052452087, 
        -0.6727075576782227, 
        -0.5912715196609497, 
        -0.08703253418207169, 
        -0.9092065095901489, 
        -0.44650909304618835, 
        -0.6123456954956055, 
        0.296115517616272, 
        -0.12838426232337952, 
        -0.5289785861968994, 
        -0.03767683357000351, 
        -0.5609434843063354, 
        0.5195607542991638, 
        -0.583243191242218, 
        -0.37582331895828247, 
        0.5269502997398376, 
        -0.1524101048707962, 
        -0.649425745010376, 
        0.24130897223949432, 
        0.2006673365831375, 
        -0.6540784239768982, 
        -0.06288845092058182, 
        -0.38858067989349365, 
        -0.14432619512081146, 
        0.010915232822299004, 
        0.4214179515838623, 
        0.6089663505554199, 
        -0.043596748262643814, 
        -0.4330229163169861, 
        0.17020756006240845, 
        0.008741864934563637, 
        -0.6218945384025574, 
        0.7374621033668518, 
        0.2107180505990982, 
        -0.4857202470302582, 
        0.20320960879325867, 
        0.40597444772720337, 
        0.7093241214752197, 
        0.4221431314945221, 
        -0.4328380227088928, 
        -0.5331622362136841, 
        0.5490947961807251, 
        0.39402803778648376, 
        -0.001631875173188746, 
        0.07125277072191238, 
        0.6131100058555603, 
        0.569539487361908, 
        0.481130987405777, 
        0.440803587436676, 
        0.39663833379745483, 
        0.01818557269871235, 
        -0.6384251117706299, 
        -0.10908620059490204, 
        0.3154090940952301, 
        0.3145596385002136, 
        -0.15401098132133484, 
        0.09854654222726822, 
        0.2810114324092865, 
        -0.7882063388824463, 
        -0.09296924620866776, 
        -0.10991869866847992, 
        -0.08151543885469437, 
        0.2944641709327698, 
        0.36850419640541077, 
        -0.06763653457164764, 
        0.5252406597137451, 
        0.27222487330436707, 
        0.3837434947490692, 
        -0.5627292990684509, 
        0.07513117790222168, 
        -0.13700369000434875, 
        -0.06645434349775314, 
        -0.7142200469970703, 
        -0.6524100303649902, 
        0.4895395040512085, 
        -0.0879761129617691, 
        -0.46875524520874023, 
        -0.4704662561416626, 
        0.51955646276474, 
        -0.00508389575406909, 
        0.33054107427597046, 
        0.39959821105003357, 
        -0.15848280489444733, 
        0.29932424426078796, 
        0.2608961760997772, 
        0.253256231546402, 
        0.0709141194820404, 
        0.4699418544769287, 
        0.2653796374797821, 
        0.275817334651947, 
        -0.07753252238035202, 
        -0.6289350390434265, 
        -0.6157040596008301, 
        -0.5379152297973633, 
        -0.5258514881134033, 
        -0.24500888586044312, 
        -0.08373600244522095, 
        0.3521277904510498, 
        0.5898638963699341, 
        0.26038405299186707, 
        0.5981386303901672, 
        -0.3070627748966217, 
        -0.4207337498664856, 
        0.2559881806373596, 
        0.6270363330841064, 
        0.2930781841278076, 
        -0.2722928524017334, 
        -0.4387534558773041, 
        0.19237707555294037, 
        -0.23473061621189117, 
        0.018930422142148018, 
        -0.7603164315223694, 
        0.6074255704879761, 
        0.5303304195404053, 
        0.6144232749938965, 
        0.06507204473018646, 
        0.31710395216941833, 
        0.45663708448410034, 
        -0.5852198004722595, 
        -0.5956189632415771, 
        0.7468413710594177, 
        -0.7255550622940063, 
        0.6198318600654602, 
        -0.21105284988880157, 
        -0.27791541814804077, 
        0.6586820483207703, 
        0.22312995791435242, 
        0.03948330506682396, 
        0.009764287620782852, 
        0.22165468335151672, 
        -0.5656971335411072, 
        0.483415812253952, 
        -0.7074347138404846, 
        -0.7129254341125488, 
        -0.006639941595494747, 
        -0.5301894545555115, 
        0.48486313223838806, 
        -0.16640061140060425, 
        -0.6315388679504395, 
        -0.1417796015739441, 
        0.42804259061813354, 
        0.18178801238536835, 
        -0.09970562160015106, 
        -0.1938772350549698, 
        0.3934487998485565, 
        0.5633585453033447, 
        -0.6010330319404602, 
        -0.24792823195457458, 
        0.2690810263156891, 
        -0.056606706231832504, 
        0.06795399636030197, 
        -0.6566726565361023, 
        0.22656208276748657, 
        0.6952003240585327, 
        -0.18605342507362366, 
        -0.3363973796367645, 
        0.18147361278533936, 
        -0.07004444301128387, 
        0.36438363790512085, 
        -0.3414131700992584, 
        -0.5632184147834778, 
        0.5412812829017639, 
        -0.025559639558196068, 
        -0.5666159987449646, 
        0.23162275552749634, 
        -0.04865380749106407, 
        -0.39401426911354065, 
        -0.6171619296073914, 
        0.48721158504486084, 
        -0.5540568232536316, 
        0.042482223361730576, 
        0.5863914489746094, 
        -0.7133443355560303, 
        0.1098317950963974, 
        -0.4920104742050171, 
        0.6854808926582336, 
        0.5530888438224792, 
        0.4270942211151123, 
        0.02556929551064968, 
        0.09097811579704285, 
        0.22733339667320251, 
        -0.013398886658251286, 
        -0.6159955859184265, 
        0.3000224828720093, 
        -0.2730884850025177, 
        0.1531888246536255, 
        -0.17015394568443298, 
        0.34504982829093933, 
        -0.5645344853401184, 
        0.3999076783657074, 
        0.182054802775383, 
        -0.5710335373878479, 
        -0.2152545005083084, 
        0.0560857392847538, 
        -0.6188432574272156, 
        -0.3767310678958893, 
        0.8105798363685608, 
        -0.22486254572868347, 
        0.12101463228464127, 
        0.247022345662117, 
        -0.4791948199272156, 
        0.17929036915302277, 
        -0.5320045351982117, 
        -0.1995883733034134, 
        -0.6120681166648865, 
        0.04676878824830055, 
        0.5164108872413635, 
        -0.6025063991546631, 
        0.5299604535102844, 
        -0.3695411682128906, 
        -0.2211749106645584, 
        0.39072751998901367, 
        0.602976381778717, 
        -0.08405236899852753, 
        -0.6011636853218079, 
        -0.13977237045764923, 
        -0.4035018980503082, 
        -0.4488866627216339, 
        -0.4065757393836975, 
        -0.0027682858053594828, 
        -0.48070305585861206, 
        0.12786592543125153, 
        0.40833786129951477, 
        0.3632849454879761, 
        -0.44814807176589966, 
        0.3174690008163452, 
        0.39602503180503845, 
        0.05870287865400314, 
        -0.4420472979545593, 
        0.24824681878089905, 
        0.27571356296539307, 
        -0.4452441334724426, 
        -0.0047697084955871105, 
        -0.2575317621231079, 
        0.4377698600292206, 
        0.018093513324856758, 
        -0.6616864800453186, 
        0.4056414067745209, 
        0.2900335490703583, 
        -0.6523074507713318, 
        -0.19993452727794647, 
        -0.4544207453727722, 
        -0.11829913407564163, 
        0.39007115364074707, 
        -0.4403940737247467, 
        0.36336177587509155, 
        -0.17245876789093018, 
        0.590582013130188, 
        0.03360035642981529, 
        -0.5963287353515625, 
        0.14213036000728607, 
        -0.30486997961997986, 
        -0.3065292239189148, 
        -0.2811550498008728, 
        -0.7673078775405884, 
        0.1309909075498581, 
        -0.23400884866714478, 
        0.6655469536781311, 
        0.4981021285057068, 
        0.25601351261138916, 
        -0.10185916721820831, 
        -0.019703563302755356, 
        -0.27161160111427307, 
        -0.6459589004516602, 
        0.6069505214691162, 
        0.3789701759815216, 
        -0.1036408543586731, 
        -0.07344725728034973, 
        -0.19330279529094696, 
        0.657867968082428, 
        0.6216702461242676, 
        0.2482507973909378, 
        0.7494764924049377, 
        -0.3520354628562927, 
        -0.10546759516000748, 
        0.20908677577972412, 
        -0.10940524935722351, 
        -0.24011825025081635, 
        -0.755602240562439, 
        0.7444556951522827, 
        -0.47557559609413147, 
        0.602908730506897, 
        -0.5802584886550903, 
        0.313976913690567, 
        0.43655699491500854, 
        0.6928861141204834, 
        0.5491872429847717, 
        0.052289776504039764, 
        0.4035071134567261, 
        0.6434433460235596, 
        0.5384175777435303, 
        0.007008725311607122, 
        -0.6142457723617554, 
        -0.48314371705055237, 
        0.15625101327896118, 
        0.09601064771413803, 
        -0.6960937976837158, 
        -0.37440186738967896, 
        0.1735096424818039, 
        0.19407331943511963, 
        0.1336439698934555, 
        0.12894777953624725, 
        -0.42337197065353394, 
        0.2786964178085327, 
        0.0727279931306839, 
        0.24770620465278625, 
        0.2519097924232483, 
        -0.6951814293861389, 
        -0.4693993330001831, 
        -0.6554858088493347, 
        -0.14364905655384064, 
        -0.11920695751905441, 
        -0.5052409768104553, 
        0.20914383232593536, 
        0.0026720897294580936, 
        0.6132020354270935, 
        0.15514659881591797, 
        -0.28691986203193665, 
        -0.29804059863090515, 
        0.33390021324157715, 
        0.31081196665763855, 
        -0.7299768328666687, 
        0.22640156745910645, 
        0.33027246594429016, 
        -0.5375022292137146, 
        0.05387191101908684, 
        0.024090878665447235, 
        0.2320937067270279, 
        -0.36673739552497864, 
        0.7163827419281006, 
        0.5436508059501648, 
        0.015893438830971718, 
        0.6731758713722229, 
        -0.486848920583725, 
        -0.2698599696159363, 
        0.07784389704465866, 
        0.03382926806807518, 
        0.24986620247364044, 
        0.7194110751152039, 
        -0.47949278354644775, 
        -0.297193318605423, 
        -0.20306998491287231, 
        -0.7328293323516846, 
        -0.3173466920852661, 
        -0.26150766015052795, 
        -0.46250051259994507, 
        -0.07664588838815689, 
        -0.09149713069200516, 
        0.0430334247648716, 
        0.6098337173461914, 
        0.05818721652030945, 
        -0.6488379240036011, 
        0.3854464888572693, 
        0.5771328806877136, 
        -0.6646217703819275, 
        -0.37263232469558716, 
        0.7004740238189697, 
        0.4892285168170929, 
        0.15931808948516846, 
        0.007569313049316406, 
        -0.18869996070861816, 
        -0.48038455843925476, 
        -0.5758249759674072, 
        -0.5301038026809692, 
        0.5937739610671997, 
        -0.5190127491950989, 
        0.5596626996994019, 
        0.053479328751564026, 
        -0.220123752951622, 
        0.0964135229587555, 
        0.2016410082578659, 
        -0.40599745512008667, 
        -0.4450080990791321, 
        -0.6890432834625244, 
        0.7378675937652588, 
        0.1072380542755127, 
        -0.4913029968738556, 
        0.1314966380596161, 
        0.3131674826145172, 
        0.6070427894592285, 
        -0.7317686676979065, 
        -0.0055330474860966206, 
        0.572606086730957, 
        -0.4430684447288513, 
        0.6202502846717834, 
        -0.044691864401102066, 
        0.3381398022174835, 
        -0.014205866493284702, 
        -0.15216083824634552, 
        -0.062429703772068024, 
        0.5085691809654236, 
        0.677498459815979, 
        -0.1730467528104782, 
        -0.427759051322937, 
        -0.04631460830569267, 
        0.7369892597198486, 
        0.336481511592865, 
        0.13331760466098785, 
        -0.6022042632102966, 
        0.4251343011856079, 
        0.38954150676727295, 
        -0.06099850311875343, 
        0.3448033332824707, 
        -0.26270171999931335, 
        -0.21705369651317596, 
        0.641176700592041, 
        -0.15193648636341095, 
        0.11483932286500931, 
        -0.32987430691719055, 
        0.17095237970352173, 
        -0.6183640956878662, 
        -0.6571133732795715, 
        0.3018401265144348, 
        -0.6055091619491577, 
        -0.13989070057868958, 
        0.2933361828327179, 
        0.4833976626396179, 
        0.38254791498184204, 
        0.42237600684165955, 
        0.19951079785823822, 
        0.5406350493431091, 
        0.15238283574581146, 
        -0.35632482171058655, 
        0.20812754333019257, 
        -0.2021171897649765, 
        -0.5041776299476624, 
        0.15559500455856323, 
        0.3396885395050049, 
        0.3246159553527832, 
        -0.29272937774658203, 
        -0.7311209440231323, 
        -0.5006709694862366, 
        -0.6951770186424255, 
        0.34367308020591736, 
        0.15975140035152435, 
        -0.08680768311023712, 
        0.48508793115615845, 
        -0.7370728254318237, 
        -0.009257562458515167, 
        0.7039446234703064, 
        -0.536482572555542, 
        -0.6280218958854675, 
        -0.5197739601135254, 
        0.14988388121128082, 
        0.4246463179588318, 
        0.5894082188606262, 
        -0.44310227036476135, 
        0.7340937256813049, 
        0.32655543088912964, 
        0.21802140772342682, 
        -0.548094630241394, 
        0.4561847448348999, 
        0.48637866973876953, 
        0.6031069159507751, 
        0.3610989451408386, 
        0.6007431149482727, 
        -0.3054887652397156, 
        -0.06699101626873016, 
        0.5012150406837463, 
        0.5733422040939331, 
        -0.5362110137939453, 
        0.12424109876155853, 
        0.6445546746253967, 
        -0.3586043119430542, 
        0.22129471600055695, 
        0.7349361777305603, 
        0.20656044781208038, 
        -0.38850677013397217, 
        -0.2469443678855896, 
        -0.6121734380722046, 
        -0.4550625681877136, 
        0.16399699449539185, 
        -0.6034020781517029, 
        -0.5239829421043396, 
        0.6831703186035156, 
        0.07900472730398178, 
        -0.27643218636512756, 
        -0.27665653824806213, 
        0.16289058327674866, 
        -0.496609091758728, 
        -0.5379687547683716, 
        -0.40068739652633667, 
        -0.5827135443687439, 
        -0.43482422828674316, 
        -0.21701966226100922, 
        0.09968171268701553, 
        0.3769436478614807, 
        0.6336838006973267, 
        -0.5914890170097351, 
        -0.13968519866466522, 
        0.5080671310424805, 
        0.015780389308929443, 
        0.2833969295024872, 
        -0.3605697453022003, 
        0.1844990849494934, 
        0.6688840985298157, 
        0.22104118764400482, 
        -0.02773074060678482, 
        0.3185677230358124, 
        -0.7694635391235352, 
        0.5647591352462769, 
        -0.4027291536331177, 
        -0.42202043533325195, 
        0.22318823635578156, 
        0.03764251619577408, 
        0.586137592792511, 
        0.42303478717803955, 
        -0.4393395781517029, 
        -0.3003756105899811, 
        0.015248671174049377, 
        0.3061530888080597, 
        -0.2593652904033661, 
        0.3419237434864044, 
        -0.5929912328720093, 
        -0.05521531403064728, 
        0.6790224313735962, 
        0.5163131356239319, 
        -0.2871909737586975, 
        0.18483953177928925, 
        -0.14485155045986176, 
        0.1526525616645813, 
        -0.7211449146270752, 
        0.3593296706676483, 
        -0.14317946135997772, 
        0.7861276268959045, 
        -0.1798374354839325, 
        0.3305710256099701, 
        -0.5030893087387085, 
        -0.1992560625076294, 
        -0.2299501746892929, 
        0.432815283536911, 
        0.09179797768592834, 
        0.18633541464805603, 
        -0.59893399477005, 
        0.4027259647846222, 
        -0.6957874894142151, 
        -0.393672913312912, 
        -0.022542038932442665, 
        -0.2741589844226837, 
        0.09134984016418457, 
        0.6708633303642273, 
        0.726814866065979, 
        0.015046138316392899, 
        -0.2599761188030243, 
        -0.3648245930671692, 
        0.7125354409217834, 
        0.02794697694480419, 
        0.020289888605475426, 
        0.4056572914123535, 
        -0.11201484501361847, 
        0.27365705370903015, 
        -0.8341949582099915, 
        -0.1331886351108551, 
        -0.433439701795578, 
        0.6481008529663086, 
        -0.47751402854919434, 
        0.4616173803806305, 
        0.412898451089859, 
        0.17970071732997894, 
        -0.5706241726875305, 
        -0.161649689078331, 
        -0.5770976543426514, 
        0.36892110109329224, 
        -0.18257741630077362, 
        -0.18686124682426453, 
        -0.585732102394104, 
        -0.22700686752796173, 
        -0.5924355983734131, 
        -0.5674740672111511, 
        0.5821697115898132, 
        -0.33165207505226135, 
        0.08691667765378952, 
        -0.6343308687210083, 
        0.3062364459037781, 
        0.733473539352417, 
        0.4386546313762665, 
        0.3110993206501007, 
        0.36930757761001587, 
        0.16217875480651855, 
        0.6874005198478699, 
        0.2061174511909485, 
        0.3146580457687378, 
        0.33195188641548157, 
        0.5212312936782837, 
        -0.7036843299865723, 
        0.45701029896736145, 
        -0.7231230735778809, 
        0.4519769549369812, 
        0.37140077352523804, 
        0.12418993562459946, 
        0.4033205807209015, 
        0.47719383239746094, 
        0.20019495487213135, 
        0.015321592800319195, 
        -0.2692112624645233, 
        -0.7128199338912964, 
        -0.5839229226112366, 
        0.43853652477264404, 
        0.3554316461086273, 
        -0.5453143119812012, 
        0.2241729199886322, 
        0.07688058912754059, 
        0.6864999532699585, 
        -0.64019376039505, 
        -0.4362070858478546, 
        0.14818206429481506, 
        -0.6069964170455933, 
        -0.5811110734939575, 
        0.7372478246688843, 
        0.05436274781823158, 
        0.4410395920276642, 
        0.6514237523078918, 
        0.1522919088602066, 
        0.0776873305439949, 
        -0.00909147597849369, 
        0.06312329322099686, 
        0.49379581212997437, 
        -0.3398039937019348, 
        -0.18299640715122223, 
        0.17190304398536682, 
        -0.33852264285087585, 
        0.32344990968704224, 
        -0.6982178688049316, 
        -0.23627327382564545, 
        -0.038292061537504196, 
        0.4075152277946472, 
        -0.790107786655426, 
        -0.5088221430778503, 
        -0.2526630163192749, 
        -0.49567079544067383, 
        -0.2981809377670288, 
        0.13488848507404327, 
        0.38113245368003845, 
        -0.22530359029769897, 
        -0.2027570754289627, 
        -0.46262049674987793, 
        0.48087841272354126, 
        0.4939640760421753, 
        0.5945557355880737, 
        0.52395099401474, 
        -0.2448786497116089, 
        0.5624226927757263, 
        -0.7130835652351379, 
        -0.4528450667858124, 
        -0.16711682081222534, 
        -0.7322395443916321, 
        0.532472550868988, 
        0.4614899158477783, 
        0.435971736907959, 
        0.5068796277046204, 
        0.04211779683828354, 
        -0.4284096360206604, 
        -0.16199453175067902, 
        -0.027965959161520004, 
        -0.27275174856185913, 
        -0.23970261216163635, 
        0.31735479831695557, 
        0.6382507085800171, 
        -0.32766592502593994, 
        0.4221348464488983, 
        -0.22021342813968658, 
        0.3512175679206848, 
        0.3878670036792755, 
        0.3959667682647705, 
        -0.6980533003807068, 
        0.03813131898641586, 
        -0.17192824184894562, 
        -0.7307121157646179, 
        -0.7371885180473328, 
        -0.6590544581413269, 
        0.20316897332668304, 
        -0.13049845397472382, 
        0.15384674072265625, 
        -0.4833161532878876, 
        0.11440103501081467, 
        0.017369922250509262, 
        0.07658564299345016, 
        0.023861337453126907, 
        0.14187096059322357, 
        0.1638798713684082, 
        -0.39513054490089417, 
        -0.1173434853553772, 
        -0.0680822804570198, 
        -0.40125778317451477, 
        -0.5758283138275146, 
        -0.17020930349826813, 
        0.6832902431488037, 
        0.46021535992622375, 
        0.20493273437023163, 
        0.22478105127811432, 
        0.38326066732406616, 
        0.3680232763290405, 
        0.5025349855422974, 
        -0.6933311820030212, 
        -0.5401264429092407, 
        -0.32126134634017944, 
        0.4959830343723297, 
        -0.707491934299469, 
        0.543971598148346, 
        -0.2569948136806488, 
        -0.2203924059867859, 
        0.5636062026023865, 
        0.5401127934455872, 
        -0.42105919122695923, 
        -0.5835455060005188, 
        0.41680067777633667, 
        -0.3682190179824829, 
        0.6377876996994019, 
        -0.019028155133128166, 
        0.4425975978374481, 
        0.6459963917732239, 
        -0.24406759440898895, 
        0.6680172085762024, 
        -0.5667135119438171, 
        -0.6709640622138977, 
        0.32581955194473267, 
        0.31772616505622864, 
        0.1749085783958435, 
        -0.19240741431713104, 
        0.5124343633651733, 
        -0.6751948595046997, 
        -0.747811496257782, 
        0.018260158598423004, 
        0.08925410360097885, 
        0.0011805671965703368, 
        -0.7559213042259216, 
        0.3644466996192932, 
        -0.022376690059900284, 
        0.08913007378578186, 
        -0.5619845986366272, 
        0.5102161169052124, 
        -0.618966281414032, 
        0.4428286552429199, 
        -0.5037980079650879, 
        0.44542375206947327, 
        0.7640170454978943, 
        0.2590457797050476, 
        0.5126789212226868, 
        0.43524229526519775, 
        0.033393729478120804, 
        -0.2549065351486206, 
        -0.2742028832435608, 
        0.29282528162002563, 
        0.08844733238220215, 
        -0.5300788879394531, 
        0.11672435700893402, 
        0.21272523701190948, 
        -0.3059673309326172, 
        0.40111762285232544, 
        -0.3411971926689148, 
        -0.10699785500764847, 
        0.4313390851020813, 
        -0.6259673237800598, 
        -0.01811221055686474, 
        0.414282888174057, 
        -0.05412927269935608, 
        0.3205927610397339, 
        -0.06811445206403732, 
        -0.12352662533521652, 
        0.15685415267944336, 
        -0.017249876633286476, 
        0.57770836353302, 
        -0.6667801737785339, 
        0.5124589204788208, 
        -0.7543891668319702, 
        -0.6295537352561951, 
        -0.5045422315597534, 
        -0.07022105157375336, 
        -0.31784960627555847, 
        0.10804595053195953, 
        0.09620378166437149, 
        -0.09315615892410278, 
        0.7290223836898804, 
        0.12981253862380981, 
        -0.19297274947166443, 
        0.6561594009399414, 
        0.28259190917015076, 
        -0.587247371673584, 
        -0.684076726436615, 
        0.44692713022232056, 
        0.7890539169311523, 
        0.2822073996067047, 
        -0.7676711678504944, 
        0.4660419821739197, 
        0.3767801523208618, 
        -0.216664120554924, 
        -0.5979218482971191, 
        -0.5193118453025818, 
        0.4830071032047272, 
        -0.14619477093219757, 
        0.3712867498397827, 
        -0.6629127264022827, 
        0.3891696035861969, 
        -0.323573499917984, 
        -0.3463350236415863, 
        0.017438706010580063, 
        -0.3466697037220001, 
        -0.27787908911705017, 
        0.5083319544792175, 
        0.34756603837013245, 
        0.6187258958816528, 
        -0.09011108428239822, 
        0.5341365337371826, 
        -0.15436045825481415, 
        0.42674216628074646, 
        0.5626736283302307, 
        -0.45582374930381775, 
        0.046297989785671234, 
        -0.3239940106868744, 
        -0.6072814464569092, 
        -0.6713308691978455, 
        -0.42317938804626465, 
        -0.13147790729999542, 
        0.6358547806739807, 
        -0.24790331721305847, 
        -0.5566154718399048, 
        -0.6047306060791016, 
        -0.5259672403335571, 
        -0.14790727198123932, 
        0.39804181456565857, 
        0.26726585626602173, 
        0.6096314787864685, 
        -0.3478037416934967, 
        -0.2394038736820221, 
        -0.014162612147629261, 
        0.6969166398048401, 
        -0.20279313623905182, 
        -0.3917486369609833, 
        -0.32535094022750854, 
        0.0038203359581530094, 
        0.3394451141357422, 
        -0.16002430021762848, 
        0.7805522680282593, 
        -0.4973822832107544, 
        -0.01058887504041195, 
        -0.36904531717300415, 
        -0.5778557062149048, 
        -0.5568786263465881, 
        0.634945809841156, 
        0.009968203492462635, 
        0.2183447927236557, 
        0.4006849527359009, 
        -0.023684149608016014, 
        -0.6736112236976624, 
        -0.3152478039264679, 
        -0.09846469014883041, 
        0.6068398952484131, 
        -0.5123350024223328, 
        0.21832241117954254, 
        0.535656213760376, 
        -0.4008254110813141, 
        -0.7007297277450562, 
        0.12620599567890167, 
        -0.5002697110176086, 
        0.46010661125183105, 
        -0.2752361297607422, 
        0.33015406131744385, 
        -0.7025141716003418, 
        -0.03450354188680649, 
        -0.43295353651046753, 
        -0.15608888864517212, 
        0.39388489723205566, 
        -0.3868074417114258, 
        0.23508816957473755, 
        -0.2556789517402649, 
        0.16229082643985748, 
        -0.5005142688751221, 
        -0.2087591588497162, 
        -0.5493209362030029, 
        -0.26228654384613037, 
        -0.10487835109233856, 
        -0.5374376773834229, 
        0.7171850204467773, 
        -0.8287025094032288, 
        -0.1268012821674347, 
        -0.6388654112815857, 
        0.15890473127365112, 
        0.029912607744336128, 
        0.3668842315673828, 
        0.5294869542121887, 
        -0.055777885019779205, 
        0.17715877294540405, 
        0.7290099859237671, 
        -0.14661380648612976, 
        0.41213950514793396, 
        -0.5110767483711243, 
        -0.6431789994239807, 
        -0.2333943396806717, 
        0.17720700800418854, 
        0.44800859689712524, 
        0.6797659993171692, 
        0.2794637978076935, 
        0.0641544759273529, 
        -0.6328955292701721, 
        -0.1492476761341095, 
        0.15936464071273804, 
        -0.07392562925815582, 
        0.33759599924087524, 
        -0.6332481503486633, 
        0.17407935857772827, 
        0.30676084756851196, 
        0.8022753596305847, 
        0.2936922013759613, 
        -0.2202843576669693, 
        -0.25378045439720154, 
        0.14787505567073822, 
        0.3779597878456116, 
        -0.6387432813644409, 
        0.011677589267492294, 
        0.12075819075107574, 
        -0.44376352429389954, 
        0.6657921075820923, 
        -0.5826668739318848, 
        -0.5188385248184204, 
        0.44418787956237793, 
        -0.16373933851718903, 
        -0.5802538394927979, 
        0.7576872706413269, 
        -0.5306894183158875, 
        -0.768210768699646, 
        0.3870055675506592, 
        -0.042679522186517715, 
        0.5956483483314514, 
        0.6832699179649353, 
        -0.03777048736810684, 
        0.4069405198097229, 
        -0.2631441354751587, 
        -0.4920659065246582, 
        -0.04566540569067001, 
        -0.6980406045913696, 
        -0.561749279499054, 
        -0.007668051403015852, 
        0.3770178258419037, 
        0.11060742288827896, 
        -0.707913339138031, 
        0.5521209836006165, 
        0.6776677370071411, 
        -0.31492844223976135, 
        0.676032304763794, 
        0.3559839725494385, 
        0.6550907492637634, 
        -0.301984578371048, 
        -0.6617794036865234, 
        -0.6315945386886597, 
        -0.47145307064056396, 
        -0.6582414507865906, 
        -0.289508193731308, 
        -0.18710274994373322, 
        0.5946218967437744, 
        0.10532636940479279, 
        0.1629685014486313, 
        -0.2738438844680786, 
        -0.09038887917995453, 
        -0.5475757122039795, 
        0.7132138609886169, 
        0.6469882130622864, 
        0.051268186420202255, 
        0.3936890661716461, 
        -0.2583773732185364, 
        -0.1692921370267868, 
        0.7735779881477356, 
        0.5001757740974426, 
        0.6456395983695984, 
        0.719864010810852, 
        -0.43290650844573975, 
        0.3512682616710663, 
        0.3441106081008911, 
        0.15082336962223053, 
        0.22930842638015747, 
        0.4633922576904297, 
        -0.16916492581367493, 
        -0.42732489109039307, 
        -0.09029929339885712, 
        -0.6640632748603821, 
        0.6537388563156128, 
        0.5538468956947327, 
        0.35781392455101013, 
        -0.07094448059797287, 
        -0.5615864992141724, 
        0.285681813955307, 
        0.5949080586433411, 
        -0.13587301969528198, 
        0.8255037069320679, 
        -0.09247884154319763, 
        0.6055566072463989, 
        -0.44490575790405273, 
        -0.005272142123430967, 
        -0.4899604618549347, 
        0.3179333209991455, 
        -0.10396826267242432, 
        -0.38931143283843994, 
        0.7790700793266296, 
        0.6424917578697205, 
        0.4292851984500885, 
        0.013388015329837799, 
        -0.627841055393219, 
        -0.03848003223538399, 
        -0.11109896004199982, 
        -0.7399986982345581, 
        0.5454171299934387, 
        -0.4576491415500641, 
        0.13689202070236206, 
        0.5776486396789551, 
        -0.5811718106269836, 
        -0.5487788915634155, 
        0.007958210073411465, 
        -0.5850037932395935, 
        0.26916617155075073, 
        -0.32526710629463196, 
        -0.38602277636528015, 
        -0.2303476780653, 
        0.1744130253791809, 
        -0.4970923662185669, 
        -0.14322295784950256, 
        0.47774940729141235, 
        -0.7729964256286621, 
        -0.5676937103271484, 
        0.43937820196151733, 
        0.5060874819755554, 
        0.2202862650156021, 
        0.10616178065538406, 
        0.13133743405342102, 
        -0.5537145733833313, 
        -0.03746894747018814, 
        0.5548803210258484, 
        -0.35580718517303467, 
        0.037276215851306915, 
        0.44797536730766296, 
        0.6524254679679871, 
        0.7218119502067566, 
        0.40273475646972656, 
        0.30969956517219543, 
        -0.5349023342132568, 
        0.3050038814544678, 
        -0.28928521275520325, 
        -0.4722438454627991, 
        -0.09717947989702225, 
        -0.11568271368741989, 
        -0.08889476954936981, 
        -0.665310800075531, 
        -0.46406716108322144, 
        0.3298276960849762, 
        0.13294240832328796, 
        0.44667479395866394, 
        0.1459490805864334, 
        0.5707411170005798, 
        0.5096775889396667, 
        -0.38479551672935486, 
        -0.028374096378684044, 
        -0.5489588975906372, 
        0.5561108589172363, 
        0.04460067301988602, 
        -0.5742695331573486, 
        -0.7172945737838745, 
        -0.19650492072105408, 
        -0.3572198450565338, 
        -0.4507727026939392, 
        -0.4223094582557678, 
        -0.6307255029678345, 
        -0.6564306616783142, 
        0.7286926507949829, 
        -0.7442856431007385, 
        -0.10830282419919968, 
        0.014184951782226562, 
        0.7694932222366333, 
        0.5336633920669556, 
        -0.6586173176765442, 
        0.4547169506549835, 
        0.6548649072647095, 
        0.010255013592541218, 
        0.3901752233505249, 
        -0.5565273761749268, 
        -0.4092095196247101, 
        0.04675193503499031, 
        0.6138545274734497, 
        -0.2272324562072754, 
        0.11454485356807709, 
        0.49962130188941956, 
        0.5159344673156738, 
        -0.39411962032318115, 
        -0.7948493957519531, 
        0.25410404801368713, 
        0.04641599953174591, 
        -0.742645800113678, 
        0.4796042740345001, 
        0.05921395123004913, 
        0.47946327924728394, 
        -0.583085834980011, 
        -0.44160136580467224, 
        -0.3961840569972992, 
        0.6447240710258484, 
        -0.13024772703647614, 
        -0.6299228072166443, 
        0.029578860849142075, 
        -0.01040857844054699, 
        -0.4502395689487457, 
        -0.16268831491470337, 
        -0.16331687569618225, 
        -0.6879761815071106, 
        0.7293566465377808, 
        -0.7855753302574158, 
        0.36546167731285095, 
        -0.4861423671245575, 
        0.1759783923625946, 
        0.26593127846717834, 
        0.4770253002643585, 
        -0.2984667718410492, 
        0.5051393508911133, 
        -0.28521397709846497, 
        -0.4077197313308716, 
        0.3871344029903412, 
        0.28555721044540405, 
        0.0442347377538681, 
        0.6537926197052002, 
        -0.5194060206413269, 
        -0.47239771485328674, 
        0.5783492922782898, 
        0.3705938458442688, 
        0.03282341733574867, 
        -0.21108603477478027, 
        -0.21402309834957123, 
        0.1983271986246109, 
        -0.19282135367393494, 
        0.46786317229270935, 
        0.17940787971019745, 
        0.2665233016014099, 
        0.5716155767440796, 
        -0.3567344844341278, 
        0.32727760076522827, 
        -0.0796782597899437, 
        0.4825713038444519, 
        0.6730654835700989, 
        -0.20138514041900635, 
        0.12872974574565887, 
        -0.19391025602817535, 
        0.4650135040283203, 
        -0.4740835428237915, 
        -0.0786893367767334, 
        0.3630788028240204, 
        0.7955573797225952, 
        -0.4454452097415924, 
        -0.5921672582626343, 
        0.7267380356788635, 
        -0.5000410079956055, 
        0.14841626584529877, 
        0.2874099314212799, 
        0.4585781395435333, 
        0.3284893035888672, 
        -0.30256274342536926, 
        -0.33549490571022034, 
        -0.5829198956489563, 
        0.18186362087726593, 
        -0.5620861649513245, 
        0.5339440107345581, 
        0.28205278515815735, 
        0.17446115612983704, 
        0.14267180860042572, 
        0.3491416573524475, 
        0.15783356130123138, 
        -0.6226617693901062, 
        0.5787135362625122, 
        0.2797076404094696, 
        0.6419349312782288, 
        0.25873640179634094, 
        0.23004768788814545, 
        -0.01002386026084423, 
        -0.4860962927341461, 
        -0.7876401543617249, 
        -0.3326317071914673, 
        -0.382191926240921, 
        0.2474660873413086, 
        -0.7544703483581543, 
        -0.4832216203212738, 
        -0.4994381368160248, 
        -0.2467607855796814, 
        0.34967291355133057, 
        -0.186126247048378, 
        -0.4542863965034485, 
        0.6141272783279419, 
        -0.34616589546203613, 
        0.49873819947242737, 
        -0.2683722674846649, 
        -0.3437387943267822, 
        0.2682080864906311, 
        -0.4537593126296997, 
        0.21370556950569153, 
        -0.5482197403907776, 
        0.7215584516525269, 
        0.41805335879325867, 
        -0.6506515145301819, 
        0.6229981780052185, 
        -0.4236660301685333, 
        0.5855473279953003, 
        0.03496062755584717, 
        -0.6463840007781982, 
        0.5363770127296448, 
        0.1606377214193344, 
        -0.49555930495262146, 
        -0.07918930798768997, 
        0.29796192049980164, 
        0.008642313070595264, 
        -0.3671385645866394, 
        -0.42870792746543884, 
        -0.7874088287353516, 
        -0.8016970157623291, 
        0.12052065134048462, 
        0.5320150256156921, 
        -0.4860841631889343, 
        0.3473373353481293, 
        -0.738193929195404, 
        -0.6366416811943054, 
        0.4104286730289459, 
        -0.1310504525899887, 
        0.09612101316452026, 
        -0.3302086889743805, 
        -0.20509082078933716, 
        -0.19116173684597015, 
        -0.5239330530166626, 
        0.2223212718963623, 
        -0.5643898248672485, 
        0.2251131385564804, 
        0.2417714148759842, 
        -0.2406304031610489, 
        -0.028208451345562935, 
        0.5516167283058167, 
        0.5442654490470886, 
        -0.24665424227714539, 
        0.3942809998989105, 
        -0.17421670258045197, 
        -0.6706019639968872, 
        0.6212945580482483, 
        0.060409288853406906, 
        0.4833970367908478, 
        0.029447920620441437, 
        -0.25672653317451477, 
        0.27850601077079773, 
        0.5957521200180054, 
        0.22519592940807343, 
        0.2597287893295288, 
        -0.7086498737335205, 
        0.3679366707801819, 
        0.38351190090179443, 
        0.4639489948749542, 
        -0.7144724726676941, 
        0.39495110511779785, 
        -0.6550586223602295, 
        -0.336572527885437, 
        0.17257216572761536, 
        -0.2498033195734024, 
        -0.35379916429519653, 
        0.3629029095172882, 
        0.11185367405414581, 
        -0.40845340490341187, 
        0.059996530413627625, 
        0.5147393345832825, 
        -0.5405775904655457, 
        -0.42954766750335693, 
        0.6221304535865784, 
        0.26793786883354187, 
        0.38925594091415405, 
        -0.6676490902900696, 
        -0.6759699583053589, 
        -0.20542189478874207, 
        0.01330813392996788, 
        -0.08440553396940231, 
        -0.3515056371688843, 
        -0.4670155644416809, 
        0.40965089201927185, 
        -0.3857710063457489, 
        -0.671490490436554, 
        0.04196380451321602, 
        0.7269452214241028, 
        -0.22400568425655365, 
        0.009437129832804203, 
        0.3276514708995819, 
        -0.16427496075630188, 
        -0.45286762714385986, 
        -0.5334131717681885, 
        -0.5070104598999023, 
        0.5518544912338257, 
        0.5552049279212952, 
        0.46851497888565063, 
        -0.5293553471565247, 
        -0.4263758659362793, 
        0.025171367451548576, 
        -0.7258492112159729, 
        0.06777467578649521, 
        -0.10634634643793106, 
        0.7032222151756287, 
        -0.4335639178752899, 
        0.4693036675453186, 
        0.025044826790690422, 
        -0.17800892889499664, 
        -0.5308802127838135, 
        0.5370449423789978, 
        0.15355797111988068, 
        0.26814889907836914, 
        0.7232664823532104, 
        -0.15360084176063538, 
        0.5753458142280579, 
        -0.4939073622226715, 
        0.6037347912788391, 
        0.4943253993988037, 
        -0.6173765063285828, 
        0.3448885977268219, 
        -0.576306939125061, 
        -0.3264436721801758, 
        -0.5416516065597534, 
        -0.06078311800956726, 
        0.6204778552055359, 
        -0.05448382720351219, 
        -0.27891233563423157, 
        -0.3324621915817261, 
        0.5643132925033569, 
        -0.09336180984973907, 
        0.5812474489212036, 
        -0.5559760332107544, 
        0.259890615940094, 
        0.7059344053268433, 
        0.21453441679477692, 
        0.38621097803115845, 
        0.6430772542953491, 
        -0.16351604461669922, 
        0.7529939413070679, 
        -0.5506423115730286, 
        0.5207081437110901, 
        -0.327729731798172, 
        0.4704846441745758, 
        0.018213773146271706, 
        0.5160074830055237, 
        -0.3285771608352661, 
        0.23096491396427155, 
        0.5547980070114136, 
        -0.04611729457974434, 
        -0.1524505764245987, 
        0.057117316871881485, 
        -0.4759252965450287, 
        -0.40254324674606323, 
        -0.1360301971435547, 
        0.7467122673988342, 
        -0.2041613757610321, 
        -0.4727371335029602, 
        0.12568631768226624, 
        -0.6173282265663147, 
        -0.46979478001594543, 
        0.341811865568161, 
        -0.46658122539520264, 
        -0.1041427031159401, 
        -0.5695810317993164, 
        0.2901640832424164, 
        0.15383079648017883, 
        0.4775194823741913, 
        0.4289941191673279, 
        -0.5703660249710083, 
        0.45292437076568604, 
        0.6261352896690369, 
        0.2308391034603119, 
        -0.05539419502019882, 
        0.6615884900093079, 
        0.2295866757631302, 
        -0.48613429069519043, 
        -0.5097269415855408, 
        0.19804473221302032, 
        -0.1697135716676712, 
        0.28243064880371094, 
        0.5874808430671692, 
        0.4378502368927002, 
        0.3233814239501953, 
        -0.2401525229215622, 
        -0.4961373805999756, 
        -0.4038459360599518, 
        -0.03536498174071312, 
        -0.45758500695228577, 
        0.20776161551475525, 
        -0.3812330365180969, 
        0.5342930555343628, 
        0.42071714997291565, 
        -0.02500169165432453, 
        0.36521488428115845, 
        0.4911033511161804, 
        -0.3606221377849579, 
        0.30904334783554077, 
        -0.318495512008667, 
        0.40533486008644104, 
        0.7791099548339844, 
        0.3764825761318207, 
        -0.3518490791320801, 
        -0.025333130732178688, 
        0.4689006209373474, 
        -0.2319253534078598, 
        0.2299736738204956, 
        -0.06129007413983345, 
        0.7012364864349365, 
        0.250769704580307, 
        0.1698915660381317, 
        -0.009632318280637264, 
        0.011219368316233158, 
        -0.09857522696256638, 
        0.005301483441144228, 
        0.605241596698761, 
        -0.01725769229233265, 
        -0.1279013305902481, 
        0.6452822089195251, 
        -0.2661888003349304, 
        0.3207070231437683, 
        0.30997851490974426, 
        0.3323638439178467, 
        -0.5557425022125244, 
        0.3610146641731262, 
        0.581584632396698, 
        -0.5601219534873962, 
        0.2609208822250366, 
        -0.07232830673456192, 
        -0.2873261272907257, 
        0.6045612692832947, 
        -0.0277162604033947, 
        0.6233521103858948, 
        0.46525824069976807, 
        0.6513599753379822, 
        -0.348334401845932, 
        0.1354687362909317, 
        -0.6229749321937561, 
        0.003956467844545841, 
        0.7254686951637268, 
        -0.44472411274909973, 
        -0.19493459165096283, 
        0.5334872007369995, 
        0.5864960551261902, 
        -0.38429102301597595, 
        0.004924447741359472, 
        0.6983750462532043, 
        -0.10312048345804214, 
        -0.46377381682395935, 
        0.4266113042831421, 
        0.022424835711717606, 
        -0.11700636893510818, 
        0.5328029990196228, 
        -0.6336539387702942, 
        -0.1819010078907013, 
        -0.12924537062644958, 
        0.7482657432556152, 
        -0.29381242394447327, 
        -0.37185901403427124, 
        -0.07196293771266937, 
        0.5191652178764343, 
        -0.0625670999288559, 
        -0.7143741846084595, 
        -0.47448524832725525, 
        -0.31722766160964966, 
        -0.029281483963131905, 
        0.15246251225471497, 
        0.5996886491775513, 
        0.06366291642189026, 
        -0.2107413113117218, 
        0.6481974124908447, 
        0.23654204607009888, 
        0.7046195864677429, 
        0.4164779484272003, 
        -0.7350038290023804, 
        -0.06628306210041046, 
        0.6356814503669739, 
        -0.5387442708015442, 
        0.04317272827029228, 
        -0.10391625016927719, 
        -0.3372269570827484, 
        0.5405367016792297, 
        -0.31945279240608215, 
        0.553161084651947, 
        0.6715065240859985, 
        0.6462817192077637, 
        -0.3745793402194977, 
        -0.7410826683044434, 
        -0.6661381125450134, 
        -0.5812126994132996, 
        0.22856946289539337, 
        -0.5165538191795349, 
        0.16222646832466125, 
        0.15586033463478088, 
        -0.5344668030738831, 
        -0.43937164545059204, 
        -0.6984920501708984, 
        -0.0020278957672417164, 
        0.467655211687088, 
        0.2285558581352234, 
        0.6002625823020935, 
        0.5065804719924927, 
        0.541509747505188, 
        -0.7210512757301331, 
        -0.5091097354888916, 
        -0.4209733307361603, 
        -0.5078259706497192, 
        0.08348607271909714, 
        -0.2590954005718231, 
        0.4537770450115204, 
        -0.46198269724845886, 
        -0.6016193628311157, 
        0.3460117280483246, 
        -0.030240381136536598, 
        0.6094005703926086, 
        -0.6647862792015076, 
        0.14015017449855804, 
        -0.6928492784500122, 
        -0.3202391564846039, 
        0.2126760333776474, 
        0.04722435772418976, 
        -0.043059881776571274, 
        -0.39463579654693604, 
        0.30892375111579895, 
        -0.059564873576164246, 
        -0.20849715173244476, 
        -0.2754104435443878, 
        -0.08657959848642349, 
        0.6065120697021484, 
        -0.2894473373889923, 
        -0.6141633987426758, 
        -0.7139098644256592, 
        0.2236538678407669, 
        -0.28006061911582947, 
        -0.5538753271102905, 
        0.5624476075172424, 
        0.6747612953186035, 
        -0.6052286028862, 
        -0.620637059211731, 
        -0.3677050471305847, 
        0.14297623932361603, 
        0.7697420716285706, 
        0.3315664827823639, 
        0.3346632421016693, 
        -0.6637399196624756, 
        0.27289703488349915, 
        -0.336689293384552, 
        0.09992240369319916, 
        -0.13094235956668854, 
        -0.2729271352291107, 
        -0.12214414775371552, 
        -0.10868143290281296, 
        -0.4735580384731293, 
        -0.22141456604003906, 
        -0.2153140902519226, 
        -0.3900160789489746, 
        -0.3507181704044342, 
        0.2883586883544922, 
        -0.3157840669155121, 
        0.4594610929489136, 
        -0.20990248024463654, 
        -0.7207396030426025, 
        -0.1820438951253891, 
        0.23190179467201233, 
        -0.4967249631881714, 
        0.32870376110076904, 
        -0.09720727056264877, 
        0.5644019842147827, 
        0.21737222373485565, 
        -0.008546124212443829, 
        0.6170198917388916, 
        0.6618715524673462, 
        -0.47508522868156433, 
        -0.5954815745353699, 
        0.1727515161037445, 
        -0.6376737356185913, 
        0.4149446189403534, 
        -0.3623819649219513, 
        -0.38363364338874817, 
        0.31025612354278564, 
        0.1296396106481552, 
        -0.4854874908924103, 
        -0.004878481384366751, 
        -0.2733256220817566, 
        -0.5043401718139648, 
        -0.19738849997520447, 
        -0.28821057081222534, 
        -0.21501047909259796, 
        -0.49482572078704834, 
        -0.5613731145858765, 
        0.41149553656578064, 
        -0.5722684264183044, 
        0.7215542197227478, 
        0.01679719053208828, 
        0.11641507595777512, 
        -0.4226083755493164, 
        0.5855786800384521, 
        0.35328561067581177, 
        -0.514755129814148, 
        -0.43401819467544556, 
        0.32013317942619324, 
        -0.3405148983001709, 
        -0.5699993371963501, 
        -0.5262237787246704, 
        0.2578642964363098, 
        -0.3227613568305969, 
        0.6227197647094727, 
        -0.7133449912071228, 
        -0.5078371167182922, 
        0.6215081214904785, 
        0.04526931792497635, 
        0.2570907175540924, 
        0.2651630640029907, 
        -0.6242385506629944, 
        0.37659886479377747, 
        0.6006062626838684, 
        0.5535125136375427, 
        -0.7044282555580139, 
        0.40837913751602173, 
        -0.6932029724121094, 
        0.5771942734718323, 
        0.2988318204879761, 
        -0.027531085535883904, 
        -0.2633662223815918, 
        0.7015129327774048, 
        -0.014325326308608055, 
        0.45097023248672485, 
        0.7190576791763306, 
        -0.2746734917163849, 
        0.1825641542673111, 
        0.2311672568321228, 
        0.3057349622249603, 
        -0.40778622031211853, 
        0.05646946653723717, 
        0.5088037252426147, 
        0.6297095417976379, 
        0.01938243769109249, 
        -0.13296134769916534, 
        0.0404958538711071, 
        0.3364103436470032, 
        0.7716183662414551, 
        -0.5915495753288269, 
        -0.3793483078479767, 
        0.43117398023605347, 
        -0.3318183422088623, 
        0.6558603644371033, 
        0.08932047337293625, 
        0.27316713333129883, 
        -0.07070773839950562, 
        -0.5207984447479248, 
        0.257146954536438, 
        0.7861267328262329, 
        0.05351737514138222, 
        0.43055295944213867, 
        0.581427812576294, 
        0.5940060019493103, 
        0.39901864528656006, 
        0.4558871388435364, 
        -0.10190693289041519, 
        0.5687731504440308, 
        -0.7085105776786804, 
        -0.5082335472106934, 
        -0.6009408235549927, 
        0.7511979341506958, 
        0.39027830958366394, 
        -0.6276671886444092, 
        -0.6488855481147766, 
        0.2023971527814865, 
        0.07101019471883774, 
        0.3619648814201355, 
        -0.24734818935394287, 
        -0.18551091849803925, 
        0.62753826379776, 
        -0.4932955801486969, 
        -0.39516395330429077, 
        -0.5588749647140503, 
        0.39346423745155334, 
        -0.6198673248291016, 
        0.2830474376678467, 
        -0.7783075571060181, 
        0.47664692997932434, 
        -0.34106072783470154, 
        -0.3232227861881256, 
        -0.6560797691345215, 
        -0.026436053216457367, 
        0.27244722843170166, 
        0.30404677987098694, 
        -0.01946648769080639, 
        -0.4546528160572052, 
        -0.8241791129112244, 
        0.07680153846740723, 
        -0.213358536362648, 
        -0.3407582640647888, 
        -0.42919522523880005, 
        -0.22426751255989075, 
        -0.08424890041351318, 
        -0.04680880159139633, 
        0.39675456285476685, 
        0.47290775179862976, 
        -0.4035515785217285, 
        0.44567063450813293, 
        0.7578054070472717, 
        -0.46008339524269104, 
        0.5594966411590576, 
        0.3824942111968994, 
        -0.034085340797901154, 
        0.6970810294151306, 
        0.7009598016738892, 
        0.5150631070137024, 
        0.08630982041358948, 
        0.4935486316680908, 
        0.028168965131044388, 
        0.5278104543685913, 
        -0.02833070047199726, 
        0.40479159355163574, 
        0.10952206701040268, 
        -0.19483299553394318, 
        0.35720357298851013, 
        -0.5722283720970154, 
        -0.6986944675445557, 
        0.10322955995798111, 
        0.11488918215036392, 
        -0.5964106917381287, 
        -0.7095714211463928, 
        -0.24598552286624908, 
        0.24109002947807312, 
        -0.1771637201309204, 
        -0.026344098150730133, 
        -0.4584350287914276, 
        -0.10534874349832535, 
        0.5627565979957581, 
        -0.1964026689529419, 
        0.21020998060703278, 
        0.6852419376373291, 
        -0.3154294192790985, 
        0.2666988670825958, 
        0.17378291487693787, 
        0.2901335656642914, 
        0.5005627870559692, 
        0.30670443177223206, 
        -0.004860005807131529, 
        0.41451746225357056, 
        -0.1849249005317688, 
        -0.10264280438423157, 
        -0.0662921890616417, 
        -0.1464584916830063, 
        0.19513434171676636, 
        -0.6810938715934753, 
        -0.6211172342300415, 
        -0.07426479458808899, 
        0.23476086556911469, 
        -0.3510590195655823, 
        0.6476938724517822, 
        0.5923300385475159, 
        -0.2427908331155777, 
        -0.25066301226615906, 
        -0.2719917595386505, 
        0.26429980993270874, 
        -0.3316672742366791, 
        -0.7379583120346069, 
        0.6467196345329285, 
        0.4815233051776886, 
        -0.6001035571098328, 
        0.09484446793794632, 
        0.4363633692264557, 
        0.7212561964988708, 
        0.3089355528354645, 
        0.44254156947135925, 
        0.03190832585096359, 
        -0.04917680844664574, 
        0.3065335154533386, 
        0.02207602933049202, 
        -0.1347574144601822, 
        0.5997276306152344, 
        0.08640694618225098, 
        -0.16716191172599792, 
        0.6391205787658691, 
        0.0802723839879036, 
        0.22089441120624542, 
        -0.5600554347038269, 
        -0.1463649421930313, 
        0.26421070098876953, 
        -0.3424336016178131, 
        -0.4579736292362213, 
        0.27580446004867554, 
        0.35627758502960205, 
        0.158015638589859, 
        0.4077438712120056, 
        -0.5264064073562622, 
        0.6045083403587341, 
        0.5545575618743896, 
        -0.1360926777124405, 
        0.5192111730575562, 
        -0.7036597728729248, 
        0.7572948932647705, 
        0.5955855250358582, 
        0.15989255905151367, 
        -0.05829238146543503, 
        0.4871613681316376, 
        0.41020411252975464, 
        -0.5256012678146362, 
        0.41079989075660706, 
        0.36718398332595825, 
        -0.21893897652626038, 
        -0.13554851710796356, 
        -0.35696157813072205, 
        0.5321706533432007, 
        0.6483839750289917, 
        0.7503127455711365, 
        0.16379691660404205, 
        0.17868880927562714, 
        0.7178431749343872, 
        -0.1515612006187439, 
        -0.4512070119380951, 
        -0.4161011576652527, 
        -0.7382946610450745, 
        -0.5972777605056763, 
        0.7182983756065369, 
        -0.21996812522411346, 
        -0.18666769564151764, 
        0.39295485615730286, 
        -0.52243572473526, 
        0.29072287678718567, 
        -0.032888054847717285, 
        0.3487801253795624, 
        0.5342874526977539, 
        0.23608119785785675, 
        0.4104740619659424, 
        0.39855992794036865, 
        0.07290904968976974, 
        0.02047758735716343, 
        -0.4907442033290863, 
        -0.3593761920928955, 
        -0.04626309499144554, 
        -0.3299785852432251, 
        0.10091709345579147, 
        0.3446910083293915, 
        -0.41271162033081055, 
        0.6663439869880676, 
        -0.3434489965438843, 
        -0.03223404660820961, 
        0.13050606846809387, 
        -0.036376953125, 
        -0.6345780491828918, 
        -0.22502243518829346, 
        -0.35819894075393677, 
        0.22883981466293335, 
        -0.6473196148872375, 
        0.2098286747932434, 
        -0.060564231127500534, 
        -0.5499510169029236, 
        -0.7456638216972351, 
        0.011972135864198208, 
        0.2628379762172699, 
        0.3586074411869049, 
        -0.4760034382343292, 
        0.6639424562454224, 
        -0.344853937625885, 
        -0.7328869104385376, 
        -0.48946452140808105, 
        -0.5522578358650208, 
        -0.5675659775733948, 
        -0.17405305802822113, 
        0.24189254641532898, 
        0.2596670091152191, 
        -0.21349434554576874, 
        -0.3339424431324005, 
        -0.6213635206222534, 
        0.3172857463359833, 
        0.11839993298053741, 
        0.5246918797492981, 
        -0.03665325790643692, 
        0.37754136323928833, 
        0.6419615149497986, 
        -0.15250582993030548, 
        -0.014270597137510777, 
        0.33634427189826965, 
        0.5770533680915833, 
        0.3142532408237457, 
        -0.7134914398193359, 
        -0.14885573089122772, 
        -0.6808075904846191, 
        0.8063136339187622, 
        -0.30872535705566406, 
        -0.6359888315200806, 
        0.23755359649658203, 
        0.46960893273353577, 
        -0.5093932151794434, 
        -0.5138605833053589, 
        -0.5983583331108093, 
        -0.2703658938407898, 
        0.23864924907684326, 
        -0.10454083979129791, 
        0.3729110062122345, 
        -0.6392913460731506, 
        -0.7236837148666382, 
        -0.537988007068634, 
        0.44777172803878784, 
        -0.06690647453069687, 
        -0.05111943557858467, 
        0.3998797833919525, 
        0.3737243413925171, 
        -0.06156305596232414, 
        0.07921332120895386, 
        -0.6743454337120056, 
        -0.5976973176002502, 
        0.4746304154396057, 
        0.5135303735733032, 
        -0.6309472918510437, 
        -0.06969185173511505, 
        -0.06245587766170502, 
        -0.10000110417604446, 
        0.03947633132338524, 
        -0.5643549561500549, 
        0.6972594857215881, 
        -0.7735264897346497, 
        0.06405849009752274, 
        -0.09929242730140686, 
        0.13723787665367126, 
        -0.6935712099075317, 
        -0.011438745073974133, 
        0.5695785284042358, 
        -0.005491822026669979, 
        -0.22802671790122986, 
        0.715888261795044, 
        -0.6990609169006348, 
        -0.4448677897453308, 
        0.33455485105514526, 
        0.28938692808151245, 
        -0.16534093022346497, 
        0.05414656177163124, 
        -0.28305330872535706, 
        0.4820343255996704, 
        -0.5365068912506104, 
        -0.16135817766189575, 
        -0.14153489470481873, 
        0.2720082402229309, 
        -0.3801761269569397, 
        -0.6624247431755066, 
        -0.5268117189407349, 
        -0.38523826003074646, 
        -0.45905759930610657, 
        -0.28006502985954285, 
        -0.07148824632167816, 
        0.19864580035209656, 
        0.6500898599624634, 
        -0.13609124720096588, 
        -0.6198461651802063, 
        0.32323071360588074, 
        0.5539829134941101, 
        -0.6307101845741272, 
        0.16744673252105713, 
        -0.18040649592876434, 
        0.646163284778595, 
        -0.11266396939754486, 
        -0.5445931553840637, 
        -0.170518696308136, 
        -0.0605074018239975, 
        0.3114117383956909, 
        0.49600279331207275, 
        0.5192075371742249, 
        0.6882408857345581, 
        0.14674808084964752, 
        -0.0727955549955368, 
        -0.5506845712661743, 
        0.5436509251594543, 
        0.7289794683456421, 
        -0.07455021142959595, 
        0.6172686219215393, 
        -0.2238546907901764, 
        0.32555562257766724, 
        -0.2563405930995941, 
        -0.6791121959686279, 
        0.4153621196746826, 
        0.4663130044937134, 
        -0.10815343260765076, 
        0.19730278849601746, 
        -0.6059647798538208, 
        -0.29455286264419556, 
        0.2097267210483551, 
        -0.6824197769165039, 
        0.4257427752017975, 
        0.30496373772621155, 
        0.37340399622917175, 
        0.7200782299041748, 
        0.26924610137939453, 
        -0.008002393878996372, 
        -0.02348450943827629, 
        -0.705168604850769, 
        0.6854934096336365, 
        0.15905161201953888, 
        -0.0029100629035383463, 
        -0.09051007777452469, 
        0.5663039088249207, 
        0.4918827712535858, 
        0.516258180141449, 
        -0.45611897110939026, 
        -0.4246387481689453, 
        0.08918454498052597, 
        -0.32085466384887695, 
        -0.04520739987492561, 
        -0.17558375000953674, 
        0.4984014630317688, 
        0.60835200548172, 
        -0.1261303871870041, 
        0.11476687341928482, 
        0.5274807214736938, 
        -0.230211541056633, 
        -0.08654724806547165, 
        0.5083176493644714, 
        -0.45144543051719666, 
        0.35072532296180725, 
        -0.0052129062823951244, 
        0.7248557806015015, 
        0.38708075881004333, 
        -0.015787634998559952, 
        0.4486996829509735, 
        0.7130162119865417, 
        0.4647556245326996, 
        0.4319917559623718, 
        0.4881899952888489, 
        0.5721270442008972, 
        -0.7322940230369568, 
        0.5317095518112183, 
        -0.7275075316429138, 
        -0.638738214969635, 
        -0.6726507544517517, 
        -0.6440727710723877, 
        -0.1741936206817627, 
        -0.18056835234165192, 
        -0.39406490325927734, 
        -0.3849521279335022, 
        0.2528349757194519, 
        -0.6123929619789124, 
        0.3002805709838867, 
        0.23004183173179626, 
        -0.4055268466472626, 
        -0.3557537794113159, 
        0.5881426930427551, 
        -0.5114039778709412, 
        -0.6194843053817749, 
        0.25345364212989807, 
        0.4275670051574707, 
        -0.5365899801254272, 
        -0.32227861881256104, 
        0.7025519013404846, 
        -0.5655876398086548, 
        0.17095674574375153, 
        -0.6921217441558838, 
        -0.653110146522522, 
        0.7089634537696838, 
        -0.6400606632232666, 
        -0.6150659322738647, 
        0.6449919939041138, 
        -0.44347330927848816, 
        -0.76718670129776, 
        0.24443523585796356, 
        0.11543925106525421, 
        -0.6038049459457397, 
        -0.32838675379753113, 
        0.07777611166238785, 
        0.5408674478530884, 
        -0.3135080933570862, 
        0.5539789199829102, 
        -0.20956499874591827, 
        0.18870648741722107, 
        -0.3241771459579468, 
        -0.17804302275180817, 
        0.1757451444864273, 
        0.6611028909683228, 
        -0.5625326037406921, 
        -0.42239734530448914, 
        -0.16715559363365173, 
        0.672021210193634, 
        0.14201346039772034, 
        0.40233758091926575, 
        0.12859420478343964, 
        0.25393933057785034, 
        -0.07196661829948425, 
        -0.09816581755876541, 
        0.24685698747634888, 
        0.3537110984325409, 
        -0.23120999336242676, 
        0.027940472587943077, 
        -0.23443053662776947, 
        -0.15810027718544006, 
        -0.5272543430328369, 
        -0.2878935933113098, 
        0.012830410152673721, 
        0.10069973766803741, 
        0.3263373076915741, 
        0.590083658695221, 
        -0.45892593264579773, 
        0.2964863181114197, 
        -0.10013309121131897, 
        -0.6747008562088013, 
        0.614145040512085, 
        -0.6148015856742859, 
        0.22792725265026093, 
        -0.10104861855506897, 
        -0.27570831775665283, 
        0.7276126146316528, 
        -0.3320479094982147, 
        -0.7152962684631348, 
        0.09925808757543564, 
        0.5013198256492615, 
        0.6439319252967834, 
        0.3486458659172058, 
        0.5405595302581787, 
        0.3066200315952301, 
        -0.2805435061454773, 
        0.04352173954248428, 
        -0.7069650292396545, 
        -0.7406449913978577, 
        0.09639167040586472, 
        0.5449269413948059, 
        -0.5603839159011841, 
        -0.0933292806148529, 
        0.11672352999448776, 
        0.09039601683616638, 
        0.1960892528295517, 
        0.512622594833374, 
        0.5005913972854614, 
        0.18082807958126068, 
        -0.4192267656326294, 
        -0.07284169644117355, 
        -0.7084205150604248, 
        -0.2760823965072632, 
        -0.2305835485458374, 
        -0.259577214717865, 
        -0.7114741802215576, 
        -0.2804145812988281, 
        -0.6474554538726807, 
        -0.018935559317469597, 
        -0.35996219515800476, 
        0.10433913767337799, 
        -0.6760128736495972, 
        0.4594418406486511, 
        0.15223507583141327, 
        -0.006133928894996643, 
        -0.21062807738780975, 
        0.3165012001991272, 
        -0.6609948873519897, 
        -0.5060640573501587, 
        0.644933819770813, 
        0.597762942314148, 
        -0.0013744663447141647, 
        0.35262519121170044, 
        0.11759645491838455, 
        -0.06716443598270416, 
        -0.8066132068634033, 
        -0.2575699985027313, 
        -0.24783311784267426, 
        -0.4896908402442932, 
        -0.6786989569664001, 
        -0.8103299736976624, 
        -0.5784254670143127, 
        0.061924662441015244, 
        0.16459843516349792, 
        0.681613028049469, 
        -0.2734944522380829, 
        0.516438901424408, 
        0.4025038480758667, 
        -0.676974892616272, 
        -0.10620668530464172, 
        -0.36340710520744324, 
        0.003937635570764542, 
        -0.6729286313056946, 
        -0.31877875328063965, 
        0.7350330352783203, 
        -0.17796513438224792, 
        -0.2946878969669342, 
        -0.2477809190750122, 
        -0.3465646505355835, 
        0.06701507419347763, 
        0.13937169313430786, 
        -0.06518082320690155, 
        0.284087598323822, 
        -0.05114109441637993, 
        0.39617010951042175, 
        0.022621294483542442, 
        0.3461255431175232, 
        -0.5709846019744873, 
        0.41599103808403015, 
        0.586279571056366, 
        0.489596426486969, 
        -0.600859522819519, 
        -0.060081977397203445, 
        0.6344271302223206, 
        -0.24949751794338226, 
        0.5049875974655151, 
        -0.7132405638694763, 
        0.4016478359699249, 
        0.7034843564033508, 
        0.6725098490715027, 
        -0.23563657701015472, 
        -0.24745048582553864, 
        -0.2865518033504486, 
        0.46100330352783203, 
        0.41238293051719666, 
        -0.6563115119934082, 
        0.11336909979581833, 
        -0.030176527798175812, 
        0.28513410687446594, 
        0.38618430495262146, 
        -0.515117883682251, 
        0.47434142231941223, 
        0.5189409852027893, 
        0.0002301359490957111, 
        0.6738193035125732, 
        0.2980968654155731, 
        0.08602265268564224, 
        -0.09426283091306686, 
        -0.6578925848007202, 
        0.10320883989334106, 
        0.304850310087204, 
        0.3535606265068054, 
        0.6149430871009827, 
        -0.30885571241378784, 
        -0.42200300097465515, 
        0.7288036346435547, 
        0.03856736421585083, 
        -0.3728204071521759, 
        -0.2550928294658661, 
        -0.1822820007801056, 
        -0.6077691316604614, 
        0.22116148471832275, 
        0.10921365767717361, 
        0.03156869485974312, 
        -0.2722306251525879, 
        -0.1849835366010666, 
        -0.7166093587875366, 
        0.32268208265304565, 
        0.4218064546585083, 
        0.7283854484558105, 
        0.11057766526937485, 
        -0.38705819845199585, 
        0.5077112913131714, 
        -0.2875247001647949, 
        0.21348589658737183, 
        0.018668295815587044, 
        -0.12793298065662384, 
        0.6400507092475891, 
        -0.10643714666366577, 
        0.5337790250778198, 
        0.7001712322235107, 
        -0.392757773399353, 
        -0.31893783807754517, 
        0.4934777319431305, 
        -0.6959134936332703, 
        -0.28572148084640503, 
        0.029283640906214714, 
        -0.2572687864303589
      ]
    }, 
    {
      "activation": "rectified", 
      "architecture": "dense", 
      "bias": [
        -0.036245934665203094, 
        -0.044415976852178574, 
        -0.04486481472849846, 
        0.04390331357717514, 
        -0.2175891250371933, 
        -0.027118373662233353, 
        -0.01706789806485176, 
        -0.12999124825000763, 
        0.11955834925174713, 
        0.10538489371538162, 
        -0.15918627381324768, 
        0.11679322272539139, 
        0.09357541799545288, 
        0.16909031569957733, 
        0.10732759535312653, 
        0.0753900334239006, 
        -0.1274123191833496, 
        -0.027073027566075325, 
        -0.06025410071015358, 
        -0.19589516520500183, 
        -0.046852316707372665, 
        -0.019125577062368393, 
        -0.02190217934548855, 
        -0.04736786335706711, 
        -0.03224397450685501, 
        -0.035147085785865784, 
        -0.05544779822230339, 
        0.10444512218236923, 
        -0.043806955218315125, 
        -0.02899751253426075, 
        0.01734124682843685, 
        0.010122683830559254, 
        0.07947170734405518, 
        -0.14268068969249725, 
        -0.15463976562023163, 
        0.029185453429818153, 
        0.07260014116764069, 
        0.05889677256345749, 
        -0.04308634251356125, 
        0.03457231447100639, 
        -0.03916921466588974, 
        0.2012634128332138, 
        0.0951271802186966, 
        -0.18495360016822815, 
        0.13294024765491486, 
        0.03293687105178833, 
        0.05285698175430298, 
        -0.0572190061211586, 
        -0.037285879254341125, 
        0.09638344496488571, 
        0.12544552981853485, 
        -0.05997329577803612, 
        0.05855979025363922, 
        -0.03674139827489853, 
        -0.04411976784467697, 
        -0.17676126956939697, 
        0.03132772073149681, 
        -0.06291401386260986, 
        -0.04906904324889183, 
        0.03635679930448532, 
        0.08782663941383362, 
        0.03741740807890892, 
        -0.0704370066523552, 
        0.10017385333776474, 
        0.05425390228629112, 
        0.1584448367357254, 
        -0.0305568128824234, 
        -0.13805021345615387, 
        -0.1514062136411667, 
        -0.049998655915260315, 
        0.08676330745220184, 
        0.06676595658063889, 
        -0.04246249794960022, 
        0.0560639314353466, 
        0.033816151320934296, 
        0.04526688531041145, 
        0.06044204533100128, 
        0.04811402037739754, 
        -0.06925664097070694, 
        0.04535636678338051, 
        0.11113277822732925, 
        -0.03159884363412857, 
        -0.17589789628982544, 
        0.1474837362766266, 
        0.08363530784845352, 
        0.032194625586271286, 
        0.05076535791158676, 
        -0.02142787165939808, 
        -0.02415822446346283, 
        0.0461006797850132, 
        0.029679566621780396, 
        -0.07740887999534607, 
        0.05606038495898247, 
        -0.02564508467912674, 
        -0.042300816625356674, 
        -0.05276257544755936, 
        0.03698926046490669, 
        -0.17074503004550934, 
        -0.07034917175769806, 
        0.06735751032829285, 
        -0.032649926841259, 
        0.1141919493675232, 
        0.04066958650946617, 
        0.13377290964126587, 
        -0.040510743856430054, 
        -0.03830279782414436, 
        0.12191347777843475, 
        0.12179219722747803, 
        0.1799612194299698, 
        -0.1645110845565796, 
        -0.05197064206004143, 
        0.058024629950523376, 
        0.07954296469688416, 
        0.08517220616340637, 
        -0.060008130967617035, 
        -0.04442955181002617, 
        -0.09328126162290573, 
        0.06813886761665344, 
        -0.04463332146406174, 
        0.1589123159646988, 
        0.06671791523694992, 
        0.06490398943424225, 
        0.03655726835131645, 
        0.07933909446001053, 
        9.059704461833462e-05, 
        0.056846097111701965, 
        0.15457800030708313, 
        0.1496836394071579, 
        0.07959026843309402, 
        0.15561926364898682, 
        0.20414584875106812, 
        -0.044689200818538666, 
        0.10664772987365723, 
        -0.04234735295176506, 
        0.08088178932666779, 
        -0.038115665316581726, 
        -0.14848162233829498, 
        0.15398643910884857, 
        -0.13396717607975006, 
        -0.03261351212859154, 
        -0.07886211574077606, 
        -0.04217780381441116, 
        0.04567285254597664, 
        -0.04422415792942047, 
        0.028247609734535217, 
        -0.06008944660425186, 
        0.08317921310663223, 
        0.05945556238293648, 
        -0.0603007934987545, 
        0.03650929406285286, 
        0.04573727771639824, 
        0.051325682550668716, 
        0.055563781410455704, 
        -0.03948080912232399, 
        -0.036404695361852646, 
        -0.16943812370300293, 
        0.02886093221604824, 
        0.07662773877382278, 
        -0.04904322326183319, 
        -0.04217774048447609, 
        0.08849256485700607, 
        -0.17278529703617096, 
        0.021474367007613182, 
        -0.035220447927713394, 
        0.0737038403749466, 
        0.0159149207174778, 
        0.051305752247571945, 
        -0.03444588556885719, 
        -0.04348296672105789, 
        0.04294242709875107, 
        0.12233281880617142, 
        -0.06531371921300888, 
        -0.014612231403589249, 
        -0.04357653111219406, 
        -0.041260674595832825, 
        -0.03728317841887474, 
        -0.04826212674379349, 
        -0.04120787978172302, 
        -0.042382754385471344, 
        0.1272670328617096, 
        0.04987574368715286, 
        0.015741363167762756, 
        0.04811376333236694, 
        0.12509433925151825, 
        -0.0258527509868145, 
        0.03011411242187023, 
        -0.03689737990498543, 
        -0.13808158040046692, 
        0.1468433141708374, 
