{
  "input_sequences": [], 
  "inputs": [
    {
      "name": "node_0", 
      "variables": [
        {
          "name": "variable_0", 
          "offset": 0, 
          "scale": 1
        }, 
        {
          "name": "variable_1", 
          "offset": 0, 
          "scale": 1
        }, 
        {
          "name": "variable_2", 
          "offset": 0, 
          "scale": 1
        }, 
        {
          "name": "variable_3", 
          "offset": 0, 
          "scale": 1
        }, 
        {
          "name": "variable_4", 
          "offset": 0, 
          "scale": 1
        }, 
        {
          "name": "variable_5", 
          "offset": 0, 
          "scale": 1
        }, 
        {
          "name": "variable_6", 
          "offset": 0, 
          "scale": 1
        }, 
        {
          "name": "variable_7", 
          "offset": 0, 
          "scale": 1
        }, 
        {
          "name": "variable_8", 
          "offset": 0, 
          "scale": 1
        }, 
        {
          "name": "variable_9", 
          "offset": 0, 
          "scale": 1
        }, 
        {
          "name": "variable_10", 
          "offset": 0, 
          "scale": 1
        }
      ]
    }
  ], 
  "layers": [
    {
      "architecture": "normalization", 
      "bias": [
        -527709.25, 
        -182162.125, 
        -0.2762884497642517, 
        -3.2850430011749268, 
        -2.7928032875061035, 
        -0.0780610665678978, 
        -6.041285991668701, 
        -3.3232905864715576, 
        -4.509732246398926, 
        -0.7398800849914551, 
        -7.526935577392578
      ], 
      "weights": [
        1.1939105206693057e-06, 
        9.03455656953156e-06, 
        5.148557186126709, 
        0.5343579649925232, 
        2.253178596496582, 
        2.089409589767456, 
        0.6299868822097778, 
        0.334469735622406, 
        0.32213103771209717, 
        1.278982162475586, 
        0.1139269545674324
      ]
    }, 
    {
      "activation": "tanh", 
      "architecture": "dense", 
      "bias": [
        -0.14044012129306793, 
        0.15466728806495667, 
        -0.14874133467674255, 
        0.0735364630818367, 
        0.23817165195941925, 
        -0.10577895492315292, 
        -0.009029097855091095, 
        0.07614559680223465, 
        0.15746232867240906, 
        0.11813294887542725, 
        0.12552981078624725, 
        -0.24278506636619568, 
        -0.005980698391795158, 
        0.12561701238155365, 
        -0.3067050874233246, 
        -0.10789933055639267, 
        0.11075679957866669, 
        -0.17560891807079315, 
        0.028613323345780373, 
        0.048798028379678726, 
        -0.21974991261959076, 
        -0.03197159618139267, 
        0.1054883748292923, 
        -0.0791158378124237, 
        0.196868896484375, 
        0.12233473360538483, 
        -0.23216980695724487, 
        -0.022054506465792656, 
        0.057264264672994614, 
        0.1398918330669403, 
        0.10188122093677521, 
        -0.0845579206943512, 
        0.08660423010587692, 
        -0.044715505093336105, 
        0.03661142289638519, 
        -0.25261449813842773, 
        0.14803721010684967, 
        -0.1876874566078186, 
        0.047791652381420135, 
        0.01596185937523842, 
        -0.14678026735782623, 
        -0.1237538680434227, 
        -0.2547329068183899, 
        -0.32178759574890137, 
        0.05103446915745735, 
        0.1435728371143341, 
        -0.21767427027225494, 
        0.08952171355485916, 
        -0.0010094218887388706, 
        -0.04730777069926262, 
        -0.2846638560295105, 
        0.0022563906386494637, 
        -0.20670492947101593, 
        -0.13586464524269104, 
        0.07416972517967224, 
        -0.17428524792194366, 
        -0.1561744511127472, 
        -0.09070414304733276, 
        0.12313606590032578, 
        -0.21404646337032318, 
        0.17505231499671936, 
        0.1572771817445755, 
        0.014464173465967178, 
        -0.07871358841657639, 
        -0.14810389280319214, 
        0.27749812602996826, 
        0.10509997606277466, 
        -0.17443953454494476, 
        0.05429760366678238, 
        0.10088934004306793, 
        -0.20942702889442444, 
        -0.027090931311249733, 
        -0.12042071670293808, 
        -0.19885031878948212, 
        -0.22204142808914185, 
        0.05594692751765251, 
        -0.06678057461977005, 
        0.21200844645500183, 
        -0.15643616020679474, 
        0.16534915566444397, 
        -0.1644473522901535, 
        0.04749670252203941, 
        -0.09262868016958237, 
        0.07169202715158463, 
        -0.2747271955013275, 
        -0.09437140077352524, 
        0.11975256353616714, 
        -0.07713779807090759, 
        -0.23924049735069275, 
        0.04840024560689926, 
        0.13144993782043457, 
        0.14187753200531006, 
        -0.08749229460954666, 
        0.09700394421815872, 
        0.047831423580646515, 
        0.2937532365322113, 
        -0.14667358994483948, 
        -0.11444569379091263, 
        0.15592314302921295, 
        0.17247378826141357, 
        -0.04627223685383797, 
        -0.1549992710351944, 
        0.019749516621232033, 
        -0.028592370450496674, 
        -0.08719233423471451, 
        0.07410484552383423, 
        0.31138527393341064, 
        0.092258520424366, 
        -0.096509650349617, 
        -0.16434958577156067, 
        0.1920023262500763, 
        0.06001712381839752, 
        -0.2534872591495514, 
        -0.09030524641275406, 
        0.20079004764556885, 
        -0.127413809299469, 
        0.11616872251033783, 
        -0.08447837829589844, 
        0.13805288076400757, 
        0.10543052107095718, 
        -0.22186173498630524, 
        -0.20308351516723633, 
        -0.26347872614860535, 
        0.13861355185508728, 
        0.24185651540756226, 
        -0.1533561497926712, 
        0.17657162249088287, 
        0.16145309805870056, 
        0.18471196293830872, 
        0.18510553240776062, 
        0.1170048788189888, 
        -0.05076533183455467, 
        -0.3057199716567993, 
        -0.16570372879505157, 
        0.12589339911937714, 
        0.0029507544822990894, 
        0.07305660843849182, 
        -0.10635928064584732, 
        0.15613466501235962, 
        0.14205655455589294, 
        0.15100207924842834, 
        -0.1266821324825287, 
        0.08107596635818481, 
        -0.03544636443257332, 
        0.0440828762948513, 
        0.12166698276996613, 
        0.15752089023590088, 
        0.11591639369726181, 
        0.0661482959985733, 
        0.13572543859481812, 
        0.14750298857688904, 
        -0.03654615581035614, 
        0.11562208831310272, 
        -0.05805731564760208, 
        -0.03973401337862015, 
        0.08527030795812607, 
        0.32957762479782104, 
        -0.09892749041318893, 
        -0.2011360079050064, 
        0.019135838374495506, 
        0.09637456387281418, 
        0.1282566487789154, 
        -0.048322975635528564, 
        -0.1339215338230133, 
        0.09168536961078644, 
        -0.05395469814538956, 
        0.2678707242012024, 
        -0.15167951583862305, 
        0.0833844393491745, 
        -0.2865279018878937, 
        -0.2177475541830063, 
        -0.1365792602300644, 
        0.14845392107963562, 
        0.11569369584321976, 
        -0.1178022176027298, 
        0.08320287615060806, 
        0.025238877162337303, 
        -0.2422453612089157, 
        -0.25603845715522766, 
        -0.27969199419021606, 
        0.04260785132646561, 
        -0.0005825593252666295, 
        -0.017901701852679253, 
        0.09247223287820816, 
        0.17422223091125488, 
        -0.3413054943084717, 
        0.2593502998352051, 
        0.10678806900978088, 
        -0.0077225021086633205, 
        -0.056829798966646194, 
        -0.13146384060382843, 
        0.10183554887771606, 
        0.07840576767921448, 
        -0.26228904724121094, 
        0.23069807887077332, 
        -0.25717470049858093, 
        -0.1833609640598297, 
        0.1518993228673935, 
        -0.1133684292435646, 
        0.10393568873405457, 
        -0.0974740982055664, 
        -0.20021267235279083, 
        -0.10880851000547409, 
        -0.1771858036518097, 
        -0.20383326709270477, 
        -0.0059469593688845634, 
        0.19965530931949615, 
        0.2608765959739685, 
        -0.1382552534341812, 
        0.1889791041612625, 
        0.1993737518787384, 
        -0.10843399912118912, 
        -0.11576416343450546, 
        -0.09863150119781494, 
        0.08644133806228638, 
        0.17515406012535095, 
        0.1932544708251953, 
        0.05259019508957863, 
        -0.26017025113105774, 
        -0.13018463551998138, 
        0.2415829747915268, 
        0.2873411774635315, 
        0.13400866091251373, 
        0.09417540580034256, 
        0.12032405287027359, 
        0.045854099094867706, 
        0.19864095747470856, 
        0.1620110720396042, 
        0.1737678050994873, 
        0.1343327909708023, 
        -0.10882077366113663, 
        0.037682246416807175, 
        0.07940113544464111, 
        -0.0561504140496254, 
        -0.12348726391792297, 
        -0.10226672142744064, 
        -0.21285787224769592, 
        0.02252066507935524, 
        0.0803086906671524, 
        0.05001044273376465, 
        -0.11269377171993256, 
        -0.08407941460609436, 
        0.25822341442108154, 
        -0.07554849982261658, 
        -0.29227519035339355, 
        -0.15946607291698456, 
        -0.028576413169503212, 
        0.0045857555232942104, 
        -0.0641188845038414, 
        -0.07834431529045105, 
        0.12747465074062347, 
        0.053183216601610184, 
        0.06146380677819252, 
        0.07668796181678772, 
        0.22072798013687134, 
        -0.18487852811813354, 
        0.15078476071357727, 
        -0.11914221942424774, 
        0.2375641018152237, 
        -0.2759304642677307, 
        -0.07024814188480377, 
        0.3450976014137268, 
        0.08080251514911652, 
        -0.31803959608078003, 
        0.18755124509334564, 
        -0.025097621604800224, 
        0.14416590332984924, 
        0.02938653528690338, 
        0.19119052588939667, 
        -0.21131519973278046, 
        0.12471766024827957, 
        0.1202910989522934, 
        0.16102994978427887, 
        -0.1414906531572342, 
        -0.10216888785362244, 
        -0.22689153254032135, 
        -0.11563489586114883, 
        -0.1001291573047638, 
        0.13302013278007507, 
        0.06419418752193451, 
        -0.11013086885213852, 
        0.051387231796979904, 
        -0.16170929372310638, 
        0.032220855355262756, 
        -0.17661534249782562, 
        0.19091486930847168, 
        0.14248014986515045, 
        -0.323601633310318, 
        -0.1188993975520134, 
        0.1204858347773552, 
        0.008476405404508114, 
        -0.08066350966691971, 
        0.045093607157468796, 
        -0.09822431951761246, 
        0.21636691689491272, 
        -0.15585215389728546, 
        0.16425727307796478, 
        0.3266523480415344, 
        -0.0794646367430687, 
        0.07038415968418121, 
        -0.1864069402217865, 
        -0.20753279328346252, 
        0.09301706403493881, 
        0.3299291431903839, 
        -0.006994436029344797, 
        -0.3619973659515381, 
        0.08631415665149689, 
        -0.12160337716341019, 
        -0.12638887763023376, 
        -0.20295871794223785, 
        -0.17166203260421753, 
        -0.09162385016679764, 
        0.14145930111408234, 
        0.05753728002309799, 
        0.10746560990810394, 
        0.12546254694461823, 
        -0.111734539270401, 
        -0.1143367812037468, 
        0.16202786564826965, 
        0.11551699042320251, 
        0.017098939046263695, 
        0.06823333352804184, 
        0.2671058475971222, 
        -0.031459782272577286, 
        0.13881158828735352, 
        0.048758868128061295, 
        0.21250127255916595, 
        0.1024085283279419, 
        0.25288814306259155, 
        -0.11671511828899384, 
        0.23077614605426788, 
        0.07366089522838593, 
        -0.12841583788394928, 
        0.0019526039250195026, 
        -0.02489432692527771, 
        0.04876900464296341, 
        -0.1384810507297516, 
        0.09369448572397232, 
        0.10496047884225845, 
        0.019480472430586815, 
        0.0031624305993318558, 
        -0.0867731124162674, 
        -0.23889197409152985, 
        0.01361817866563797, 
        -0.07732751220464706, 
        0.2146323025226593, 
        -0.0690876841545105, 
        0.03442029282450676, 
        0.12794440984725952, 
        -0.04726708307862282, 
        -0.09549977630376816, 
        0.12513382732868195, 
        -0.11738023906946182, 
        -0.16884328424930573, 
        0.15596987307071686, 
        -0.19329404830932617, 
        -0.3215256333351135, 
        0.06960638612508774, 
        0.021825872361660004, 
        0.18476475775241852, 
        0.06132391467690468, 
        -0.11816680431365967, 
        -0.14360111951828003, 
        -0.11657094955444336, 
        -0.09519726783037186, 
        -0.11449723690748215, 
        0.04826953262090683, 
        0.11519484221935272, 
        0.1996251344680786, 
        -0.13141486048698425, 
        0.21738788485527039, 
        0.2517886459827423, 
        0.030273566022515297, 
        0.06661661714315414, 
        -0.20012231171131134, 
        0.30907493829727173, 
        0.3064720630645752, 
        -0.12236043065786362, 
        0.16639328002929688, 
        -0.11006685346364975, 
        0.060599200427532196, 
        -0.057817913591861725, 
        0.2131330817937851, 
        0.13893403112888336, 
        -0.2541757822036743, 
        0.12547826766967773, 
        -0.06349112838506699, 
        0.15404066443443298, 
        0.21796225011348724, 
        -0.1073659211397171, 
        -0.08447355031967163, 
        0.33320295810699463, 
        0.18013569712638855, 
        -0.06053407862782478, 
        -0.13319210708141327, 
        -0.23667290806770325, 
        -0.16304127871990204, 
        0.09705304354429245, 
        -0.16122084856033325, 
        -0.18707071244716644, 
        0.1855097860097885, 
        0.17832829058170319, 
        0.19779887795448303, 
        -0.09725651890039444, 
        0.09317100048065186, 
        -0.0347847081720829, 
        -0.09626924246549606, 
        -0.141606405377388, 
        -0.09828795492649078, 
        0.3298599421977997, 
        -0.13807067275047302, 
        0.24119578301906586, 
        -0.07114860415458679, 
        -0.1262178272008896, 
        -0.0027839220128953457, 
        0.09374938905239105, 
        -0.23575519025325775, 
        0.07733193784952164, 
        0.006681852508336306, 
        -0.18089400231838226, 
        0.23556730151176453, 
        -0.030999401584267616, 
        -0.08887671679258347, 
        -0.2726173996925354, 
        0.17122645676136017, 
        -0.13906840980052948, 
        -0.13138438761234283, 
        0.09434498101472855, 
        0.1889619678258896, 
        -0.21972116827964783, 
        0.03857903182506561, 
        0.09465309977531433, 
        0.16917374730110168, 
        -0.1064470186829567, 
        -0.05770440027117729, 
        -0.13652458786964417, 
        0.08217544108629227, 
        0.12929882109165192, 
        0.096201591193676, 
        -0.1688886433839798, 
        -0.03313335403800011, 
        0.06885440647602081, 
        -0.052836108952760696, 
        0.00859441701322794, 
        -0.16895811259746552, 
        0.06931698322296143, 
        0.08365833759307861, 
        0.21777132153511047, 
        0.04996965080499649, 
        -0.03503494709730148, 
        0.06840219348669052, 
        -0.2562204897403717, 
        -0.24747274816036224, 
        0.15613727271556854, 
        0.1450347602367401, 
        -0.09383072704076767, 
        -0.12854158878326416, 
        -0.07062277942895889, 
        -0.03458596393465996, 
        0.18272873759269714, 
        -0.07164893299341202, 
        0.11948614567518234, 
        -0.22735033929347992, 
        -0.21650683879852295, 
        0.0703234151005745, 
        0.22863511741161346, 
        0.12467366456985474, 
        0.1880074292421341, 
        -0.29111891984939575, 
        -0.32622841000556946, 
        0.12420327961444855, 
        -0.09590062499046326, 
        0.12692447006702423, 
        -0.029314953833818436, 
        -0.24052460491657257, 
        0.008273634128272533, 
        -0.1291947215795517, 
        -0.0835314691066742, 
        0.12228589504957199, 
        0.0791703537106514, 
        0.08313947916030884, 
        -0.07236787676811218, 
        0.06287254393100739, 
        0.02491697296500206, 
        0.16788245737552643, 
        -0.0566461980342865, 
        0.04298589006066322, 
        0.17400343716144562, 
        0.018443183973431587, 
        -0.16326665878295898, 
        0.03850960358977318, 
        0.12090768665075302, 
        0.12047691643238068, 
        0.1600581854581833, 
        -0.10336057096719742, 
        -0.08093246072530746, 
        0.03372262790799141, 
        0.15183240175247192, 
        -0.06745406985282898, 
        0.15024256706237793, 
        -0.16629138588905334, 
        -0.2333086133003235, 
        -0.09118800610303879, 
        -0.055018067359924316, 
        -0.05092332884669304, 
        0.033196013420820236, 
        -0.09748126566410065, 
        0.08477136492729187, 
        0.09384287148714066, 
        0.13323305547237396, 
        -0.08465385437011719, 
        0.36958613991737366
      ], 
      "weights": [
        0.5479098558425903, 
        -0.6952234506607056, 
        -0.6504529714584351, 
        -0.5990036129951477, 
        0.48853373527526855, 
        -0.5644108653068542, 
        -0.7015705704689026, 
        -0.4106670022010803, 
        -0.4469420313835144, 
        -0.18474097549915314, 
        0.16844990849494934, 
        -0.11592703312635422, 
        0.4350687861442566, 
        0.16334620118141174, 
        -0.4131166934967041, 
        -0.18851062655448914, 
        0.3294234871864319, 
        -0.5067636370658875, 
        -0.21449624001979828, 
        0.3777921497821808, 
        -0.587159276008606, 
        -0.2876221537590027, 
        -0.3083914816379547, 
        -0.05655014142394066, 
        0.42148369550704956, 
        0.2194196581840515, 
        0.24335654079914093, 
        -0.27207013964653015, 
        -0.3362925052642822, 
        -0.05116940662264824, 
        -0.4484354853630066, 
        -0.3273555040359497, 
        0.08260699361562729, 
        0.34496399760246277, 
        -0.39348477125167847, 
        0.16215446591377258, 
        0.31070059537887573, 
        0.4312807619571686, 
        -0.32467448711395264, 
        0.5220538377761841, 
        -1.1189662218093872, 
        -0.1695985049009323, 
        0.5146653056144714, 
        -0.3365395665168762, 
        -0.04119883105158806, 
        -0.2069031447172165, 
        -0.5472175478935242, 
        -0.15914574265480042, 
        0.7411160469055176, 
        0.17102499306201935, 
        -0.07828306406736374, 
        0.3713096082210541, 
        -0.5929197072982788, 
        -0.33543702960014343, 
        0.3451704978942871, 
        0.34074515104293823, 
        -0.15549761056900024, 
        -0.4051671326160431, 
        0.26634591817855835, 
        -0.012983661144971848, 
        -0.021429015323519707, 
        0.43465837836265564, 
        0.09279678761959076, 
        -0.24979883432388306, 
        -0.6019392013549805, 
        -0.35987576842308044, 
        0.6496562361717224, 
        -0.4713268280029297, 
        0.622588574886322, 
        -0.2031077891588211, 
        -0.5640866160392761, 
        0.014486520551145077, 
        -0.573393702507019, 
        -0.6869081854820251, 
        0.04398098587989807, 
        -0.12219877541065216, 
        -0.6621719002723694, 
        -0.6105296611785889, 
        -0.4065321981906891, 
        0.28251832723617554, 
        0.3114334046840668, 
        0.18814237415790558, 
        0.586166501045227, 
        0.3913007974624634, 
        -0.20834852755069733, 
        -0.06628210097551346, 
        0.6100752353668213, 
        -0.17457693815231323, 
        -0.1845603585243225, 
        0.25931504368782043, 
        0.5879316926002502, 
        0.5943294167518616, 
        -0.4299805760383606, 
        -0.24367022514343262, 
        0.2223949134349823, 
        0.4924796521663666, 
        0.4759843647480011, 
        0.696338415145874, 
        -0.23286505043506622, 
        0.08065090328454971, 
        -0.28014156222343445, 
        0.24862165749073029, 
        -0.08198783546686172, 
        -0.06662354618310928, 
        0.3199465274810791, 
        -0.05471319332718849, 
        0.4245982766151428, 
        -0.7020941376686096, 
        -0.544370710849762, 
        -0.46351325511932373, 
        -0.46519461274147034, 
        0.27110758423805237, 
        -0.047554511576890945, 
        -0.5101685523986816, 
        0.014164943248033524, 
        -0.5617357492446899, 
        0.4324972629547119, 
        -0.6461132764816284, 
        0.40002793073654175, 
        -0.05718369409441948, 
        0.19553573429584503, 
        0.227387934923172, 
        -0.3714860677719116, 
        -0.19062075018882751, 
        -0.44339245557785034, 
        0.04426496475934982, 
        -0.3369232714176178, 
        -0.7433988451957703, 
        -0.5246578454971313, 
        -0.17937152087688446, 
        0.6736832857131958, 
        -0.4455716907978058, 
        1.295464038848877, 
        -0.24671706557273865, 
        0.1314772665500641, 
        0.0019528883276507258, 
        0.0619482658803463, 
        -0.17828448116779327, 
        -0.011235453188419342, 
        0.40266430377960205, 
        -0.20509622991085052, 
        0.09872159361839294, 
        -0.452446848154068, 
        -0.16292902827262878, 
        -0.37154293060302734, 
        0.16774295270442963, 
        0.30598556995391846, 
        0.1269780695438385, 
        -0.44170087575912476, 
        -0.1645585298538208, 
        0.4070189893245697, 
        -0.11702311038970947, 
        0.24664004147052765, 
        -0.4278002381324768, 
        -0.2730875611305237, 
        0.09243927896022797, 
        -0.6163817644119263, 
        0.28071776032447815, 
        -0.4033874571323395, 
        0.4387176036834717, 
        0.5595887899398804, 
        -0.3150714635848999, 
        -0.21691815555095673, 
        -0.6803972721099854, 
        0.37856969237327576, 
        0.3538290560245514, 
        -0.26230522990226746, 
        0.5260173678398132, 
        0.21401278674602509, 
        -0.5813931226730347, 
        0.0003006591578014195, 
        0.2509865462779999, 
        -0.5484132170677185, 
        0.08142334222793579, 
        0.08095356076955795, 
        -0.5039120316505432, 
        -0.022291554138064384, 
        -0.5456170439720154, 
        -0.19465816020965576, 
        -0.06942542642354965, 
        0.15626177191734314, 
        -0.5063253045082092, 
        0.42200028896331787, 
        -0.7813305258750916, 
        -0.6295938491821289, 
        -0.2222447395324707, 
        0.4990004599094391, 
        -0.051858726888895035, 
        0.11573667079210281, 
        0.053105976432561874, 
        0.13295893371105194, 
        -0.16652998328208923, 
        0.48823246359825134, 
        0.41505399346351624, 
        -0.2596312165260315, 
        0.11742755770683289, 
        -0.5596680045127869, 
        0.5566632151603699, 
        0.7596988677978516, 
        0.1748916655778885, 
        -0.7256674766540527, 
        0.6777133345603943, 
        -0.6380125284194946, 
        0.022400395944714546, 
        0.44794660806655884, 
        -0.05636662617325783, 
        0.27372777462005615, 
        0.6556548476219177, 
        0.006144351791590452, 
        -0.016610870137810707, 
        -0.11845176666975021, 
        0.6357924938201904, 
        -0.2842104136943817, 
        -0.5365303158760071, 
        -0.8185694217681885, 
        -0.22143618762493134, 
        -0.39774107933044434, 
        0.21904614567756653, 
        -0.35516834259033203, 
        -0.7895190119743347, 
        0.4529584050178528, 
        -0.2149212807416916, 
        -0.08650286495685577, 
        -0.2031463235616684, 
        0.5460944771766663, 
        0.047707825899124146, 
        0.603596031665802, 
        -0.2629115581512451, 
        0.4076421856880188, 
        0.39821380376815796, 
        -0.17029878497123718, 
        0.6336216330528259, 
        0.7746584415435791, 
        -0.5175310969352722, 
        0.5987733602523804, 
        0.4827299416065216, 
        -0.07126936316490173, 
        -0.6732802391052246, 
        -0.4486052095890045, 
        0.08156564086675644, 
        -0.2993507981300354, 
        0.07629083842039108, 
        -0.19676215946674347, 
        -0.18965256214141846, 
        -0.06304279714822769, 
        -0.17302881181240082, 
        -0.2194649577140808, 
        -0.1366596221923828, 
        -0.8760834336280823, 
        -0.13974356651306152, 
        -0.04249121993780136, 
        -0.057405874133110046, 
        -0.007535648066550493, 
        0.8037658333778381, 
        0.12973196804523468, 
        -0.18232031166553497, 
        -0.9046254754066467, 
        -0.5586410760879517, 
        0.6851820945739746, 
        -0.6819186210632324, 
        0.3692598342895508, 
        -0.6280713677406311, 
        0.368862509727478, 
        -0.5369105339050293, 
        0.406734436750412, 
        -0.08975810557603836, 
        -0.1618230938911438, 
        -0.13707676529884338, 
        0.2543976306915283, 
        -0.046403080224990845, 
        0.22922641038894653, 
        -0.6929574012756348, 
        -0.8810626268386841, 
        -0.4320332705974579, 
        0.19683893024921417, 
        0.2768940329551697, 
        0.17748285830020905, 
        0.5676028728485107, 
        0.04385551065206528, 
        -0.35522422194480896, 
        -0.7204233407974243, 
        -0.5622355937957764, 
        -0.6422345638275146, 
        -0.15396764874458313, 
        -0.5277477502822876, 
        -0.09961823374032974, 
        -0.21381431818008423, 
        0.03563551604747772, 
        -0.18898800015449524, 
        0.02446712553501129, 
        0.4111363887786865, 
        0.105425626039505, 
        0.256249338388443, 
        -0.0599747933447361, 
        0.5261436700820923, 
        0.3117832541465759, 
        -0.3989429175853729, 
        0.43390360474586487, 
        -0.47925466299057007, 
        -0.07855499535799026, 
        0.003042716532945633, 
        -0.6355720162391663, 
        -0.4481922686100006, 
        0.7397171854972839, 
        -0.38611841201782227, 
        -0.3299960196018219, 
        0.120330810546875, 
        -0.7379152178764343, 
        0.37205517292022705, 
        -0.28740718960762024, 
        -0.610053539276123, 
        -0.526980996131897, 
        0.3296233117580414, 
        0.582198977470398, 
        -0.05337735638022423, 
        0.5431740283966064, 
        0.3843553066253662, 
        -0.666608452796936, 
        0.4696696102619171, 
        -0.7059935927391052, 
        -0.640746533870697, 
        -0.006136131472885609, 
        -0.1415695697069168, 
        -0.6389268040657043, 
        -0.2714107632637024, 
        -0.3915497362613678, 
        0.46435439586639404, 
        0.040379881858825684, 
        0.5348608493804932, 
        0.5588443875312805, 
        -0.30381616950035095, 
        -0.42710232734680176, 
        -0.204512357711792, 
        -0.18909205496311188, 
        -0.19514359533786774, 
        0.04354650899767876, 
        0.4544450342655182, 
        0.4397115707397461, 
        0.3231884241104126, 
        0.5759366154670715, 
        -0.2200663983821869, 
        0.20050306618213654, 
        -0.4519188702106476, 
        0.4310937821865082, 
        -0.3879567086696625, 
        -0.6570537686347961, 
        0.13940778374671936, 
        0.6010909676551819, 
        0.36628782749176025, 
        0.7273541688919067, 
        -0.05303634703159332, 
        -0.41722628474235535, 
        0.38751721382141113, 
        0.530242919921875, 
        -0.18175609409809113, 
        0.5790324807167053, 
        -0.28830841183662415, 
        -0.3432063162326813, 
        -0.567897379398346, 
        0.4768620729446411, 
        0.5085703134536743, 
        -0.6827686429023743, 
        -0.5201125741004944, 
        0.17357313632965088, 
        0.19243395328521729, 
        0.5878769755363464, 
        0.40488195419311523, 
        0.6909247636795044, 
        0.44910430908203125, 
        -0.5977580547332764, 
        -0.05071954429149628, 
        -0.22013188898563385, 
        0.4447721242904663, 
        0.27735719084739685, 
        0.4730584919452667, 
        -0.3452509939670563, 
        0.7012800574302673, 
        0.5184744596481323, 
        -0.6051759123802185, 
        -0.6703798770904541, 
        0.002383920131251216, 
        0.3296075761318207, 
        -0.5446829199790955, 
        0.5313716530799866, 
        -0.7088891267776489, 
        -0.6674821972846985, 
        0.15783323347568512, 
        0.6144166588783264, 
        0.06149141862988472, 
        -0.6830224394798279, 
        -0.31512096524238586, 
        0.24766458570957184, 
        0.23536613583564758, 
        -0.07703327387571335, 
        -0.5215364694595337, 
        -0.22922073304653168, 
        0.13982588052749634, 
        0.18725715577602386, 
        -0.10612089186906815, 
        -0.16110388934612274, 
        0.22813433408737183, 
        0.31019461154937744, 
        -0.06667014956474304, 
        -0.8752026557922363, 
        -0.6196357607841492, 
        0.372749000787735, 
        0.48158663511276245, 
        -0.2978288531303406, 
        0.0658343955874443, 
        0.3682568371295929, 
        -0.4488441050052643, 
        -0.8954306244850159, 
        0.4572015404701233, 
        0.5615952610969543, 
        0.23191000521183014, 
        -0.11566280573606491, 
        -0.3033214509487152, 
        0.12802757322788239, 
        0.5450470447540283, 
        0.6404063701629639, 
        -0.7613965272903442, 
        0.4743642807006836, 
        -0.5380696058273315, 
        -0.23326003551483154, 
        0.3161153495311737, 
        -0.43808987736701965, 
        -0.03353585675358772, 
        0.37039056420326233, 
        0.12255576997995377, 
        -0.7518174052238464, 
        -0.401917040348053, 
        0.10040443390607834, 
        0.16420862078666687, 
        0.19639982283115387, 
        0.8441804647445679, 
        0.16008856892585754, 
        -0.49275699257850647, 
        0.6736494898796082, 
        -0.5260560512542725, 
        -0.08982913196086884, 
        -0.43802088499069214, 
        0.17523497343063354, 
        0.3816410303115845, 
        -0.032376497983932495, 
        -0.2429756224155426, 
        -0.4187478721141815, 
        -0.11740842461585999, 
        -0.7697457671165466, 
        0.606548011302948, 
        0.08894652128219604, 
        0.15752606093883514, 
        -0.4613746106624603, 
        -0.33132877945899963, 
        -0.14185111224651337, 
        0.04538840800523758, 
        -0.7381315231323242, 
        0.11111222207546234, 
        0.3709067106246948, 
        0.6633729338645935, 
        -0.11559459567070007, 
        -0.22429902851581573, 
        -0.3563908040523529, 
        -0.6776754260063171, 
        0.32759007811546326, 
        0.4339034855365753, 
        -0.030697671696543694, 
        0.11679838597774506, 
        0.5457190275192261, 
        -0.1571737825870514, 
        0.25808143615722656, 
        0.5354912877082825, 
        -0.4162878096103668, 
        0.39710578322410583, 
        -0.1999901831150055, 
        0.5116109251976013, 
        0.6371750831604004, 
        0.1027098298072815, 
        -0.29137927293777466, 
        0.30043384432792664, 
        -0.3782259225845337, 
        -0.5372759103775024, 
        0.25771573185920715, 
        0.35195493698120117, 
        -0.2191118597984314, 
        -0.4687276780605316, 
        0.0667201355099678, 
        -0.3302420675754547, 
        0.4665566384792328, 
        -0.044911354780197144, 
        0.6457136273384094, 
        -0.3172024190425873, 
        0.17160294950008392, 
        -0.5766676068305969, 
        0.21590442955493927, 
        0.5781792998313904, 
        -0.43646377325057983, 
        -0.11473087966442108, 
        0.008396988734602928, 
        -0.695879340171814, 
        -0.04454544186592102, 
        0.1392776072025299, 
        0.17546570301055908, 
        -0.23627649247646332, 
        -0.22891341149806976, 
        0.12308698892593384, 
        0.34665748476982117, 
        -0.5472533702850342, 
        -0.31147339940071106, 
        0.24984708428382874, 
        -0.3460521697998047, 
        -0.3992614448070526, 
        -0.4599432945251465, 
        0.695821225643158, 
        -0.20644232630729675, 
        0.5863575339317322, 
        0.1838451772928238, 
        0.039089325815439224, 
        -0.5716426372528076, 
        -0.7139365077018738, 
        0.47044268250465393, 
        -0.7445843815803528, 
        0.6660552024841309, 
        -0.3778326213359833, 
        -0.09044639021158218, 
        -0.28803834319114685, 
        -0.4730241298675537, 
        0.15839174389839172, 
        0.24710315465927124, 
        0.5643105506896973, 
        -0.14577428996562958, 
        0.7089779376983643, 
        0.5174368023872375, 
        0.05097310245037079, 
        0.41144585609436035, 
        0.2458818554878235, 
        0.0329526849091053, 
        0.15713180601596832, 
        -0.25185641646385193, 
        -0.6233218908309937, 
        0.713614284992218, 
        0.004630716517567635, 
        0.4474338889122009, 
        -0.5215326547622681, 
        -0.16551923751831055, 
        0.30086901783943176, 
        0.6962301135063171, 
        -0.6891337037086487, 
        0.1654791682958603, 
        0.019416702911257744, 
        0.18720456957817078, 
        -0.8489473462104797, 
        0.6301670670509338, 
        0.6682338714599609, 
        0.5416516661643982, 
        -0.184617817401886, 
        -0.3957509696483612, 
        -0.27047985792160034, 
        0.5490579605102539, 
        0.32442402839660645, 
        0.3077453076839447, 
        -0.577934980392456, 
        1.1461101770401, 
        0.5623230934143066, 
        0.10654444992542267, 
        -0.5897915959358215, 
        -0.3222922682762146, 
        -0.2184225171804428, 
        0.20788760483264923, 
        0.3673441410064697, 
        -0.17265944182872772, 
        0.3384622633457184, 
        -0.2726997137069702, 
        -0.016068870201706886, 
        0.7244392037391663, 
        0.10033676773309708, 
        -0.05898384377360344, 
        0.313122034072876, 
        -0.4932549297809601, 
        0.16527023911476135, 
        -0.5251193046569824, 
        0.5284531116485596, 
        0.3672841489315033, 
        -0.4665655791759491, 
        0.556162416934967, 
        0.08581497520208359, 
        0.04659653455018997, 
        0.4705958962440491, 
        -0.07010973989963531, 
        0.5632965564727783, 
        -0.30279314517974854, 
        0.4555208086967468, 
        -0.41396480798721313, 
        0.5201779007911682, 
        -0.4105771780014038, 
        -0.11102587729692459, 
        -0.6256195306777954, 
        0.11717519164085388, 
        -0.04244724288582802, 
        -0.2980674207210541, 
        -0.6337140202522278, 
        -0.31854936480522156, 
        0.19357123970985413, 
        -0.10820766538381577, 
        0.2597033679485321, 
        0.08887683600187302, 
        0.2173212319612503, 
        -0.010373532772064209, 
        -0.6592072248458862, 
        0.5838636755943298, 
        -0.5405698418617249, 
        0.7002540230751038, 
        0.09982112795114517, 
        -0.7778998613357544, 
        0.5921565294265747, 
        0.2739919424057007, 
        0.07228470593690872, 
        0.17936117947101593, 
        -0.10877074301242828, 
        0.6675719618797302, 
        -0.1789163500070572, 
        0.5639076232910156, 
        -0.44190698862075806, 
        0.7025358080863953, 
        0.3043910264968872, 
        -0.437504380941391, 
        0.06810105592012405, 
        -0.18898847699165344, 
        -0.7431315779685974, 
        -0.24083726108074188, 
        -0.4449886679649353, 
        0.013243366964161396, 
        -0.21409767866134644, 
        -0.3810443580150604, 
        0.03601840138435364, 
        0.6148205399513245, 
        -0.5883625745773315, 
        0.45919784903526306, 
        -0.7584892511367798, 
        -0.1368544101715088, 
        -0.6015511155128479, 
        -0.5634179711341858, 
        0.5857172012329102, 
        0.0188596248626709, 
        0.13380610942840576, 
        -0.1280878782272339, 
        -0.35474693775177, 
        0.3183385729789734, 
        -0.5659071803092957, 
        -0.45261138677597046, 
        0.02413090318441391, 
        0.14442594349384308, 
        0.4511283338069916, 
        0.42916983366012573, 
        -0.18959815800189972, 
        0.3187350034713745, 
        -0.0974939838051796, 
        0.46461665630340576, 
        0.7303485870361328, 
        0.055790502578020096, 
        0.3454124629497528, 
        0.1981208175420761, 
        -0.4419715106487274, 
        0.6946405172348022, 
        0.08236897736787796, 
        0.10412003844976425, 
        0.05832824856042862, 
        -0.0533248595893383, 
        0.2850431203842163, 
        0.2677464485168457, 
        0.25144198536872864, 
        0.6049585938453674, 
        0.42642414569854736, 
        0.10985193401575089, 
        0.23750533163547516, 
        0.46604371070861816, 
        0.6492708921432495, 
        0.16317841410636902, 
        0.44352877140045166, 
        0.7211824059486389, 
        0.35739782452583313, 
        0.008263591676950455, 
        -0.41083207726478577, 
        0.9689341187477112, 
        -0.4116058051586151, 
        -0.4942973852157593, 
        -0.5548094511032104, 
        -0.30729153752326965, 
        -0.042470645159482956, 
        0.6246210336685181, 
        0.23400522768497467, 
        0.0006192710716277361, 
        0.10294344276189804, 
        -0.5676265358924866, 
        0.039995815604925156, 
        0.7306076288223267, 
        0.3350377678871155, 
        0.089846670627594, 
        -0.008105443790555, 
        -0.5867036581039429, 
        -0.23739425837993622, 
        0.047268811613321304, 
        -0.39257118105888367, 
        -0.20373138785362244, 
        -0.6029331684112549, 
        0.31692424416542053, 
        0.6688798666000366, 
        0.03193061426281929, 
        -0.6042491793632507, 
        0.4875178039073944, 
        -0.8149586319923401, 
        -0.01812032051384449, 
        -0.27610093355178833, 
        -0.14515821635723114, 
        0.5526356101036072, 
        -0.6405817866325378, 
        -0.0161332655698061, 
        0.2748955190181732, 
        -0.03398047760128975, 
        0.20282019674777985, 
        -0.43792226910591125, 
        0.1545591503381729, 
        0.3937463164329529, 
        -0.06171193718910217, 
        0.5963261723518372, 
        -0.5295085310935974, 
        0.04222174733877182, 
        -0.27221012115478516, 
        0.4154944121837616, 
        0.1741851568222046, 
        -0.4549652636051178, 
        -0.5114914178848267, 
        0.20146992802619934, 
        0.3125082552433014, 
        0.39595159888267517, 
        -0.2214263528585434, 
        -0.5164387822151184, 
        -0.6548229455947876, 
        -0.0927458107471466, 
        -0.21177230775356293, 
        0.44888460636138916, 
        0.6214883327484131, 
        -0.32242244482040405, 
        0.5681114196777344, 
        -0.25296229124069214, 
        -0.5385113954544067, 
        0.0761248990893364, 
        -0.28655916452407837, 
        0.47953253984451294, 
        0.6358909010887146, 
        0.5272061824798584, 
        -0.1496637463569641, 
        -0.45053231716156006, 
        0.5208788514137268, 
        0.47720199823379517, 
        0.6969854235649109, 
        -0.5181384682655334, 
        0.4274366497993469, 
        0.3520474433898926, 
        0.1740991473197937, 
        0.1681670993566513, 
        0.19552315771579742, 
        0.16967789828777313, 
        -0.12547792494297028, 
        -0.35187089443206787, 
        0.1656021922826767, 
        0.40260016918182373, 
        -0.6892211437225342, 
        -0.0040595694445073605, 
        0.3965274691581726, 
        -0.4451673626899719, 
        1.483838438987732, 
        -0.23326733708381653, 
        -0.08432214707136154, 
        -0.623257577419281, 
        -0.11865177005529404, 
        -0.0037525901570916176, 
        0.049724165350198746, 
        0.3355470299720764, 
        -0.23270083963871002, 
        -0.07546588778495789, 
        -0.2583793103694916, 
        0.698097825050354, 
        -0.4177069365978241, 
        -0.26487016677856445, 
        0.6935109496116638, 
        -0.03323840722441673, 
        -0.02678760699927807, 
        0.05196329206228256, 
        0.20023363828659058, 
        0.2544771432876587, 
        0.6503230929374695, 
        0.018565135076642036, 
        0.3590715229511261, 
        0.4875267744064331, 
        0.7153211832046509, 
        0.40974828600883484, 
        -0.6501277685165405, 
        -0.10731902718544006, 
        0.2852920889854431, 
        -0.05275345966219902, 
        -0.2667822241783142, 
        -0.0474841371178627, 
        -0.33558762073516846, 
        0.13210226595401764, 
        0.5189641714096069, 
        0.2767740786075592, 
        0.5463978052139282, 
        -0.6051964163780212, 
        -0.02439410425722599, 
        0.2916523218154907, 
        0.2657950520515442, 
        -0.38800814747810364, 
        -0.3291448950767517, 
        0.23075145483016968, 
        0.5428880453109741, 
        -0.6158210039138794, 
        -0.4167545735836029, 
        -0.3310810327529907, 
        0.5175210237503052, 
        -0.08672761172056198, 
        0.5868292450904846, 
        0.15114320814609528, 
        -0.16851679980754852, 
        -0.4839284420013428, 
        0.34353190660476685, 
        -0.6663709282875061, 
        -0.7299509644508362, 
        -0.2748708724975586, 
        -0.051640622317790985, 
        -0.19213449954986572, 
        -0.6616952419281006, 
        -0.4431551992893219, 
        0.4950973391532898, 
        -0.38997453451156616, 
        -0.42485859990119934, 
        0.15290847420692444, 
        0.16393890976905823, 
        0.21039272844791412, 
        -0.26141029596328735, 
        -0.3585643768310547, 
        -0.34131550788879395, 
        -0.4846790134906769, 
        0.33395129442214966, 
        0.06922013312578201, 
        0.08063818514347076, 
        -0.3526076376438141, 
        -0.2846847176551819, 
        0.4239315092563629, 
        -0.07408078759908676, 
        0.0770934522151947, 
        -0.26792970299720764, 
        -0.6522783637046814, 
        0.5857588052749634, 
        0.4261818528175354, 
        0.7499333620071411, 
        -0.8121221661567688, 
        -0.1268174797296524, 
        0.25543174147605896, 
        -0.2269705832004547, 
        0.842576801776886, 
        0.49663540720939636, 
        0.24339014291763306, 
        0.6963454484939575, 
        -0.6129516363143921, 
        0.2648169994354248, 
        0.49951112270355225, 
        0.3627922236919403, 
        0.36078107357025146, 
        -0.5122489333152771, 
        0.37353596091270447, 
        0.32667407393455505, 
        -0.5516331195831299, 
        0.07504715770483017, 
        0.5628765225410461, 
        -0.09397770464420319, 
        0.7092831134796143, 
        0.5774372220039368, 
        -0.013122957199811935, 
        -0.27562376856803894, 
        -0.2917099595069885, 
        -0.21171313524246216, 
        -0.5814871788024902, 
        -0.5912324786186218, 
        -0.4922301173210144, 
        0.20924094319343567, 
        -0.6223256587982178, 
        0.46854308247566223, 
        -0.33347275853157043, 
        -0.46528756618499756, 
        0.5742782950401306, 
        0.5970256328582764, 
        -0.316062331199646, 
        -0.7518194913864136, 
        -0.430860310792923, 
        0.17315812408924103, 
        0.283065527677536, 
        0.5609955191612244, 
        0.6424561738967896, 
        0.35894453525543213, 
        0.46758589148521423, 
        0.01324433647096157, 
        -0.6073580980300903, 
        0.06661656498908997, 
        -0.6558502316474915, 
        -0.20330967009067535, 
        0.28955426812171936, 
        0.6276776790618896, 
        -0.6147151589393616, 
        0.0017027613939717412, 
        0.5461968779563904, 
        0.45702823996543884, 
        -0.2944410741329193, 
        -0.5427032113075256, 
        -0.43624147772789, 
        -0.06427982449531555, 
        -0.3454640805721283, 
        0.2620643079280853, 
        -0.7068256735801697, 
        -0.5689588785171509, 
        -0.42894163727760315, 
        0.03958817198872566, 
        -0.5466921925544739, 
        -0.4195570945739746, 
        0.45948272943496704, 
        -0.7065480947494507, 
        -0.241558238863945, 
        0.06441165506839752, 
        -0.46108829975128174, 
        0.2770119905471802, 
        0.17348834872245789, 
        -0.29952481389045715, 
        0.0042220368050038815, 
        0.18463937938213348, 
        -0.3148386776447296, 
        -0.2159241884946823, 
        -0.10190112888813019, 
        -0.5783910751342773, 
        -0.6380374431610107, 
        -0.2138815075159073, 
        -0.5307523608207703, 
        -0.06174861639738083, 
        -0.17752866446971893, 
        0.6142497658729553, 
        0.7840125560760498, 
        -0.4621177613735199, 
        -0.07982460409402847, 
        -0.6600921750068665, 
        0.40957289934158325, 
        0.36162069439888, 
        0.0010160545352846384, 
        0.3233741819858551, 
        -0.2753414213657379, 
        -0.4260154068470001, 
        -0.4055118262767792, 
        0.3795965611934662, 
        -0.17061282694339752, 
        0.43544262647628784, 
        -0.28162962198257446, 
        -0.4093315303325653, 
        -0.4337872266769409, 
        0.23739048838615417, 
        -0.24056193232536316, 
        -0.5990931391716003, 
        -0.40585002303123474, 
        0.9511245489120483, 
        0.1383977085351944, 
        0.31527864933013916, 
        -0.5271619558334351, 
        0.13413512706756592, 
        -0.21286800503730774, 
        0.34551388025283813, 
        0.2576237916946411, 
        0.7414694428443909, 
        0.3137390911579132, 
        -0.28298038244247437, 
        -0.5286645889282227, 
        0.3549584448337555, 
        0.009781940840184689, 
        0.25949618220329285, 
        0.5965096354484558, 
        -0.4002781808376312, 
        0.08139500021934509, 
        -0.4128434956073761, 
        -0.4409191310405731, 
        0.14199693500995636, 
        0.5765231847763062, 
        0.470513254404068, 
        0.609160840511322, 
        0.22242917120456696, 
        -0.21408289670944214, 
        0.18594534695148468, 
        0.28981637954711914, 
        0.29024171829223633, 
        0.7091851234436035, 
        -0.017169326543807983, 
        -0.5945421457290649, 
        0.6441035270690918, 
        -0.03441224992275238, 
        0.7086074948310852, 
        -0.0127540472894907, 
        0.29685044288635254, 
        -0.07632709294557571, 
        0.3982287347316742, 
        0.4663686454296112, 
        -0.5734207034111023, 
        -0.7007715106010437, 
        0.24838660657405853, 
        0.248352512717247, 
        0.10803881287574768, 
        0.2708161771297455, 
        -0.3247010111808777, 
        -0.17147478461265564, 
        -0.35027801990509033, 
        0.27662670612335205, 
        0.03768686205148697, 
        -0.5401991605758667, 
        -0.03454769030213356, 
        -0.32016050815582275, 
        0.02255881018936634, 
        0.857905387878418, 
        0.49803483486175537, 
        0.46523401141166687, 
        -0.12314952909946442, 
        -0.6880019307136536, 
        -0.019127048552036285, 
        -0.4231252074241638, 
        0.0746094211935997, 
        -0.21794332563877106, 
        -0.34956738352775574, 
        0.3965543508529663, 
        0.21221685409545898, 
        -0.049544788897037506, 
        0.4499250650405884, 
        0.3959473669528961, 
        -0.7358561754226685, 
        0.6771016716957092, 
        -0.324317067861557, 
        -0.5482422709465027, 
        0.3885055184364319, 
        -0.3116861581802368, 
        0.4056750535964966, 
        -0.21844065189361572, 
        -0.3193511664867401, 
        -0.6265699863433838, 
        0.769099771976471, 
        -0.2996707856655121, 
        0.21371056139469147, 
        0.34435272216796875, 
        0.28134360909461975, 
        -0.11784607172012329, 
        0.0731927827000618, 
        0.6146495938301086, 
        0.2533036172389984, 
        0.4600122272968292, 
        -0.07022915780544281, 
        0.4013638198375702, 
        -0.13320989906787872, 
        0.47201108932495117, 
        0.13712690770626068, 
        0.1599506139755249, 
        -0.33350685238838196, 
        0.2176172137260437, 
        -0.15644867718219757, 
        0.30141496658325195, 
        0.17938464879989624, 
        -0.5140845775604248, 
        0.18366627395153046, 
        -0.22548021376132965, 
        -0.22064697742462158, 
        -0.5789777040481567, 
        -0.7035637497901917, 
        0.6022594571113586, 
        -0.10785575956106186, 
        -0.018055709078907967, 
        0.14493577182292938, 
        0.10229397565126419, 
        0.5655462741851807, 
        0.5427756905555725, 
        -0.35095641016960144, 
        0.550360918045044, 
        -0.07767326384782791, 
        -0.13528907299041748, 
        0.299079954624176, 
        0.0719461590051651, 
        -0.4849458932876587, 
        0.8397619724273682, 
        -0.7159523367881775, 
        0.47865334153175354, 
        -0.33736300468444824, 
        -0.008445953950285912, 
        0.12763741612434387, 
        -0.13602487742900848, 
        -0.12729351222515106, 
        -0.6892883777618408, 
        0.046816136687994, 
        -0.06555072218179703, 
        0.335890531539917, 
        -0.30704283714294434, 
        0.19093312323093414, 
        0.11242501437664032, 
        -0.03831876441836357, 
        0.5725419521331787, 
        -0.2321602702140808, 
        0.538332998752594, 
        -0.5449955463409424, 
        -0.8275188207626343, 
        -0.260982871055603, 
        0.13355165719985962, 
        0.544160783290863, 
        0.25976699590682983, 
        -0.006948479916900396, 
        -0.2736635208129883, 
        -0.5660893321037292, 
        -0.16925756633281708, 
        0.5671778917312622, 
        0.5311159491539001, 
        -0.5711910724639893, 
        0.020948616787791252, 
        0.022966761142015457, 
        0.7024065852165222, 
        -0.1560342162847519, 
        0.22544874250888824, 
        -0.5327929854393005, 
        -0.5752100348472595, 
        0.6314563155174255, 
        -0.45120859146118164, 
        0.16490116715431213, 
        0.31499332189559937, 
        0.5993149280548096, 
        -0.06950978934764862, 
        0.5563227534294128, 
        0.36511513590812683, 
        -0.32544225454330444, 
        0.19437627494335175, 
        -0.5178839564323425, 
        0.08059117197990417, 
        -0.6261259317398071, 
        0.3925071954727173, 
        0.37105515599250793, 
        -0.11281642317771912, 
        -0.16237963736057281, 
        0.043802741914987564, 
        0.24176187813282013, 
        -0.02353576570749283, 
        -0.1357538253068924, 
        -0.6538313627243042, 
        -0.51972496509552, 
        0.0704985037446022, 
        -0.3136062026023865, 
        0.056856755167245865, 
        0.6224325895309448, 
        -0.1605917364358902, 
        0.42005568742752075, 
        0.6001541614532471, 
        0.09117309749126434, 
        -0.13449996709823608, 
        -0.7012850642204285, 
        -0.3438102602958679, 
        -0.3827582895755768, 
        -0.7523793578147888, 
        -0.2278347611427307, 
        -0.3299286365509033, 
        0.38126248121261597, 
        -0.09317058324813843, 
        -0.4488508105278015, 
        -0.3319261372089386, 
        0.3449544608592987, 
        0.3877899944782257, 
        -0.5790389776229858, 
        -0.052585046738386154, 
        0.5016032457351685, 
        0.43512770533561707, 
        0.640538215637207, 
        0.4880930185317993, 
        0.031287599354982376, 
        0.10441483557224274, 
        0.15850818157196045, 
        -0.26755672693252563, 
        0.3782508373260498, 
        0.6566939949989319, 
        0.41739195585250854, 
        0.3633919656276703, 
        0.3744313418865204, 
        -0.24617187678813934, 
        0.26102274656295776, 
        0.094876728951931, 
        -0.4399779438972473, 
        -0.3155588209629059, 
        -0.13919322192668915, 
        0.5274673104286194, 
        0.3520890772342682, 
        0.43150413036346436, 
        -0.0341850221157074, 
        0.35359033942222595, 
        -0.15087242424488068, 
        0.2484336495399475, 
        -0.2579324543476105, 
        0.4612204134464264, 
        -0.526800274848938, 
        0.26905813813209534, 
        -0.5143151879310608, 
        -0.3142879903316498, 
        0.5013944506645203, 
        0.24647198617458344, 
        -0.034722283482551575, 
        -0.03717321157455444, 
        -0.1492132991552353, 
        0.6518679857254028, 
        -0.11596694588661194, 
        -0.5102250576019287, 
        -0.28465428948402405, 
        0.1376393735408783, 
        -0.17251695692539215, 
        0.34057703614234924, 
        -0.7361499071121216, 
        -0.1134868860244751, 
        -0.7804701328277588, 
        0.33986759185791016, 
        -0.4197345972061157, 
        -0.14610129594802856, 
        0.3717038333415985, 
        0.13131874799728394, 
        -0.37383878231048584, 
        0.03980378806591034, 
        -0.2793249189853668, 
        -0.07198745012283325, 
        0.6713430285453796, 
        0.25301894545555115, 
        -0.350877046585083, 
        0.19059723615646362, 
        -0.6154891848564148, 
        0.6431828141212463, 
        -0.3500373959541321, 
        -0.1559537649154663, 
        -0.23562662303447723, 
        -0.6193308234214783, 
        0.5695269703865051, 
        0.47611796855926514, 
        -0.09533322602510452, 
        -0.18588723242282867, 
        -0.2043154537677765, 
        -0.13863570988178253, 
        0.4596122205257416, 
        -0.4777338206768036, 
        0.21438094973564148, 
        0.34061741828918457, 
        -0.5133558511734009, 
        -0.1980752795934677, 
        0.5937986373901367, 
        -0.5301307439804077, 
        -0.42023319005966187, 
        -0.5027568936347961, 
        -0.24795158207416534, 
        -0.03200918063521385, 
        0.30949145555496216, 
        0.22214950621128082, 
        -0.8403586149215698, 
        0.4438158869743347, 
        0.6822164058685303, 
        -0.13569702208042145, 
        0.11516208946704865, 
        -0.11525049060583115, 
        0.5104703307151794, 
        -0.39974966645240784, 
        0.02473849430680275, 
        0.09028568118810654, 
        0.29325827956199646, 
        0.08497470617294312, 
        -0.4507952034473419, 
        0.42506805062294006, 
        -0.1488383263349533, 
        0.7140466570854187, 
        -0.06862309575080872, 
        -0.06371115893125534, 
        0.13555587828159332, 
        -0.05828282982110977, 
        0.021066682413220406, 
        -0.3369944393634796, 
        -0.47061461210250854, 
        0.4957282245159149, 
        0.042968809604644775, 
        0.3702462613582611, 
        0.4245627224445343, 
        -0.1359417885541916, 
        0.5681297183036804, 
        0.6352298259735107, 
        0.18530793488025665, 
        -0.4275401830673218, 
        -0.5198982954025269, 
        0.7349429130554199, 
        -0.42923253774642944, 
        -0.0011636808048933744, 
        0.09822792559862137, 
        0.2160118818283081, 
        -0.3640460669994354, 
        0.21366830170154572, 
        -0.3499184548854828, 
        -0.18289321660995483, 
        -0.015561333857476711, 
        -0.5805261135101318, 
        0.4892040491104126, 
        0.14393840730190277, 
        -0.5686737298965454, 
        0.5285174250602722, 
        -0.610552191734314, 
        0.43749764561653137, 
        0.434281587600708, 
        -0.39962780475616455, 
        -0.4197320342063904, 
        -0.03358176723122597, 
        0.07955082505941391, 
        -0.12309527397155762, 
        0.21625345945358276, 
        -0.4316638112068176, 
        -0.08396811038255692, 
        0.3730376064777374, 
        0.11194652318954468, 
        0.34100592136383057, 
        -0.2406526654958725, 
        -0.04739345237612724, 
        -0.061964113265275955, 
        0.16408967971801758, 
        -0.301430344581604, 
        0.5141234993934631, 
        0.5900130271911621, 
        -0.026430437341332436, 
        0.18828706443309784, 
        -0.37586522102355957, 
        0.5755409598350525, 
        -0.5057942271232605, 
        -0.025748003274202347, 
        -0.2284407615661621, 
        -0.37665045261383057, 
        0.44974878430366516, 
        0.16692131757736206, 
        -0.6909677386283875, 
        -0.09685863554477692, 
        0.3371085524559021, 
        -0.11197500675916672, 
        0.245033860206604, 
        0.24877576529979706, 
        0.2632271647453308, 
        -0.0713619515299797, 
        -0.1360250562429428, 
        0.05916593223810196, 
        -0.02269963175058365, 
        -0.726688027381897, 
        0.32418957352638245, 
        0.8184826970100403, 
        -0.11346235871315002, 
        0.37114229798316956, 
        -0.048211369663476944, 
        0.08626485615968704, 
        -0.2510867416858673, 
        -0.3747844099998474, 
        0.4093383550643921, 
        0.5236476063728333, 
        -0.42201173305511475, 
        -0.6966284513473511, 
        -0.6317249536514282, 
        0.5140047669410706, 
        -0.4943273067474365, 
        -0.6557720899581909, 
        -0.5256789922714233, 
        0.2660294771194458, 
        -0.4045916199684143, 
        -0.221693217754364, 
        0.44401630759239197, 
        -0.06121906638145447, 
        -0.3821521997451782, 
        -0.5152879953384399, 
        0.04134022444486618, 
        0.3138755261898041, 
        -0.015604718588292599, 
        -0.5088300704956055, 
        -0.25067514181137085, 
        0.16728928685188293, 
        0.5767224431037903, 
        0.4370812773704529, 
        -0.1943541318178177, 
        0.15928702056407928, 
        -0.3149055540561676, 
        0.5918636322021484, 
        0.32587093114852905, 
        0.1651555299758911, 
        -0.45189544558525085, 
        0.4311668276786804, 
        -0.3307051360607147, 
        -0.6964943408966064, 
        0.23284071683883667, 
        0.10074460506439209, 
        0.4948299527168274, 
        -0.5803179740905762, 
        -0.42170536518096924, 
        0.4975420832633972, 
        -0.05497041717171669, 
        -0.38926491141319275, 
        0.37757405638694763, 
        0.011516599915921688, 
        0.7600288391113281, 
        -0.29466989636421204, 
        0.47334420680999756, 
        -0.29092147946357727, 
        -0.17366456985473633, 
        -0.2467278093099594, 
        0.39409640431404114, 
        -0.015596099197864532, 
        0.5178428292274475, 
        0.24374039471149445, 
        -0.13861748576164246, 
        -0.0735606923699379, 
        0.44179126620292664, 
        0.22723792493343353, 
        0.17691391706466675, 
        -0.41702497005462646, 
        0.6105743050575256, 
        -0.48688408732414246, 
        -0.2715684473514557, 
        -0.5529142618179321, 
        0.6191583275794983, 
        -0.006791054271161556, 
        -0.5391830205917358, 
        -0.039418406784534454, 
        -0.41893303394317627, 
        0.03377821296453476, 
        0.10723495483398438, 
        -0.5590441226959229, 
        -0.13454191386699677, 
        0.6232730746269226, 
        -0.43981271982192993, 
        -0.294956237077713, 
        0.1727006435394287, 
        -0.42637720704078674, 
        0.3466547429561615, 
        -0.02329857274889946, 
        0.00910528376698494, 
        0.07007011026144028, 
        0.6318248510360718, 
        -0.5971232652664185, 
        0.4763449430465698, 
        -0.5593952536582947, 
        0.3499048054218292, 
        -0.6829403638839722, 
        -0.13271036744117737, 
        0.4714888632297516, 
        0.07645945250988007, 
        0.7367811799049377, 
        -0.38631126284599304, 
        -0.39664363861083984, 
        0.10193580389022827, 
        0.479081392288208, 
        -0.46692368388175964, 
        -0.4155615568161011, 
        -0.33698520064353943, 
        0.5916354060173035, 
        0.05970039591193199, 
        -0.7129479646682739, 
        0.13730157911777496, 
        -0.33962690830230713, 
        0.000966156309004873, 
        0.12832225859165192, 
        -0.3144858181476593, 
        0.19844508171081543, 
        -0.07749694585800171, 
        -0.5643182992935181, 
        -0.34403809905052185, 
        -0.5710666179656982, 
        0.5974259376525879, 
        -0.46291595697402954, 
        -0.603956937789917, 
        -0.5679985284805298, 
        -0.48896104097366333, 
        -0.6175711750984192, 
        0.007392050698399544, 
        0.08635952323675156, 
        0.37376466393470764, 
        0.39674893021583557, 
        0.745169997215271, 
        -0.2219042032957077, 
        -0.21201153099536896, 
        0.10319110006093979, 
        0.3321734666824341, 
        0.631037175655365, 
        -0.28759679198265076, 
        0.12533608078956604, 
        0.4708121418952942, 
        -0.537972092628479, 
        0.38293659687042236, 
        -0.07358181476593018, 
        0.3362025022506714, 
        0.6538061499595642, 
        0.5141928791999817, 
        0.32750779390335083, 
        0.12276709824800491, 
        0.35479459166526794, 
        -0.5621065497398376, 
        -0.8419998288154602, 
        0.5431585907936096, 
        0.23902177810668945, 
        0.37695932388305664, 
        -0.10482505708932877, 
        0.35988420248031616, 
        0.42804500460624695, 
        -0.06747283786535263, 
        0.42517533898353577, 
        0.3867773711681366, 
        0.6145796775817871, 
        0.04307347536087036, 
        -0.5632553696632385, 
        -0.17720352113246918, 
        0.7421634197235107, 
        0.42189842462539673, 
        0.4756689667701721, 
        -0.497708797454834, 
        0.7203516364097595, 
        -0.49797073006629944, 
        0.2279309779405594, 
        -0.45406442880630493, 
        0.5343454480171204, 
        -0.09875620901584625, 
        0.10015320777893066, 
        -0.12344450503587723, 
        -0.3258242607116699, 
        -0.013995014131069183, 
        0.5842487812042236, 
        0.5719427466392517, 
        0.4643678069114685, 
        -0.41705578565597534, 
        0.36586490273475647, 
        0.4978499114513397, 
        0.15237575769424438, 
        0.013435972854495049, 
        0.17041635513305664, 
        0.5715288519859314, 
        -0.3971395194530487, 
        -0.5965614914894104, 
        -0.03598880395293236, 
        -0.2670198976993561, 
        0.5863005518913269, 
        0.2811151444911957, 
        0.18060240149497986, 
        -0.2750345766544342, 
        0.5434438586235046, 
        0.049823783338069916, 
        -0.027215681970119476, 
        -0.49745166301727295, 
        0.09106002002954483, 
        0.11904746294021606, 
        -0.5246466398239136, 
        0.14510443806648254, 
        0.5283447504043579, 
        -0.03885982185602188, 
        0.06372091919183731, 
        -0.5875510573387146, 
        -0.41982781887054443, 
        0.2354244589805603, 
        0.80400550365448, 
        0.14379265904426575, 
        0.6638035774230957, 
        -0.24199925363063812, 
        -0.6716858744621277, 
        -0.0028406924102455378, 
        -0.19964361190795898, 
        0.13869218528270721, 
        -0.3856793940067291, 
        -0.043594278395175934, 
        -0.15544311702251434, 
        0.6856637597084045, 
        0.6277911067008972, 
        -0.4384959936141968, 
        0.05740232393145561, 
        -0.21252122521400452, 
        -0.14899489283561707, 
        -1.0726690292358398, 
        0.1785774528980255, 
        0.367887943983078, 
        0.383652925491333, 
        0.11678147315979004, 
        -0.08939138799905777, 
        -0.5217939019203186, 
        0.10677541792392731, 
        -0.4722501337528229, 
        -0.06858211010694504, 
        0.15475468337535858, 
        -0.7836245894432068, 
        -0.31996238231658936, 
        -0.5018782019615173, 
        -0.04127369448542595, 
        -0.3469716012477875, 
        0.17195329070091248, 
        0.06745713949203491, 
        -0.608198881149292, 
        0.06409119814634323, 
        0.6372807621955872, 
        -0.24097494781017303, 
        -0.48655965924263, 
        0.504247784614563, 
        -0.22747750580310822, 
        -0.24194954335689545, 
        -0.3472757339477539, 
        0.4755944013595581, 
        0.4538845419883728, 
        -0.17683951556682587, 
        -0.5061849355697632, 
        -0.18394848704338074, 
        -0.46086040139198303, 
        0.5610135793685913, 
        0.2205190509557724, 
        0.2014053612947464, 
        0.5941746234893799, 
        0.017964841797947884, 
        0.1535743623971939, 
        0.37342602014541626, 
        0.6198058128356934, 
        0.4098070561885834, 
        0.3819209635257721, 
        -0.5789333581924438, 
        -0.24613164365291595, 
        0.5247870683670044, 
        0.7882163524627686, 
        -0.5438702702522278, 
        -0.11757742613554001, 
        0.660040020942688, 
        -0.16446273028850555, 
        0.2758185565471649, 
        0.1953166276216507, 
        -0.25316470861434937, 
        -0.2797018885612488, 
        -0.707473635673523, 
        -0.15247224271297455, 
        -0.5642572641372681, 
        0.4810284674167633, 
        -0.6482067108154297, 
        0.5395565629005432, 
        -0.476540207862854, 
        0.44545459747314453, 
        0.446000874042511, 
        -0.6479498744010925, 
        0.5969738364219666, 
        -0.09461554139852524, 
        0.44025859236717224, 
        -0.2030525654554367, 
        0.07624144852161407, 
        -0.6020570993423462, 
        0.02242339216172695, 
        0.20801198482513428, 
        0.4510875940322876, 
        -0.1099444106221199, 
        0.2183026373386383, 
        -0.4021154046058655, 
        0.2202228605747223, 
        0.3284221589565277, 
        0.32302436232566833, 
        -0.577605128288269, 
        0.6168317794799805, 
        -0.09219080954790115, 
        0.27137744426727295, 
        0.28322798013687134, 
        0.5153107047080994, 
        -0.019526764750480652, 
        0.2264871448278427, 
        0.9399763345718384, 
        -0.2203155755996704, 
        -0.6278833150863647, 
        -0.35550516843795776, 
        -0.06991918385028839, 
        0.28451138734817505, 
        0.5366880893707275, 
        -0.3491213619709015, 
        0.6548856496810913, 
        0.10845000296831131, 
        0.2760734260082245, 
        0.7148184180259705, 
        0.011164401657879353, 
        -0.2528795301914215, 
        -0.3474019467830658, 
        0.3733551502227783, 
        -0.3445078432559967, 
        0.2855026125907898, 
        0.2633708417415619, 
        0.4458099901676178, 
        -0.4943806529045105, 
        0.49606677889823914, 
        -0.3610495626926422, 
        -0.6351373791694641, 
        0.14137235283851624, 
        -0.7270208597183228, 
        0.5403451919555664, 
        -0.4024444818496704, 
        -0.056040480732917786, 
        0.5778020024299622, 
        -0.33145013451576233, 
        -0.6300336122512817, 
        -0.5501556396484375, 
        0.509165346622467, 
        -0.6030283570289612, 
        0.6554690003395081, 
        0.11866176128387451, 
        -0.2039806991815567, 
        -0.43766963481903076, 
        -0.622442364692688, 
        0.11496813595294952, 
        -0.10683450847864151, 
        0.2026546150445938, 
        -0.17746219038963318, 
        -0.7442846298217773, 
        0.677237868309021, 
        0.11412633955478668, 
        0.7629529237747192, 
        -0.27219608426094055, 
        -0.18743669986724854, 
        0.12043800950050354, 
        -0.24387574195861816, 
        0.3605901598930359, 
        0.5022603869438171, 
        0.0355818048119545, 
        0.20293870568275452, 
        0.08698613196611404, 
        -0.6015947461128235, 
        0.05965270474553108, 
        -0.637610137462616, 
        -0.19910624623298645, 
        -0.3530596196651459, 
        -0.4040023982524872, 
        0.6527515649795532, 
        -0.4142201244831085, 
        0.0652245283126831, 
        0.6760111451148987, 
        -0.6861366629600525, 
        0.6237843632698059, 
        -0.15051023662090302, 
        -0.25355955958366394, 
        0.40096068382263184, 
        0.10549361258745193, 
        -0.27819833159446716, 
        0.056331731379032135, 
        0.5504738688468933, 
        -0.03359699249267578, 
        -0.3376709520816803, 
        0.18744602799415588, 
        0.4697133004665375, 
        0.30096834897994995, 
        -0.17965441942214966, 
        0.2770060896873474, 
        0.10783980786800385, 
        0.7173786163330078, 
        -0.7671380043029785, 
        -0.4360790252685547, 
        0.09781603515148163, 
        -0.29510498046875, 
        0.7379292845726013, 
        -0.20808002352714539, 
        0.5831596255302429, 
        -0.10929214954376221, 
        0.4649010896682739, 
        0.7216213345527649, 
        -0.21152596175670624, 
        0.30298253893852234, 
        0.7184799313545227, 
        -0.12111426144838333, 
        0.36764246225357056, 
        0.07164277881383896, 
        0.2848043143749237, 
        0.19706524908542633, 
        -0.39354830980300903, 
        -0.7552867531776428, 
        0.0902634784579277, 
        -0.5122367739677429, 
        0.3556329011917114, 
        0.2703556716442108, 
        0.15313556790351868, 
        -0.8679100871086121, 
        -0.5420728921890259, 
        0.6138211488723755, 
        0.2164255678653717, 
        -0.6137179136276245, 
        0.023038476705551147, 
        0.1505579948425293, 
        0.5769838094711304, 
        -0.3089880347251892, 
        0.28768622875213623, 
        0.36799079179763794, 
        -0.43769288063049316, 
        -0.5863615870475769, 
        0.7780965566635132, 
        -0.4209914803504944, 
        0.38704654574394226, 
        -0.34677496552467346, 
        0.5560882091522217, 
        -0.04944238066673279, 
        0.02453002892434597, 
        0.27748343348503113, 
        -0.02056870236992836, 
        -0.4369775652885437, 
        -0.29495471715927124, 
        -0.0602753572165966, 
        -0.07302633672952652, 
        0.3985723853111267, 
        -0.31267809867858887, 
        -0.43822750449180603, 
        -0.45503613352775574, 
        -0.1837674230337143, 
        -0.20578044652938843, 
        0.15125291049480438, 
        0.28044477105140686, 
        0.2791008949279785, 
        0.33679860830307007, 
        0.44089511036872864, 
        -0.4960336685180664, 
        -0.3444536626338959, 
        0.16047219932079315, 
        -0.6872672438621521, 
        0.01905304379761219, 
        -0.05313194915652275, 
        0.19535788893699646, 
        0.5876334309577942, 
        0.07663623243570328, 
        -0.3643757998943329, 
        -0.18923960626125336, 
        0.12862282991409302, 
        0.4478074610233307, 
        0.482743501663208, 
        0.002619281178340316, 
        -0.051590222865343094, 
        0.33782580494880676, 
        0.5336368680000305, 
        0.314689576625824, 
        0.2553042471408844, 
        -0.06690952926874161, 
        0.4024278521537781, 
        0.5626044273376465, 
        -0.10517521947622299, 
        0.3499767482280731, 
        0.13418850302696228, 
        0.4119826853275299, 
        0.43743935227394104, 
        -0.027758954092860222, 
        0.2111911177635193, 
        -0.16080869734287262, 
        -0.3943198025226593, 
        -0.5712807178497314, 
        0.3415096402168274, 
        0.5766814947128296, 
        -0.30782464146614075, 
        -0.18156595528125763, 
        -0.26679524779319763, 
        0.545661211013794, 
        -0.15788108110427856, 
        0.6210047602653503, 
        0.10810535401105881, 
        -0.3398188650608063, 
        -0.4808127284049988, 
        -0.25404542684555054, 
        -0.6260880827903748, 
        0.5219695568084717, 
        -0.29195964336395264, 
        -0.10903697460889816, 
        -0.12233102321624756, 
        -0.00390419689938426, 
        -0.3817192316055298, 
        0.34289371967315674, 
        -0.2738686501979828, 
        0.2220756709575653, 
        -0.26723387837409973, 
        0.09454791247844696, 
        0.13416555523872375, 
        0.3089722990989685, 
        0.6992106437683105, 
        -0.23214274644851685, 
        -0.07347653061151505, 
        0.2868770360946655, 
        -0.4964633584022522, 
        0.21944297850131989, 
        -0.5102002024650574, 
        -0.20258358120918274, 
        -0.3627605438232422, 
        0.9103307723999023, 
        0.5191037654876709, 
        -0.5693475604057312, 
        -0.15825346112251282, 
        0.16552573442459106, 
        -0.08466899394989014, 
        -0.134206160902977, 
        -0.2506880462169647, 
        0.41170844435691833, 
        0.4977753460407257, 
        -0.23530171811580658, 
        0.3020116686820984, 
        0.8015876412391663, 
        0.38861310482025146, 
        0.06896554678678513, 
        0.016683828085660934, 
        0.061458319425582886, 
        -0.4369889497756958, 
        0.2496194690465927, 
        0.30450767278671265, 
        0.0020532982889562845, 
        -0.7712384462356567, 
        0.4059113562107086, 
        0.5240679979324341, 
        -0.7091771960258484, 
        -0.1259787380695343, 
        -0.6477325558662415, 
        0.4735433757305145, 
        0.14264222979545593, 
        -0.5439671874046326, 
        0.00800012145191431, 
        -0.29145124554634094, 
        0.14680463075637817, 
        -0.5209311842918396, 
        -0.11172350496053696, 
        0.03510626405477524, 
        0.5519201159477234, 
        0.01245538517832756, 
        0.7675555944442749, 
        -0.40257903933525085, 
        -0.564396858215332, 
        -0.2829681634902954, 
        0.7242897152900696, 
        0.6098867058753967, 
        0.00015795596118550748, 
        -0.12151399999856949, 
        -0.28990647196769714, 
        0.13639606535434723, 
        0.10984829068183899, 
        0.06744904816150665, 
        0.3414733111858368, 
        -0.4081680178642273, 
        -0.3135203421115875, 
        -0.7009391188621521, 
        -0.0788612887263298, 
        -0.6996345520019531, 
        0.9341943264007568, 
        -0.769652783870697, 
        0.56773841381073, 
        -0.48095011711120605, 
        -0.3028257191181183, 
        0.08752462267875671, 
        -0.23788444697856903, 
        0.06721226871013641, 
        -0.5588730573654175, 
        0.5130725502967834, 
        -0.28241121768951416, 
        -0.21266591548919678, 
        0.09309349209070206, 
        0.16923706233501434, 
        -0.29978036880493164, 
        0.7995115518569946, 
        0.18687374889850616, 
        0.5607636570930481, 
        0.15446284413337708, 
        -0.48614293336868286, 
        0.25772368907928467, 
        -0.1561710238456726, 
        -0.201053187251091, 
        0.2694817781448364, 
        0.43464305996894836, 
        -0.36272263526916504, 
        -0.1662648469209671, 
        -0.3014770746231079, 
        0.6102898120880127, 
        0.4236304759979248, 
        -0.9084017872810364, 
        -0.200849711894989, 
        -0.44676947593688965, 
        0.3341232240200043, 
        -0.43384769558906555, 
        -0.1489824503660202, 
        0.2813394367694855, 
        -0.25669804215431213, 
        -0.3784692883491516, 
        -0.7375989556312561, 
        0.4832160472869873, 
        0.011153435334563255, 
        0.16321487724781036, 
        0.44059106707572937, 
        0.018182946369051933, 
        0.1890757828950882, 
        0.2889569103717804, 
        -0.32334190607070923, 
        -0.35211217403411865, 
        -0.8848676085472107, 
        0.4723150134086609, 
        0.357507586479187, 
        -0.16364863514900208, 
        -0.26722633838653564, 
        0.26695701479911804, 
        0.03211791440844536, 
        0.33308443427085876, 
        -0.34220775961875916, 
        -0.9084811210632324, 
        0.977343738079071, 
        0.13228753209114075, 
        0.13171695172786713, 
        -0.7883111834526062, 
        -0.08725886791944504, 
        0.6148380637168884, 
        -0.07675458490848541, 
        0.06152721494436264, 
        0.19524940848350525, 
        -0.3264455497264862, 
        -0.13569962978363037, 
        1.0143320560455322, 
        -0.334502637386322, 
        0.08676138520240784, 
        -0.09151242673397064, 
        0.1265362799167633, 
        -0.10037671774625778, 
        -0.08094393461942673, 
        0.5111678242683411, 
        -0.3677004277706146, 
        -0.5742160081863403, 
        -0.4894300401210785, 
        -0.491377592086792, 
        0.562262773513794, 
        0.4743044972419739, 
        -0.27581602334976196, 
        -0.3368411660194397, 
        -0.6606146097183228, 
        0.6204009056091309, 
        0.016552463173866272, 
        -0.4639148414134979, 
        -0.4715613126754761, 
        0.18616995215415955, 
        -0.5388381481170654, 
        -0.7079287767410278, 
        0.021720612421631813, 
        -0.6440614461898804, 
        -0.2752946615219116, 
        -0.42709147930145264, 
        0.5561323165893555, 
        -0.027555398643016815, 
        -0.5950527191162109, 
        0.6725738644599915, 
        -0.2243192195892334, 
        -0.4648230969905853, 
        -0.31276935338974, 
        -0.16150164604187012, 
        -0.43200135231018066, 
        0.18846437335014343, 
        0.25237494707107544, 
        -0.3075750768184662, 
        -0.47382494807243347, 
        0.7200716137886047, 
        -0.22399593889713287, 
        0.2912610173225403, 
        -0.2788555920124054, 
        -0.0010889216791838408, 
        0.565079927444458, 
        -0.3552462160587311, 
        0.013991082087159157, 
        -0.32390496134757996, 
        0.2748269736766815, 
        0.6147950291633606, 
        -0.039182934910058975, 
        0.15776583552360535, 
        -0.502537727355957, 
        0.5010749101638794, 
        0.13332033157348633, 
        0.5501076579093933, 
        0.5874665975570679, 
        0.1985161006450653, 
        0.1460161805152893, 
        0.4525183439254761, 
        0.2104484587907791, 
        0.5173009037971497, 
        0.2781541645526886, 
        -0.3701571226119995, 
        -0.3981337547302246, 
        0.48233574628829956, 
        -0.7038809061050415, 
        0.3208109438419342, 
        -0.5190906524658203, 
        0.024404264986515045, 
        -0.4840559661388397, 
        0.2691290080547333, 
        -0.6022228002548218, 
        -0.16842404007911682, 
        -0.17388063669204712, 
        0.33763736486434937, 
        0.4543707072734833, 
        -0.5395653247833252, 
        0.5044355392456055, 
        0.665554940700531, 
        -0.8790788650512695, 
        -0.497321218252182, 
        -0.12711583077907562, 
        -0.5669931769371033, 
        0.1532783955335617, 
        0.4977615773677826, 
        0.19734111428260803, 
        0.5258846282958984, 
        -0.017594873905181885, 
        0.10192397981882095, 
        -0.39270758628845215, 
        0.42030349373817444, 
        -0.44404336810112, 
        0.8607094883918762, 
        0.7100402116775513, 
        -0.06539221107959747, 
        0.09827486425638199, 
        -0.765652596950531, 
        0.5072731971740723, 
        0.5524380803108215, 
        -0.10889964550733566, 
        0.19730448722839355, 
        0.01974141038954258, 
        -0.18446217477321625, 
        0.39082422852516174, 
        -0.32488083839416504, 
        0.0660395696759224, 
        0.743131160736084, 
        0.5347025990486145, 
        -0.5011419653892517, 
        0.6849316954612732, 
        -0.5678001046180725, 
        -0.7260342836380005, 
        0.5665138363838196, 
        -0.4839637279510498, 
        -0.040248360484838486, 
        0.5406013131141663, 
        -0.3158777356147766, 
        -0.175066739320755, 
        0.08467572182416916, 
        -0.5101420283317566, 
        -0.6218483448028564, 
        0.43156513571739197, 
        -0.07535124570131302, 
        -0.2640908658504486, 
        -0.4435708224773407, 
        -0.6501632332801819, 
        0.4175192713737488, 
        -0.14068692922592163, 
        0.6453927755355835, 
        0.1160891205072403, 
        -0.14642629027366638, 
        0.2002670019865036, 
        0.25506049394607544, 
        -0.15246322751045227, 
        0.3544062376022339, 
        -0.03371221572160721, 
        0.03768829628825188, 
        -0.7959067225456238, 
        -0.3816353380680084, 
        -0.17810487747192383, 
        0.1972229927778244, 
        -0.09681970626115799, 
        -0.3943239152431488, 
        0.24723204970359802, 
        -0.16393284499645233, 
        -0.03584485501050949, 
        0.5104666948318481, 
        0.07089699059724808, 
        -0.1279161125421524, 
        -0.044387318193912506, 
        0.48444893956184387, 
        0.3665863275527954, 
        -0.7219010591506958, 
        -0.445693701505661, 
        -0.8180141448974609, 
        0.6050992012023926, 
        -0.1418771892786026, 
        -0.3201259672641754, 
        -0.013298170641064644, 
        -0.26047277450561523, 
        0.4759245812892914, 
        0.25709840655326843, 
        0.577085554599762, 
        0.2514830529689789, 
        0.49393975734710693, 
        0.36060646176338196, 
        -0.24422024190425873, 
        -0.1458115577697754, 
        0.17843475937843323, 
        0.7246109247207642, 
        -0.17253519594669342, 
        -0.5305973291397095, 
        -0.5081343650817871, 
        -0.02208874560892582, 
        -0.3267967700958252, 
        -0.48442551493644714, 
        0.30878105759620667, 
        0.16789847612380981, 
        0.4828413128852844, 
        0.6558035016059875, 
        0.07761175185441971, 
        0.18470031023025513, 
        0.3323112428188324, 
        0.09622687846422195, 
        -0.18275752663612366, 
        0.5352872014045715, 
        0.2422291487455368, 
        0.5540741682052612, 
        -0.13459911942481995, 
        -0.515800952911377, 
        0.004330193158239126, 
        -0.3729792833328247, 
        0.3748549520969391, 
        -0.5067513585090637, 
        -0.5545856952667236, 
        0.6914463639259338, 
        -0.009147229604423046, 
        0.3365764319896698, 
        -0.32106098532676697, 
        0.15159958600997925, 
        0.10700929909944534, 
        0.281188428401947, 
        -0.10533411055803299, 
        -0.6719585061073303, 
        0.4060530364513397, 
        -0.2729616165161133, 
        -0.4762524366378784, 
        0.34142789244651794, 
        0.4675476849079132, 
        0.33527201414108276, 
        -0.36437147855758667, 
        -0.44931188225746155, 
        0.6453331112861633, 
        -0.4088663160800934, 
        0.6955296397209167, 
        -0.5165576338768005, 
        0.05224500969052315, 
        -0.09940659999847412, 
        -0.41706883907318115, 
        0.4368220567703247, 
        -0.3142731189727783, 
        0.47264814376831055, 
        0.6906180381774902, 
        -0.24842478334903717, 
        0.5045199990272522, 
        0.22325733304023743, 
        0.45215216279029846, 
        0.7265913486480713, 
        0.3444288372993469, 
        -0.32116857171058655, 
        -0.5017340779304504, 
        0.6761109232902527, 
        0.37497037649154663, 
        -0.5860011577606201, 
        0.7429409027099609, 
        0.016548559069633484, 
        -0.36829766631126404, 
        -0.31520798802375793, 
        -0.17649783194065094, 
        -0.018959909677505493, 
        0.4912857413291931, 
        -0.6360782384872437, 
        0.6176883578300476, 
        -0.43065130710601807, 
        -0.0794583335518837, 
        0.2082338184118271, 
        0.135741725564003, 
        0.6019428372383118, 
        0.3966345191001892, 
        -0.5940343737602234, 
        -0.7160822749137878, 
        0.4884457290172577, 
        -0.6479255557060242, 
        0.5829944014549255, 
        -0.534746527671814, 
        -0.5907100439071655, 
        0.3575828969478607, 
        0.7199188470840454, 
        0.06255938857793808, 
        0.1363433599472046, 
        -0.10284998267889023, 
        -0.0073790596798062325, 
        0.19400686025619507, 
        -0.49577760696411133, 
        -0.3454311788082123, 
        -0.5916773676872253, 
        0.046372003853321075, 
        0.3799162805080414, 
        0.5018931031227112, 
        -0.19092345237731934, 
        -0.3106216788291931, 
        0.20068056881427765, 
        0.5180680155754089, 
        0.20416170358657837, 
        0.6436620950698853, 
        -0.32323864102363586, 
        -0.37498778104782104, 
        0.5685078501701355, 
        0.6928138136863708, 
        0.4432390034198761, 
        0.4559571444988251, 
        -0.49039676785469055, 
        0.22786253690719604, 
        -0.6308092474937439, 
        0.2526354491710663, 
        -0.7720392346382141, 
        -0.333394855260849, 
        -0.45814192295074463, 
        0.18250884115695953, 
        0.5073113441467285, 
        -0.715975284576416, 
        0.07198211550712585, 
        -0.7167952060699463, 
        -0.513270914554596, 
        -0.18647216260433197, 
        0.011945516802370548, 
        0.2777315080165863, 
        -0.0327887237071991, 
        -0.6138371229171753, 
        -0.07635519653558731, 
        -0.528806209564209, 
        -0.035831518471241, 
        0.4188573360443115, 
        0.39229121804237366, 
        -0.4532682001590729, 
        0.1015150398015976, 
        -0.20180366933345795, 
        -0.13588565587997437, 
        -0.10449106246232986, 
        -0.04160119220614433, 
        -0.24119752645492554, 
        0.4023456573486328, 
        -0.08482242375612259, 
        0.5330007672309875, 
        -0.37436699867248535, 
        0.261303186416626, 
        -0.5573904514312744, 
        -0.3117680251598358, 
        -0.11050533503293991, 
        -0.3701411187648773, 
        0.6301530599594116, 
        -0.49193626642227173, 
        0.10872413218021393, 
        0.5582700371742249, 
        0.7841311097145081, 
        -0.2796858847141266, 
        0.2793569266796112, 
        0.15862256288528442, 
        -0.1136561706662178, 
        -0.30929458141326904, 
        0.03903095796704292, 
        0.571829080581665, 
        0.2765412926673889, 
        0.29502901434898376, 
        -0.27093854546546936, 
        -0.05923768877983093, 
        0.10165751725435257, 
        -0.6091237664222717, 
        0.252554714679718, 
        -0.5919261574745178, 
        0.41634368896484375, 
        0.11736004054546356, 
        0.40836426615715027, 
        -0.042993590235710144, 
        0.2933696508407593, 
        -0.10184212028980255, 
        -0.3673030734062195, 
        -0.24911008775234222, 
        0.31854766607284546, 
        0.6275196075439453, 
        0.337881863117218, 
        0.16621056199073792, 
        0.5493257641792297, 
        -0.41502198576927185, 
        -0.5249618887901306, 
        0.4903324544429779, 
        0.39506134390830994, 
        0.03211691975593567, 
        -0.22450631856918335, 
        0.28946059942245483, 
        0.02378389611840248, 
        -0.7188699841499329, 
        -0.1905255764722824, 
        0.10617010295391083, 
        0.2551003098487854, 
        0.2866050601005554, 
        -0.5244109034538269, 
        0.49268704652786255, 
        -0.6579049229621887, 
        -0.29048049449920654, 
        0.19945164024829865, 
        0.4764401316642761, 
        -0.1798955500125885, 
        -0.11208689212799072, 
        0.30597758293151855, 
        -0.07947997003793716, 
        0.4839399755001068, 
        -0.2616402208805084, 
        0.46559426188468933, 
        -0.2678607106208801, 
        0.30370914936065674, 
        0.15048164129257202, 
        -0.49405547976493835, 
        0.006592574995011091, 
        -0.5214665532112122, 
        -0.6519175171852112, 
        -0.22284412384033203, 
        -0.2265821099281311, 
        0.5951356887817383, 
        0.6426239013671875, 
        0.44534140825271606, 
        -0.13339075446128845, 
        -0.5618232488632202, 
        -0.4774344563484192, 
        -0.4522532820701599, 
        -0.07067236304283142, 
        0.34231892228126526, 
        -0.8399452567100525, 
        -0.08735539764165878, 
        0.18838554620742798, 
        -0.05771038681268692, 
        -0.09390631318092346, 
        0.3330423831939697, 
        0.24061711132526398, 
        -0.04107697680592537, 
        -0.26481226086616516, 
        0.2921208441257477, 
        0.38341888785362244, 
        -0.7844746112823486, 
        0.29388880729675293, 
        -0.07024489343166351, 
        -0.6567937135696411, 
        0.301034152507782, 
        -0.3902096152305603, 
        -0.047582779079675674, 
        0.8162539601325989, 
        -0.5387396812438965, 
        -0.6241994500160217, 
        0.08946507424116135, 
        -0.16384778916835785, 
        -0.3703974783420563, 
        -0.27812567353248596, 
        -0.5224738717079163, 
        -0.5766403079032898, 
        -0.14593873918056488, 
        -0.3293478786945343, 
        0.02131783217191696, 
        0.11184629797935486, 
        0.1982513815164566, 
        -0.12206219881772995, 
        0.40550750494003296, 
        -0.23435865342617035, 
        0.6823363900184631, 
        0.38213324546813965, 
        0.5893887877464294, 
        -0.1867169886827469, 
        -0.3416467010974884, 
        0.45272770524024963, 
        0.32290124893188477, 
        0.3359111547470093, 
        0.5357720255851746, 
        0.7769156694412231, 
        0.4759688675403595, 
        0.02269718609750271, 
        0.34102749824523926, 
        0.46082574129104614, 
        -0.23939014971256256, 
        0.4498963952064514, 
        -0.07156309485435486, 
        -0.07220398634672165, 
        0.6318399906158447, 
        -0.6643689870834351, 
        -0.34734535217285156, 
        0.001113536418415606, 
        0.6767451763153076, 
        0.26541054248809814, 
        0.2624976336956024, 
        -0.5041035413742065, 
        0.6073441505432129, 
        0.32779037952423096, 
        0.5875848531723022, 
        0.6718677878379822, 
        -0.12841367721557617, 
        -0.3645865321159363, 
        -0.07801899313926697, 
        -0.08467815071344376, 
        0.3043418824672699, 
        0.2456272393465042, 
        -0.13308390974998474, 
        -0.6535175442695618, 
        0.656903862953186, 
        -0.3791417181491852, 
        -0.07880384474992752, 
        0.4646521806716919, 
        -0.14641337096691132, 
        0.5222408175468445, 
        0.1303943246603012, 
        0.05442197620868683, 
        -0.07386547327041626, 
        -0.6371402144432068, 
        0.31107452511787415, 
        0.43907374143600464, 
        -0.15275602042675018, 
        -0.24913211166858673, 
        -0.13725662231445312, 
        -0.7171823382377625, 
        0.4943612217903137, 
        0.27921444177627563, 
        0.46603021025657654, 
        -0.4005879759788513, 
        -0.1829993575811386, 
        0.5449525117874146, 
        -0.45104438066482544, 
        -0.13567249476909637, 
        -0.4224435091018677, 
        0.3101319670677185, 
        0.03539945185184479, 
        0.2989068031311035, 
        -0.9490213990211487, 
        -0.14614756405353546, 
        0.19705168902873993, 
        -0.1313243806362152, 
        -0.38390448689460754, 
        0.47749727964401245, 
        -0.32706567645072937, 
        -0.43999746441841125, 
        0.09054943919181824, 
        0.2429470717906952, 
        0.31813710927963257, 
        0.1751837134361267, 
        0.885019063949585, 
        -0.5772392153739929, 
        -0.15428946912288666, 
        0.07291566580533981, 
        0.5284472107887268, 
        0.340044230222702, 
        -0.7801764607429504, 
        -0.12882839143276215, 
        -0.5511390566825867, 
        -0.5740978717803955, 
        -0.3394086956977844, 
        -0.3157397508621216, 
        0.7703055143356323, 
        -0.5032011866569519, 
        0.17840424180030823, 
        -0.6052966117858887, 
        0.5696154832839966, 
        0.38089045882225037, 
        -0.6562154293060303, 
        -0.06506992876529694, 
        -0.618027925491333, 
        -0.055762991309165955, 
        -0.442996621131897, 
        -0.0849103331565857, 
        -0.5605373978614807, 
        0.47330760955810547, 
        0.04312632232904434, 
        0.0849417969584465, 
        0.40713781118392944, 
        -0.5644251704216003, 
        0.1930028349161148, 
        0.37937504053115845, 
        -0.38529545068740845, 
        0.4007541835308075, 
        0.641875147819519, 
        -0.15068002045154572, 
        0.3436458110809326, 
        -0.36796578764915466, 
        -0.012438559904694557, 
        -0.6253442168235779, 
        -0.32311680912971497, 
        0.04982028529047966, 
        -0.032765839248895645, 
        -0.5401126742362976, 
        0.5025899410247803, 
        -0.6198760271072388, 
        0.154391348361969, 
        0.19294050335884094, 
        0.41224637627601624, 
        -0.6506330370903015, 
        0.3064364790916443, 
        -0.4227345585823059, 
        0.6265591382980347, 
        -0.11066992580890656, 
        0.3109225034713745, 
        -0.5904806852340698, 
        0.17321786284446716, 
        0.05454949289560318, 
        0.05605454742908478, 
        -0.22673454880714417, 
        -0.5267831087112427, 
        0.21975702047348022, 
        0.1677621752023697, 
        0.0416790135204792, 
        0.2373669445514679, 
        -0.4078604280948639, 
        -0.2741285264492035, 
        -0.6104879975318909, 
        -0.41777509450912476, 
        0.5420645475387573, 
        -0.5480163097381592, 
        -0.542411208152771, 
        0.7769103050231934, 
        -0.12197009474039078, 
        -0.10789830982685089, 
        -0.3945731818675995, 
        -0.560523509979248, 
        -0.45908063650131226, 
        0.35475194454193115, 
        -0.47098883986473083, 
        -0.30497631430625916, 
        0.05994487181305885, 
        -0.598915696144104, 
        0.7637960314750671, 
        0.15657128393650055, 
        -0.5431504249572754, 
        -0.5223817229270935, 
        0.22885525226593018, 
        0.1843494027853012, 
        -0.6901757717132568, 
        0.5634245872497559, 
        -0.5132554769515991, 
        -0.7985169887542725, 
        0.511909008026123, 
        -0.4906688928604126, 
        0.6330748200416565, 
        -0.5896796584129333, 
        0.2538261413574219, 
        -0.44762107729911804, 
        0.5470863580703735, 
        0.6112292408943176, 
        -0.20378541946411133, 
        -0.24034443497657776, 
        0.3400039076805115, 
        0.40879663825035095, 
        -0.7218071818351746, 
        -0.1274207979440689, 
        0.05376051366329193, 
        -0.29073089361190796, 
        0.3271351158618927, 
        0.21979887783527374, 
        -0.12686565518379211, 
        0.76418536901474, 
        0.2929397523403168, 
        0.6787359714508057, 
        -0.7222946882247925, 
        0.6942984461784363, 
        0.6253772974014282, 
        -0.683356761932373, 
        -0.1371964067220688, 
        -0.10065293312072754, 
        -0.6475162506103516, 
        -0.5186777710914612, 
        -0.29186299443244934, 
        -0.13511843979358673, 
        -0.22103840112686157, 
        0.17820987105369568, 
        -0.2877889573574066, 
        0.1484088897705078, 
        -0.06681367009878159, 
        0.09725317358970642, 
        -0.20650775730609894, 
        0.029277188703417778, 
        -0.49959295988082886, 
        -0.3615729510784149, 
        -0.3293667435646057, 
        -0.44147613644599915, 
        0.29344382882118225, 
        -0.18383146822452545, 
        -0.1424785554409027, 
        -0.5393551588058472, 
        0.40876373648643494, 
        0.47264787554740906, 
        -0.289010226726532, 
        0.0542943961918354, 
        0.27866727113723755, 
        -0.27273645997047424, 
        0.07222063839435577, 
        0.19818012416362762, 
        -0.6841437816619873, 
        0.27842023968696594, 
        0.9836673736572266, 
        -0.06994298845529556, 
        -0.4741661250591278, 
        -0.24470961093902588, 
        0.1349080204963684, 
        0.18273229897022247, 
        0.19734489917755127, 
        -0.5181538462638855, 
        -0.6393232345581055, 
        -0.4405354857444763, 
        0.39164161682128906, 
        -0.06759645789861679, 
        -0.4580264091491699, 
        -0.003257629694417119, 
        -0.28738081455230713, 
        0.08088929206132889, 
        0.07967422157526016, 
        0.024453064426779747, 
        0.11046358197927475, 
        0.01829199492931366, 
        0.3313857614994049, 
        -0.05351262167096138, 
        0.10147624462842941, 
        0.07331863790750504, 
        -0.09534497559070587, 
        0.9818183779716492, 
        0.5598366260528564, 
        0.04477766156196594, 
        -0.1939377784729004, 
        -0.05291023477911949, 
        -0.10906039923429489, 
        -0.3276556730270386, 
        -0.3050461411476135, 
        0.013268425129354, 
        -0.5101512670516968, 
        -0.5073508024215698, 
        -0.4190172255039215, 
        -0.6467393040657043, 
        -0.3553825914859772, 
        -0.02306639589369297, 
        -0.6344538927078247, 
        0.6979173421859741, 
        -0.13821013271808624, 
        0.601108729839325, 
        0.7863211631774902, 
        -0.0632656067609787, 
        -0.27809417247772217, 
        -0.07300718873739243, 
        0.3051362633705139, 
        0.40099138021469116, 
        -0.22075481712818146, 
        0.154863178730011, 
        0.47506827116012573, 
        0.4929580092430115, 
        0.3894943594932556, 
        0.39193105697631836, 
        -0.15436075627803802, 
        0.11096860468387604, 
        -0.7604420185089111, 
        -0.516768753528595, 
        -0.23933528363704681, 
        -0.35826805233955383, 
        0.3194214105606079, 
        -0.11818765103816986, 
        -0.40049704909324646, 
        0.6439369916915894, 
        -0.4434283673763275, 
        -0.31277674436569214, 
        -0.32181990146636963, 
        -0.6080827116966248, 
        -0.41148608922958374, 
        -0.6013666391372681, 
        0.6252130270004272, 
        0.4477955102920532, 
        0.6767207384109497, 
        0.11290035396814346, 
        -0.07477754354476929, 
        0.11667663604021072, 
        -0.8552042245864868, 
        -0.5159275531768799, 
        0.17758913338184357, 
        -0.43247097730636597, 
        0.5645362138748169, 
        -0.028375165536999702, 
