{
  "input_sequences": [], 
  "inputs": [
    {
      "name": "node_0", 
      "variables": [
        {
          "name": "variable_0", 
          "offset": 0, 
          "scale": 1
        }, 
        {
          "name": "variable_1", 
          "offset": 0, 
          "scale": 1
        }, 
        {
          "name": "variable_2", 
          "offset": 0, 
          "scale": 1
        }, 
        {
          "name": "variable_3", 
          "offset": 0, 
          "scale": 1
        }, 
        {
          "name": "variable_4", 
          "offset": 0, 
          "scale": 1
        }, 
        {
          "name": "variable_5", 
          "offset": 0, 
          "scale": 1
        }, 
        {
          "name": "variable_6", 
          "offset": 0, 
          "scale": 1
        }, 
        {
          "name": "variable_7", 
          "offset": 0, 
          "scale": 1
        }, 
        {
          "name": "variable_8", 
          "offset": 0, 
          "scale": 1
        }, 
        {
          "name": "variable_9", 
          "offset": 0, 
          "scale": 1
        }
      ]
    }
  ], 
  "layers": [
    {
      "architecture": "normalization", 
      "bias": [
        -353444.90625, 
        -177291.3125, 
        -137929.3125, 
        -1799.4552001953125, 
        -2693.973876953125, 
        -0.35265469551086426, 
        -11.57520866394043, 
        -8.39659309387207, 
        -0.146513432264328, 
        -1.559996247291565
      ], 
      "weights": [
        3.3818416795838857e-06, 
        1.0504856618354097e-05, 
        5.645845703838859e-06, 
        0.0002523829462006688, 
        0.00026815413730219007, 
        1.1951113939285278, 
        0.17204847931861877, 
        0.19776253402233124, 
        8.209383964538574, 
        1.459941029548645
      ]
    }, 
    {
      "activation": "tanh", 
      "architecture": "dense", 
      "bias": [
        -0.03821002319455147, 
        -0.08067923039197922, 
        -0.07756242156028748, 
        -0.006572170183062553, 
        0.07888074964284897, 
        0.08613282442092896, 
        0.03753187879920006, 
        0.043974123895168304, 
        0.06963326781988144, 
        -0.02798335999250412, 
        -0.035075653344392776, 
        -0.05506730452179909, 
        -0.0820915624499321, 
        0.14965637028217316, 
        0.09910666942596436, 
        0.099376380443573, 
        0.1647370159626007, 
        0.11976224184036255, 
        -0.016211794689297676, 
        0.09529151767492294, 
        0.07099343091249466, 
        -0.09941849857568741, 
        -0.06487564742565155, 
        -0.04820920154452324, 
        -0.06081346794962883, 
        0.048847708851099014, 
        -0.027238046750426292, 
        0.07397673279047012, 
        -0.02013496868312359, 
        -0.12324944883584976, 
        0.22462567687034607, 
        -0.0067412517964839935, 
        -0.020520463585853577, 
        0.0884644091129303, 
        0.0877697616815567, 
        -0.1361764371395111, 
        -0.04209371656179428, 
        0.045465268194675446, 
        0.10307323187589645, 
        -0.03145086020231247, 
        -0.014734460040926933, 
        -0.012000704184174538, 
        0.0830179750919342, 
        -0.06014338135719299, 
        0.014683504588901997, 
        0.0262470580637455, 
        -0.05123579502105713, 
        -0.06531453132629395, 
        -0.07200565189123154, 
        -0.09604891389608383, 
        0.032045818865299225, 
        -0.11766674369573593, 
        0.04389025270938873, 
        0.07591165602207184, 
        0.06363584101200104, 
        0.04558372497558594, 
        0.02091970667243004, 
        -0.03074277564883232, 
        -0.0315178819000721, 
        -0.06217396631836891, 
        0.08129855245351791, 
        -0.07790477573871613, 
        0.07010647654533386, 
        0.04551078751683235, 
        0.0010165661806240678, 
        0.00486854650080204, 
        -0.13600555062294006, 
        0.02201922982931137, 
        -0.021452099084854126, 
        0.07876888662576675, 
        -0.02863462269306183, 
        -0.0668090283870697, 
        -0.08475366979837418, 
        -0.09170080721378326, 
        0.07337533682584763, 
        0.015390205197036266, 
        0.014417321421205997, 
        -0.07872927188873291, 
        0.006484070792794228, 
        -0.10582085698843002, 
        0.050382547080516815, 
        -0.001112511963583529, 
        -0.08943495899438858, 
        -0.030821865424513817, 
        -0.02003229223191738, 
        -0.06976459920406342, 
        -0.20158882439136505, 
        -0.061557501554489136, 
        -0.09783914685249329, 
        -0.004166067112237215, 
        -0.06457316130399704, 
        0.12385634332895279, 
        0.04759155958890915, 
        -0.09322525560855865, 
        -0.09984670579433441, 
        -0.10458765923976898, 
        0.1252482533454895, 
        -0.009519880637526512, 
        -0.04068521782755852, 
        -0.11637047678232193, 
        -0.015221841633319855, 
        0.09869532287120819, 
        -0.08773532509803772, 
        0.009578656405210495, 
        -0.011420640163123608, 
        0.04446323215961456, 
        -0.0027361102402210236, 
        0.12030598521232605, 
        -0.039281927049160004, 
        0.03215724602341652, 
        -0.02659229002892971, 
        0.005279317032545805, 
        -0.1120348870754242, 
        0.04737883433699608, 
        0.03728819638490677, 
        0.004187044221907854, 
        0.0389106459915638, 
        -0.017224181443452835, 
        0.08541160821914673, 
        0.0011643501929938793, 
        -0.07786362618207932, 
        0.15123453736305237, 
        -0.10672129690647125, 
        -0.032689169049263, 
        0.047842226922512054, 
        0.15326260030269623, 
        -0.001927538076415658, 
        -0.126532182097435, 
        -0.011473579332232475, 
        0.07656265795230865, 
        0.012480483390390873, 
        -0.016717612743377686, 
        0.06115040183067322, 
        -0.017620204016566277, 
        0.005671173334121704, 
        0.13248518109321594, 
        -0.05916702374815941, 
        -0.07775186002254486, 
        0.09345156699419022, 
        0.076693095266819, 
        -0.05314728245139122, 
        0.031039876863360405, 
        0.02558252587914467, 
        -0.10403905063867569, 
        0.14505544304847717, 
        0.11706658452749252, 
        0.09717974811792374, 
        0.022156337276101112, 
        0.0027862016577273607, 
        0.0807235911488533, 
        -0.03175872191786766, 
        0.03434079885482788, 
        0.002030623145401478, 
        0.18344952166080475, 
        0.07901785522699356, 
        0.11670682579278946, 
        -0.06923537701368332, 
        0.05729179084300995, 
        -0.07254957407712936, 
        -0.028197521343827248, 
        -0.08333884924650192, 
        -0.04020019993185997, 
        -0.17388851940631866, 
        0.08328991383314133, 
        0.07472938299179077, 
        -0.12246786057949066, 
        0.05573030188679695, 
        -0.07769329100847244, 
        -0.0010365643538534641, 
        0.016849776729941368, 
        -0.11281507462263107, 
        -0.016351811587810516, 
        0.0458468496799469, 
        -0.04177354276180267, 
        -0.037808869034051895, 
        -0.04809124395251274, 
        -0.019960712641477585, 
        0.1005302369594574, 
        -0.12965521216392517, 
        -0.07547435909509659, 
        -0.10673528909683228, 
        -0.03719406574964523, 
        0.0062467558309435844, 
        0.02970159985125065, 
        -0.013349086977541447, 
        0.16294631361961365, 
        -0.047728281468153, 
        -0.026817940175533295, 
        -0.009315507486462593, 
        -0.05570187792181969, 
        -0.06574635952711105, 
        -0.09867318719625473, 
        0.06687191128730774, 
        0.0341743640601635, 
        -0.012845395132899284, 
        -0.05624677613377571, 
        -0.28337785601615906, 
        0.01253800094127655, 
        0.19526547193527222, 
        -0.10971597582101822, 
        -0.015804242342710495, 
        -0.06166377663612366, 
        -0.013197587803006172, 
        -0.04416704177856445, 
        0.028270414099097252, 
        -0.04224114492535591, 
        -0.016868431121110916, 
        0.04840133711695671, 
        -0.09965317696332932, 
        0.04206624627113342, 
        0.07540783286094666, 
        0.009778602048754692, 
        -0.11143603175878525, 
        -0.05408880487084389, 
        0.13130778074264526, 
        -0.07201142609119415, 
        0.028500517830252647, 
        0.047614675015211105, 
        -0.0027130788657814264, 
        0.07221899181604385, 
        0.06905175745487213, 
        0.19590117037296295, 
        0.12265636771917343, 
        -0.035769760608673096, 
        0.05206860229372978, 
        -0.028890758752822876, 
        -0.11947878450155258, 
        -0.00795588456094265, 
        0.05379679054021835, 
        -0.03412090614438057, 
        -0.027884574607014656, 
        0.023719249293208122, 
        -0.07590027898550034, 
        0.02609567530453205, 
        -0.0662446841597557, 
        -0.011429053731262684, 
        0.0775221437215805, 
        0.021587016060948372, 
        0.0019777463749051094, 
        -0.15257887542247772, 
        -0.03830556198954582, 
        0.03884820640087128, 
        0.0054010204039514065, 
        0.09807546436786652, 
        0.1911216676235199, 
        -0.05130208656191826, 
        -0.11086621880531311, 
        0.013765727169811726, 
        0.05545070022344589, 
        0.11681172251701355, 
        0.03417065739631653, 
        0.0397953987121582, 
        -0.07115340232849121, 
        0.07335047423839569, 
        0.045214734971523285, 
        0.01596655696630478, 
        -0.0958310216665268, 
        -0.07380376756191254, 
        0.03973304480314255, 
        -0.08675629645586014, 
        -0.11587320268154144, 
        0.042910974472761154, 
        0.01648661307990551, 
        0.05993477255105972, 
        -0.03509322181344032, 
        -0.08396675437688828, 
        -0.03462337702512741, 
        0.04591980576515198, 
        -0.02344748191535473, 
        0.11590664833784103, 
        -0.061547789722681046, 
        0.027592334896326065, 
        -0.1321791708469391, 
        -0.06900142133235931, 
        -0.03793111443519592, 
        -0.004909766837954521, 
        -0.07965858280658722, 
        0.1404995322227478, 
        0.03267960622906685, 
        0.013860058039426804, 
        0.0056455498561263084, 
        -0.13950218260288239, 
        -0.09518784284591675, 
        -0.048106882721185684, 
        -0.00023775464796926826, 
        0.0034936920274049044, 
        -0.18676088750362396, 
        0.060190726071596146, 
        0.04737314209342003, 
        0.1493195742368698, 
        -0.059489138424396515, 
        0.0585210807621479, 
        -0.19806940853595734, 
        -0.05391934514045715, 
        0.03811975196003914, 
        0.0594215914607048, 
        0.021031947806477547, 
        0.1391831785440445, 
        -0.032667919993400574, 
        -0.059702906757593155, 
        0.03478078171610832, 
        0.022190364077687263, 
        0.10533826798200607, 
        0.10896021872758865, 
        0.06124284490942955, 
        0.05554908141493797, 
        0.0718509778380394, 
        0.09390327334403992, 
        -0.1330585479736328, 
        -0.1808418333530426, 
        -0.0322568379342556, 
        -0.06588613241910934, 
        -0.03220777586102486, 
        0.09065096080303192, 
        -0.02991943620145321, 
        -0.0329776369035244, 
        0.06323698163032532, 
        0.0853431299328804, 
        0.07395298779010773, 
        0.016560863703489304, 
        0.030346445739269257, 
        -0.011784259229898453, 
        0.0717412456870079, 
        0.01053143572062254, 
        -0.030894776806235313, 
        0.031397201120853424, 
        -0.004453539382666349, 
        -0.05617673695087433, 
        0.07627901434898376, 
        -0.0010566993150860071, 
        0.13917702436447144, 
        0.05007532611489296, 
        -0.07307599484920502, 
        0.10808004438877106, 
        0.1609058827161789, 
        -0.0008700117468833923, 
        -0.07190747559070587, 
        0.008209825493395329, 
        0.18535155057907104, 
        0.14625823497772217, 
        0.04880515858530998, 
        0.12393742799758911, 
        0.09701801836490631, 
        0.06268413364887238, 
        -0.013458414934575558, 
        0.0072634583339095116, 
        -0.06672108918428421, 
        0.012684876099228859, 
        -0.07388591766357422, 
        0.018958475440740585, 
        0.10169996321201324, 
        -0.020535152405500412, 
        0.152821883559227, 
        -0.04137469083070755, 
        0.042138244956731796, 
        0.028024988248944283, 
        -0.17846104502677917, 
        -0.08815213292837143, 
        -0.04209740832448006, 
        0.010351930744946003, 
        -0.023734111338853836, 
        -0.049749188125133514, 
        0.008717488497495651, 
        -0.10707974433898926, 
        -0.05741621181368828, 
        -0.04320232942700386, 
        -0.05490993708372116, 
        0.004801019094884396, 
        0.09930167347192764, 
        0.06592585146427155, 
        -0.003494187956675887, 
        -0.036845214664936066, 
        0.004558721091598272, 
        0.03540697321295738, 
        0.02610684372484684, 
        -0.013468248769640923, 
        -0.06428372859954834, 
        -0.017307937145233154, 
        -0.03514815866947174, 
        -0.027807660400867462, 
        -0.013962864875793457, 
        0.05960240960121155, 
        -0.00021928329078946263, 
        0.036979496479034424, 
        -0.038502804934978485, 
        0.042360786348581314, 
        -0.18007703125476837, 
        -0.0487167052924633, 
        0.15749378502368927, 
        -0.14123348891735077, 
        -0.027987107634544373, 
        -0.02098928950726986, 
        0.02095632813870907, 
        -0.03926325961947441, 
        -0.02641894854605198, 
        0.10102435946464539, 
        -0.05326693505048752, 
        0.04209904000163078, 
        -0.02887646108865738, 
        0.10455670952796936, 
        0.047890376299619675, 
        0.07227416336536407, 
        -0.06420402973890305, 
        -0.032376863062381744, 
        -0.12674148380756378, 
        -0.030131464824080467, 
        0.08492913842201233, 
        -0.1679963916540146, 
        4.4986256398260593e-05, 
        0.11613813042640686, 
        0.014884771779179573, 
        -0.03160645067691803, 
        0.0955021008849144, 
        -0.08003111928701401, 
        -0.012132334522902966, 
        -0.070218026638031, 
        -0.0176034364849329, 
        0.09768946468830109, 
        -0.024981839582324028, 
        -0.026813754811882973, 
        -0.06863442063331604, 
        0.0596688836812973, 
        0.02647441253066063, 
        0.10991472750902176, 
        -0.11233409494161606, 
        -0.056605398654937744, 
        0.01942957192659378, 
        -0.07757559418678284, 
        0.042156882584095, 
        -0.04923146963119507, 
        0.11055025458335876, 
        -0.02389240637421608, 
        -0.06425018608570099, 
        0.0993276834487915, 
        -0.014569508843123913, 
        -0.0866256058216095, 
        -0.024736076593399048, 
        0.25934165716171265, 
        0.09984166920185089, 
        -0.10035409778356552, 
        0.059673845767974854, 
        0.042650915682315826, 
        0.049059703946113586, 
        -0.08909399062395096, 
        0.0822400450706482, 
        -0.07285269349813461, 
        0.029789648950099945, 
        0.057341642677783966, 
        0.10233741998672485, 
        0.05411023274064064, 
        0.19947423040866852, 
        0.10966108739376068, 
        0.05701731517910957, 
        0.03899767994880676, 
        0.0409887321293354, 
        -0.09242737293243408, 
        0.04825131967663765, 
        0.07979179918766022, 
        0.11655748635530472, 
        0.11719687283039093, 
        0.1312812864780426, 
        0.041898082941770554, 
        -0.03827868774533272, 
        -0.04689088836312294, 
        -0.0965215414762497, 
        -0.067494697868824, 
        0.1036924347281456, 
        0.05201549828052521, 
        -0.1219027191400528, 
        0.01761101372539997, 
        0.10606008023023605, 
        0.08543282002210617, 
        -0.019528990611433983, 
        -0.006807107012718916, 
        0.06747189164161682, 
        -0.0027182460762560368, 
        -0.0998254120349884, 
        -0.19583307206630707, 
        0.11615955084562302, 
        0.05146413296461105, 
        -0.014285139739513397, 
        -0.00472595077008009, 
        0.022616304457187653, 
        -0.16652925312519073, 
        -0.07983023673295975, 
        0.1594405323266983, 
        0.006150712724775076, 
        -0.030554208904504776, 
        0.039883021265268326, 
        0.05279470980167389, 
        0.020173268392682076, 
        0.01208922266960144, 
        0.2423352599143982, 
        0.03340763598680496, 
        -0.07805779576301575, 
        -0.1744731068611145, 
        -0.131889209151268, 
        -0.039711881428956985, 
        -0.09370020776987076, 
        -0.05705338716506958, 
        -0.06571388244628906, 
        -0.09345502406358719, 
        0.04820101335644722, 
        0.07566610723733902, 
        -0.13549096882343292, 
        -0.21576234698295593, 
        0.12911531329154968, 
        0.06852174550294876, 
        -0.02890189178287983, 
        0.024910656735301018, 
        0.007372816558927298, 
        0.06595384329557419
      ], 
      "weights": [
        0.46587443351745605, 
        -0.6949697136878967, 
        -0.0444023571908474, 
        0.2153298705816269, 
        0.09069572389125824, 
        0.05969496816396713, 
        -0.5802292227745056, 
        -0.15657712519168854, 
        0.5459134578704834, 
        0.2659073770046234, 
        -0.25312039256095886, 
        0.8819157481193542, 
        0.3189455568790436, 
        -0.020619215443730354, 
        -0.38594260811805725, 
        -0.20216259360313416, 
        0.680050253868103, 
        0.7126123309135437, 
        0.30991029739379883, 
        0.08228572458028793, 
        -0.07514657825231552, 
        0.17964410781860352, 
        -0.16497166454792023, 
        -0.46307212114334106, 
        0.25422537326812744, 
        0.6576515436172485, 
        -0.37420526146888733, 
        -0.07961805164813995, 
        -0.2501073479652405, 
        0.05425199121236801, 
        -0.4725247621536255, 
        0.11473849415779114, 
        -0.676099419593811, 
        -0.383598655462265, 
        0.3467031717300415, 
        -0.35112571716308594, 
        -0.43608126044273376, 
        -0.608379065990448, 
        0.3574865758419037, 
        -0.3529074192047119, 
        -0.36567485332489014, 
        -0.010325143113732338, 
        0.5737947821617126, 
        -0.6036681532859802, 
        0.1251300722360611, 
        -0.07486836612224579, 
        -0.7535598874092102, 
        0.2746180295944214, 
        -0.16125454008579254, 
        -0.6235214471817017, 
        0.3213793933391571, 
        -0.29507702589035034, 
        0.38983801007270813, 
        -0.6812726259231567, 
        -0.2363307774066925, 
        -0.22541160881519318, 
        0.517777681350708, 
        0.07880887389183044, 
        0.5691031217575073, 
        -0.10876715928316116, 
        -0.1880110651254654, 
        0.15832066535949707, 
        -0.02431294322013855, 
        0.535354495048523, 
        -0.03629585728049278, 
        0.5120389461517334, 
        0.32469937205314636, 
        -0.7860803604125977, 
        -0.23642855882644653, 
        -0.7763727307319641, 
        0.37540295720100403, 
        0.10384666919708252, 
        -0.06362206488847733, 
        0.23989591002464294, 
        -0.7770734429359436, 
        -0.7164099216461182, 
        0.49492499232292175, 
        0.3945661187171936, 
        0.2877355217933655, 
        -0.052984632551670074, 
        -0.30945464968681335, 
        -0.7196961641311646, 
        0.051432251930236816, 
        -0.10220770537853241, 
        -0.7019768953323364, 
        0.07593172043561935, 
        -0.6262205243110657, 
        -0.17671814560890198, 
        0.15183836221694946, 
        0.2779998779296875, 
        0.5331626534461975, 
        0.1571914702653885, 
        -0.206526517868042, 
        -0.2598118185997009, 
        -0.026953954249620438, 
        -0.5263864398002625, 
        -0.29890018701553345, 
        0.39763206243515015, 
        -0.49609506130218506, 
        -0.6897780895233154, 
        -0.8479599952697754, 
        -0.19074109196662903, 
        0.3513154089450836, 
        0.4234548807144165, 
        -0.5939062237739563, 
        0.24635964632034302, 
        0.45164358615875244, 
        -0.0964699313044548, 
        -0.2934916019439697, 
        0.554011881351471, 
        0.27935990691185, 
        0.4712960124015808, 
        0.20383141934871674, 
        -0.5736711621284485, 
        0.26640236377716064, 
        0.7202388644218445, 
        -0.4839008152484894, 
        -0.5937790870666504, 
        -0.0399341806769371, 
        -0.7026039361953735, 
        0.42814314365386963, 
        -0.5383067727088928, 
        -0.42415162920951843, 
        0.4343404769897461, 
        0.7477118372917175, 
        0.6991987824440002, 
        -0.3029261529445648, 
        0.2030605673789978, 
        -0.1081731915473938, 
        0.2962205410003662, 
        0.301181823015213, 
        0.32926973700523376, 
        -0.5868518948554993, 
        0.43724510073661804, 
        0.31665146350860596, 
        0.36921969056129456, 
        -0.36013245582580566, 
        -0.1707097887992859, 
        -0.8235052227973938, 
        -0.6034530401229858, 
        -0.8233363032341003, 
        -0.011541284620761871, 
        0.6973084807395935, 
        0.4215220808982849, 
        -0.32097697257995605, 
        0.2894805073738098, 
        0.12042900919914246, 
        -0.4231262505054474, 
        0.27297133207321167, 
        -0.2013453096151352, 
        0.24183037877082825, 
        0.1417529582977295, 
        -0.08978221565485, 
        0.447659432888031, 
        0.042765986174345016, 
        0.7734412550926208, 
        0.6243071556091309, 
        -0.7000439763069153, 
        0.46043282747268677, 
        -0.6009909510612488, 
        0.4825708270072937, 
        0.1575791984796524, 
        -0.23938418924808502, 
        0.6159451007843018, 
        -0.3193998336791992, 
        -0.7307648062705994, 
        -0.5586909055709839, 
        -0.6581981778144836, 
        -0.5964464545249939, 
        0.25108566880226135, 
        -0.8729325532913208, 
        0.46207061409950256, 
        0.6817276477813721, 
        0.542372465133667, 
        -0.17473268508911133, 
        0.498747318983078, 
        0.6524686217308044, 
        -0.33804842829704285, 
        -0.012055575847625732, 
        -0.5402361750602722, 
        -0.1417074054479599, 
        0.5135578513145447, 
        -0.3039427697658539, 
        0.31024599075317383, 
        -0.06474675983190536, 
        -0.4971897006034851, 
        0.7569262981414795, 
        0.580768346786499, 
        -0.20293669402599335, 
        0.026520919054746628, 
        -0.21112731099128723, 
        -0.4911096692085266, 
        0.36622002720832825, 
        -0.5901699662208557, 
        -0.40996620059013367, 
        -0.35392212867736816, 
        -0.13667598366737366, 
        -0.05039115250110626, 
        -0.0021150356624275446, 
        -0.4026748538017273, 
        0.5407227277755737, 
        -0.37155455350875854, 
        -0.41929391026496887, 
        0.10341523587703705, 
        -0.04825468733906746, 
        -0.500274658203125, 
        -0.8279325366020203, 
        -0.7336932420730591, 
        0.4255119264125824, 
        -0.1698969304561615, 
        0.7939692139625549, 
        -0.47909215092658997, 
        -0.22187846899032593, 
        0.3577995300292969, 
        0.39404717087745667, 
        0.3206242322921753, 
        -0.7023465037345886, 
        0.33579304814338684, 
        0.40968596935272217, 
        0.11207166314125061, 
        0.00042516563553363085, 
        -0.7607871294021606, 
        0.21110853552818298, 
        -0.07172077894210815, 
        0.045206308364868164, 
        -0.5447803139686584, 
        -0.02212967723608017, 
        0.7214934825897217, 
        -0.6497980356216431, 
        -0.5293301343917847, 
        0.36946961283683777, 
        -0.46424099802970886, 
        0.6336027383804321, 
        -0.08638565987348557, 
        0.016592741012573242, 
        0.7172483205795288, 
        -0.42148739099502563, 
        0.11394405364990234, 
        -0.41093242168426514, 
        -0.021170606836676598, 
        -0.6439279317855835, 
        -0.41828805208206177, 
        0.2677973508834839, 
        0.3549445867538452, 
        0.3342761695384979, 
        0.5959637761116028, 
        0.3866424858570099, 
        -0.28695693612098694, 
        0.0007641473785042763, 
        0.18530356884002686, 
        0.6408196091651917, 
        -0.42483317852020264, 
        0.4058811068534851, 
        -0.006036700680851936, 
        0.14121146500110626, 
        0.18117786943912506, 
        -0.5528425574302673, 
        -0.35793536901474, 
        -0.6964555382728577, 
        -0.5972147583961487, 
        0.6600748300552368, 
        -0.8264865875244141, 
        0.11901520192623138, 
        -0.40015286207199097, 
        0.5769041180610657, 
        0.13871167600154877, 
        -0.08325711637735367, 
        0.49049314856529236, 
        0.5469587445259094, 
        -0.42530474066734314, 
        0.8031142354011536, 
        -0.6118695735931396, 
        -0.03935375437140465, 
        0.843271017074585, 
        -0.21652208268642426, 
        0.4000537693500519, 
        0.2223012000322342, 
        -0.3887648284435272, 
        -0.13519379496574402, 
        0.6227648258209229, 
        -0.6384488344192505, 
        0.294140487909317, 
        -0.5273991823196411, 
        -0.6014580726623535, 
        0.48345038294792175, 
        0.41768667101860046, 
        -0.028902297839522362, 
        -0.453298419713974, 
        0.4993981122970581, 
        -0.49325740337371826, 
        -0.509049654006958, 
        -0.010756485164165497, 
        -0.7305281162261963, 
        0.3705328404903412, 
        0.03692071884870529, 
        -0.23549970984458923, 
        0.26816561818122864, 
        0.2523723244667053, 
        0.2594936192035675, 
        -0.16217400133609772, 
        -0.6755178570747375, 
        0.12307578325271606, 
        0.33744949102401733, 
        0.5918321013450623, 
        -0.3960329592227936, 
        -0.4005400538444519, 
        -0.6353996396064758, 
        0.6613786816596985, 
        0.4238045811653137, 
        0.14022815227508545, 
        -0.6401637196540833, 
        0.47272780537605286, 
        0.3826630413532257, 
        0.12714992463588715, 
        0.1061396598815918, 
        -0.07378095388412476, 
        0.23404933512210846, 
        -0.6411256790161133, 
        0.4331570565700531, 
        0.10642977058887482, 
        0.5481573939323425, 
        -0.37645578384399414, 
        0.3291783332824707, 
        -0.0886085033416748, 
        0.40828099846839905, 
        0.5691153407096863, 
        0.11237424612045288, 
        0.13664934039115906, 
        -0.10546426475048065, 
        0.2383352518081665, 
        -0.21465936303138733, 
        0.22854940593242645, 
        -0.45492956042289734, 
        0.7976512312889099, 
        -0.5669684410095215, 
        -0.5272201299667358, 
        0.01577874831855297, 
        -0.12033166736364365, 
        0.07937268912792206, 
        0.27411824464797974, 
        -0.32664987444877625, 
        -0.5025966763496399, 
        -0.6005958318710327, 
        0.7453958988189697, 
        0.042181793600320816, 
        -0.500225841999054, 
        -0.07406757026910782, 
        0.46810680627822876, 
        0.29384925961494446, 
        -0.23981758952140808, 
        0.6400572657585144, 
        -0.6712839007377625, 
        0.4223255217075348, 
        -0.7179633975028992, 
        0.30952590703964233, 
        0.04493296518921852, 
        0.11318258196115494, 
        -0.35135576128959656, 
        -0.4937721788883209, 
        0.2638181746006012, 
        0.7031314373016357, 
        -0.22033004462718964, 
        0.2623851001262665, 
        0.07720916718244553, 
        0.08901781588792801, 
        -0.74419766664505, 
        0.18584120273590088, 
        -0.6061800122261047, 
        0.24554239213466644, 
        -0.30085158348083496, 
        0.5410850048065186, 
        0.12985843420028687, 
        0.5737957954406738, 
        0.011841610074043274, 
        0.5626442432403564, 
        0.5138632655143738, 
        0.043357718735933304, 
        -0.7340292930603027, 
        -0.08905155956745148, 
        -0.3529495596885681, 
        -0.11170083284378052, 
        0.6145691871643066, 
        -0.18151523172855377, 
        -0.5208616852760315, 
        0.14711271226406097, 
        -0.7649201154708862, 
        -0.6305716633796692, 
        0.3720245957374573, 
        -0.6435538530349731, 
        -0.6578593254089355, 
        -0.5998687744140625, 
        -0.4560607075691223, 
        -0.6939780712127686, 
        0.1984187215566635, 
        -0.01324082724750042, 
        0.4167978763580322, 
        0.6702321767807007, 
        0.2833481431007385, 
        -0.22319842875003815, 
        0.7663371562957764, 
        0.5965898633003235, 
        0.7482686638832092, 
        0.7173749208450317, 
        0.0451652966439724, 
        0.47510775923728943, 
        -0.07843714207410812, 
        0.6056301593780518, 
        0.6322159767150879, 
        -0.7244881391525269, 
        -0.2076893448829651, 
        0.7320711612701416, 
        0.1382109373807907, 
        0.6954994201660156, 
        0.3536931574344635, 
        -0.5312315821647644, 
        0.003572764340788126, 
        0.5605589151382446, 
        -0.5301180481910706, 
        -0.04541187733411789, 
        -0.1044175773859024, 
        0.2383979856967926, 
        -0.3962444067001343, 
        -0.07099099457263947, 
        0.17641432583332062, 
        0.02384941279888153, 
        -0.1404767483472824, 
        -0.5263494253158569, 
        0.597374439239502, 
        0.5799769759178162, 
        -0.6799248456954956, 
        0.21686740219593048, 
        0.5982457399368286, 
        0.7806259393692017, 
        -0.10123858600854874, 
        -0.3071078658103943, 
        -0.20301014184951782, 
        -0.10019312798976898, 
        0.07773790508508682, 
        0.07568623870611191, 
        -0.2993166148662567, 
        -0.33236077427864075, 
        -0.5865665674209595, 
        -0.4498329758644104, 
        0.713516891002655, 
        -0.765902042388916, 
        0.10580107569694519, 
        0.05653000995516777, 
        0.4560315012931824, 
        0.46443402767181396, 
        -0.45144930481910706, 
        -0.44995206594467163, 
        -0.23203490674495697, 
        0.8175440430641174, 
        -0.5384936928749084, 
        0.05183291435241699, 
        0.6424256563186646, 
        -0.4759896695613861, 
        0.4023360311985016, 
        -0.559888482093811, 
        -0.6335861682891846, 
        0.12232544273138046, 
        -0.1182360127568245, 
        0.29573264718055725, 
        -0.5724812150001526, 
        -0.001791720511391759, 
        -0.5363075137138367, 
        0.009048918262124062, 
        0.7009842991828918, 
        -0.6804059147834778, 
        -0.5964081883430481, 
        0.498852014541626, 
        -0.12908582389354706, 
        -0.7145383954048157, 
        -0.09545307606458664, 
        0.27369412779808044, 
        -0.42387425899505615, 
        -0.29261329770088196, 
        0.4036710560321808, 
        -0.6716517806053162, 
        -0.7477778792381287, 
        -0.3208249509334564, 
        -0.4764414131641388, 
        -0.2892693877220154, 
        -0.6843991279602051, 
        -0.27902746200561523, 
        0.19665765762329102, 
        0.16617703437805176, 
        -0.06077892333269119, 
        0.2599197030067444, 
        -0.6904973983764648, 
        -0.032568663358688354, 
        -0.22282695770263672, 
        -0.5548951625823975, 
        0.03307918831706047, 
        -0.020223179832100868, 
        -0.6577051877975464, 
        -0.5186562538146973, 
        -0.2689823508262634, 
        0.09286437928676605, 
        -0.038353417068719864, 
        0.2452610731124878, 
        0.261453241109848, 
        0.2504350244998932, 
        -0.7386581897735596, 
        0.681266725063324, 
        0.28158074617385864, 
        0.784845769405365, 
        -0.11145737022161484, 
        0.07299644500017166, 
        -0.055943526327610016, 
        0.5747783780097961, 
        -0.07817196100950241, 
        -0.3320593237876892, 
        -0.6561139822006226, 
        0.3375459611415863, 
        -0.171869695186615, 
        -0.6852143406867981, 
        -0.7206286191940308, 
        -0.24106889963150024, 
        -0.22355183959007263, 
        0.5467352271080017, 
        0.25634464621543884, 
        -0.49048706889152527, 
        0.5675260424613953, 
        0.31966111063957214, 
        -0.05990990251302719, 
        0.45252686738967896, 
        -0.13132046163082123, 
        0.32308852672576904, 
        0.013658077456057072, 
        -0.37696853280067444, 
        -0.3174949586391449, 
        0.4825792610645294, 
        -0.07561817765235901, 
        -0.11833484470844269, 
        -0.3566565215587616, 
        -0.6159496903419495, 
        -0.1431809514760971, 
        -0.044075123965740204, 
        -0.1463669389486313, 
        -0.3741968274116516, 
        0.3561936318874359, 
        0.3255499005317688, 
        0.5677415728569031, 
        -0.5120604634284973, 
        -0.5672111511230469, 
        -0.6902889013290405, 
        -0.3666810691356659, 
        -0.093176931142807, 
        -0.11913955956697464, 
        -0.3626825213432312, 
        -0.30681464076042175, 
        -0.5090742707252502, 
        0.18912741541862488, 
        -0.6738671064376831, 
        0.5557762384414673, 
        0.6730976104736328, 
        0.11520881950855255, 
        0.3933066427707672, 
        -0.07304652780294418, 
        0.013543281704187393, 
        0.01141602173447609, 
        0.042496487498283386, 
        -0.15149851143360138, 
        0.04040763899683952, 
        0.21624474227428436, 
        0.40241310000419617, 
        0.3718297779560089, 
        0.597176194190979, 
        0.3074369430541992, 
        -0.42254623770713806, 
        0.34631359577178955, 
        0.836844265460968, 
        -0.4260086417198181, 
        -0.42517104744911194, 
        -0.7077959775924683, 
        0.22294403612613678, 
        -0.1979258954524994, 
        -0.5049035549163818, 
        0.5724127292633057, 
        -0.6715666651725769, 
        0.7472649216651917, 
        -0.6087353229522705, 
        0.009781120344996452, 
        0.7402255535125732, 
        -0.38794681429862976, 
        0.4547937214374542, 
        -0.463509738445282, 
        -0.8085669279098511, 
        0.010980715043842793, 
        0.6831439733505249, 
        -0.20820313692092896, 
        -0.4958154261112213, 
        -0.6487175226211548, 
        0.5149356722831726, 
        0.46166887879371643, 
        -0.3382079601287842, 
        -0.24736493825912476, 
        0.34557583928108215, 
        0.359468936920166, 
        0.3124432861804962, 
        -0.5487629175186157, 
        0.7252552509307861, 
        -0.06128886714577675, 
        0.007417834363877773, 
        -0.6729945540428162, 
        -0.593277096748352, 
        -0.6327462196350098, 
        0.09868666529655457, 
        0.13320030272006989, 
        -0.3497636616230011, 
        0.44372889399528503, 
        -0.3293357789516449, 
        0.1239481195807457, 
        0.4431658685207367, 
        0.33415696024894714, 
        -0.7315064072608948, 
        -0.6265159845352173, 
        -0.4073532819747925, 
        0.13979868590831757, 
        0.024526573717594147, 
        -0.5841158032417297, 
        0.7575391530990601, 
        0.17163391411304474, 
        0.41295045614242554, 
        -0.5849531888961792, 
        0.09039773046970367, 
        0.498701810836792, 
        0.093783438205719, 
        -0.1439545601606369, 
        -0.5173320770263672, 
        0.7524924278259277, 
        -0.10454240441322327, 
        -0.46483248472213745, 
        0.16671667993068695, 
        -0.39253443479537964, 
        -0.34863823652267456, 
        -0.2547453045845032, 
        -0.5414206385612488, 
        0.19825883209705353, 
        0.3924230635166168, 
        -0.4691157937049866, 
        -0.6726329922676086, 
        -0.5589797496795654, 
        0.3437945246696472, 
        -0.11645219475030899, 
        -0.45210984349250793, 
        0.44636157155036926, 
        0.8459984064102173, 
        -0.28763359785079956, 
        -0.29411354660987854, 
        0.0631483644247055, 
        0.2801437973976135, 
        -0.7764420509338379, 
        -0.2134677618741989, 
        0.4800657033920288, 
        0.05920424684882164, 
        -0.5224770307540894, 
        -0.13386636972427368, 
        0.6223684549331665, 
        -0.551732063293457, 
        0.27904021739959717, 
        0.6192900538444519, 
        -0.2559930682182312, 
        -0.058721043169498444, 
        -0.4324152171611786, 
        -0.45837363600730896, 
        -0.19983933866024017, 
        0.599699854850769, 
        -0.6111539006233215, 
        0.4315357208251953, 
        -0.175472229719162, 
        0.31927093863487244, 
        0.7447677850723267, 
        0.0902806743979454, 
        -0.23985625803470612, 
        0.42536163330078125, 
        0.06727451831102371, 
        0.17504192888736725, 
        -0.1616515964269638, 
        -0.7175306081771851, 
        -0.38911172747612, 
        -0.5131657123565674, 
        0.4748743176460266, 
        0.1731482595205307, 
        0.31382396817207336, 
        -0.5791612863540649, 
        0.6587580442428589, 
        0.08469431847333908, 
        0.5932610630989075, 
        -0.4546421766281128, 
        -0.4004763662815094, 
        0.655752956867218, 
        -0.08682949095964432, 
        -0.6142913699150085, 
        0.618760883808136, 
        0.6403458118438721, 
        0.3955477178096771, 
        -0.19866152107715607, 
        0.6548488140106201, 
        -0.2646210193634033, 
        0.6353692412376404, 
        0.670237123966217, 
        0.34186816215515137, 
        -0.2897314131259918, 
        0.4127468168735504, 
        0.10343135893344879, 
        -0.23023134469985962, 
        -0.5366860032081604, 
        -0.148167684674263, 
        0.745707631111145, 
        0.5557333827018738, 
        -0.5244996547698975, 
        -0.7039182186126709, 
        0.4100329577922821, 
        0.6524680256843567, 
        -0.7271260619163513, 
        0.5379412174224854, 
        -0.3435496389865875, 
        -0.42724600434303284, 
        -0.43674013018608093, 
        -0.010376988910138607, 
        -0.2986416518688202, 
        0.3884822726249695, 
        -0.7029728889465332, 
        0.6465892195701599, 
        -0.6778727173805237, 
        0.5571103096008301, 
        -0.28489598631858826, 
        -0.4753275215625763, 
        -0.03370341658592224, 
        0.1485111117362976, 
        0.38955214619636536, 
        -0.6471885442733765, 
        -0.2806724011898041, 
        -0.6115111112594604, 
        0.7161853313446045, 
        -0.41921743750572205, 
        0.2583858370780945, 
        -0.42305248975753784, 
        0.6621633768081665, 
        -0.28950968384742737, 
        0.139769047498703, 
        0.4159087836742401, 
        0.2924205958843231, 
        -0.3411572277545929, 
        -0.7345104813575745, 
        -0.04726887494325638, 
        0.5030917525291443, 
        -0.3994726240634918, 
        0.4700801372528076, 
        0.4655283987522125, 
        -0.20261625945568085, 
        0.6659368872642517, 
        0.34199345111846924, 
        -0.04179176315665245, 
        -0.5808403491973877, 
        0.6794778108596802, 
        0.47080203890800476, 
        0.3989676833152771, 
        0.16249418258666992, 
        -0.4546253979206085, 
        -0.6812704801559448, 
        -0.2053012251853943, 
        -0.6351519823074341, 
        -0.49248194694519043, 
        -0.6134072542190552, 
        0.7206262350082397, 
        0.3191646933555603, 
        0.6529335975646973, 
        -0.710622251033783, 
        0.5217592120170593, 
        0.11447343230247498, 
        -0.1257774382829666, 
        0.693403959274292, 
        -0.6036165952682495, 
        0.16400514543056488, 
        0.228911355137825, 
        0.28731220960617065, 
        -0.47876235842704773, 
        0.1913963258266449, 
        0.06711754947900772, 
        -0.5872345566749573, 
        0.3704718053340912, 
        -0.17506390810012817, 
        -0.4130512773990631, 
        0.27049800753593445, 
        0.13250359892845154, 
        -0.5583537220954895, 
        -0.6068890690803528, 
        0.6000415086746216, 
        -0.0662131980061531, 
        -0.7302091121673584, 
        0.19456011056900024, 
        0.33562585711479187, 
        0.5886859893798828, 
        0.6358190178871155, 
        -0.7388712167739868, 
        0.22212348878383636, 
        -0.32511064410209656, 
        -0.12469156086444855, 
        -0.3782126307487488, 
        0.12284361571073532, 
        0.30193838477134705, 
        0.7295722365379333, 
        -0.004633875098079443, 
        0.17401625216007233, 
        0.05792684480547905, 
        0.4930383265018463, 
        -0.12311085313558578, 
        0.507893443107605, 
        -0.6484286189079285, 
        0.7763540148735046, 
        0.2555583119392395, 
        0.20021593570709229, 
        -0.4077824056148529, 
        -0.44385218620300293, 
        0.6432598233222961, 
        -0.30596891045570374, 
        -0.4321369528770447, 
        -0.1783955693244934, 
        0.07197397947311401, 
        -0.522940456867218, 
        0.27696627378463745, 
        -0.2381570041179657, 
        0.7262552976608276, 
        -0.7498663067817688, 
        0.5326535701751709, 
        -0.10124526917934418, 
        -0.010919363237917423, 
        0.5319404006004333, 
        -0.5644448399543762, 
        -0.430248886346817, 
        0.0073118614964187145, 
        -0.7879437208175659, 
        0.2605983316898346, 
        0.08521867543458939, 
        0.5176225304603577, 
        0.6241849064826965, 
        -0.2519100308418274, 
        -0.6755315661430359, 
        -0.4586968719959259, 
        0.17468753457069397, 
        -0.13696035742759705, 
        -0.047919824719429016, 
        0.726550281047821, 
        -0.6157569289207458, 
        -0.4753941595554352, 
        0.1611110419034958, 
        -0.3311785161495209, 
        -0.5888603329658508, 
        -0.09875848889350891, 
        0.24683015048503876, 
        0.7841303944587708, 
        0.6516933441162109, 
        0.726690411567688, 
        -0.4302815794944763, 
        0.08255878835916519, 
        -0.7644479870796204, 
        0.40433380007743835, 
        -0.03070859983563423, 
        -0.1503031849861145, 
        0.5935206413269043, 
        0.6281697750091553, 
        -0.8099851012229919, 
        0.2913626730442047, 
        0.16669923067092896, 
        -0.44160449504852295, 
        0.5804941058158875, 
        -0.6935868859291077, 
        -0.27181851863861084, 
        0.46770986914634705, 
        0.5878697037696838, 
        -0.6017675399780273, 
        -0.6116305589675903, 
        0.2531431019306183, 
        0.76901775598526, 
        -0.5326187610626221, 
        0.40049707889556885, 
        0.42952409386634827, 
        -0.10790052264928818, 
        0.7141141295433044, 
        0.35173216462135315, 
        0.018709896132349968, 
        -0.33435118198394775, 
        0.061010636389255524, 
        0.2970028519630432, 
        -0.11305461078882217, 
        0.40154603123664856, 
        -0.3550112545490265, 
        -0.8128445148468018, 
        -0.5857163667678833, 
        0.3808005452156067, 
        0.60993891954422, 
        -0.5462836623191833, 
        0.7589730024337769, 
        -0.6854519248008728, 
        -0.5569201111793518, 
        -0.058835648000240326, 
        -0.3919691741466522, 
        -0.590721070766449, 
        0.49157607555389404, 
        0.6941636800765991, 
        0.7856599688529968, 
        0.3050844967365265, 
        -0.49244263768196106, 
        -0.3107771575450897, 
        -0.3993664085865021, 
        -0.22163672745227814, 
        -0.6587774157524109, 
        -0.19538883864879608, 
        -0.609014630317688, 
        -0.17132511734962463, 
        0.5822908282279968, 
        -0.6019930243492126, 
        0.7134838104248047, 
        -0.163051038980484, 
        -0.3873288631439209, 
        0.243629589676857, 
        -0.6553455591201782, 
        -0.2773035764694214, 
        -0.44505101442337036, 
        -0.4656253159046173, 
        0.025305019691586494, 
        0.5970167517662048, 
        -0.27128899097442627, 
        0.6826069951057434, 
        0.2158593088388443, 
        0.3735191524028778, 
        0.3810434341430664, 
        -0.6141127347946167, 
        -0.6090985536575317, 
        -0.7909767031669617, 
        -0.6709546446800232, 
        -0.18601937592029572, 
        -0.3491193652153015, 
        0.6142674088478088, 
        -0.38324543833732605, 
        -0.6360529661178589, 
        0.26821333169937134, 
        -0.2963849902153015, 
        0.7438658475875854, 
        -0.0846218541264534, 
        -0.6984698176383972, 
        0.32159554958343506, 
        0.3415082097053528, 
        -0.1210140511393547, 
        0.1722002476453781, 
        -0.1892348676919937, 
        0.2316667139530182, 
        -0.18292780220508575, 
        -0.4515155851840973, 
        -0.46490803360939026, 
        -0.7473253011703491, 
        0.5128967761993408, 
        0.3716432452201843, 
        0.628228485584259, 
        0.4388963282108307, 
        -0.789759635925293, 
        0.7455944418907166, 
        -0.4955712854862213, 
        -0.44537848234176636, 
        0.1767503321170807, 
        -0.16350789368152618, 
        -0.13169853389263153, 
        -0.6824274659156799, 
        -0.776405930519104, 
        0.3552052080631256, 
        0.19259466230869293, 
        -0.5473107695579529, 
        -0.5394149422645569, 
        0.33437561988830566, 
        -0.11371089518070221, 
        -0.41245999932289124, 
        -0.5306341648101807, 
        0.6631304025650024, 
        0.16911235451698303, 
        -0.28652769327163696, 
        0.2810961604118347, 
        -0.04165490344166756, 
        -0.11683961749076843, 
        0.7433242797851562, 
        0.07326087355613708, 
        -0.12000177055597305, 
        -0.3528474271297455, 
        0.019757810980081558, 
        -0.013463250361382961, 
        -0.32066187262535095, 
        -0.2443060427904129, 
        0.523574709892273, 
        -0.16013255715370178, 
        0.4853169023990631, 
        -0.401839017868042, 
        0.8102248907089233, 
        0.6525219678878784, 
        0.478433758020401, 
        -0.15405575931072235, 
        0.555833637714386, 
        -0.05413110554218292, 
        -0.16542957723140717, 
        -0.25237542390823364, 
        0.7048525810241699, 
        -0.7019357681274414, 
        -0.07245166599750519, 
        -0.2872712016105652, 
        -0.3494209349155426, 
        -0.04838281869888306, 
        0.0842570886015892, 
        0.5499233603477478, 
        0.5086479783058167, 
        0.5447121858596802, 
        0.5314513444900513, 
        0.13074156641960144, 
        0.8553777933120728, 
        0.029002737253904343, 
        0.20599953830242157, 
        -0.12036070972681046, 
        0.029430173337459564, 
        -0.6783031225204468, 
        0.04685770720243454, 
        0.34053677320480347, 
        -0.5120254755020142, 
        0.21189062297344208, 
        -0.31995290517807007, 
        -0.19435454905033112, 
        0.04231290519237518, 
        -0.15616464614868164, 
        -0.020507924258708954, 
        -0.5197927951812744, 
        0.06991741061210632, 
        0.5115669965744019, 
        0.011932380497455597, 
        -0.5161763429641724, 
        -0.35920870304107666, 
        0.19296523928642273, 
        -0.2887255549430847, 
        0.890213668346405, 
        -0.21402877569198608, 
        0.24248257279396057, 
        -0.058419711887836456, 
        -0.3752322196960449, 
        0.012189028784632683, 
        0.05093102157115936, 
        0.3521119952201843, 
        0.19076937437057495, 
        0.16049888730049133, 
        0.7089596390724182, 
        0.5294547080993652, 
        0.1794598549604416, 
        -0.8097001910209656, 
        0.622684895992279, 
        -0.10564609616994858, 
        0.7154878377914429, 
        -0.6072831749916077, 
        -0.36037060618400574, 
        -0.5589482188224792, 
        -0.5189800262451172, 
        -0.14490513503551483, 
        0.17266646027565002, 
        -0.671674907207489, 
        0.38170915842056274, 
        0.22428454458713531, 
        0.5421865582466125, 
        -0.44369304180145264, 
        0.619059145450592, 
        0.6797847747802734, 
        0.5020407438278198, 
        -0.32492515444755554, 
        0.4877680242061615, 
        0.3366471529006958, 
        -0.005874380469322205, 
        -0.17113938927650452, 
        0.15712089836597443, 
        0.033117324113845825, 
        -0.7381081581115723, 
        0.23747046291828156, 
        0.5594192147254944, 
        0.41130080819129944, 
        0.7328671216964722, 
        -0.2643324136734009, 
        0.47477713227272034, 
        0.1509145349264145, 
        -0.48052141070365906, 
        0.03618932515382767, 
        0.6119487881660461, 
        -0.23063679039478302, 
        0.27450162172317505, 
        0.12076941877603531, 
        0.7812267541885376, 
        -0.824227511882782, 
        0.21930637955665588, 
        0.12414585798978806, 
        0.6779012084007263, 
        0.6463554501533508, 
        -0.6233497858047485, 
        0.17521312832832336, 
        -0.5567039847373962, 
        -0.6219798922538757, 
        0.2535124123096466, 
        -0.23831301927566528, 
        -0.44220516085624695, 
        -0.35074755549430847, 
        -0.5273984670639038, 
        0.2484939843416214, 
        -0.09602104127407074, 
        -0.24490104615688324, 
        -0.7054934501647949, 
        -0.6082987785339355, 
        0.2793078124523163, 
        0.3455692231655121, 
        -0.585214376449585, 
        0.6862351894378662, 
        0.3528420925140381, 
        0.712153971195221, 
        -0.7577508091926575, 
        -0.5005492568016052, 
        -0.24201829731464386, 
        -0.4979768395423889, 
        -0.4714435636997223, 
        -0.7622532248497009, 
        -0.3185262978076935, 
        0.2415267676115036, 
        0.7273799180984497, 
        -0.4999271035194397, 
        0.4723622500896454, 
        -0.04919538274407387, 
        -0.7043651938438416, 
        -0.2810952365398407, 
        0.341594398021698, 
        0.12902261316776276, 
        0.6360102891921997, 
        -0.690305769443512, 
        0.1341134011745453, 
        0.48252731561660767, 
        0.09335146844387054, 
        0.22201786935329437, 
        -0.1914510279893875, 
        0.7982494831085205, 
        -0.4619579017162323, 
        -0.14468355476856232, 
        0.5277953743934631, 
        0.6137738823890686, 
        0.6840731501579285, 
        -0.522765576839447, 
        -0.2878391444683075, 
        -0.42890968918800354, 
        -0.5803813934326172, 
        -0.6336758136749268, 
        -0.03454253077507019, 
        0.5783771872520447, 
        -0.24203164875507355, 
        -0.022220827639102936, 
        0.5315458178520203, 
        -0.04789658635854721, 
        0.2759897708892822, 
        -0.5071925520896912, 
        -0.1314011514186859, 
        0.20109795033931732, 
        -0.3424590826034546, 
        -0.3335922658443451, 
        -0.19619476795196533, 
        0.1797703504562378, 
        0.30678024888038635, 
        0.07296353578567505, 
        -0.1278894692659378, 
        -0.3189910054206848, 
        0.6885769963264465, 
        -0.2829323410987854, 
        -0.5019554495811462, 
        -0.0429253913462162, 
        -0.5832680463790894, 
        -0.38769444823265076, 
        -0.5061528086662292, 
        0.18478773534297943, 
        -0.25515487790107727, 
        -0.015875738114118576, 
        0.49932074546813965, 
        -0.4657494127750397, 
        0.618109941482544, 
        0.18649421632289886, 
        0.5509989261627197, 
        0.13498803973197937, 
        -0.18710602819919586, 
        -0.03609286993741989, 
        -0.6004990935325623, 
        -0.4204934537410736, 
        0.6782390475273132, 
        -0.07941896468400955, 
        -0.5388142466545105, 
        0.5394363403320312, 
        0.33226796984672546, 
        0.6350782513618469, 
        0.5945537686347961, 
        -0.6998969912528992, 
        -0.5588839650154114, 
        0.09999337047338486, 
        0.6023778319358826, 
        0.11608126759529114, 
        -0.13261502981185913, 
        0.2564304769039154, 
        -0.0683644637465477, 
        0.6155443787574768, 
        0.24510067701339722, 
        0.6037196516990662, 
        0.34482747316360474, 
        -0.3349728286266327, 
        0.42517706751823425, 
        -0.31674128770828247, 
        -0.504215657711029, 
        -0.07039064168930054, 
        -0.3494178056716919, 
        0.07922016829252243, 
        0.6322168111801147, 
        -0.28449133038520813, 
        -0.5725272297859192, 
        0.03643142431974411, 
        -0.006153536029160023, 
        0.6901043057441711, 
        0.7083089351654053, 
        0.5366541743278503, 
        -0.8102762699127197, 
        0.4015016555786133, 
        -0.0623939223587513, 
        -0.38722658157348633, 
        0.7981109619140625, 
        0.07208981364965439, 
        0.4236188232898712, 
        0.286427766084671, 
        0.7351792454719543, 
        -0.7926649451255798, 
        0.028919320553541183, 
        0.6559199094772339, 
        0.0211440809071064, 
        0.47794318199157715, 
        -0.6320673823356628, 
        -0.5491805076599121, 
        -0.22030854225158691, 
        -0.5722981691360474, 
        -0.0004922462394461036, 
        -0.1879783421754837, 
        0.05321366339921951, 
        -0.36614370346069336, 
        0.5737299919128418, 
        -0.06672457605600357, 
        -0.4361025094985962, 
        -0.7419792413711548, 
        -0.199406698346138, 
        -0.7868699431419373, 
        0.36094892024993896, 
        0.5753907561302185, 
        -0.561413049697876, 
        0.27570217847824097, 
        0.528319239616394, 
        0.6812095046043396, 
        -0.15290994942188263, 
        -0.4927022159099579, 
        -0.4340858459472656, 
        -0.16587743163108826, 
        0.48891425132751465, 
        -0.25318944454193115, 
        -0.4769086241722107, 
        -0.17455925047397614, 
        -0.5900825262069702, 
        -0.45988234877586365, 
        0.10915316641330719, 
        -0.010568142868578434, 
        0.76636803150177, 
        -0.701565146446228, 
        0.501589834690094, 
        0.800468921661377, 
        0.254698246717453, 
        0.7024735808372498, 
        -0.3979124128818512, 
        -0.1019502803683281, 
        -0.143167644739151, 
        0.2621784508228302, 
        0.48555707931518555, 
        -0.8004826307296753, 
        -0.4907781481742859, 
        -0.0029776047449558973, 
        -0.1433010846376419, 
        0.21583236753940582, 
        0.21376720070838928, 
        -0.25333938002586365, 
        -0.3399183750152588, 
        -0.6696822643280029, 
        0.6436395645141602, 
        0.12968415021896362, 
        -0.14834095537662506, 
        -0.7158292531967163, 
        -0.8733108043670654, 
        -0.6428400278091431, 
        0.11672545969486237, 
        0.7535243034362793, 
        -0.5764467716217041, 
        0.25027260184288025, 
        -0.06428089737892151, 
        -0.3629297614097595, 
        -0.595589280128479, 
        0.2222566306591034, 
        -0.2574942409992218, 
        -0.2811311185359955, 
        -0.25104162096977234, 
        -0.2411612570285797, 
        -0.0841677114367485, 
        0.43109050393104553, 
        -0.07363291084766388, 
        -0.6059865951538086, 
        0.6682987809181213, 
        -0.22217807173728943, 
        0.275762677192688, 
        -0.5954124331474304, 
        0.3533824682235718, 
        0.14725519716739655, 
        -0.6584680080413818, 
        0.4924842119216919, 
        -0.8192221522331238, 
        0.4874368906021118, 
        0.5973098874092102, 
        0.36820152401924133, 
        0.173300102353096, 
        0.3138362467288971, 
        0.22133877873420715, 
        0.4841228723526001, 
        0.02345755696296692, 
        -0.45034024119377136, 
        -0.41732436418533325, 
        0.5738644599914551, 
        0.40459057688713074, 
        -0.032492924481630325, 
        0.7401258945465088, 
        0.7081111669540405, 
        -0.7507131099700928, 
        -0.6220719814300537, 
        -0.20689384639263153, 
        -0.23410068452358246, 
        0.49281468987464905, 
        0.7188587784767151, 
        -0.03987852483987808, 
        0.2085925191640854, 
        -0.16377273201942444, 
        -0.42566972970962524, 
        0.3853050768375397, 
        0.4420105516910553, 
        0.17471548914909363, 
        -0.38964658975601196, 
        0.7863088250160217, 
        0.34320712089538574, 
        -0.60439133644104, 
        0.680982768535614, 
        0.6740975379943848, 
        -0.4162399172782898, 
        -0.09894225746393204, 
        0.36630484461784363, 
        -0.13999596238136292, 
        0.5123946070671082, 
        0.5673917531967163, 
        -0.5895886421203613, 
        -0.4425800144672394, 
        0.4279375374317169, 
        0.103793665766716, 
        0.15692831575870514, 
        0.11740154772996902, 
        -0.320337176322937, 
        0.21664494276046753, 
        0.017697028815746307, 
        -0.45277878642082214, 
        -0.29573559761047363, 
        -0.5299493670463562, 
        0.74586021900177, 
        0.7619189023971558, 
        0.5767662525177002, 
        -0.19640274345874786, 
        -0.017337128520011902, 
        -0.6712250709533691, 
        0.3209817707538605, 
        0.5925716757774353, 
        -0.012949300929903984, 
        0.5967636704444885, 
        0.26366397738456726, 
        -0.4734712243080139, 
        0.6127706170082092, 
        0.5244433879852295, 
        0.72491055727005, 
        0.5672803521156311, 
        -0.35559993982315063, 
        0.28334036469459534, 
        0.14015205204486847, 
        0.1491381973028183, 
        0.17690366506576538, 
        -0.29999086260795593, 
        0.9188716411590576, 
        0.5779053568840027, 
        0.61019366979599, 
        -0.4320337772369385, 
        0.15622244775295258, 
        -0.016069676727056503, 
        0.19101227819919586, 
        -0.6546799540519714, 
        -0.2854553461074829, 
        -0.5801432132720947, 
        -0.7801165580749512, 
        0.020502211526036263, 
        0.26234501600265503, 
        -0.23960945010185242, 
        0.20929323136806488, 
        0.34296730160713196, 
        0.512606143951416, 
        -0.3273380398750305, 
        -0.6549099087715149, 
        0.498321533203125, 
        0.12794984877109528, 
        -0.25070345401763916, 
        0.41946178674697876, 
        -0.255513072013855, 
        -0.8235291838645935, 
        -0.12175510823726654, 
        0.1174519807100296, 
        0.5551421642303467, 
        -0.16197101771831512, 
        0.8978742957115173, 
        -0.2478051483631134, 
        -0.3963043987751007, 
        -0.49281519651412964, 
        0.6803452968597412, 
        -0.23701517283916473, 
        -0.6679724454879761, 
        0.069343701004982, 
        0.18748600780963898, 
        -0.47008511424064636, 
        0.5000852346420288, 
        -0.2687334418296814, 
        -0.16577881574630737, 
        -0.19896727800369263, 
        0.5580670237541199, 
        0.38018834590911865, 
        0.7198991179466248, 
        0.5738800168037415, 
        -0.6810529232025146, 
        0.5010082125663757, 
        -0.33583196997642517, 
        -0.13509349524974823, 
        0.7549552321434021, 
        -0.3348534405231476, 
        -0.523444652557373, 
        -0.35215863585472107, 
        0.3286586105823517, 
        0.4737531542778015, 
        0.03258972987532616, 
        -0.4784541726112366, 
        0.6335808038711548, 
        -0.5934451818466187, 
        -0.36237457394599915, 
        -0.6238529086112976, 
        -0.35128363966941833, 
        -0.24384765326976776, 
        0.2549489736557007, 
        -0.06090586259961128, 
        0.31169071793556213, 
        -0.03255363181233406, 
        -0.5533534288406372, 
        0.6708770990371704, 
        0.6608155965805054, 
        -0.6751614809036255, 
        -0.5510844588279724, 
        -0.5930522680282593, 
        -0.2880246937274933, 
        0.35495778918266296, 
        0.0424799881875515, 
        -0.3889121413230896, 
        0.30750200152397156, 
        -0.006098737940192223, 
        -0.42464372515678406, 
        -0.3659958839416504, 
        0.8608960509300232, 
        0.24873442947864532, 
        0.18688078224658966, 
        -0.31971505284309387, 
        0.4647291302680969, 
        0.5461595058441162, 
        0.12934157252311707, 
        0.4173578917980194, 
        -0.41122347116470337, 
        -0.007859260775148869, 
        -0.7127833962440491, 
        0.7316418886184692, 
        -0.09927965700626373, 
        0.4273794889450073, 
        0.3310275077819824, 
        0.32927799224853516, 
        0.5447602272033691, 
        0.41047313809394836, 
        -0.4642374813556671, 
        0.4989730715751648, 
        -0.27876585721969604, 
        -0.2922939360141754, 
        0.13906894624233246, 
        0.5553175806999207, 
        0.5640771985054016, 
        -0.3116607069969177, 
        0.23511774837970734, 
        0.7698593735694885, 
        -0.46207961440086365, 
        -0.6422188878059387, 
        0.6786648035049438, 
        0.1716528683900833, 
        -0.16051465272903442, 
        -0.07062999159097672, 
        -0.19900643825531006, 
        -0.4137967824935913, 
        0.325752854347229, 
        -0.45555078983306885, 
        -0.4531809389591217, 
        0.5940513610839844, 
        0.19913671910762787, 
        0.4903397560119629, 
        0.2775191068649292, 
        -0.14136169850826263, 
        0.27478164434432983, 
        -0.5631437301635742, 
        0.3913431763648987, 
        -0.5775041580200195, 
        0.5031890869140625, 
        -0.12365695089101791, 
        -0.6992322206497192, 
        0.5541439652442932, 
        0.07904602587223053, 
        0.4559135138988495, 
        -0.003962037153542042, 
        0.5541340112686157, 
        0.5239668488502502, 
        -0.08911479264497757, 
        -0.5955742001533508, 
        0.42247024178504944, 
        0.11683841794729233, 
        -0.7355278134346008, 
        -0.7854995131492615, 
        -0.7849410772323608, 
        -0.1119098886847496, 
        0.2702980041503906, 
        0.3060532510280609, 
        0.5268682837486267, 
        0.6540911197662354, 
        0.5955380201339722, 
        -0.38098663091659546, 
        0.19272936880588531, 
        -0.3802200257778168, 
        0.6438531279563904, 
        0.5059534311294556, 
        -0.4980023205280304, 
        0.049580905586481094, 
        0.522550642490387, 
        -0.5801846385002136, 
        0.044354911893606186, 
        0.3996700048446655, 
        -0.16530101001262665, 
        0.47027695178985596, 
        0.5074275732040405, 
        -0.4654732942581177, 
        0.19233742356300354, 
        0.09409866482019424, 
        -0.5013884902000427, 
        -0.09844229370355606, 
        -0.11325173825025558, 
        -0.48063644766807556, 
        -0.5412147045135498, 
        -0.7377820611000061, 
        0.20840753614902496, 
        -0.16031217575073242, 
        -0.10812792181968689, 
        0.20349207520484924, 
        -0.37994319200515747, 
        0.3456425964832306, 
        -0.4893144369125366, 
        -0.806883692741394, 
        0.4042278528213501, 
        0.5403577089309692, 
        0.09147454798221588, 
        0.4294703006744385, 
        0.1591464877128601, 
        -0.6194564700126648, 
        0.4132000505924225, 
        -0.22099676728248596, 
        0.5008991360664368, 
        -0.42699509859085083, 
        0.5412957072257996, 
        0.4082053303718567, 
        0.030050311237573624, 
        0.6132772564888, 
        -0.7410587668418884, 
        -0.39520177245140076, 
        -0.4664320647716522, 
        -0.04287241771817207, 
        -0.1430259495973587, 
        -0.2229919731616974, 
        0.29394590854644775, 
        0.14936332404613495, 
        0.37540414929389954, 
        -0.6272369623184204, 
        -0.14496122300624847, 
        -0.16590529680252075, 
        -0.3657832443714142, 
        0.023024896159768105, 
        -0.23314346373081207, 
        0.01625555194914341, 
        0.15964271128177643, 
        -0.07512422651052475, 
        0.20751118659973145, 
        0.30433571338653564, 
        -0.04071153700351715, 
        -0.5359349846839905, 
        0.5697596669197083, 
        -0.1013009250164032, 
        -0.6886910200119019, 
        -0.06224155053496361, 
        -0.3481809198856354, 
        -0.16253328323364258, 
        -0.7915422320365906, 
        -0.701545238494873, 
        0.18623796105384827, 
        0.2432245910167694, 
        -0.2655947208404541, 
        -0.679374635219574, 
        -0.01872367039322853, 
        -0.1302260011434555, 
        -0.6907036304473877, 
        -0.10414092987775803, 
        -0.09190106391906738, 
        -0.3186304569244385, 
        0.6048561334609985, 
        0.39313578605651855, 
        -0.6213427186012268, 
        0.12193307280540466, 
        0.30100470781326294, 
        -0.37432861328125, 
        -0.5899947285652161, 
        0.01848210208117962, 
        0.2894451916217804, 
        -0.7303223013877869, 
        0.4884580075740814, 
        0.7327837347984314, 
        0.6099443435668945, 
        -0.43604299426078796, 
        0.44550666213035583, 
        -0.09017401933670044, 
        0.2640688121318817, 
        -0.03393494337797165, 
        0.2537139654159546, 
        0.6367995142936707, 
        -0.3908027708530426, 
        0.48632189631462097, 
        -0.3072367310523987, 
        -0.059016406536102295, 
        -0.17196552455425262, 
        -0.3209473490715027, 
        0.22449225187301636, 
        -0.12912589311599731, 
        0.24253511428833008, 
        -0.6714455485343933, 
        0.46896660327911377, 
        -0.2720322906970978, 
        0.032945360988378525, 
        0.3115535080432892, 
        -0.1109117865562439, 
        -0.6111334562301636, 
        0.5435827970504761, 
        0.680207371711731, 
        -0.627865731716156, 
        0.30897143483161926, 
        0.32039421796798706, 
        -0.016364803537726402, 
        -0.18762288987636566, 
        0.05636889860033989, 
        -0.009852372109889984, 
        -0.23094983398914337, 
        0.7876309156417847, 
        -0.2585947513580322, 
        0.6304393410682678, 
        0.10352624207735062, 
        0.14293305575847626, 
        0.2972443401813507, 
        0.17970487475395203, 
        0.36181923747062683, 
        -0.5751577019691467, 
        0.7344418168067932, 
        0.15615403652191162, 
        0.5657527446746826, 
        0.5208969712257385, 
        0.04815364629030228, 
        0.7478777170181274, 
        -0.682000458240509, 
        0.22189421951770782, 
        0.49391981959342957, 
        0.446546733379364, 
        -0.23648636043071747, 
        -0.5073453783988953, 
        0.055732134729623795, 
        -0.3200058043003082, 
        0.2141897827386856, 
        -0.6565580368041992, 
        0.8925783038139343, 
        0.7252681851387024, 
        -0.5383704304695129, 
        -0.2780720293521881, 
        0.1143040880560875, 
        -0.07837607711553574, 
        -0.09210043400526047, 
        -0.8012363314628601, 
        -0.41775840520858765, 
        0.11010829359292984, 
        -0.6515661478042603, 
        0.5347725749015808, 
        -0.6681350469589233, 
        0.039995890110731125, 
        -0.0675710067152977, 
        0.5746156573295593, 
        0.1704394519329071, 
        -0.08193880319595337, 
        -0.020088933408260345, 
        0.5381012558937073, 
        0.5783683657646179, 
        -0.656703770160675, 
        -0.2667035162448883, 
        0.20387326180934906, 
        -0.7554059028625488, 
        0.1376899927854538, 
        0.5451210141181946, 
        -0.009861008264124393, 
        0.3156675398349762, 
        0.47557711601257324, 
        -0.3498570919036865, 
        -0.6140705347061157, 
        0.622853696346283, 
        0.7087627649307251, 
        0.7648005485534668, 
        -0.037704601883888245, 
        0.6023865938186646, 
        -0.5760760307312012, 
        -0.6689773797988892, 
        0.4878975450992584, 
        0.23997454345226288, 
        0.18934909999370575, 
        0.07015840709209442, 
        0.5895734429359436, 
        0.2878945767879486, 
        -0.03936971724033356, 
        0.6321382522583008, 
        0.2058744877576828, 
        0.6244258880615234, 
        0.587971031665802, 
        -0.050208840519189835, 
        0.6169640421867371, 
        0.423133909702301, 
        -0.5283345580101013, 
        0.24244950711727142, 
        -0.2496177852153778, 
        0.07530314475297928, 
        -0.26326411962509155, 
        -0.28493544459342957, 
        0.2966843545436859, 
        -0.17590934038162231, 
        0.7325292825698853, 
        -0.21448755264282227, 
        0.6489999890327454, 
        0.41147249937057495, 
        0.7295995950698853, 
        0.356049507856369, 
        -0.48364362120628357, 
        0.06665173172950745, 
        -0.3464723825454712, 
        0.6411877870559692, 
        -0.4389161169528961, 
        0.5683624744415283, 
        -0.23059454560279846, 
        -0.39415091276168823, 
        0.18854136765003204, 
        -0.6585460305213928, 
        0.0857076346874237, 
        0.13550011813640594, 
        0.6078844666481018, 
        -0.6245623230934143, 
        0.6081424951553345, 
        -0.39915305376052856, 
        0.2529168725013733, 
        0.4930129051208496, 
        -0.3137779235839844, 
        0.6053394675254822, 
        -0.11418040841817856, 
        0.09264619648456573, 
        0.70969557762146, 
        -0.856534481048584, 
        -0.18385615944862366, 
        -0.17449453473091125, 
        -0.03600805252790451, 
        -0.22927355766296387, 
        0.032480426132678986, 
        0.131954625248909, 
        -0.5573316216468811, 
        0.05977146327495575, 
        -0.13662949204444885, 
        0.06312830001115799, 
        -0.42745551466941833, 
        0.42109665274620056, 
        0.15260973572731018, 
        0.11984742432832718, 
        0.32010936737060547, 
        -0.46273273229599, 
        0.1026109978556633, 
        0.49962109327316284, 
        -0.23779882490634918, 
        -0.2887367010116577, 
        0.012756241485476494, 
        -0.59347003698349, 
        0.6290468573570251, 
        0.4975108504295349, 
        0.67324298620224, 
        0.33301785588264465, 
        0.6196919083595276, 
        0.05442441254854202, 
        -0.35911548137664795, 
        -0.9113020300865173, 
        0.09639763087034225, 
        0.7806078791618347, 
        -0.2143946886062622, 
        0.3068483769893646, 
        0.06595928221940994, 
        0.1990659236907959, 
        0.4432872235774994, 
        -0.6030573844909668, 
        0.4185033440589905, 
        -0.5367956161499023, 
        0.07676909118890762, 
        -0.38109806180000305, 
        0.3240845501422882, 
        -0.6135973930358887, 
        -0.5425882935523987, 
        -0.21352683007717133, 
        -0.34737980365753174, 
        0.5182985067367554, 
        0.5351444482803345, 
        0.7710616588592529, 
        0.46452364325523376, 
        0.37370240688323975, 
        -0.3566719591617584, 
        0.300032377243042, 
        -0.10646288841962814, 
        -0.714354395866394, 
        -0.6556440591812134, 
        -0.32606056332588196, 
        -0.21449719369411469, 
        -0.3878926932811737, 
        0.18342188000679016, 
        0.45272114872932434, 
        -0.6641525030136108, 
        -0.377020925283432, 
        0.14732368290424347, 
        0.05362163484096527, 
        -0.04655647650361061, 
        0.750321626663208, 
        -0.05228905752301216, 
        -0.6232613325119019, 
        0.3427204191684723, 
        -0.03569765016436577, 
        -0.719550609588623, 
        -0.39408960938453674, 
        -0.11132880300283432, 
        -0.3326449394226074, 
        -0.4533107876777649, 
        -0.13619039952754974, 
        -0.6543014049530029, 
        0.2866717278957367, 
        0.576266884803772, 
        -0.6770815849304199, 
        -0.4726628363132477, 
        0.06636502593755722, 
        -0.018446536734700203, 
        -0.6643458604812622, 
        0.6558907628059387, 
        0.030132655054330826, 
        -0.3641735315322876, 
        0.3083269000053406, 
        0.580697238445282, 
        -0.4324204623699188, 
        0.8387958407402039, 
        0.7894152402877808, 
        -0.010579872876405716, 
        -0.13453705608844757, 
        -0.4504431486129761, 
        0.522927463054657, 
        -0.8208823800086975, 
        -0.6697286367416382, 
        0.0715973898768425, 
        -0.3660050928592682, 
        -0.06909520924091339, 
        0.41016656160354614, 
        0.36315348744392395, 
        -0.18330951035022736, 
        0.6442998647689819, 
        -0.8284403681755066, 
        0.09144642949104309, 
        -0.07554907351732254, 
        -0.6392709016799927, 
        -0.37532955408096313, 
        0.6365183591842651, 
        0.8877687454223633, 
        -0.6144911050796509, 
        -0.7391724586486816, 
        0.576770007610321, 
        0.17664103209972382, 
        0.19519393146038055, 
        -0.6375749111175537, 
        -0.2012483924627304, 
        0.2907271683216095, 
        -0.3896504044532776, 
        0.839435875415802, 
        0.23010773956775665, 
        0.4472399353981018, 
        0.24454264342784882, 
        -0.0005747561808675528, 
        0.03804106265306473, 
        0.3319721519947052, 
        -0.30208900570869446, 
        -0.2918253540992737, 
        -0.7641783356666565, 
        -0.42869439721107483, 
        0.5990947484970093, 
        -0.26068365573883057, 
        0.2980751693248749, 
        -0.5816401839256287, 
        -0.0666404739022255, 
        -0.5101450681686401, 
        -0.38624587655067444, 
        -0.23392362892627716, 
        0.6891745924949646, 
        -0.6904109120368958, 
        -0.0033065415918827057, 
        -0.4122179448604584, 
        0.28285717964172363, 
        -0.026054183021187782, 
        0.2621341943740845, 
        -0.43213626742362976, 
        0.42212677001953125, 
        -0.5993779301643372, 
        -0.5109172463417053, 
        -0.025055116042494774, 
        0.7316250801086426, 
        0.5476133227348328, 
        -0.678103506565094, 
        0.31863516569137573, 
        -0.21148793399333954, 
        -0.0815906897187233, 
        0.16552865505218506, 
        0.5430430173873901, 
        0.5242105722427368, 
        0.4239150583744049, 
        -0.4275727868080139, 
        0.4670473337173462, 
        -0.09314900636672974, 
        0.584341287612915, 
        0.6207903623580933, 
        0.8866760730743408, 
        -0.6472298502922058, 
        -0.6504759192466736, 
        -0.26204946637153625, 
        0.06112479045987129, 
        -0.40864962339401245, 
        0.2061762809753418, 
        -0.2210133820772171, 
        -0.5375446677207947, 
        0.49381497502326965, 
        0.4475281536579132, 
        0.667323112487793, 
        -0.41363123059272766, 
        0.14371444284915924, 
        -0.16848690807819366, 
        -0.3736285865306854, 
        0.15354563295841217, 
        -0.5275712013244629, 
        -0.5607181191444397, 
        -0.7052854895591736, 
        -0.9210527539253235, 
        0.4100613594055176, 
        0.31082767248153687, 
        -0.04188495874404907, 
        -0.16737857460975647, 
        -0.4485578238964081, 
        0.3073427975177765, 
        0.047712456434965134, 
        0.3466002941131592, 
        0.5794537663459778, 
        -0.1985095590353012, 
        -0.1875428706407547, 
        -0.3352527320384979, 
        0.17672954499721527, 
        0.8245946764945984, 
        -0.018795937299728394, 
        -0.6297605633735657, 
        0.21965716779232025, 
        -0.16922830045223236, 
        0.04410994425415993, 
        0.547412633895874, 
        -0.5625167489051819, 
        0.455679714679718, 
        0.2598562240600586, 
        -0.31739792227745056, 
        -0.3095080852508545, 
        -0.8348811268806458, 
        0.21660062670707703, 
        -0.5285844206809998, 
        -0.7051540613174438, 
        -0.6601100564002991, 
        -0.660068154335022, 
        -0.3357664942741394, 
        -0.44685396552085876, 
        -0.6172695159912109, 
        0.11356283724308014, 
        0.5684942603111267, 
        0.37304869294166565, 
        0.5087026953697205, 
        -0.20097124576568604, 
        -0.048304226249456406, 
        0.4026464819908142, 
        0.2623283565044403, 
        0.24396805465221405, 
        0.4753407835960388, 
        -0.10240485519170761, 
        -0.7629507780075073, 
        -0.6647538542747498, 
        0.5770199298858643, 
        -0.5515168905258179, 
        0.20690135657787323, 
        -0.3929334282875061, 
        0.24999529123306274, 
        0.11117386817932129, 
        0.6701216697692871, 
        -0.6237642168998718, 
        0.16627798974514008, 
        0.26867154240608215, 
        0.6588348150253296, 
        -0.19351458549499512, 
        0.42128461599349976, 
        0.23469310998916626, 
        0.42577341198921204, 
        -0.04499172791838646, 
        -0.7201051712036133, 
        -0.5711634159088135, 
        -0.4665335714817047, 
        0.6101605892181396, 
        0.7083168029785156, 
        0.38990768790245056, 
        -0.15929895639419556, 
        -0.18222035467624664, 
        -0.6425638794898987, 
        -0.2243502140045166, 
        0.5874478220939636, 
        -0.7791805863380432, 
        0.15068161487579346, 
        -0.3770155608654022, 
        0.4442754089832306, 
        -0.456739217042923, 
        0.39436548948287964, 
        -0.1488557904958725, 
        0.019876161590218544, 
        0.028477776795625687, 
        0.1880704015493393, 
        -0.3283816874027252, 
        0.36618897318840027, 
        -0.5689333081245422, 
        0.7366790771484375, 
        0.7776117920875549, 
        -0.4855134189128876, 
        0.022049466148018837, 
        -0.4324241280555725, 
        0.7521860599517822, 
        0.03599262982606888, 
        0.5235429406166077, 
        -0.3118005096912384, 
        0.25304824113845825, 
        0.6153793334960938, 
        0.031184015795588493, 
        0.0032904576510190964, 
        0.0458005927503109, 
        -0.42607221007347107, 
        0.2858281433582306, 
        -0.2986103594303131, 
        0.07740940898656845, 
        -0.3943871557712555, 
        -0.35341277718544006, 
        -0.31851035356521606, 
        0.4992241859436035, 
        0.33874642848968506, 
        -0.4942277669906616, 
        0.22008441388607025, 
        0.6096888780593872, 
        0.011919401586055756, 
        -0.3658527731895447, 
        0.581417977809906, 
        0.7073795795440674, 
        0.07303909957408905, 
        -0.08120312541723251, 
        0.4245201349258423, 
        -0.40273910760879517, 
        0.5700814127922058, 
        -0.16424979269504547, 
        -0.018248077481985092, 
        0.45029014348983765, 
        -0.3764033019542694, 
        -0.027371693402528763, 
        0.11502499878406525, 
        0.8051382899284363, 
        0.3747980296611786, 
        0.5417028665542603, 
        -0.4700760245323181, 
        -0.44221237301826477, 
        -0.6418630480766296, 
        0.39706695079803467, 
        0.5516671538352966, 
        0.08680650591850281, 
        -0.2867200970649719, 
        0.5651761889457703, 
        -0.13382665812969208, 
        0.21780332922935486, 
        -0.44986090064048767, 
        -0.207205668091774, 
        -0.32487228512763977, 
        0.3996535837650299, 
        -0.7314494252204895, 
        0.046099305152893066, 
        -0.6972013711929321, 
        -0.2542113661766052, 
        -0.6485101580619812, 
        0.581781804561615, 
        -0.1518910974264145, 
        -0.454313725233078, 
        -0.18551822006702423, 
        -0.3575941026210785, 
        -0.5081714987754822, 
        0.4673631489276886, 
        -0.36249250173568726, 
        -0.2235879898071289, 
        0.584348201751709, 
        -0.8158462047576904, 
        -0.6394854187965393, 
        0.17724362015724182, 
        0.14961832761764526, 
        -0.33807575702667236, 
        -0.35352668166160583, 
        0.20405440032482147, 
        0.26344507932662964, 
        0.28465479612350464, 
        0.58086758852005, 
        -0.6347193121910095, 
        -0.08117146044969559, 
        -0.6138619184494019, 
        0.7130604386329651, 
        0.6604857444763184, 
        0.06493181735277176, 
        0.5193992257118225, 
        0.4276542663574219, 
        -0.44511669874191284, 
        0.6766618490219116, 
        -0.042290546000003815, 
        0.2069525122642517, 
        -0.5785326361656189, 
        -0.5588863492012024, 
        0.09494111686944962, 
        0.4927821159362793, 
        0.27414068579673767, 
        0.32350024580955505, 
        -0.07364021241664886, 
        0.43186384439468384, 
        0.1002364456653595, 
        -0.3531549870967865, 
        -0.4684663712978363, 
        0.24287569522857666, 
        0.6870517730712891, 
        0.382371187210083, 
        0.3076782822608948, 
        0.05711745098233223, 
        -0.5646185278892517, 
        -0.22335265576839447, 
        -0.25591742992401123, 
        0.15325267612934113, 
        0.5207430124282837, 
        -0.40175309777259827, 
        0.4562245011329651, 
        0.03930382430553436, 
        0.1495267003774643, 
        0.8589788675308228, 
        0.4781126081943512, 
        -0.30185821652412415, 
        0.48081034421920776, 
        -0.4120292067527771, 
        -0.33744457364082336, 
        0.58021479845047, 
        -0.2801816761493683, 
        0.5137293934822083, 
        -0.3894418478012085, 
        0.2761929929256439, 
        0.5341783165931702, 
        0.04796407371759415, 
        -0.6954811811447144, 
        0.49444976449012756, 
        0.12825633585453033, 
        0.12039343267679214, 
        0.6624458432197571, 
        0.07700257748365402, 
        -0.7849989533424377, 
        0.36297884583473206, 
        -0.07303442806005478, 
        0.5177114605903625, 
        -0.2469540238380432, 
        -0.8147640228271484, 
        -0.1371774822473526, 
        0.2197529673576355, 
        0.8790680766105652, 
        0.2621331214904785, 
        -0.03375571593642235, 
        -0.4662904441356659, 
        -0.564586341381073, 
        -0.6802850365638733, 
        0.6389249563217163, 
        0.47621840238571167, 
        -0.6600333452224731, 
        0.12913167476654053, 
        0.06678417325019836, 
        0.4882337749004364, 
        0.04146220535039902, 
        -0.20885825157165527, 
        0.09305321425199509, 
        -0.5144672989845276, 
        -0.12896031141281128, 
        0.5390720367431641, 
        0.7159558534622192, 
        0.5564440488815308, 
        0.4382183849811554, 
        -0.14184807240962982, 
        -0.6801934838294983, 
        -0.46759843826293945, 
        0.6845263242721558, 
        0.029741039499640465, 
        0.36013785004615784, 
        0.6637886166572571, 
        0.23795709013938904, 
        -0.3900107741355896, 
        -0.39600664377212524, 
        0.12019571661949158, 
        -0.10276281088590622, 
        0.112859345972538, 
        -0.6089779734611511, 
        0.6188211441040039, 
        0.4868050813674927, 
        0.3876706063747406, 
        -0.6897065043449402, 
        0.4507542550563812, 
        0.15455126762390137, 
        -0.7713886499404907, 
        0.5991135835647583, 
        0.6794314384460449, 
        -0.1185881644487381, 
        -0.22509443759918213, 
        0.383880078792572, 
        -0.1406579315662384, 
        0.703241765499115, 
        -0.08332469314336777, 
        -0.41172340512275696, 
        -0.12425924092531204, 
        0.17606300115585327, 
        -0.3798026442527771, 
        0.5183606743812561, 
        0.33791959285736084, 
        0.5988900661468506, 
        -0.4207915961742401, 
        -0.37226441502571106, 
        -0.44558626413345337, 
        0.14915251731872559, 
        0.6163572072982788, 
        -0.08860009163618088, 
        0.6509935259819031, 
        -0.11102115362882614, 
        0.5964625477790833, 
        -0.7013779878616333, 
        -0.14309467375278473, 
        -0.3308640718460083, 
        0.7459765672683716, 
        -0.3028213679790497, 
        0.5029613971710205, 
        -0.569587230682373, 
        0.5991452932357788, 
        0.4611755907535553, 
        0.6053324937820435, 
        -0.36265474557876587, 
        0.6418972015380859, 
        0.7819718718528748, 
        -0.7358068227767944, 
        -0.09071237593889236, 
        -0.5078026056289673, 
        -0.6649182438850403, 
        0.10805109888315201, 
        0.390523761510849, 
        -0.7931551933288574, 
        0.16594289243221283, 
        0.17201676964759827, 
        0.6715998649597168, 
        -0.12617920339107513, 
        -0.15872512757778168, 
        -0.4905526041984558, 
        0.09083852171897888, 
        0.6471033096313477, 
        0.5552704930305481, 
        0.3738640248775482, 
        -0.04606251046061516, 
        0.2007632851600647, 
        0.0819229707121849, 
        -0.5493218898773193, 
        0.014964472502470016, 
        0.3938063085079193, 
        0.12421692162752151, 
        0.2736344039440155, 
        0.595420241355896, 
        -0.5849289894104004, 
        -0.12334955483675003, 
        0.26584044098854065, 
        0.03983837738633156, 
        -0.6547704339027405, 
        -0.6045223474502563, 
        0.3967718780040741, 
        0.2964887320995331, 
        -0.3626287281513214, 
        -0.23803409934043884, 
        0.6259662508964539, 
        0.6352846622467041, 
        -0.7079890370368958, 
        0.4247055649757385, 
        -0.565890371799469, 
        -0.26035499572753906, 
        0.6598162651062012, 
        0.11369101703166962, 
        -0.7668100595474243, 
        -0.6068292260169983, 
        -0.17488376796245575, 
        0.06638632714748383, 
        0.25551852583885193, 
        0.9543939828872681, 
        0.5088101029396057, 
        0.3992513418197632, 
        -0.13870495557785034, 
        0.6163884401321411, 
        0.6266149282455444, 
        -0.4196754992008209, 
        0.3213987350463867, 
        -0.16539879143238068, 
        0.4835272431373596, 
        0.6352109313011169, 
        -0.6295430660247803, 
        -0.41391757130622864, 
        -0.6604026556015015, 
        0.20976769924163818, 
        -0.2675958573818207, 
        0.6832971572875977, 
        0.6586105823516846, 
        -0.17933712899684906, 
        0.2527941167354584, 
        0.37586709856987, 
        0.33555319905281067, 
        0.019468802958726883, 
        0.43281808495521545, 
        0.021546470001339912, 
        -0.30203720927238464, 
        0.6337643265724182, 
        -0.2680774927139282, 
        -0.7553191184997559, 
        -0.7385590672492981, 
        0.5681309700012207, 
        0.029188184067606926, 
        0.007721745874732733, 
        0.6151257753372192, 
        0.4855302572250366, 
        0.3057888150215149, 
        0.02484385296702385, 
        -0.08169253170490265, 
        -0.8785041570663452, 
        -0.005382063798606396, 
        0.4895603060722351, 
        -0.4751507341861725, 
        -0.27221083641052246, 
        -0.5727160573005676, 
        -0.237213134765625, 
        -0.5818633437156677, 
        0.1513882279396057, 
        -0.0992671549320221, 
        -0.31517520546913147, 
        0.6921507716178894, 
        0.16257734596729279, 
        -0.5769709944725037, 
        0.25994545221328735, 
        0.3470686674118042, 
        -0.02687004767358303, 
        0.1979919821023941, 
        -0.04182012006640434, 
        -0.6254158020019531, 
        -0.5264933705329895, 
        -0.0011301435297355056, 
        0.5398220419883728, 
        -0.8210862874984741, 
        0.14717867970466614, 
        -0.43024563789367676, 
        0.32367950677871704, 
        -0.35060325264930725, 
        0.22939591109752655, 
        -0.020546196028590202, 
        -0.2416997253894806, 
        0.055593203753232956, 
        -0.08448722213506699, 
        0.4191601276397705, 
        -0.03781016170978546, 
        -0.1280469000339508, 
        0.6011711955070496, 
        0.30956709384918213, 
        -0.6614259481430054, 
        -0.47354656457901, 
        -0.5816845893859863, 
        -0.05414113029837608, 
        0.5129037499427795, 
        0.5180191397666931, 
        -0.4383724331855774, 
        0.5790526866912842, 
        0.0436854287981987, 
        0.05194942653179169, 
        -0.753679096698761, 
        -0.5256485939025879, 
        0.04662192985415459, 
        0.2371426373720169, 
        0.3772246241569519, 
        0.47698909044265747, 
        -0.41848236322402954, 
        0.3572327792644501, 
        0.08841734379529953, 
        0.5521053075790405, 
        -0.7395656108856201, 
        0.6425772309303284, 
        -0.5907406210899353, 
        -0.41064703464508057, 
        -0.5212448835372925, 
        0.7770741581916809, 
        -0.0566994734108448, 
        0.49284011125564575, 
        -0.0886719599366188, 
        -0.8172382116317749, 
        0.700810432434082, 
        -0.4600699841976166, 
        -0.07345947623252869, 
        0.5818707346916199, 
        0.8508052825927734, 
        0.5894021987915039, 
        -0.2394789308309555, 
        -0.11890147626399994, 
        -0.09381444752216339, 
        0.04304765164852142, 
        -0.535290002822876, 
        0.27942565083503723, 
        -0.4192832112312317, 
        -0.6225732564926147, 
        0.42375820875167847, 
        -0.4466840922832489, 
        -0.3613278269767761, 
        -0.39440470933914185, 
        -0.5982271432876587, 
        0.022200627252459526, 
        0.3126811981201172, 
        -0.6433490514755249, 
        0.2569506764411926, 
        0.7719337344169617, 
        -0.4980893135070801, 
        -0.575546383857727, 
        0.0852462500333786, 
        0.2567487359046936, 
        -0.07501622289419174, 
        0.441458523273468, 
        -0.10907390713691711, 
        -0.33253225684165955, 
        -0.5397443771362305, 
        -0.06979366391897202, 
        0.11862251162528992, 
        0.5585029721260071, 
        0.5158026814460754, 
        -0.13219691812992096, 
        -0.4450831115245819, 
        0.4341253340244293, 
        -0.684663712978363, 
        0.03234089910984039, 
        0.08119287341833115, 
        0.7233229279518127, 
        0.28805872797966003, 
        -0.2895512282848358, 
        -0.14224673807621002, 
        0.6000604033470154, 
        -0.24501854181289673, 
        0.18759286403656006, 
        0.30513426661491394, 
        0.31118258833885193, 
        0.7357941269874573, 
        0.6519744396209717, 
        0.4831465184688568, 
        0.3083750307559967, 
        -0.45815688371658325, 
        -0.21326929330825806, 
        -0.6225880980491638, 
        0.5395805239677429, 
        -0.7126523852348328, 
        -0.0635489821434021, 
        -0.3871632218360901, 
        0.46300914883613586, 
        -0.5200387835502625, 
        -0.21632209420204163, 
        0.7719508409500122, 
        -0.6269518136978149, 
        0.5275186896324158, 
        0.5303811430931091, 
        0.5667455196380615, 
        -0.49447640776634216, 
        0.39327821135520935, 
        -0.7382487654685974, 
        -0.42918074131011963, 
        0.01754515990614891, 
        -0.6838210821151733, 
        -0.3942031264305115, 
        -0.7337160110473633, 
        -0.784732460975647, 
        -0.20795422792434692, 
        -0.43070369958877563, 
        -0.12262377887964249, 
        -0.3605731725692749, 
        0.6872782111167908, 
        0.5151479840278625, 
        -0.0645161047577858, 
        -0.5402775406837463, 
        -0.35880473256111145, 
        -0.5254619717597961, 
        0.6821087002754211, 
        0.27300289273262024, 
        -0.4809085726737976, 
        0.5808586478233337, 
        -0.2621665596961975, 
        0.7305461168289185, 
        -0.31928443908691406, 
        0.6637926697731018, 
        -0.4648732542991638, 
        -0.03329866752028465, 
        0.668588399887085, 
        -0.10052753984928131, 
        0.05129712074995041, 
        0.678855299949646, 
        0.3660833537578583, 
        -0.170820415019989, 
        0.572318434715271, 
        -0.6257296800613403, 
        -0.57306969165802, 
        -0.44972509145736694, 
        0.1813766211271286, 
        0.34460175037384033, 
        -0.12362060695886612, 
        -0.7213950157165527, 
        -0.3809225857257843, 
        0.22048577666282654, 
        -0.3561393916606903, 
        -0.7747602462768555, 
        -0.34340205788612366, 
        -0.10139980167150497, 
        -0.4650327265262604, 
        0.6985706090927124, 
        -0.0030428431928157806, 
        -0.1001967266201973, 
        0.713182270526886, 
        -0.7164579629898071, 
        0.00699210399761796, 
        0.4761396050453186, 
        0.3703858256340027, 
        0.3417659401893616, 
        -0.6897986531257629, 
        -0.29996076226234436, 
        -0.20992203056812286, 
        -0.13849489390850067, 
        -0.15734276175498962, 
        0.48459357023239136, 
        0.6543394923210144, 
        0.229760080575943, 
        -0.04090050980448723, 
        -0.15927015244960785, 
        0.7324476838111877, 
        -0.06674384325742722, 
        -0.005752056371420622, 
        -0.24397705495357513, 
        0.5110791325569153, 
        0.5394984483718872, 
        0.4521065652370453, 
        -0.5945786237716675, 
        0.579494297504425, 
        -0.5619431138038635, 
        -0.45717519521713257, 
        0.1247243732213974, 
        0.060423847287893295, 
        -0.45590198040008545, 
        -0.8159483075141907, 
        -0.4875056743621826, 
        -0.7774122953414917, 
        0.3210655450820923, 
        0.1395374983549118, 
        -0.7191874384880066, 
        -0.4376727342605591, 
        0.5690338611602783, 
        -0.2588411271572113, 
        -0.1873774230480194, 
        -0.022532543167471886, 
        0.1334463357925415, 
        -0.27129998803138733, 
        0.2305174022912979, 
        -0.10975965112447739, 
        -0.3065662980079651, 
        -0.5418441295623779, 
        0.7164379954338074, 
        -0.3559482991695404, 
        -0.31495901942253113, 
        -0.40050920844078064, 
        -0.21357783675193787, 
        0.5933734178543091, 
        -0.14391450583934784, 
        -0.6500312685966492, 
        0.4914449453353882, 
        0.07587482035160065, 
        -0.8610529899597168, 
        0.2562740445137024, 
        -0.09200169146060944, 
        -0.24215978384017944, 
        0.3409773111343384, 
        0.45212119817733765, 
        -0.35371845960617065, 
        0.6761342287063599, 
        -0.6103909015655518, 
        -0.4197321832180023, 
        -0.6084012389183044, 
        0.3352576196193695, 
        -0.35054096579551697, 
        -0.1390170454978943, 
        0.35313594341278076, 
        -0.3263070285320282, 
        -0.46285566687583923, 
        -0.2112003117799759, 
        0.05277155339717865, 
        0.13521437346935272, 
        -0.5451317429542542, 
        0.230014830827713, 
        -0.5678725838661194, 
        -0.3004074990749359, 
        -0.11206722259521484, 
        -0.3759600818157196, 
        -0.5396600961685181, 
        0.41902756690979004, 
        0.8185235857963562, 
        -0.23240232467651367, 
        0.23704227805137634, 
        -0.11366237699985504, 
        0.6817564964294434, 
        0.033985380083322525, 
        0.48503121733665466, 
        0.41074585914611816, 
        0.32288265228271484, 
        0.03171266242861748, 
        0.27800819277763367, 
        0.4358271062374115, 
        -0.2961433231830597, 
        0.20616987347602844, 
        -0.7355917096138, 
        -0.4543081223964691, 
        -0.04162328317761421, 
        0.4049619138240814, 
        0.22855374217033386, 
        -0.13413409888744354, 
        -0.5503039956092834, 
        -0.5380352735519409, 
        -0.461154043674469, 
        0.2831355035305023, 
        -0.7375206351280212, 
        0.40629929304122925, 
        -0.22242283821105957, 
        0.05676495283842087, 
        0.4474264681339264, 
        0.3405716121196747, 
        -0.029291238635778427, 
        -0.4880414307117462, 
        0.17058320343494415, 
        -0.4774889349937439, 
        -0.5522915720939636, 
        0.49998360872268677, 
        0.25902870297431946, 
        -0.1589985340833664, 
        -0.34423476457595825, 
        0.14527076482772827, 
        0.07037197798490524, 
        0.3719865381717682, 
        -0.1665487140417099, 
        -0.05818364769220352, 
        -0.3537059724330902, 
        -0.11134405434131622, 
        0.36334455013275146, 
        0.3835276961326599, 
        -0.12018243968486786, 
        -0.38913872838020325, 
        -0.36768361926078796, 
        -0.3405686914920807, 
        -0.5697124600410461, 
        0.6162516474723816, 
        -0.6396765112876892, 
        -0.7198056578636169, 
        0.3077213168144226, 
        0.1713794618844986, 
        0.7372952103614807, 
        0.14106065034866333, 
        -0.03350606560707092, 
        -0.2315634787082672, 
        -0.4457657039165497, 
        0.31753844022750854, 
        -0.6891406178474426, 
        -0.46632659435272217, 
        -0.6443939805030823, 
        0.2152855545282364, 
        0.7350313663482666, 
        0.7519707679748535, 
        -0.4990788400173187, 
        0.3940787613391876, 
        0.38945576548576355, 
        -0.32952257990837097, 
        0.32624658942222595, 
        0.41880133748054504, 
        -0.33761173486709595, 
        -0.4678424298763275, 
        0.17085140943527222, 
        -0.6720411777496338, 
        -0.054505132138729095, 
        0.3653612732887268, 
        -0.16875894367694855, 
        -0.03733892738819122, 
        -0.3951887786388397, 
        0.41207146644592285, 
        -0.6724444031715393, 
        0.3000212609767914, 
        0.3097366988658905, 
        -0.7660627365112305, 
        0.21494564414024353, 
        -0.428276389837265, 
        0.6008099317550659, 
        0.45503291487693787, 
        0.7283068299293518, 
        0.23532503843307495, 
        0.02927422523498535, 
