{
  "input_sequences": [], 
  "inputs": [
    {
      "name": "node_0", 
      "variables": [
        {
          "name": "variable_0", 
          "offset": 0, 
          "scale": 1
        }, 
        {
          "name": "variable_1", 
          "offset": 0, 
          "scale": 1
        }, 
        {
          "name": "variable_2", 
          "offset": 0, 
          "scale": 1
        }, 
        {
          "name": "variable_3", 
          "offset": 0, 
          "scale": 1
        }, 
        {
          "name": "variable_4", 
          "offset": 0, 
          "scale": 1
        }, 
        {
          "name": "variable_5", 
          "offset": 0, 
          "scale": 1
        }, 
        {
          "name": "variable_6", 
          "offset": 0, 
          "scale": 1
        }, 
        {
          "name": "variable_7", 
          "offset": 0, 
          "scale": 1
        }, 
        {
          "name": "variable_8", 
          "offset": 0, 
          "scale": 1
        }, 
        {
          "name": "variable_9", 
          "offset": 0, 
          "scale": 1
        }
      ]
    }
  ], 
  "layers": [
    {
      "architecture": "normalization", 
      "bias": [
        -661175.5625, 
        -159633.859375, 
        -0.15512172877788544, 
        -2.75565767288208, 
        -2.9360034465789795, 
        -0.20883718132972717, 
        -5.785213470458984, 
        -5.534485816955566, 
        -0.6376239657402039, 
        -10.807090759277344
      ], 
      "weights": [
        1.1601980531850131e-06, 
        1.1491999430290889e-05, 
        7.812741279602051, 
        0.5663952827453613, 
        3.9624390602111816, 
        2.215714454650879, 
        0.22277091443538666, 
        0.23057180643081665, 
        1.4648067951202393, 
        0.12714676558971405
      ]
    }, 
    {
      "activation": "tanh", 
      "architecture": "dense", 
      "bias": [
        0.0721285343170166, 
        -0.001463150605559349, 
        0.08623787760734558, 
        -0.24193231761455536, 
        -0.06589366495609283, 
        -0.09091910719871521, 
        0.154081329703331, 
        0.14663666486740112, 
        0.11722157895565033, 
        -0.11337591707706451, 
        0.1524883657693863, 
        -0.2027493417263031, 
        0.23964190483093262, 
        0.10337667167186737, 
        0.1210886687040329, 
        0.1621292531490326, 
        0.10354389250278473, 
        -0.12510450184345245, 
        0.16888202726840973, 
        0.09944404661655426, 
        -0.19070658087730408, 
        0.11252845823764801, 
        -0.0920705497264862, 
        -0.16672413051128387, 
        -0.1142948567867279, 
        0.09772060811519623, 
        -0.08183132112026215, 
        -0.0734187662601471, 
        -0.10798554122447968, 
        0.026470648124814034, 
        0.1661156564950943, 
        0.1407688558101654, 
        -0.14749440550804138, 
        -0.20956867933273315, 
        0.03338620811700821, 
        -0.09612499177455902, 
        -0.04197297990322113, 
        -0.10897457599639893, 
        -0.21902890503406525, 
        0.17328599095344543, 
        0.05947720259428024, 
        -0.19665691256523132, 
        0.09302730858325958, 
        0.07530146837234497, 
        0.279367595911026, 
        -0.11374665796756744, 
        0.0973774641752243, 
        0.10894942283630371, 
        0.18070872128009796, 
        0.09081628918647766, 
        0.20753635466098785, 
        0.10561069846153259, 
        -0.09843699634075165, 
        0.04197358340024948, 
        0.18036678433418274, 
        0.11057671904563904, 
        -0.09312291443347931, 
        -0.06749981641769409, 
        0.12182687222957611, 
        -0.12338276207447052, 
        -0.054431453347206116, 
        -0.08572641015052795, 
        0.09040065109729767, 
        0.13477246463298798, 
        -0.13132332265377045, 
        -0.13830894231796265, 
        0.11921796202659607, 
        -0.27534598112106323, 
        -0.05814187973737717, 
        0.16382750868797302, 
        -0.0690331906080246, 
        -0.12639735639095306, 
        0.10832227766513824, 
        0.06854939460754395, 
        -0.17095710337162018, 
        0.09359298646450043, 
        0.1645030826330185, 
        0.06776243448257446, 
        -0.08482769131660461, 
        0.08275684714317322, 
        0.1312679648399353, 
        0.10537007451057434, 
        0.15634550154209137, 
        0.10456211864948273, 
        0.05818157643079758, 
        0.11788320541381836, 
        0.06657092273235321, 
        -0.04778418689966202, 
        -0.2050429880619049, 
        -0.19156180322170258, 
        -0.05036558955907822, 
        -0.09472587704658508, 
        0.16912148892879486, 
        -0.1118205338716507, 
        0.11452195048332214, 
        0.08421163260936737, 
        -0.10273796319961548, 
        0.09989316761493683, 
        -0.06801410019397736, 
        0.3169706463813782, 
        -0.1112242043018341, 
        -0.13539989292621613, 
        0.17365321516990662, 
        0.1687399446964264, 
        0.0548340380191803, 
        -0.10083696246147156, 
        0.04238623380661011, 
        0.23929853737354279, 
        0.2146507203578949, 
        -0.03791043907403946, 
        0.0874953418970108, 
        -0.13568522036075592, 
        0.1349847912788391, 
        0.11154645681381226, 
        0.12226539850234985, 
        -0.1459248811006546, 
        0.17637334764003754, 
        -0.09680722653865814, 
        0.1487339287996292, 
        -0.07104533910751343, 
        0.1026647686958313, 
        0.11431518197059631, 
        0.1345740705728531, 
        0.064064621925354, 
        0.10053741931915283, 
        0.16854389011859894, 
        0.07496565580368042, 
        0.12343201041221619, 
        -0.07757945358753204, 
        -0.06628330051898956, 
        -0.06719668209552765, 
        0.1444571316242218, 
        -0.1471060812473297, 
        -0.14292606711387634, 
        -0.10834333300590515, 
        -0.09926262497901917, 
        -0.13562947511672974, 
        -0.14561748504638672, 
        0.192441925406456, 
        0.16412991285324097, 
        0.07953904569149017, 
        0.1486143171787262, 
        0.1687895506620407, 
        -0.041116952896118164, 
        -0.1581142097711563, 
        -0.09066978096961975, 
        0.15333668887615204, 
        0.08111847937107086, 
        0.0982283502817154, 
        0.12302495539188385, 
        -0.12671253085136414, 
        0.13175927102565765, 
        0.0552050843834877, 
        -0.05728702247142792, 
        -0.1178494542837143, 
        0.19910387694835663, 
        -0.11272050440311432, 
        -0.18689483404159546, 
        0.1934690922498703, 
        0.25117674469947815, 
        -0.11142611503601074, 
        0.05427669733762741, 
        -0.23715877532958984, 
        0.15365749597549438, 
        0.15408772230148315, 
        0.12214913964271545, 
        -0.11564573645591736, 
        -0.24400581419467926, 
        0.09395705163478851, 
        0.0665552169084549, 
        -0.09842623770236969, 
        -0.22133830189704895, 
        -0.09499849379062653, 
        -0.01940224878489971, 
        -0.1321321427822113, 
        -0.07777063548564911, 
        -0.08699387311935425, 
        -0.16471384465694427, 
        -0.10921093821525574, 
        -0.16026656329631805, 
        -0.1896420419216156, 
        -0.06477339565753937, 
        -0.08897022902965546, 
        0.13986849784851074, 
        0.08538684248924255, 
        0.0856487974524498, 
        0.16475678980350494, 
        0.04668550193309784, 
        0.12697751820087433, 
        -0.1015915721654892, 
        0.143232062458992, 
        -0.027125755324959755, 
        -0.12710613012313843, 
        0.11562207341194153, 
        0.17537352442741394, 
        -0.10782401263713837, 
        0.09113447368144989, 
        0.15275561809539795, 
        -0.11582803726196289, 
        -0.10770046710968018, 
        -0.15990890562534332, 
        -0.046882882714271545, 
        0.005479712039232254, 
        -0.22716891765594482, 
        -0.013582222163677216, 
        -0.280073881149292, 
        -0.20514869689941406, 
        0.14272113144397736, 
        0.06447307765483856, 
        0.13919343054294586, 
        -0.19611628353595734, 
        0.17490898072719574, 
        0.13652965426445007, 
        0.06652987003326416, 
        -0.03977212309837341, 
        0.09688858687877655, 
        -0.19010715186595917, 
        -0.12214085459709167, 
        0.0493951290845871, 
        -0.07379594445228577, 
        -0.207853302359581, 
        -0.11981706321239471, 
        -0.17323890328407288, 
        -0.13237963616847992, 
        0.15350958704948425, 
        -0.06089754402637482, 
        -0.0952802300453186, 
        -0.13605785369873047, 
        0.053727395832538605, 
        0.056109242141246796, 
        -0.11354273557662964, 
        -0.1410571187734604, 
        -0.02377006784081459, 
        0.03442733734846115, 
        0.07364878058433533, 
        0.15901991724967957, 
        -0.11524732410907745, 
        0.09084750711917877, 
        -0.08343449234962463, 
        0.09974811971187592, 
        0.21281230449676514, 
        0.09591023623943329, 
        -0.1932019144296646, 
        -0.06994086503982544, 
        0.20175151526927948, 
        0.11677257716655731, 
        -0.12288254499435425, 
        0.11393554508686066, 
        -0.02912348136305809, 
        -0.20239733159542084, 
        0.24653787910938263, 
        -0.13505761325359344, 
        0.05163094401359558, 
        0.09084780514240265, 
        0.09218274056911469, 
        -0.06811262667179108, 
        0.08160187304019928, 
        -0.11675597727298737, 
        0.0852094292640686, 
        0.15717822313308716, 
        0.13568513095378876, 
        -0.14084871113300323, 
        -0.13427899777889252, 
        -0.1430557668209076, 
        0.08142982423305511, 
        0.049854591488838196, 
        -0.059002019464969635, 
        -0.07497061789035797, 
        -0.06907744705677032, 
        -0.15067432820796967, 
        0.17519499361515045, 
        -0.09615679085254669, 
        0.12163744866847992, 
        -0.215571790933609, 
        0.12987244129180908, 
        0.13408562541007996, 
        0.08218008279800415, 
        0.06914156675338745, 
        0.05129522085189819, 
        -0.05692411959171295, 
        -0.10161790251731873, 
        0.23558400571346283, 
        0.11880624294281006, 
        0.13377632200717926, 
        -0.059192441403865814, 
        0.18356923758983612, 
        -0.22153009474277496, 
        -0.011917715892195702, 
        0.1662570983171463, 
        -0.13203775882720947, 
        -0.06778721511363983, 
        -0.03171278536319733, 
        0.19426581263542175, 
        -0.1800599992275238, 
        -0.15664313733577728, 
        -0.10186992585659027, 
        0.10538658499717712, 
        0.07347433269023895, 
        0.10599930584430695, 
        0.18790879845619202, 
        0.10390239953994751, 
        -0.11520110070705414, 
        0.08691607415676117, 
        -0.07671073079109192, 
        0.13167378306388855, 
        0.10637512803077698, 
        0.08400121331214905, 
        0.12716981768608093, 
        0.22090940177440643, 
        -0.08360596001148224, 
        -0.10184785723686218, 
        0.09893564879894257, 
        -0.12016832828521729, 
        -0.12707699835300446, 
        0.20324566960334778, 
        -0.240428626537323, 
        -0.15800611674785614, 
        0.1386806219816208, 
        0.27699172496795654, 
        0.097145214676857, 
        0.08824096620082855, 
        0.09646552801132202, 
        -0.1440095603466034, 
        0.053256236016750336, 
        0.09324447810649872, 
        -0.1059248298406601, 
        0.12795594334602356, 
        -0.1080993115901947, 
        -0.1501334309577942, 
        -0.29830434918403625, 
        0.06281638145446777, 
        -0.043400682508945465, 
        -0.07645106315612793, 
        0.05950874835252762, 
        -0.11359010636806488, 
        -0.16294696927070618, 
        -0.096655935049057, 
        -0.1705365628004074, 
        -0.12038223445415497, 
        -0.12929779291152954, 
        -0.06378015875816345, 
        -0.28191640973091125, 
        -0.16473700106143951, 
        0.11452445387840271, 
        -0.14414465427398682, 
        -0.11406466364860535, 
        -0.10604684054851532, 
        -0.1464475393295288, 
        0.10613301396369934, 
        -0.12824758887290955, 
        0.12650372087955475, 
        0.0633382499217987, 
        0.1546669453382492, 
        0.07907500863075256, 
        -0.07815626263618469, 
        0.08818155527114868, 
        0.08369088172912598, 
        -0.024261577054858208, 
        -0.08993284404277802, 
        0.14191044867038727, 
        -0.08518709242343903, 
        0.11308988928794861, 
        0.009092627093195915, 
        0.14116111397743225, 
        0.21013467013835907, 
        -0.12973295152187347, 
        -0.04252995550632477, 
        -0.15849117934703827, 
        -0.21621721982955933, 
        -0.12724779546260834, 
        0.09357194602489471, 
        0.09179933369159698, 
        0.1322116255760193, 
        -0.06953620910644531, 
        -0.027059366926550865, 
        -0.11354193091392517, 
        -0.0968116968870163, 
        0.17599527537822723, 
        -0.14180076122283936, 
        -0.07867923378944397, 
        -0.1392238885164261, 
        0.1374860554933548, 
        0.17614367604255676, 
        -0.10320715606212616, 
        -0.10560603439807892, 
        0.056605949997901917, 
        0.12424401938915253, 
        -0.14583362638950348, 
        0.07013386487960815, 
        0.00902863685041666, 
        -0.16757714748382568, 
        0.0794668197631836, 
        -0.11446894705295563, 
        -0.12164025008678436, 
        0.2112579494714737, 
        -0.19521386921405792, 
        0.0926954597234726, 
        -0.10610072314739227, 
        0.08683940768241882, 
        0.11005745828151703, 
        -0.09767709672451019, 
        -0.03903121501207352, 
        -0.07394753396511078, 
        0.1277126520872116, 
        -0.08576034009456635, 
        0.12803120911121368, 
        -0.07204556465148926, 
        -0.040709130465984344, 
        0.16488441824913025, 
        0.06810598075389862, 
        0.0494750514626503, 
        -0.0740586370229721, 
        -0.05758079141378403, 
        0.1127241998910904, 
        0.12403135001659393, 
        0.048055991530418396, 
        0.18956203758716583, 
        -0.20477692782878876, 
        0.13046111166477203, 
        -0.11700911819934845, 
        0.23380771279335022, 
        0.13401739299297333, 
        -0.06238144636154175, 
        -0.10817398130893707, 
        -0.1553390771150589, 
        -0.12426124513149261, 
        0.08447755873203278, 
        0.028216581791639328, 
        -0.20947955548763275, 
        0.0916043072938919, 
        -0.09709896147251129, 
        0.12941448390483856, 
        0.08719643950462341, 
        -0.17973673343658447, 
        0.2514467239379883, 
        -0.14062653481960297, 
        -0.11020423471927643, 
        0.05562558025121689, 
        0.10924111306667328, 
        0.15264567732810974, 
        0.08268755674362183, 
        0.12748172879219055, 
        -0.10122501850128174, 
        0.1550929695367813, 
        -0.1784856766462326, 
        0.1511753350496292, 
        0.016787000000476837, 
        0.12603922188282013, 
        -0.06929656863212585, 
        -0.09034466743469238, 
        0.10737369954586029, 
        -0.06297241151332855, 
        0.06705072522163391, 
        -0.1290891021490097, 
        0.08809749782085419, 
        -0.20543482899665833, 
        -0.20170192420482635, 
        -0.17307431995868683, 
        -0.16270695626735687, 
        -0.17038968205451965, 
        -0.08009985089302063, 
        -0.12664173543453217, 
        -0.0048943874426186085, 
        0.07899004220962524, 
        0.05978746712207794, 
        -0.20229171216487885, 
        -0.14885614812374115, 
        -0.12265618145465851, 
        -0.1745961457490921, 
        -0.16573719680309296, 
        -0.06345163285732269, 
        -0.19360722601413727, 
        0.14142374694347382, 
        -0.07417897880077362, 
        0.06417753547430038, 
        0.08899897336959839, 
        -0.13462041318416595, 
        0.13449428975582123, 
        -0.09825365245342255, 
        0.07836620509624481, 
        -0.08357301354408264, 
        -0.044675834476947784, 
        0.12876354157924652, 
        -0.22922298312187195, 
        -0.09395992010831833, 
        -0.14494509994983673, 
        -0.13355612754821777, 
        0.10683751106262207, 
        -0.12245264649391174, 
        0.09930290281772614, 
        0.3222561180591583, 
        -0.022729454562067986, 
        -0.15906883776187897, 
        -0.10274127125740051, 
        0.08836282789707184, 
        -0.03313104808330536, 
        -0.10336336493492126, 
        0.060393720865249634, 
        0.007839841768145561, 
        -0.16407598555088043, 
        0.10207553207874298, 
        0.02943238615989685, 
        -0.11791877448558807, 
        -0.10081340372562408, 
        0.12765967845916748, 
        -0.15633483231067657, 
        -0.11466693878173828, 
        -0.10960891842842102, 
        -0.03119695745408535, 
        -0.20897872745990753, 
        -0.08925352990627289, 
        0.11520254611968994
      ], 
      "weights": [
        -0.27486011385917664, 
        0.04071088507771492, 
        0.11557485908269882, 
        -0.10141174495220184, 
        0.2656935453414917, 
        0.8359972834587097, 
        -0.10978688299655914, 
        -0.579357922077179, 
        0.4600517749786377, 
        -0.13981325924396515, 
        0.7397088408470154, 
        -0.27329766750335693, 
        -0.21515201032161713, 
        -0.7228127121925354, 
        -0.07605098932981491, 
        0.47713592648506165, 
        -0.15260736644268036, 
        -0.09669164568185806, 
        -0.05698568746447563, 
        0.6088749766349792, 
        0.3909512460231781, 
        0.22665724158287048, 
        0.7421259880065918, 
        -0.2752390503883362, 
        -0.7427483797073364, 
        0.521442711353302, 
        0.4143960475921631, 
        0.7072675228118896, 
        -0.6228578686714172, 
        -0.38900360465049744, 
        -0.41563913226127625, 
        -0.2297631949186325, 
        0.6623876690864563, 
        0.05051112920045853, 
        -0.2803768217563629, 
        -0.18087591230869293, 
        -0.19234538078308105, 
        0.25181159377098083, 
        -0.10861419141292572, 
        0.16015513241291046, 
        -0.5380240082740784, 
        -0.3210137188434601, 
        -0.3143174946308136, 
        -0.13926361501216888, 
        0.28303658962249756, 
        -0.2801351547241211, 
        0.24762921035289764, 
        -0.6362419724464417, 
        0.4450666904449463, 
        -0.15361551940441132, 
        0.1444370001554489, 
        -0.341117262840271, 
        0.1155291274189949, 
        0.3195890784263611, 
        -0.31411951780319214, 
        0.6785162091255188, 
        0.4730300009250641, 
        0.060029324144124985, 
        0.39301562309265137, 
        -0.2870520055294037, 
        0.2769271433353424, 
        0.6413757801055908, 
        -0.383288711309433, 
        -0.689603865146637, 
        -0.5148037075996399, 
        0.30704179406166077, 
        0.5440541505813599, 
        -0.6852912902832031, 
        -0.05795200914144516, 
        0.356004923582077, 
        0.509793221950531, 
        0.13622772693634033, 
        0.2763763666152954, 
        0.5127381086349487, 
        0.2731359302997589, 
        0.2054608166217804, 
        0.03979227691888809, 
        0.6978985071182251, 
        0.20531132817268372, 
        0.08963172882795334, 
        -0.055045850574970245, 
        -0.8524739742279053, 
        -0.5381408929824829, 
        -0.013344662263989449, 
        -0.6048619747161865, 
        0.6844983100891113, 
        -0.028940759599208832, 
        -0.5605470538139343, 
        -0.5869787335395813, 
        -0.23701399564743042, 
        0.12429846078157425, 
        0.8082542419433594, 
        0.3222021162509918, 
        0.6973412036895752, 
        0.038540586829185486, 
        -0.40368369221687317, 
        -0.43009087443351746, 
        0.2353568971157074, 
        0.518936812877655, 
        -0.5005946159362793, 
        0.5772324204444885, 
        -0.06340909004211426, 
        -0.3077017366886139, 
        0.48692843317985535, 
        0.3125583827495575, 
        -0.17633575201034546, 
        -0.6039490699768066, 
        0.4170112609863281, 
        0.4711724817752838, 
        0.25421440601348877, 
        -0.4588240385055542, 
        0.3386381268501282, 
        0.5889986157417297, 
        -0.27293598651885986, 
        -0.5801752805709839, 
        0.03608611598610878, 
        -0.37977030873298645, 
        -0.28743836283683777, 
        0.39050188660621643, 
        -0.23559309542179108, 
        0.45461976528167725, 
        -0.32577261328697205, 
        -0.7097519636154175, 
        -0.07320170104503632, 
        0.6095624566078186, 
        0.02368628792464733, 
        0.8173134922981262, 
        -0.3838364779949188, 
        0.004066660534590483, 
        0.37419188022613525, 
        0.265850305557251, 
        0.660575270652771, 
        0.5335658192634583, 
        0.35879796743392944, 
        -0.6553129553794861, 
        -0.6485874056816101, 
        -0.5472435355186462, 
        0.26783329248428345, 
        0.0352553129196167, 
        0.3905333876609802, 
        -0.4246137738227844, 
        0.5873696208000183, 
        -0.6692427396774292, 
        -0.4423370659351349, 
        -0.3774857223033905, 
        -0.3231855630874634, 
        0.25664687156677246, 
        0.3797289729118347, 
        0.24335303902626038, 
        -0.024386707693338394, 
        0.11394929140806198, 
        0.2841692268848419, 
        0.4851067364215851, 
        -0.25938522815704346, 
        -0.7282392978668213, 
        -0.2166212648153305, 
        -0.3661751449108124, 
        -0.8507028222084045, 
        0.1339607536792755, 
        -0.2527787983417511, 
        -0.11487720906734467, 
        -0.11033689975738525, 
        0.3506842255592346, 
        -0.5034179091453552, 
        0.43062081933021545, 
        0.47502708435058594, 
        -0.5923142433166504, 
        -0.6158607602119446, 
        0.21818801760673523, 
        -0.2515699863433838, 
        0.7991287708282471, 
        -0.06366585195064545, 
        -0.5066435933113098, 
        -0.05701778829097748, 
        0.3351374566555023, 
        0.17007260024547577, 
        0.3623332381248474, 
        0.319566935300827, 
        0.1582498699426651, 
        -0.2882755994796753, 
        0.032159119844436646, 
        0.4994492530822754, 
        0.8038586378097534, 
        0.39154282212257385, 
        0.581876277923584, 
        -0.5392947793006897, 
        0.6129523515701294, 
        -0.14184948801994324, 
        0.5154606699943542, 
        -0.11855065822601318, 
        0.48864108324050903, 
        -0.2676811218261719, 
        0.15396782755851746, 
        0.5648181438446045, 
        -0.45698004961013794, 
        0.5491431951522827, 
        -0.6644389629364014, 
        0.3394441306591034, 
        0.28494831919670105, 
        0.7731494903564453, 
        -0.3679344654083252, 
        -0.32894042134284973, 
        0.1995612531900406, 
        0.632086455821991, 
        0.6144939661026001, 
        0.0309847891330719, 
        0.7681313753128052, 
        0.8636059165000916, 
        -0.029847068712115288, 
        -0.13418611884117126, 
        0.16079697012901306, 
        0.4586013853549957, 
        -0.36776602268218994, 
        -0.42143115401268005, 
        -0.48330506682395935, 
        -0.09252114593982697, 
        -0.7459257245063782, 
        0.1737809032201767, 
        -0.10475877672433853, 
        0.059843696653842926, 
        -0.48237091302871704, 
        0.3778502643108368, 
        -0.5524641275405884, 
        0.32216644287109375, 
        0.48456481099128723, 
        0.43762698769569397, 
        0.5403465032577515, 
        0.5399124622344971, 
        -0.20880523324012756, 
        -0.7103955745697021, 
        -0.5709041953086853, 
        0.1949712336063385, 
        0.5560359358787537, 
        -0.21734215319156647, 
        0.45376989245414734, 
        0.30436551570892334, 
        0.0600786954164505, 
        0.538398027420044, 
        0.0036940034478902817, 
        0.1276308000087738, 
        1.1509349346160889, 
        -0.6396703720092773, 
        -0.33300867676734924, 
        -0.174430251121521, 
        0.1610882729291916, 
        -0.6219980716705322, 
        -0.19963973760604858, 
        0.24614982306957245, 
        0.34598201513290405, 
        -0.5929046869277954, 
        0.6165863275527954, 
        0.4504764676094055, 
        -0.691066324710846, 
        0.26537102460861206, 
        -0.2775524854660034, 
        -0.3090325891971588, 
        -0.11197709292173386, 
        0.29375627636909485, 
        -0.7760787010192871, 
        0.5314847826957703, 
        0.504435122013092, 
        -0.26154181361198425, 
        -0.6734613180160522, 
        0.7248310446739197, 
        0.7191265225410461, 
        0.09272928535938263, 
        0.5468308925628662, 
        -0.7133069634437561, 
        0.4634144902229309, 
        0.6759710311889648, 
        -0.05334814265370369, 
        0.305448442697525, 
        -0.0950484573841095, 
        -0.6305575966835022, 
        -0.136403426527977, 
        0.3291390836238861, 
        -0.11937660723924637, 
        -0.22741012275218964, 
        0.092294842004776, 
        -0.4667428731918335, 
        -0.4617712199687958, 
        -0.3861202597618103, 
        0.5507552027702332, 
        0.7479676604270935, 
        -0.5820997357368469, 
        -0.5348276495933533, 
        0.6081203818321228, 
        0.20648255944252014, 
        0.3719713091850281, 
        0.6618360877037048, 
        -0.80631422996521, 
        -0.41733720898628235, 
        0.5177533030509949, 
        -0.2664010226726532, 
        0.6066762208938599, 
        0.1327875256538391, 
        -0.20968352258205414, 
        -0.24565330147743225, 
        0.4733494818210602, 
        0.04395155981183052, 
        -0.2852132320404053, 
        -0.7345764636993408, 
        0.0324166975915432, 
        0.0008898137602955103, 
        -0.3274662494659424, 
        0.7746703624725342, 
        0.1585816740989685, 
        0.0012660756474360824, 
        0.44114941358566284, 
        0.15921258926391602, 
        0.1413263976573944, 
        0.25148651003837585, 
        -0.5156546831130981, 
        -0.057902511209249496, 
        -0.13026216626167297, 
        -0.6501891613006592, 
        0.7240623235702515, 
        0.3533145487308502, 
        -0.5433231592178345, 
        -0.2922636866569519, 
        0.2797136902809143, 
        -0.01130229514092207, 
        0.27807876467704773, 
        0.6460824012756348, 
        -0.5993883013725281, 
        0.34692755341529846, 
        0.4681526720523834, 
        -0.4948040544986725, 
        -0.2046482115983963, 
        0.5713692903518677, 
        0.10161174833774567, 
        0.49936750531196594, 
        0.3843429386615753, 
        -0.6627770662307739, 
        0.25807106494903564, 
        -0.1036241352558136, 
        -0.3589102327823639, 
        -0.21034598350524902, 
        0.4708249270915985, 
        0.30567666888237, 
        -0.9707404971122742, 
        0.5843761563301086, 
        0.840617835521698, 
        0.4652978181838989, 
        -0.22184880077838898, 
        0.4744049310684204, 
        0.5427477359771729, 
        -0.48475897312164307, 
        0.558529257774353, 
        -0.1206200048327446, 
        0.6158663034439087, 
        -0.602433979511261, 
        -0.07800936698913574, 
        0.10627501457929611, 
        0.0036451222840696573, 
        0.07467854022979736, 
        -0.38194072246551514, 
        0.2537941038608551, 
        0.6946075558662415, 
        0.6882977485656738, 
        0.007627599406987429, 
        0.3298890292644501, 
        0.20585013926029205, 
        0.09274790436029434, 
        0.7232282161712646, 
        0.39602670073509216, 
        -0.5690671801567078, 
        -0.702171266078949, 
        -0.3943025469779968, 
        -0.44297096133232117, 
        -0.24325570464134216, 
        -0.20037716627120972, 
        -0.44898244738578796, 
        0.4813140332698822, 
        0.1152850016951561, 
        0.24362441897392273, 
        -0.07266595959663391, 
        -0.08572716265916824, 
        -0.46527475118637085, 
        -0.5738242268562317, 
        0.2546878457069397, 
        -0.04756452888250351, 
        0.06594902276992798, 
        0.2529950737953186, 
        -0.36473309993743896, 
        0.037675321102142334, 
        -0.33059874176979065, 
        0.1885322779417038, 
        -0.3838299512863159, 
        0.03000403568148613, 
        0.13785623013973236, 
        0.10732904076576233, 
        0.19220320880413055, 
        -0.3173505663871765, 
        0.1513134241104126, 
        -0.11826250702142715, 
        -0.3723178207874298, 
        0.5590486526489258, 
        0.3337721824645996, 
        -0.30394765734672546, 
        -0.6153885722160339, 
        0.19630907475948334, 
        -0.14519864320755005, 
        -0.5392462015151978, 
        0.5452598929405212, 
        -0.4747495651245117, 
        -0.40236896276474, 
        -0.46008220314979553, 
        -0.08559902012348175, 
        -0.03621552884578705, 
        -0.1394050419330597, 
        -0.5390474200248718, 
        0.6360791325569153, 
        0.39938321709632874, 
        0.20741742849349976, 
        -0.36029157042503357, 
        -0.4518827795982361, 
        -0.06564590334892273, 
        -0.4593335688114166, 
        0.2794281244277954, 
        -0.408146470785141, 
        -0.5762473940849304, 
        0.4846455156803131, 
        0.15789493918418884, 
        0.6036447286605835, 
        0.3382262587547302, 
        -0.6442095637321472, 
        0.4570891261100769, 
        0.5389508008956909, 
        0.36588332056999207, 
        -0.7206587791442871, 
        0.40864428877830505, 
        -0.5763813853263855, 
        -0.550449550151825, 
        -0.7143557071685791, 
        0.1516810953617096, 
        0.011932522989809513, 
        0.39213812351226807, 
        -0.37499186396598816, 
        0.5361932516098022, 
        0.07750347256660461, 
        -0.16775822639465332, 
        -0.648902177810669, 
        -0.048312440514564514, 
        0.42643287777900696, 
        -0.23027050495147705, 
        -0.37214767932891846, 
        0.6894749999046326, 
        0.17817173898220062, 
        -0.6574538946151733, 
        -0.07339309900999069, 
        -0.669282853603363, 
        0.4447769224643707, 
        -0.11836884915828705, 
        -0.3442160189151764, 
        -0.2898743450641632, 
        -0.677414059638977, 
        -0.7295759916305542, 
        0.6253862977027893, 
        0.7060092687606812, 
        0.5469881892204285, 
        -0.11032680422067642, 
        0.5099611282348633, 
        -0.2200469970703125, 
        -0.4302816092967987, 
        -0.18779681622982025, 
        0.5216735601425171, 
        -0.17031285166740417, 
        0.1079431101679802, 
        0.5556271076202393, 
        -0.2628118097782135, 
        0.5215107202529907, 
        0.4678744375705719, 
        0.40019935369491577, 
        -0.21224598586559296, 
        -0.6362591981887817, 
        0.625870943069458, 
        -0.07319110631942749, 
        -0.4007483720779419, 
        -0.09831909835338593, 
        -0.1790006011724472, 
        0.09074129909276962, 
        -0.598782479763031, 
        0.17681923508644104, 
        0.49960264563560486, 
        -0.06911879777908325, 
        0.7213495969772339, 
        -0.6275753378868103, 
        0.49468109011650085, 
        0.37832459807395935, 
        0.43243467807769775, 
        -0.584557831287384, 
        -0.23421038687229156, 
        -0.052295275032520294, 
        0.7402905225753784, 
        0.6595932841300964, 
        -0.14564558863639832, 
        -0.0010145577834919095, 
        0.07289115339517593, 
        0.34459492564201355, 
        0.3317198157310486, 
        0.055257778614759445, 
        0.34643569588661194, 
        0.06466655433177948, 
        -0.5308089256286621, 
        0.591335654258728, 
        0.11944736540317535, 
        0.7113882899284363, 
        0.08691547811031342, 
        -0.37644845247268677, 
        -0.5797094106674194, 
        -0.6351101398468018, 
        -0.00013300350110512227, 
        -0.33573636412620544, 
        0.4671933352947235, 
        -0.14659038186073303, 
        0.6892967820167542, 
        -0.5424760580062866, 
        -0.355925977230072, 
        -0.44491252303123474, 
        0.26318779587745667, 
        -0.2402559369802475, 
        -0.41119423508644104, 
        -0.2930682897567749, 
        -0.09325581043958664, 
        -0.18223565816879272, 
        -0.50234454870224, 
        0.23855018615722656, 
        0.46928778290748596, 
        0.597461462020874, 
        0.5029913187026978, 
        -0.741523265838623, 
        0.684768795967102, 
        -0.24601881206035614, 
        -0.7100583910942078, 
        0.649060845375061, 
        0.024936677888035774, 
        0.6520556807518005, 
        -0.15216870605945587, 
        0.2113242745399475, 
        0.3970503509044647, 
        0.04065790772438049, 
        -0.129751056432724, 
        0.15096265077590942, 
        -0.5293520092964172, 
        -0.4072560667991638, 
        0.22553661465644836, 
        0.3721499443054199, 
        -0.6114153265953064, 
        -0.5148682594299316, 
        -0.02426670491695404, 
        0.5570454001426697, 
        -0.7728590965270996, 
        -0.6366510391235352, 
        -0.6361789107322693, 
        0.05166070535778999, 
        -0.4734850525856018, 
        0.4412502944469452, 
        -0.001778526697307825, 
        0.4297354221343994, 
        0.021271726116538048, 
        -0.545915961265564, 
        0.6856851577758789, 
        -0.11505456268787384, 
        0.3327851891517639, 
        0.008007739670574665, 
        -0.011670190840959549, 
        -0.44781726598739624, 
        0.08468078821897507, 
        -0.5408876538276672, 
        0.11713281273841858, 
        -0.2024955302476883, 
        -0.7094488143920898, 
        -0.5266669392585754, 
        -0.21998728811740875, 
        -0.8493050932884216, 
        -0.5131186842918396, 
        -0.516002357006073, 
        0.24030499160289764, 
        -0.42664289474487305, 
        -0.3640088140964508, 
        0.05157119780778885, 
        -0.753226637840271, 
        -0.3209898769855499, 
        0.4485384523868561, 
        -0.03886038437485695, 
        0.07132972776889801, 
        -0.03962479531764984, 
        0.2393174022436142, 
        0.2891315519809723, 
        0.5948914885520935, 
        -0.7011566758155823, 
        -0.6393985152244568, 
        0.22249573469161987, 
        0.7010990381240845, 
        0.6510718464851379, 
        -0.010111027397215366, 
        0.12013604491949081, 
        0.5226741433143616, 
        -0.12310418486595154, 
        0.13492999970912933, 
        -0.1412983536720276, 
        0.5386518239974976, 
        0.02226816490292549, 
        -0.46256792545318604, 
        0.6477600336074829, 
        0.4092912971973419, 
        0.22684337198734283, 
        -0.4761766791343689, 
        -0.5334081053733826, 
        0.31091752648353577, 
        -0.6635375022888184, 
        0.31551435589790344, 
        0.0968315377831459, 
        0.06726941466331482, 
        -0.4368545711040497, 
        -0.14438536763191223, 
        -0.36473071575164795, 
        -0.4915842115879059, 
        -0.2599482238292694, 
        -0.18811194598674774, 
        -0.28909072279930115, 
        0.35014909505844116, 
        0.7037068009376526, 
        -0.015551529824733734, 
        -0.398200660943985, 
        -0.5230409502983093, 
        0.01493242010474205, 
        0.45266303420066833, 
        0.6258118152618408, 
        0.37988758087158203, 
        -0.6381945610046387, 
        0.041801176965236664, 
        -0.6174977421760559, 
        -0.42615392804145813, 
        0.4310585856437683, 
        0.323014497756958, 
        -0.6560836434364319, 
        -0.26019346714019775, 
        0.4572339355945587, 
        -0.2321288138628006, 
        0.021290505304932594, 
        0.6790885925292969, 
        -0.24497205018997192, 
        0.6344925761222839, 
        0.14915594458580017, 
        0.23695872724056244, 
        -0.5130202174186707, 
        -0.021351467818021774, 
        -0.01368372980505228, 
        -0.01335088349878788, 
        -0.004319782368838787, 
        0.5913981795310974, 
        -0.2562887668609619, 
        0.5618740916252136, 
        -0.6486017107963562, 
        -0.2846294343471527, 
        0.18058638274669647, 
        0.12660948932170868, 
        -0.7137624025344849, 
        -0.568214476108551, 
        0.00339686986990273, 
        -0.3527125120162964, 
        -0.38389742374420166, 
        -0.21142102777957916, 
        0.017972733825445175, 
        0.6332353353500366, 
        -0.29642730951309204, 
        -0.6662436723709106, 
        0.6382066011428833, 
        -0.3253768980503082, 
        -0.5233759880065918, 
        -0.44850099086761475, 
        -0.2140253782272339, 
        -0.7706945538520813, 
        0.007013755850493908, 
        0.38694286346435547, 
        -0.6590079665184021, 
        0.09450934082269669, 
        -0.03640592470765114, 
        -0.16664433479309082, 
        0.20684541761875153, 
        0.11780266463756561, 
        -0.5362460017204285, 
        0.6308243274688721, 
        0.5146379470825195, 
        -0.19286000728607178, 
        -0.1399177461862564, 
        0.44388672709465027, 
        -0.5858935117721558, 
        -0.07270344346761703, 
        0.12410905957221985, 
        0.6703689098358154, 
        0.17511621117591858, 
        -0.105445496737957, 
        -0.47647565603256226, 
        0.023525023832917213, 
        0.2798617482185364, 
        -0.40116778016090393, 
        -0.24554765224456787, 
        0.8115139603614807, 
        -0.015345914289355278, 
        -0.2681795656681061, 
        -0.768259584903717, 
        -0.024715112522244453, 
        -0.18607202172279358, 
        0.3831545114517212, 
        -0.6563706398010254, 
        0.44565439224243164, 
        -0.2706261873245239, 
        0.20850858092308044, 
        0.21249628067016602, 
        0.10092747211456299, 
        0.13590168952941895, 
        -0.5104264616966248, 
        -0.2812672555446625, 
        -0.007838229648768902, 
        -0.1742982566356659, 
        0.12747949361801147, 
        -0.5347577333450317, 
        -0.23929306864738464, 
        0.4395686686038971, 
        -0.5647492408752441, 
        0.2738755941390991, 
        0.6772320866584778, 
        0.07961367070674896, 
        0.060385286808013916, 
        -0.40824106335639954, 
        0.13229766488075256, 
        0.45798319578170776, 
        -1.0328577756881714, 
        -0.4142279624938965, 
        -0.5430347919464111, 
        0.6349106431007385, 
        -0.019897911697626114, 
        0.09636896848678589, 
        -0.29180946946144104, 
        0.04602113738656044, 
        -0.4475018084049225, 
        0.7090374231338501, 
        -0.2705216407775879, 
        0.14430604875087738, 
        0.10598019510507584, 
        0.1499578058719635, 
        -0.7768970727920532, 
        0.25239938497543335, 
        -0.10652344673871994, 
        0.14996770024299622, 
        0.3323020935058594, 
        0.02313593588769436, 
        -0.3104994297027588, 
        -0.8269031047821045, 
        -0.03436674550175667, 
        0.6106001734733582, 
        -0.06850627064704895, 
        -0.3766832947731018, 
        0.43999478220939636, 
        -0.3983447253704071, 
        0.07478038221597672, 
        0.14791516959667206, 
        0.16355492174625397, 
        0.1623263955116272, 
        0.0840965211391449, 
        0.26515471935272217, 
        -0.5520913600921631, 
        0.370254784822464, 
        0.02785400301218033, 
        -0.6281657218933105, 
        -0.27137553691864014, 
        0.5923206806182861, 
        0.5281198024749756, 
        -0.7740489840507507, 
        0.4721715748310089, 
        -0.27116066217422485, 
        -0.6468670964241028, 
        -0.4334619343280792, 
        0.20711174607276917, 
        -0.7579793334007263, 
        0.2893989086151123, 
        0.4232442080974579, 
        0.3104553520679474, 
        0.7515009641647339, 
        0.45315873622894287, 
        -0.3294803202152252, 
        -0.034042682498693466, 
        -0.020640328526496887, 
        -0.2712239623069763, 
        0.5123315453529358, 
        0.5908602476119995, 
        0.49239590764045715, 
        -0.01976030506193638, 
        -0.13902315497398376, 
        -0.27887198328971863, 
        0.2956119179725647, 
        0.18159961700439453, 
        0.31315913796424866, 
        0.3918881416320801, 
        0.6458175778388977, 
        0.27171003818511963, 
        0.7060866951942444, 
        -0.10393281280994415, 
        0.4349779486656189, 
        -0.6972545981407166, 
        -0.31662702560424805, 
        -0.31039175391197205, 
        -0.3700706660747528, 
        -0.7350072264671326, 
        -0.7695218920707703, 
        0.22424739599227905, 
        -0.28619781136512756, 
        -0.225368931889534, 
        0.3715428411960602, 
        -0.02772577852010727, 
        -0.3085291385650635, 
        -0.710380494594574, 
        -0.10205462574958801, 
        -0.12891782820224762, 
        0.08435940742492676, 
        -0.2352191060781479, 
        0.44681280851364136, 
        -0.20940802991390228, 
        0.44323110580444336, 
        0.23127268254756927, 
        0.6590701341629028, 
        0.31558728218078613, 
        -0.7416525483131409, 
        -0.6861592531204224, 
        -0.7765755653381348, 
        0.20362535119056702, 
        -0.3571048080921173, 
        0.3822113871574402, 
        0.43778228759765625, 
        -0.045645542442798615, 
        0.3552687466144562, 
        -0.537625253200531, 
        -0.1361246407032013, 
        0.323051780462265, 
        0.05174589529633522, 
        0.5840086936950684, 
        0.19105425477027893, 
        0.5627335906028748, 
        0.18898893892765045, 
        0.3848124146461487, 
        -0.6611687541007996, 
        -0.5327720046043396, 
        -0.2562711834907532, 
        -0.48700907826423645, 
        0.1841275840997696, 
        0.7686296701431274, 
        -0.7482011318206787, 
        -0.6004714965820312, 
        -0.09563541412353516, 
        0.4464162588119507, 
        0.3014502227306366, 
        -0.3031902611255646, 
        0.752302348613739, 
        -0.2080102264881134, 
        0.5137279033660889, 
        -0.046406615525484085, 
        -0.7173842787742615, 
        0.5128495693206787, 
        -0.6170258522033691, 
        0.45261508226394653, 
        -0.6767488121986389, 
        -0.34467917680740356, 
        0.18385809659957886, 
        0.12770786881446838, 
        -0.24725119769573212, 
        -0.5346846580505371, 
        -0.028110643848776817, 
        -0.269362211227417, 
        0.5384753942489624, 
        0.07489839941263199, 
        0.7002308368682861, 
        0.7077361345291138, 
        0.11185171455144882, 
        -0.2743946611881256, 
        -0.16090601682662964, 
        0.5583107471466064, 
        -0.5570081472396851, 
        0.022572079673409462, 
        -0.5133578181266785, 
        0.7004309892654419, 
        0.053036078810691833, 
        -0.4476802349090576, 
        0.03894871473312378, 
        0.547975480556488, 
        -0.07661840319633484, 
        -0.16241583228111267, 
        0.03369563817977905, 
        -0.324637770652771, 
        -0.589743971824646, 
        0.07781822234392166, 
        0.2481209635734558, 
        -0.7284852266311646, 
        -0.066459059715271, 
        0.08309496194124222, 
        -0.03965320065617561, 
        -0.0392126739025116, 
        0.26136621832847595, 
        0.7836763858795166, 
        0.23873800039291382, 
        -0.3097575306892395, 
        -0.25496718287467957, 
        0.663631021976471, 
        0.5866890549659729, 
        0.09279598295688629, 
        -0.34631380438804626, 
        -0.5391777157783508, 
        0.0011136080138385296, 
        0.563697099685669, 
        -0.5455400943756104, 
        0.7262087464332581, 
        0.4627067744731903, 
        0.5826749205589294, 
        -0.39755192399024963, 
        0.6417841911315918, 
        -0.6163987517356873, 
        -0.21326495707035065, 
        0.41358914971351624, 
        0.22741122543811798, 
        0.19493494927883148, 
        0.04697514325380325, 
        -0.29973915219306946, 
        0.33677342534065247, 
        -0.25697144865989685, 
        -0.6242232322692871, 
        0.9007180333137512, 
        0.12879131734371185, 
        -0.43866217136383057, 
        0.6065919995307922, 
        0.706670880317688, 
        0.14455103874206543, 
        -0.6140612959861755, 
        -0.11354922503232956, 
        0.4757704734802246, 
        0.4882282614707947, 
        -0.1329117715358734, 
        0.7811949849128723, 
        0.657233715057373, 
        -0.07735180109739304, 
        -0.7704113721847534, 
        -0.19056878983974457, 
        -0.5878674387931824, 
        -0.5705260634422302, 
        -0.19279924035072327, 
        -0.7206219434738159, 
        0.5601447224617004, 
        -0.24418888986110687, 
        -0.3238329589366913, 
        -0.6104975938796997, 
        -0.6105387210845947, 
        -0.4752902388572693, 
        -0.4656171202659607, 
        0.5692754983901978, 
        -0.4225304424762726, 
        0.30616602301597595, 
        -0.5282301902770996, 
        -0.3863048255443573, 
        -0.3301033675670624, 
        -0.4766678512096405, 
        0.18307219445705414, 
        0.5154591798782349, 
        -0.6450034976005554, 
        -0.40423426032066345, 
        0.10797613114118576, 
        0.30047228932380676, 
        0.300197958946228, 
        -0.15895240008831024, 
        0.5814543962478638, 
        0.1488354504108429, 
        0.07474534213542938, 
        0.709256649017334, 
        0.5907962322235107, 
        0.049683794379234314, 
        -0.19844479858875275, 
        0.3322307765483856, 
        0.42849746346473694, 
        0.1532292366027832, 
        -0.36512306332588196, 
        0.3253350257873535, 
        -0.1907188445329666, 
        0.2780567407608032, 
        -0.42939698696136475, 
        -0.10802958160638809, 
        -0.6242906451225281, 
        -0.05766717344522476, 
        -0.694765567779541, 
        -0.2660263776779175, 
        0.12073587626218796, 
        0.45624083280563354, 
        0.2035287469625473, 
        -0.547736644744873, 
        0.1351965218782425, 
        0.5900211334228516, 
        0.006965183187276125, 
        -0.1063099279999733, 
        0.13354727625846863, 
        0.10404528677463531, 
        -0.5471722483634949, 
        -0.421256959438324, 
        0.09932269155979156, 
        -0.6712201237678528, 
        -0.6109264492988586, 
        0.7406198978424072, 
        -0.1096765398979187, 
        0.4494129717350006, 
        0.8638244271278381, 
        0.4416007995605469, 
        0.35672587156295776, 
        -0.411212682723999, 
        0.6579103469848633, 
        0.16859208047389984, 
        -0.11953761428594589, 
        0.572963535785675, 
        -2.250823308713734e-05, 
        -0.43912649154663086, 
        0.22323575615882874, 
        -0.18376442790031433, 
        -0.12360479682683945, 
        0.4140409231185913, 
        0.17148931324481964, 
        0.30046287178993225, 
        0.2732687294483185, 
        -0.34797847270965576, 
        -0.055428385734558105, 
        -0.7212256193161011, 
        -0.4582943618297577, 
        -0.14998993277549744, 
        0.6768125891685486, 
        0.6642387509346008, 
        -0.14998102188110352, 
        -0.06407103687524796, 
        0.06168075650930405, 
        0.3109527826309204, 
        0.03902031108736992, 
        -0.8646180629730225, 
        -0.4086235463619232, 
        0.06508440524339676, 
        -0.39155763387680054, 
        -0.4450903534889221, 
        0.7477495074272156, 
        -0.6826648116111755, 
        0.45002442598342896, 
        -0.5784223079681396, 
        -0.09436513483524323, 
        -0.6127234101295471, 
        -0.03730565682053566, 
        -0.25433018803596497, 
        0.4198802709579468, 
        0.11956196278333664, 
        0.25345152616500854, 
        -0.36719706654548645, 
        -0.2630901038646698, 
        -0.17202076315879822, 
        -0.8784063458442688, 
        0.509315550327301, 
        -0.6680772304534912, 
        0.24108709394931793, 
        -0.1833069920539856, 
        -0.14086095988750458, 
        -0.7221008539199829, 
        -0.18553031980991364, 
        0.5626227259635925, 
        0.6566795706748962, 
        -0.33259984850883484, 
        -0.624904990196228, 
        -0.25776296854019165, 
        -0.67471843957901, 
        0.7098775506019592, 
        0.2973783016204834, 
        -0.42025867104530334, 
        0.00839279592037201, 
        0.17016002535820007, 
        -0.47021007537841797, 
        0.0439390130341053, 
        -0.004745834041386843, 
        0.3180568218231201, 
        0.46277186274528503, 
        -0.48419031500816345, 
        -0.13999377191066742, 
        0.5075701475143433, 
        0.3228522837162018, 
        0.37780433893203735, 
        -0.36269837617874146, 
        -0.5739887952804565, 
        -0.5643762350082397, 
        -0.14405810832977295, 
        0.007232800126075745, 
        -0.3634929656982422, 
        -0.06710289418697357, 
        0.6111071109771729, 
        -0.27495625615119934, 
        0.21846245229244232, 
        0.35584092140197754, 
        -0.10517199337482452, 
        -0.13214173913002014, 
        0.26356178522109985, 
        0.3869985342025757, 
        0.7192571759223938, 
        -0.217076376080513, 
        0.47328564524650574, 
        -0.7949557304382324, 
        0.44423773884773254, 
        -0.4221130907535553, 
        0.2744792401790619, 
        -0.7445323467254639, 
        0.7074342966079712, 
        0.6239004135131836, 
        0.4766392111778259, 
        0.05423982813954353, 
        0.6957036256790161, 
        -0.0644172728061676, 
        0.09956268966197968, 
        0.6610905528068542, 
        -0.22334778308868408, 
        0.5929410457611084, 
        -0.7454509139060974, 
        -0.17780853807926178, 
        -0.29851651191711426, 
        0.7433702349662781, 
        0.3035963475704193, 
        0.6041245460510254, 
        -0.20428726077079773, 
        -0.5177016854286194, 
        -0.33556464314460754, 
        -0.7671502232551575, 
        0.05066107586026192, 
        0.38469624519348145, 
        -0.07644201070070267, 
        0.19276033341884613, 
        0.43268293142318726, 
        -0.08342830091714859, 
        0.5539721846580505, 
        -0.1509358137845993, 
        0.4622439444065094, 
        -0.38572439551353455, 
        -0.8255301117897034, 
        0.00043563084909692407, 
        -0.6345889568328857, 
        -0.7644603252410889, 
        0.057096533477306366, 
        0.4633997678756714, 
        0.6831169128417969, 
        -0.2744061350822449, 
        0.7185747027397156, 
        -0.3799768388271332, 
        0.6310498714447021, 
        0.012043328955769539, 
        0.6536387205123901, 
        0.35026785731315613, 
        0.3011865019798279, 
        -0.5212572813034058, 
        -0.37132528424263, 
        0.13336102664470673, 
        -0.9318002462387085, 
        -0.36166685819625854, 
        0.5083848834037781, 
        -0.5216938853263855, 
        0.45939135551452637, 
        -0.769037127494812, 
        -0.026293933391571045, 
        -0.0696435272693634, 
        -0.5367939472198486, 
        0.6560894250869751, 
        -0.3492624759674072, 
        -0.6777622103691101, 
        0.5874208211898804, 
        -0.5353015065193176, 
        0.16628272831439972, 
        0.20258688926696777, 
        0.7123041152954102, 
        0.02921442501246929, 
        -0.6899810433387756, 
        0.30445224046707153, 
        -0.17769213020801544, 
        -0.0793800950050354, 
        -0.3792545199394226, 
        0.2790384888648987, 
        0.7018131017684937, 
        -0.0354599729180336, 
        -0.02969779260456562, 
        0.27128171920776367, 
        0.6899405121803284, 
        -0.04636847972869873, 
        0.48278912901878357, 
        0.7081904411315918, 
        -0.6321641802787781, 
        -0.6879583597183228, 
        -0.2725607454776764, 
        1.2238658666610718, 
        0.03219468891620636, 
        -0.031248776242136955, 
        0.15932540595531464, 
        0.294047474861145, 
        -0.16616347432136536, 
        -0.18636709451675415, 
        0.28987303376197815, 
        0.4745630919933319, 
        -0.17690040171146393, 
        -0.2651853859424591, 
        -0.7359548807144165, 
        -0.6807892322540283, 
        -0.3911300301551819, 
        0.49800482392311096, 
        -0.5801734328269958, 
        0.676436185836792, 
        -0.6239292621612549, 
        -0.3854406177997589, 
        0.39152970910072327, 
        0.2873668074607849, 
        -0.38077273964881897, 
        0.5850875377655029, 
        0.37802332639694214, 
        -0.3834477961063385, 
        0.15613935887813568, 
        -0.7706217169761658, 
        -0.5533159971237183, 
        -0.0013512488221749663, 
        0.6183578372001648, 
        0.09718244522809982, 
        0.12230828404426575, 
        -0.5459775328636169, 
        0.46049964427948, 
        0.6246689558029175, 
        0.1057136058807373, 
        -0.32223430275917053, 
        0.35082384943962097, 
        -0.2955734431743622, 
        -0.29350945353507996, 
        -0.49691957235336304, 
        -0.04779994860291481, 
        -0.3690852224826813, 
        -0.1637144833803177, 
        -0.6251358985900879, 
        -0.36915871500968933, 
        -0.05487651377916336, 
        0.05021065101027489, 
        -0.5942608714103699, 
        0.6865513920783997, 
        -0.38815054297447205, 
        -0.8254172801971436, 
        -0.5124788284301758, 
        -0.4677357077598572, 
        -0.5664734244346619, 
        -0.584345281124115, 
        0.3075368106365204, 
        0.05484367534518242, 
        0.24113409221172333, 
        0.04932178929448128, 
        0.0046951486729085445, 
        0.18936029076576233, 
        0.43562188744544983, 
        -0.5558249950408936, 
        0.13122063875198364, 
        0.18712559342384338, 
        -0.1750791370868683, 
        -0.8017680644989014, 
        -0.15489262342453003, 
        -0.0004228405305184424, 
        -0.6155803799629211, 
        0.6878948211669922, 
        -0.08847936242818832, 
        -0.5904589295387268, 
        -0.38579535484313965, 
        0.48728856444358826, 
        -0.6546284556388855, 
        0.719444990158081, 
        0.32974278926849365, 
        -0.6650398969650269, 
        -0.0707348957657814, 
        -0.7428192496299744, 
        0.7272676229476929, 
        -0.3190882205963135, 
        0.0795469880104065, 
        0.6871264576911926, 
        0.6429997682571411, 
        -0.2055036574602127, 
        -0.09893280267715454, 
        0.17782962322235107, 
        -0.04641668125987053, 
        0.010745219886302948, 
        -0.09594249725341797, 
        -0.6252235174179077, 
        0.16456785798072815, 
        0.6724338531494141, 
        0.2635907232761383, 
        -0.3878687918186188, 
        0.6910373568534851, 
        0.6374942660331726, 
        -0.5219864249229431, 
        -0.31261956691741943, 
        0.030033685266971588, 
        0.10976140201091766, 
        0.4339476227760315, 
        -0.4690133333206177, 
        -0.3203928470611572, 
        0.2739408016204834, 
        -0.5119970440864563, 
        -0.6007803678512573, 
        -0.6899675130844116, 
        -0.25754883885383606, 
        0.5185567140579224, 
        0.21556060016155243, 
        -0.0014607349876314402, 
        0.31257814168930054, 
        0.05753926560282707, 
        0.7218706607818604, 
        0.08921834081411362, 
        -0.5186721086502075, 
        0.4154664874076843, 
        -0.20916986465454102, 
        -0.14672796428203583, 
        -0.08364470303058624, 
        -0.613502562046051, 
        -0.4305436313152313, 
        -0.3649916350841522, 
        0.7867357134819031, 
        0.7039087414741516, 
        -0.4456845223903656, 
        -0.6608671545982361, 
        -0.12936249375343323, 
        -0.23370088636875153, 
        0.40764838457107544, 
        -0.00421925587579608, 
        -0.090146005153656, 
        0.1872827708721161, 
        0.5652557611465454, 
        -0.06988339126110077, 
        -0.6043345332145691, 
        0.3011089265346527, 
        -0.0026686047203838825, 
        -0.09789367765188217, 
        -0.6872197389602661, 
        0.5043798685073853, 
        -0.9407981634140015, 
        0.35236990451812744, 
        -0.2332645058631897, 
        0.3019600510597229, 
        -0.12572814524173737, 
        0.5026745796203613, 
        -0.50038081407547, 
        -0.6920711398124695, 
        0.8396786451339722, 
        -0.16480286419391632, 
        -0.522501528263092, 
        0.4825400412082672, 
        -0.2859309911727905, 
        0.27642369270324707, 
        -0.03612547367811203, 
        -0.48018020391464233, 
        0.01209615170955658, 
        0.3105066418647766, 
        -0.2856822907924652, 
        0.6205548048019409, 
        0.1828732192516327, 
        -0.6908853054046631, 
        0.4748172163963318, 
        -0.32184725999832153, 
        0.3124277889728546, 
        -0.30904874205589294, 
        -0.6143046617507935, 
        -0.5821495652198792, 
        0.452740341424942, 
        0.3389773666858673, 
        0.10656695812940598, 
        -0.4560795724391937, 
        -0.19349993765354156, 
        -0.07542736828327179, 
        -0.3215663433074951, 
        -0.25684845447540283, 
        0.16665948927402496, 
        -0.35567715764045715, 
        -0.3492102026939392, 
        0.19898287951946259, 
        0.35178041458129883, 
        0.2222035527229309, 
        -0.719113826751709, 
        0.5512176156044006, 
        -0.16615808010101318, 
        0.22025570273399353, 
        0.1989945024251938, 
        0.5497034788131714, 
        0.04312790557742119, 
        0.011010155081748962, 
        -0.5505391359329224, 
        0.3655560314655304, 
        -0.4827406108379364, 
        -0.2668319642543793, 
        -0.1495952308177948, 
        0.6133245229721069, 
        -0.7029264569282532, 
        -0.34627482295036316, 
        0.6586454510688782, 
        -0.5795660614967346, 
        0.3074703812599182, 
        0.42960312962532043, 
        0.46359577775001526, 
        -0.49954596161842346, 
        -0.4708261787891388, 
        -0.5414160490036011, 
        -0.09262225776910782, 
        0.30040207505226135, 
        -0.4999741017818451, 
        0.7398535013198853, 
        0.31320852041244507, 
        0.4844765365123749, 
        -0.18215028941631317, 
        -0.09805590659379959, 
        -0.17575746774673462, 
        0.6210036873817444, 
        -0.7348387837409973, 
        -0.2533813714981079, 
        -0.3177269697189331, 
        0.7057326436042786, 
        0.5989954471588135, 
        -0.7092245817184448, 
        0.6966925859451294, 
        0.21652954816818237, 
        0.17583656311035156, 
        -0.5161649584770203, 
        0.07574090361595154, 
        0.006032297853380442, 
        0.45747941732406616, 
        -0.7303245663642883, 
        0.3218615651130676, 
        0.29879456758499146, 
        0.685174822807312, 
        -0.8142307996749878, 
        -0.46290719509124756, 
        0.9865157008171082, 
        -0.47279661893844604, 
        0.6067276000976562, 
        0.030328422784805298, 
        0.44704797863960266, 
        -0.6573231816291809, 
        0.26528775691986084, 
        -0.10741572827100754, 
        0.45542410016059875, 
        -0.18036067485809326, 
        -0.5029320120811462, 
        0.49714091420173645, 
        -0.13410648703575134, 
        0.2749960124492645, 
        0.3501177132129669, 
        -0.34496599435806274, 
        -0.5047085285186768, 
        0.16481393575668335, 
        0.3234209716320038, 
        0.2472914159297943, 
        -0.283298134803772, 
        0.15043802559375763, 
        0.32878872752189636, 
        -0.004367033485323191, 
        0.5668752193450928, 
        -0.5379974246025085, 
        -0.39461979269981384, 
        -0.12352785468101501, 
        0.23811551928520203, 
        -0.553470253944397, 
        -0.22050701081752777, 
        0.299873024225235, 
        0.1637263149023056, 
        -0.6880782842636108, 
        0.09818743169307709, 
        0.46207931637763977, 
        -0.6149309873580933, 
        -0.20356780290603638, 
        0.5940698981285095, 
        0.058337241411209106, 
        -0.4375399351119995, 
        -0.16058124601840973, 
        0.3314301073551178, 
        0.7693182229995728, 
        0.37249597907066345, 
        -0.6499939560890198, 
        -0.7702959775924683, 
        -0.34679731726646423, 
        -0.787489116191864, 
        -0.5622308850288391, 
        0.6643343567848206, 
        -0.11118154227733612, 
        0.4809421896934509, 
        0.4140802025794983, 
        0.44958892464637756, 
        -0.4162800908088684, 
        -0.11268065124750137, 
        0.7132124900817871, 
        0.45338210463523865, 
        0.4351274073123932, 
        0.2754327654838562, 
        -0.1639033555984497, 
        0.34591543674468994, 
        0.4401623606681824, 
        -0.3455298840999603, 
        -0.1205076351761818, 
        0.18702922761440277, 
        0.14708830416202545, 
        0.3034975826740265, 
        -0.13729630410671234, 
        0.6358195543289185, 
        -0.4706782400608063, 
        0.5489877462387085, 
        -0.6119717955589294, 
        -0.5195194482803345, 
        0.355185866355896, 
        0.33591341972351074, 
        -0.6536942720413208, 
        -0.16897401213645935, 
        0.5404770374298096, 
        0.4556366503238678, 
        0.6488070487976074, 
        -0.680111289024353, 
        0.1469007432460785, 
        -0.10383986681699753, 
        -0.5093370079994202, 
        -0.32914111018180847, 
        -0.43039655685424805, 
        -0.6597985625267029, 
        -0.1338685303926468, 
        -0.22058583796024323, 
        -0.26108890771865845, 
        0.13996919989585876, 
        -0.6454651951789856, 
        0.5852762460708618, 
        0.43987441062927246, 
        -0.07213062793016434, 
        -0.47741520404815674, 
        0.48436838388442993, 
        0.17671459913253784, 
        -0.4787333607673645, 
        -0.40443602204322815, 
        0.46373990178108215, 
        -0.14662322402000427, 
        0.6137712597846985, 
        0.08075343072414398, 
        0.6059919595718384, 
        -0.21508565545082092, 
        -0.6302670836448669, 
        -0.5632226467132568, 
        0.030256381258368492, 
        0.32869821786880493, 
        0.5831281542778015, 
        -0.08892756700515747, 
        0.08729296922683716, 
        0.31447818875312805, 
        -0.2783815562725067, 
        0.26126205921173096, 
        -0.13300715386867523, 
        -0.04904872924089432, 
        -0.36928465962409973, 
        0.4401592016220093, 
        -0.5799634456634521, 
        0.5392972230911255, 
        0.4275296628475189, 
        -0.27610325813293457, 
        0.7213362455368042, 
        -0.6919718980789185, 
        0.1628146767616272, 
        0.25855907797813416, 
        0.3233228027820587, 
        -0.6307300329208374, 
        0.5529884696006775, 
        -0.649937629699707, 
        0.3268449008464813, 
        0.3104907274246216, 
        -0.49982523918151855, 
        -0.023554136976599693, 
        -0.2991035282611847, 
        -0.058718420565128326, 
        -0.47045671939849854, 
        0.620713472366333, 
        0.7449049949645996, 
        0.060565873980522156, 
        -0.6320508718490601, 
        0.13944345712661743, 
        0.27680861949920654, 
        -0.12220201641321182, 
        -0.41555410623550415, 
        -0.07359213382005692, 
        -0.1762300580739975, 
        -0.09347427636384964, 
        -0.3661177158355713, 
        0.261245459318161, 
        -0.26058799028396606, 
        -0.05422007292509079, 
        -0.23250572383403778, 
        0.3845985233783722, 
        -0.0456819050014019, 
        0.07922150939702988, 
        0.4386448562145233, 
        0.26517656445503235, 
        -0.5722094178199768, 
        0.00832165777683258, 
        -0.03858708590269089, 
        -0.38554733991622925, 
        0.6837239265441895, 
        -0.3228597342967987, 
        0.5219571590423584, 
        -0.03427976369857788, 
        0.07782287150621414, 
        0.447339802980423, 
        -0.4538573920726776, 
        0.14479799568653107, 
        0.2718566358089447, 
        0.4203203618526459, 
        0.2213073968887329, 
        -0.26325222849845886, 
        -0.43311652541160583, 
        -0.2556603252887726, 
        -0.4947621524333954, 
        -0.7600184679031372, 
        0.6060938239097595, 
        -0.6447699069976807, 
        -0.0869871973991394, 
        -0.32824593782424927, 
        -0.15845906734466553, 
        0.29334527254104614, 
        -0.3268382251262665, 
        0.14436201751232147, 
        -0.40277278423309326, 
        -0.22814109921455383, 
        0.6127973198890686, 
        -0.21448250114917755, 
        -0.7101357579231262, 
        0.44445693492889404, 
        0.565508246421814, 
        -0.7336504459381104, 
        -0.003587574465200305, 
        0.43779507279396057, 
        0.2576485574245453, 
        0.5032557845115662, 
        0.5828884840011597, 
        -0.2672662138938904, 
        0.023754840716719627, 
        0.08543752133846283, 
        0.6249089241027832, 
        -0.49531739950180054, 
        0.35242098569869995, 
        -0.09002207964658737, 
        -0.19929403066635132, 
        -0.07083746045827866, 
        -0.5119535326957703, 
        -0.436261922121048, 
        0.3269525170326233, 
        0.06219882518053055, 
        0.345673143863678, 
        0.09747709333896637, 
        -0.4784773886203766, 
        0.5238646864891052, 
        0.5213857293128967, 
        -0.5484702587127686, 
        0.11224143207073212, 
        -0.06009960174560547, 
        -0.5684053301811218, 
        -0.47346630692481995, 
        -0.12899504601955414, 
        -0.7151929140090942, 
        0.6260258555412292, 
        -0.013125104829668999, 
        -0.526955246925354, 
        0.08396389335393906, 
        -0.4372939169406891, 
        0.03741375729441643, 
        0.5940559506416321, 
        -0.1605728268623352, 
        0.4266999065876007, 
        0.6127865314483643, 
        0.46289417147636414, 
        -0.2577435374259949, 
        -0.03906119614839554, 
        -0.5319454669952393, 
        0.2945023477077484, 
        0.1097719743847847, 
        -0.6071372032165527, 
        -0.16049617528915405, 
        0.060175828635692596, 
        -0.6409714818000793, 
        0.0016288593178614974, 
        0.16818009316921234, 
        0.6444473266601562, 
        0.40061110258102417, 
        0.5851498246192932, 
        0.7037069201469421, 
        -0.017572173848748207, 
        0.31999754905700684, 
        0.1824626624584198, 
        -0.45899173617362976, 
        -0.701076328754425, 
        0.06824750453233719, 
        -0.3069068491458893, 
        -0.6748876571655273, 
        0.33126670122146606, 
        0.3767678141593933, 
        0.5671555399894714, 
        0.14441613852977753, 
        0.22895029187202454, 
        0.06290661543607712, 
        0.05018790438771248, 
        -0.6116558909416199, 
        -0.5868361592292786, 
        0.6320262551307678, 
        -0.38662561774253845, 
        -0.5031068325042725, 
        0.6017134785652161, 
        0.44487762451171875, 
        0.430367112159729, 
        -0.6935579776763916, 
        0.4290740191936493, 
        -0.49231594800949097, 
        0.2828691899776459, 
        0.7757259011268616, 
        0.08189128339290619, 
        0.2769831418991089, 
        0.21936441957950592, 
        -0.6630367636680603, 
        0.11270686239004135, 
        0.5244526267051697, 
        0.2546049952507019, 
        0.30868232250213623, 
        0.21106451749801636, 
        0.03099425882101059, 
        0.45143282413482666, 
        -0.1887172907590866, 
        0.26874610781669617, 
        -0.5971927046775818, 
        -0.30568206310272217, 
        -0.1758243888616562, 
        0.44011613726615906, 
        -0.06301387399435043, 
        0.8048937320709229, 
        -0.0477820560336113, 
        -0.22311162948608398, 
        -0.20485389232635498, 
        -0.15452487766742706, 
        -0.30770599842071533, 
        0.14536052942276, 
        -0.45027926564216614, 
        -0.11683467030525208, 
        -0.2277473658323288, 
        -0.4175663888454437, 
        -0.6439979076385498, 
        -0.19578805565834045, 
        0.0484151765704155, 
        0.28508123755455017, 
        0.09352242946624756, 
        -0.15940532088279724, 
        0.8078908920288086, 
        -0.633672833442688, 
        0.20978520810604095, 
        -0.014044171199202538, 
        0.3709738254547119, 
        0.5205473303794861, 
        -0.70213383436203, 
        -0.4595359265804291, 
        -0.691433846950531, 
        0.13504275679588318, 
        0.15057827532291412, 
        0.6307216286659241, 
        0.38449162244796753, 
        0.27604371309280396, 
        -0.17031562328338623, 
        -0.01537175104022026, 
        -0.5736651420593262, 
        -0.539847195148468, 
        0.03721340373158455, 
        0.6556698679924011, 
        0.14352311193943024, 
        -0.4696049690246582, 
        -0.3120482563972473, 
        -0.35462498664855957, 
        -0.3201081156730652, 
        -0.1654641181230545, 
        0.34823787212371826, 
        -0.3583963215351105, 
        -0.07919159531593323, 
        0.6736956834793091, 
        -0.2783392369747162, 
        0.12113698571920395, 
        -0.15778018534183502, 
        0.0373375229537487, 
        0.8058934211730957, 
        0.3619217276573181, 
        -0.2454216182231903, 
        0.2951352894306183, 
        0.6116127371788025, 
        -0.3744572699069977, 
        0.34783968329429626, 
        0.050745364278554916, 
        -0.13528527319431305, 
        0.4732028841972351, 
        0.08139313757419586, 
        -0.40018996596336365, 
        0.7525336146354675, 
        -0.03882226720452309, 
        -0.20280127227306366, 
        -0.3106035590171814, 
        0.1565524786710739, 
        0.3875308334827423, 
        -0.569633960723877, 
        0.2746814489364624, 
        0.7493166327476501, 
        0.563626229763031, 
        0.38033613562583923, 
        -0.7791494727134705, 
        -0.4338464140892029, 
        0.14665469527244568, 
        -0.6242318749427795, 
        -0.235470712184906, 
        0.2604668438434601, 
        0.5244144201278687, 
        0.42556506395339966, 
        0.3336498737335205, 
        0.6293762922286987, 
        -0.3769749402999878, 
        -0.10552075505256653, 
        -0.5740180611610413, 
        -0.11007683724164963, 
        0.632193922996521, 
        0.4145298898220062, 
        0.34384649991989136, 
        -0.38477882742881775, 
        0.2608006000518799, 
        0.721239447593689, 
        0.8008161187171936, 
        -0.6064404845237732, 
        -0.21933862566947937, 
        -0.260452538728714, 
        -0.19987942278385162, 
        -0.23940151929855347, 
        0.24732978641986847, 
        -0.45167526602745056, 
        0.7610936760902405, 
        0.6056481003761292, 
        -0.17457744479179382, 
        0.4324681758880615, 
        -0.3124280273914337, 
        0.255237340927124, 
        -0.3241579532623291, 
        0.4492591321468353, 
        -0.25753241777420044, 
        -0.2455534040927887, 
        -0.38212621212005615, 
        0.581834614276886, 
        -0.25615090131759644, 
        -0.12487487494945526, 
        0.01395250204950571, 
        -0.6615573763847351, 
        0.6423095464706421, 
        -0.44802382588386536, 
        -0.30839860439300537, 
        -0.8203907012939453, 
        -0.22403988242149353, 
        -0.09679822623729706, 
        -0.11084085702896118, 
        -0.4243643283843994, 
        0.5598047375679016, 
        -0.4267309010028839, 
        -0.1265493780374527, 
        0.006524556316435337, 
        0.5577641129493713, 
        0.3425122797489166, 
        0.8780722618103027, 
        0.2799505591392517, 
        -0.08780514448881149, 
        0.0839371532201767, 
        0.570432722568512, 
        0.15270866453647614, 
        -0.33210283517837524, 
        0.5512855052947998, 
        0.15543639659881592, 
        -0.7178939580917358, 
        0.458488404750824, 
        -0.05187556520104408, 
        0.6054578423500061, 
        -0.2455577254295349, 
        0.07256030291318893, 
        -0.004224976524710655, 
        -0.7591478824615479, 
        0.47503551840782166, 
        -0.16317002475261688, 
        0.0924818143248558, 
        -0.6485390067100525, 
        -0.41623473167419434, 
        0.4543563425540924, 
        -0.18997113406658173, 
        -0.7181484699249268, 
        -0.057404302060604095, 
        0.4439954161643982, 
        0.039851654320955276, 
        0.19159705936908722, 
        0.07870280742645264, 
        -0.08615481108427048, 
        -0.6237202286720276, 
        -0.23092719912528992, 
        -0.5126262903213501, 
        0.15528126060962677, 
        0.13525407016277313, 
        0.38165611028671265, 
        -0.5236664414405823, 
        0.3907589912414551, 
        0.18830662965774536, 
        -0.09524509310722351, 
        -0.6509283781051636, 
        -0.7055128216743469, 
        0.5935226678848267, 
        -0.6097890734672546, 
        0.05212383717298508, 
        -0.22099749743938446, 
        -0.37815749645233154, 
        0.8574538230895996, 
        0.18776054680347443, 
        -0.04493832588195801, 
        0.2024560272693634, 
        0.4482159912586212, 
        0.42506012320518494, 
        -0.27903294563293457, 
        0.07175975292921066, 
        -0.6133089065551758, 
        -0.6723616719245911, 
        0.41354936361312866, 
        -0.04963342100381851, 
        -0.06492466479539871, 
        -0.41016101837158203, 
        0.3700486123561859, 
        -0.8312718272209167, 
        0.013877585530281067, 
        0.37849584221839905, 
        -0.0242336243391037, 
        0.04777681827545166, 
        0.5021075010299683, 
        0.4571319818496704, 
        0.24866916239261627, 
        0.04452814906835556, 
        -0.08218078315258026, 
        -0.13551515340805054, 
        0.6166694760322571, 
        0.403291791677475, 
        0.677660346031189, 
        0.02624868042767048, 
        0.30439406633377075, 
        -0.44923385977745056, 
        -0.7212247848510742, 
        -0.19300425052642822, 
        -0.4920976459980011, 
        0.22685031592845917, 
        0.6346412897109985, 
        -0.05582922697067261, 
        -0.2480209320783615, 
        -0.38481271266937256, 
        -0.7818811535835266, 
        0.5129156112670898, 
        -0.1741117537021637, 
        0.3205859363079071, 
        0.5603624582290649, 
        -0.5963273644447327, 
        0.441444993019104, 
        0.74427330493927, 
        -0.4356948137283325, 
        0.4961560368537903, 
        0.26109015941619873, 
        0.016269389539957047, 
        -0.03349773958325386, 
        -0.40865039825439453, 
        -0.08468424528837204, 
        0.6657955050468445, 
        0.27787795662879944, 
        -0.28973203897476196, 
        0.1857241988182068, 
        0.62080317735672, 
        0.2900065779685974, 
        0.3687407672405243, 
        0.5302072763442993, 
        -0.22201113402843475, 
        0.3913533091545105, 
        0.24264462292194366, 
        -0.3166014552116394, 
        -0.7829452753067017, 
        -0.44621163606643677, 
        0.5281528830528259, 
        0.6139310002326965, 
        0.616124153137207, 
        0.178008571267128, 
        -0.026299823075532913, 
        0.3921021521091461, 
        -0.8663856983184814, 
        -0.49282217025756836, 
        0.26422491669654846, 
        0.6722252368927002, 
        0.13848912715911865, 
        0.5754558444023132, 
        0.7247176170349121, 
        0.12683388590812683, 
        0.28218936920166016, 
        0.7126845717430115, 
        -0.21888086199760437, 
        -0.2697431445121765, 
        -0.08609505742788315, 
        -0.12784798443317413, 
        0.35518017411231995, 
        -0.35028040409088135, 
        -0.6774814128875732, 
        -0.5174179673194885, 
        0.3430332839488983, 
        -0.8359742164611816, 
        0.193125382065773, 
        -0.6992601752281189, 
        0.4163966774940491, 
        0.5110113024711609, 
        -0.2126762717962265, 
        0.43789613246917725, 
        0.18536804616451263, 
        0.014462899416685104, 
        -0.2526884078979492, 
        -0.05114506557583809, 
        0.6816636919975281, 
        -0.598365306854248, 
        -0.5017015933990479, 
        0.2711932063102722, 
        -0.30958831310272217, 
        0.6800245046615601, 
        0.5560973882675171, 
        -0.5727212429046631, 
        -0.32048797607421875, 
        -0.3062939941883087, 
        0.4170513153076172, 
        0.6062488555908203, 
        0.8710045218467712, 
        0.6825827360153198, 
        0.21453680098056793, 
        -0.13674582540988922, 
        -0.05134538188576698, 
        -0.39454928040504456, 
        -0.3924374580383301, 
        0.17141571640968323, 
        0.4740537703037262, 
        -0.7041702270507812, 
        0.6927571892738342, 
        -0.5824440121650696, 
        0.1657579392194748, 
        0.5399227738380432, 
        0.7244465947151184, 
        0.525097131729126, 
        0.23208671808242798, 
        0.01984211429953575, 
        0.5621968507766724, 
        0.14812223613262177, 
        0.37809857726097107, 
        0.511894941329956, 
        0.5962884426116943, 
        -0.36935684084892273, 
        -0.17543116211891174, 
        0.046114031225442886, 
        0.13720236718654633, 
        -0.49790695309638977, 
        0.19846060872077942, 
        -0.5137975811958313, 
        0.11095962673425674, 
        -0.3413350582122803, 
        0.04250891134142876, 
        -0.34914660453796387, 
        -0.48890912532806396, 
        0.28980398178100586, 
        0.10303310304880142, 
        -0.20255517959594727, 
        0.26184648275375366, 
        0.12830504775047302, 
        -0.17736463248729706, 
        -0.6429914832115173, 
        0.4931428134441376, 
        0.12310103327035904, 
        0.4732677638530731, 
        -0.40070751309394836, 
        -0.44809502363204956, 
        -0.6316814422607422, 
        0.0638095960021019, 
        0.12389884144067764, 
        -0.5572887659072876, 
        0.341998428106308, 
        -0.2232343852519989, 
        -0.42358848452568054, 
        0.2863392233848572, 
        -0.6608389019966125, 
        -0.1327734738588333, 
        -0.20663022994995117, 
        -0.5501443147659302, 
        0.21300733089447021, 
        -0.7275397777557373, 
        0.506696879863739, 
        -0.3914893567562103, 
        -0.6974606513977051, 
        0.21005626022815704, 
        0.468902587890625, 
        0.14889676868915558, 
        -0.6940889954566956, 
        0.6729360222816467, 
        0.4594484567642212, 
        0.42752063274383545, 
        -0.5672508478164673, 
        0.7964120507240295, 
        -0.27019616961479187, 
        -0.2729484438896179, 
        0.12043839693069458, 
        -0.33623868227005005, 
        -0.32840651273727417, 
        0.5998745560646057, 
        -0.13639216125011444, 
        -0.0030746846459805965, 
        -0.022703032940626144, 
        0.630487322807312, 
        -0.04988306760787964, 
        -0.7067033052444458, 
        -0.15807344019412994, 
        -0.05773729458451271, 
        0.25386008620262146, 
        0.06512720137834549, 
        0.6444414854049683, 
        -0.4971713721752167, 
        0.5644309520721436, 
        0.5824714303016663, 
        -0.4616958498954773, 
        0.20064383745193481, 
        0.6850197911262512, 
        -0.7397739887237549, 
        0.06474568694829941, 
        -0.18351587653160095, 
        -0.38940685987472534, 
        0.10985390841960907, 
        0.3276863694190979, 
        -0.3310582637786865, 
        -0.701579213142395, 
        -0.20748145878314972, 
        -0.5785171985626221, 
        0.2790810465812683, 
        -0.18049949407577515, 
        0.4143429696559906, 
        0.3501259386539459, 
        0.32986313104629517, 
        -0.06746002286672592, 
        0.23666846752166748, 
        -0.14727725088596344, 
        0.7813001275062561, 
        -0.5923892855644226, 
        -0.6192502975463867, 
        -0.7185003161430359, 
        0.41139185428619385, 
        0.09388801455497742, 
        0.35882070660591125, 
        0.47182223200798035, 
        0.3488282859325409, 
        0.32948675751686096, 
        -0.23786072432994843, 
        0.5617552399635315, 
        -0.35480162501335144, 
        0.4608851671218872, 
        -0.2055235654115677, 
        0.4498431086540222, 
        0.16999433934688568, 
        0.10208448767662048, 
        -0.5040088891983032, 
        -0.29855382442474365, 
        -0.3627506494522095, 
        0.46862366795539856, 
        0.030209103599190712, 
        0.5125822424888611, 
        -0.36094149947166443, 
        -0.39031338691711426, 
        0.5051431655883789, 
        0.23125919699668884, 
        -0.621045708656311, 
        0.9525023102760315, 
        -0.5726509094238281, 
        -0.1787952035665512, 
        0.18662403523921967, 
        0.5694566965103149, 
        -0.6529977917671204, 
        -0.2790224552154541, 
        0.2628178298473358, 
        0.12825362384319305, 
        -0.6916679739952087, 
        0.19584642350673676, 
        -0.6020452976226807, 
        0.5946395993232727, 
        -0.2163814753293991, 
        0.6717423796653748, 
        -0.7635603547096252, 
        0.03301524370908737, 
        0.21207047998905182, 
        0.05815058946609497, 
        -0.32610824704170227, 
        0.00012492550013121217, 
        -0.5099588632583618, 
        -0.07044290006160736, 
        0.7290675640106201, 
        0.7144580483436584, 
        -0.6881624460220337, 
        -0.5344165563583374, 
        0.02999499998986721, 
        0.15297801792621613, 
        -0.6548216938972473, 
        -0.5546749234199524, 
        -0.4940028786659241, 
        0.4752366840839386, 
        -0.21429000794887543, 
        -0.36978429555892944, 
        -0.2413838505744934, 
        -0.265102744102478, 
        0.05068918690085411, 
        -0.009030457586050034, 
        -0.15897953510284424, 
        -0.17908474802970886, 
        0.006517275236546993, 
        -0.4807892143726349, 
        0.5253584980964661, 
        -0.6574081182479858, 
        0.5032598376274109, 
        0.3551100194454193, 
        -0.16338631510734558, 
        -0.06425030529499054, 
        -0.06417731195688248, 
        -0.23656508326530457, 
        -0.5061589479446411, 
        0.5047081708908081, 
        -0.06468423455953598, 
        -0.163016214966774, 
        0.21113866567611694, 
        0.04994487762451172, 
        0.3465290665626526, 
        0.18862803280353546, 
        0.1116064190864563, 
        -0.07235785573720932, 
        0.567964494228363, 
        0.6497055292129517, 
        -0.3908745348453522, 
        0.4190577566623688, 
        0.4798957109451294, 
        -0.5731507539749146, 
        0.4616135358810425, 
        0.20978578925132751, 
        0.4945712387561798, 
        0.25812482833862305, 
        0.3587513864040375, 
        0.629692554473877, 
        -0.013575672172009945, 
        0.503771960735321, 
        -0.25259700417518616, 
        -0.1450311243534088, 
        0.3676726818084717, 
        -0.33315199613571167, 
        0.03688712790608406, 
        0.2963811159133911, 
        0.5515239834785461, 
        -0.4147503077983856, 
        -0.010325681418180466, 
        -0.6218410730361938, 
        0.4424714148044586, 
        -0.5588029026985168, 
        0.4318349063396454, 
        -0.08635200560092926, 
        0.33065009117126465, 
        0.6585382223129272, 
        0.10206753015518188, 
        0.00926823727786541, 
        0.5172736048698425, 
        -0.05163230001926422, 
        0.23062703013420105, 
        0.3619784414768219, 
        -0.13171064853668213, 
        0.6458138823509216, 
        0.540478527545929, 
        -0.7521860003471375, 
        -0.36773768067359924, 
        -0.39802369475364685, 
        0.006232461426407099, 
        -0.3943588137626648, 
        -0.2790442109107971, 
        0.7133428454399109, 
        0.8137121200561523, 
        0.511196494102478, 
        0.7179610729217529, 
        0.07927818596363068, 
        0.5474473834037781, 
        0.42708998918533325, 
        0.7949652075767517, 
        0.16673415899276733, 
        -0.6264932751655579, 
        0.28553611040115356, 
        0.11321226507425308, 
        -0.48583927750587463, 
        0.6213586926460266, 
        0.06151821091771126, 
        0.34461256861686707, 
        -0.14867746829986572, 
        0.4771323502063751, 
        -0.11433850973844528, 
        0.44831523299217224, 
        0.006627555470913649, 
        0.46143946051597595, 
        0.46451711654663086, 
        -0.38273489475250244, 
        -0.35018762946128845, 
        0.4802718162536621, 
        0.45953044295310974, 
        -0.5100453495979309, 
        -0.18269945681095123, 
        0.1870126873254776, 
        -0.1781332939863205, 
        -0.17936086654663086, 
        -0.18746621906757355, 
        -0.21270762383937836, 
        -0.2221146523952484, 
        0.02328273095190525, 
        0.1209491714835167, 
        0.33633652329444885, 
        -0.24498359858989716, 
        0.16202512383460999, 
        0.7738572955131531, 
        0.628588855266571, 
        -0.6720499992370605, 
        0.07898232340812683, 
        -0.008136216551065445, 
        0.46316635608673096, 
        -0.3986399471759796, 
        -0.28457704186439514, 
        0.54945969581604, 
        -0.7975354790687561, 
        0.40779924392700195, 
        -0.3088599145412445, 
        -0.18888814747333527, 
        0.577653169631958, 
        -0.6880348920822144, 
        -0.5549554228782654, 
        -0.5508956909179688, 
        0.1073186844587326, 
        -0.49306875467300415, 
        -0.5651834011077881, 
        0.12030403316020966, 
        0.004024218302220106, 
        -0.577849805355072, 
        -0.34946712851524353, 
        -0.002744018565863371, 
        -0.3275756537914276, 
        -0.17023184895515442, 
        -0.33351409435272217, 
        0.5142945051193237, 
        -0.41703087091445923, 
        -0.45925599336624146, 
        -0.5975778698921204, 
        -0.33784401416778564, 
        0.2831580936908722, 
        -0.30604931712150574, 
        0.3603915572166443, 
        -0.135306254029274, 
        0.0878109559416771, 
        0.008480618707835674, 
        0.06404934823513031, 
        -0.4978030323982239, 
        0.41383156180381775, 
        0.5647703409194946, 
        0.6129885315895081, 
        0.014249050989747047, 
        -0.47103747725486755, 
        -0.3066531717777252, 
        0.3310071527957916, 
        -0.6809089779853821, 
        -0.19331733882427216, 
        0.35927948355674744, 
        0.5256820321083069, 
        0.4441136419773102, 
        0.6805745959281921, 
        -0.6280435919761658, 
        -0.6412426829338074, 
        -0.2534126043319702, 
        -0.7669717073440552, 
        -0.057107601314783096, 
        -0.6662442684173584, 
        -0.029994048178195953, 
        0.6385413408279419, 
        -0.29250675439834595, 
        0.30212995409965515, 
        0.5043477416038513, 
        0.5541467666625977, 
        0.3419269621372223, 
        -0.49665793776512146, 
        -0.40009835362434387, 
        -0.8720747232437134, 
        0.5844290852546692, 
        -0.29761576652526855, 
        0.05909527838230133, 
        0.6878157258033752, 
        -0.34502074122428894, 
        -0.08537977188825607, 
        -0.2942850887775421, 
        -0.12032661586999893, 
        -0.687252938747406, 
        -0.4048684239387512, 
        -0.09516949951648712, 
        0.375753790140152, 
        -0.062259141355752945, 
        -0.6453519463539124, 
        0.08198679238557816, 
        0.3170742988586426, 
        0.4491453766822815, 
        0.5652068257331848, 
        -0.08596020191907883, 
        0.0123291639611125, 
        -0.024038581177592278, 
        -0.5061132311820984, 
        -0.29064151644706726, 
        -0.5341270565986633, 
        -0.7335001826286316, 
        -0.02564838156104088, 
        0.5345412492752075, 
        -0.45149773359298706, 
        -0.4233245253562927, 
        -0.6486435532569885, 
        0.6115168333053589, 
        -0.6400646567344666, 
        0.0891602411866188, 
        -0.03769983351230621, 
        0.6438629627227783, 
        0.026358287781476974, 
        -0.3030881881713867, 
        0.19693779945373535, 
        0.5629425048828125, 
        0.8006036877632141, 
        -0.03496786579489708, 
        -0.3224893808364868, 
        -0.3449034094810486, 
        0.656079113483429, 
        0.645325243473053, 
        -0.5984513759613037, 
        0.34103965759277344, 
        0.23591288924217224, 
        -0.39709973335266113, 
        0.28682711720466614, 
        -0.08264415711164474, 
        0.0664808601140976, 
        -0.6091432571411133, 
        -0.38131681084632874, 
        0.3004138767719269, 
        0.527697741985321, 
        0.8077794909477234, 
        0.5047124028205872, 
        0.7445351481437683, 
        -0.32956254482269287, 
        -0.010647439397871494, 
        0.10907705873250961, 
        0.612882673740387, 
        0.2657596468925476, 
        0.5688483715057373, 
        -0.7015480995178223, 
        -0.181433767080307, 
        0.6581918597221375, 
        0.02295074798166752, 
        -0.21964812278747559, 
        -0.12237881124019623, 
        -0.228245809674263, 
        -0.42737483978271484, 
        0.033611051738262177, 
        -0.01432775054126978, 
        0.016830163076519966, 
        -0.05134303867816925, 
        -0.42168232798576355, 
        -0.599582850933075, 
        0.07531306892633438, 
        -0.3486297130584717, 
        -0.2514691650867462, 
        -0.3379567861557007, 
        0.250031441450119, 
        -0.3996385633945465, 
        0.1311981976032257, 
        0.687457799911499, 
        0.3365834951400757, 
        -0.1414254903793335, 
        0.3368006944656372, 
        0.18132877349853516, 
        0.1771777868270874, 
        0.47631001472473145, 
        -0.02551109530031681, 
        0.030659710988402367, 
        0.7786551117897034, 
        0.5264726877212524, 
        -0.4244254529476166, 
        0.07671979069709778, 
        0.5291975140571594, 
        -0.18913762271404266, 
        -0.11320693045854568, 
        -0.12603235244750977, 
        -0.5726432800292969, 
        0.18443511426448822, 
        0.18123114109039307, 
        0.7436845898628235, 
        0.08109894394874573, 
        -0.5124371647834778, 
        -0.20208080112934113, 
        -0.4086877107620239, 
        0.25218573212623596, 
        0.4417375922203064, 
        0.05665905028581619, 
        0.2551904618740082, 
        0.06376931071281433, 
        -0.558858335018158, 
        0.3052174150943756, 
        0.2922733426094055, 
        -0.43734613060951233, 
        -0.4890885353088379, 
        0.7581083178520203, 
        0.5315282344818115, 
        -0.2872089743614197, 
        -0.025417441502213478, 
        0.7359136343002319, 
        0.2882087230682373, 
        0.3139236569404602, 
        0.17972005903720856, 
        0.18496453762054443, 
        0.42347851395606995, 
        -0.43740198016166687, 
        0.009848454967141151, 
        -0.2881602942943573, 
        -0.24602065980434418, 
        -0.23090341687202454, 
        0.14653673768043518, 
        0.23013028502464294, 
        -0.4157640337944031, 
        0.7286779880523682, 
        0.5261088013648987, 
        0.0005428424337878823, 
        0.0759669691324234, 
        -0.5515538454055786, 
        0.42464494705200195, 
        -0.0939667597413063, 
        -0.6997771263122559, 
        -0.05601413920521736, 
        -0.47700855135917664, 
        0.3837108910083771, 
        -0.5434657335281372, 
        0.07785461843013763, 
        -0.3194659650325775, 
        -0.22271399199962616, 
        0.5886983871459961, 
        0.19726166129112244, 
        -0.13143135607242584, 
        -0.3453197777271271, 
        -0.4966384172439575, 
        0.021658120676875114, 
        0.41289275884628296, 
        0.7827164530754089, 
        -0.4590202867984772, 
        0.1437891125679016, 
        -0.23876813054084778, 
        0.6887333393096924, 
        0.13499481976032257, 
        -0.3246506154537201, 
        -0.12742161750793457, 
        -0.6743325591087341, 
        -0.3766498267650604, 
        0.6735857129096985, 
        -0.12026038020849228, 
        0.1516309678554535, 
        -0.8222023844718933, 
        -0.07602204382419586, 
        0.5022353529930115, 
        0.19984962046146393, 
        0.4802895486354828, 
        -0.4855513572692871, 
        -0.30463770031929016, 
        0.46831250190734863, 
        0.0045585110783576965, 
        0.5718865990638733, 
        -0.3055827021598816, 
        -0.2381373941898346, 
        0.0782659724354744, 
        0.03181692957878113, 
        0.5309703350067139, 
        -0.3056413233280182, 
        -0.07291946560144424, 
        -0.37770891189575195, 
        0.3237210512161255, 
        -0.2176690548658371, 
        -0.031434208154678345, 
        0.17548871040344238, 
        0.5644874572753906, 
        0.24945193529129028, 
        -0.5938332676887512, 
        -0.4760570526123047, 
        0.2102920413017273, 
        0.33639761805534363, 
        0.6498844623565674, 
        0.2789462208747864, 
        -0.06906921416521072, 
        0.4549412727355957, 
        0.5399549603462219, 
        -0.11023878306150436, 
        -0.11629404127597809, 
        0.326974093914032, 
        -0.11170624196529388, 
        0.1370956301689148, 
        -0.06370525807142258, 
        -0.328102171421051, 
        -0.4846577048301697, 
        -0.13301970064640045, 
        0.10133852809667587, 
        0.5431392192840576, 
        -0.7884280681610107, 
        0.16050009429454803, 
        0.44505560398101807, 
        0.40014639496803284, 
        -0.39500346779823303, 
        0.18119117617607117, 
        0.684445321559906, 
        -0.2924007177352905, 
        0.19775718450546265, 
        0.1233585923910141, 
        0.2528519332408905, 
        -0.2913731038570404, 
        0.3002683222293854, 
        -0.1442040652036667, 
        -0.10288174450397491, 
        -0.5676089525222778, 
        -0.09230644255876541, 
        0.45944392681121826, 
        0.23807188868522644, 
        0.5829541087150574, 
        0.5294588208198547, 
        0.0665542259812355, 
        0.6408877968788147, 
        0.4718187153339386, 
        0.015967372804880142, 
        0.5751453638076782, 
        -0.05850962921977043, 
        0.7284618020057678, 
        0.0210050530731678, 
        0.39056655764579773, 
        -0.29853367805480957, 
        0.09603200107812881, 
        0.5069400072097778, 
        -0.7068928480148315, 
        -0.2051660418510437, 
        0.039735883474349976, 
        -0.3110392987728119, 
        -0.44899871945381165, 
        0.16181741654872894, 
        -0.7377979755401611, 
        -0.5592732429504395, 
        -0.7724286913871765, 
        -0.5335651636123657, 
        -0.29474514722824097, 
        0.5600481629371643, 
        -0.47573399543762207, 
        -0.7221049070358276, 
        0.46634364128112793, 
        -0.7405587434768677, 
        -0.07092973589897156, 
        -0.6086286902427673, 
        -0.5724526643753052, 
        -0.11857300251722336, 
        0.40535470843315125, 
        -0.3861747682094574, 
        -0.42702093720436096, 
        0.7477233409881592, 
        0.0049574668519198895, 
        -0.0001116784114856273, 
        0.009463867172598839, 
        -0.6568017601966858, 
        -0.19217057526111603, 
        -0.2355545312166214, 
        0.24421793222427368, 
        -0.2890678346157074, 
        0.134407177567482, 
        -0.4373052418231964, 
        -0.3265698552131653, 
        0.4636686146259308, 
        0.6720435619354248, 
        0.2727096974849701, 
        -0.5384252071380615, 
        0.2824805676937103, 
        0.661987841129303, 
        0.6396542191505432, 
        0.054208219051361084, 
        0.1365411877632141, 
        -0.7316917181015015, 
        0.30689287185668945, 
        -0.3525324761867523, 
        0.48957112431526184, 
        0.6019968390464783, 
        -0.472594678401947, 
        0.19240902364253998, 
        0.6739326119422913, 
        0.6337978839874268, 
        -0.09670710563659668, 
        0.05602579191327095, 
        0.35050177574157715, 
        -0.29806339740753174, 
        0.3448496162891388, 
        0.17480309307575226, 
        0.19522146880626678, 
        -0.46610027551651, 
        -0.4593642055988312, 
        0.5719923973083496, 
        0.41002142429351807, 
        0.19970569014549255, 
        -0.25028252601623535, 
        0.6454623937606812, 
        -0.37419822812080383, 
        0.6229961514472961, 
        -0.6409923434257507, 
        -0.7420719265937805, 
        0.4163358509540558, 
        -0.5901221036911011, 
        0.07670190185308456, 
        0.6825644373893738, 
        -0.23748713731765747, 
        -0.658033549785614, 
        0.5580962300300598, 
        0.059213120490312576, 
        -0.43908384442329407, 
        -0.6641455888748169, 
        -0.21252958476543427, 
        -0.6213704943656921, 
        -0.2021312117576599, 
        -0.40838462114334106, 
        -0.24458560347557068, 
        0.6102281808853149, 
        0.6751283407211304, 
        -0.053865738213062286, 
        0.1798640787601471, 
        -0.10651837289333344, 
        -0.14315718412399292, 
        0.16225288808345795, 
        -0.33695611357688904, 
        -0.23494863510131836, 
        -0.15976738929748535, 
        -0.4626162648200989, 
        -0.7394134402275085, 
        -0.23066239058971405, 
        -0.5912220478057861, 
        0.44619283080101013, 
        -0.08027733117341995, 
        -0.5158706307411194, 
        -0.8850084543228149, 
        -0.5252698063850403, 
        0.5226973295211792, 
        -0.48909151554107666, 
        0.2794170379638672, 
        -0.041480619460344315, 
        -0.08474698662757874, 
        0.5348619222640991, 
        -0.3787332773208618, 
        0.7197182178497314, 
        -0.41554853320121765, 
        0.49475282430648804, 
        0.47853589057922363, 
        -0.3033364415168762, 
        -0.3717861473560333, 
        -0.30867403745651245, 
        -0.04720225930213928, 
