{
  "input_sequences": [], 
  "inputs": [
    {
      "name": "node_0", 
      "variables": [
        {
          "name": "variable_0", 
          "offset": 0, 
          "scale": 1
        }, 
        {
          "name": "variable_1", 
          "offset": 0, 
          "scale": 1
        }, 
        {
          "name": "variable_2", 
          "offset": 0, 
          "scale": 1
        }, 
        {
          "name": "variable_3", 
          "offset": 0, 
          "scale": 1
        }, 
        {
          "name": "variable_4", 
          "offset": 0, 
          "scale": 1
        }, 
        {
          "name": "variable_5", 
          "offset": 0, 
          "scale": 1
        }, 
        {
          "name": "variable_6", 
          "offset": 0, 
          "scale": 1
        }, 
        {
          "name": "variable_7", 
          "offset": 0, 
          "scale": 1
        }, 
        {
          "name": "variable_8", 
          "offset": 0, 
          "scale": 1
        }, 
        {
          "name": "variable_9", 
          "offset": 0, 
          "scale": 1
        }, 
        {
          "name": "variable_10", 
          "offset": 0, 
          "scale": 1
        }, 
        {
          "name": "variable_11", 
          "offset": 0, 
          "scale": 1
        }
      ]
    }
  ], 
  "layers": [
    {
      "architecture": "normalization", 
      "bias": [
        -1314689.25, 
        -262136.671875, 
        -0.1445651799440384, 
        -1.5792924165725708, 
        -2.888112783432007, 
        -0.5267306566238403, 
        -6.037771701812744, 
        -3.558244228363037, 
        -4.299466609954834, 
        -0.8484856486320496, 
        -8.960293769836426, 
        -2.5813088417053223
      ], 
      "weights": [
        1.8097434804076329e-06, 
        1.0864632713492028e-05, 
        7.896945476531982, 
        0.9314994812011719, 
        2.709045648574829, 
        4.66492223739624, 
        0.5849356055259705, 
        0.3388819098472595, 
        0.3617393672466278, 
        2.11095929145813, 
        0.10798506438732147, 
        0.16260555386543274
      ]
    }, 
    {
      "activation": "rectified", 
      "architecture": "dense", 
      "bias": [
        -0.07121671736240387, 
        0.04716594144701958, 
        0.06681769341230392, 
        0.046456996351480484, 
        0.0866917222738266, 
        0.009602036327123642, 
        0.10047207027673721, 
        -0.03046536259353161, 
        0.09090039879083633, 
        -0.024006308987736702, 
        0.03440720587968826, 
        0.1244034692645073, 
        -0.02290397882461548, 
        -0.10220640897750854, 
        -0.09552685916423798, 
        0.062272850424051285, 
        0.058688562363386154, 
        0.057128336280584335, 
        -0.016788871958851814, 
        -0.052835918962955475, 
        0.047407228499650955, 
        -0.09273757040500641, 
        -0.1952337920665741, 
        0.03451843932271004, 
        0.04321885481476784, 
        0.00495551060885191, 
        0.07447294890880585, 
        0.0956948846578598, 
        0.1256600022315979, 
        -0.04093487933278084, 
        -0.04108324646949768, 
        -0.02624431438744068, 
        0.02332485467195511, 
        0.10467904061079025, 
        0.0632236897945404, 
        0.08648968487977982, 
        -0.05804231017827988, 
        0.061737895011901855, 
        0.07516024261713028, 
        0.01983683556318283, 
        0.08268866688013077, 
        0.0838928371667862, 
        0.03199268504977226, 
        -0.04572533071041107, 
        -0.03476230427622795, 
        -0.11498585343360901, 
        -0.03562687337398529, 
        0.10730940103530884, 
        -0.03093264065682888, 
        0.0659894272685051, 
        -0.05598199740052223, 
        -0.019520487636327744, 
        0.06520211696624756, 
        0.1439816802740097, 
        -0.018576184287667274, 
        0.0041312724351882935, 
        0.057218778878450394, 
        0.06630107015371323, 
        0.12857377529144287, 
        0.12028004974126816, 
        -0.03942842409014702, 
        0.09920269250869751, 
        0.24646905064582825, 
        -0.04481742903590202, 
        -0.064740389585495, 
        -0.01783965900540352, 
        -0.0880315825343132, 
        -0.0230859462171793, 
        -0.04856161028146744, 
        0.06424220651388168, 
        -0.1255374550819397, 
        0.04836457967758179, 
        0.13130131363868713, 
        0.0527263768017292, 
        0.20423360168933868, 
        0.048540133982896805, 
        0.04190608859062195, 
        -0.022317910566926003, 
        -0.09106951951980591, 
        0.006649789400398731, 
        -0.039194539189338684, 
        0.14442875981330872, 
        0.015624354593455791, 
        0.08182236552238464, 
        0.010150608606636524, 
        0.033465225249528885, 
        0.01276307925581932, 
        0.11084992438554764, 
        -0.055684592574834824, 
        0.0875774696469307, 
        0.1087789461016655, 
        -0.1137004941701889, 
        0.08728928864002228, 
        -0.04265743866562843, 
        0.08749718219041824, 
        0.06692695617675781, 
        -0.02101369947195053, 
        -0.04045910760760307, 
        0.10558218508958817, 
        0.003134871367365122, 
        -0.0594109371304512, 
        0.00906783901154995, 
        0.01451041828840971, 
        0.10118287801742554, 
        -0.019448859617114067, 
        0.12026125192642212, 
        0.09105633944272995, 
        -0.024321436882019043, 
        0.04142951965332031, 
        0.026604460552334785, 
        0.10507237911224365, 
        0.028243929147720337, 
        -0.13165833055973053, 
        0.16269655525684357, 
        0.009473904967308044, 
        0.055339936167001724, 
        0.165198415517807, 
        -0.06969546526670456, 
        0.057706400752067566, 
        0.037509460002183914, 
        -0.07258795946836472, 
        0.04769505560398102, 
        0.025453336536884308, 
        0.006482541561126709, 
        0.05306389555335045, 
        0.09642234444618225, 
        -0.03707513213157654, 
        0.159995898604393, 
        -0.052971821278333664, 
        -0.010066564194858074, 
        -0.014136601239442825, 
        0.13309037685394287, 
        -0.034513819962739944, 
        0.04800755903124809, 
        0.13567595183849335, 
        -0.016043825075030327, 
        -0.17019380629062653, 
        -0.031140292063355446, 
        -0.11580564081668854, 
        -0.013139457441866398, 
        0.03394808992743492, 
        0.0903603732585907, 
        0.09655465185642242, 
        0.003860228694975376, 
        0.06826921552419662, 
        -0.0026917709037661552, 
        0.08799897134304047, 
        0.09912697970867157, 
        0.049875229597091675, 
        0.1409982293844223, 
        -0.0652199313044548, 
        -0.05222950875759125, 
        -0.07346764206886292, 
        0.014261714182794094, 
        0.032343462109565735, 
        0.05348693206906319, 
        -0.006254294421523809, 
        0.08364210277795792, 
        0.0697302296757698, 
        0.10534664988517761, 
        0.07782746851444244, 
        0.10356400161981583, 
        -0.03996247425675392, 
        0.14471197128295898, 
        0.08762451261281967, 
        -0.08256712555885315, 
        0.0864214301109314, 
        -0.0843193382024765, 
        0.14987418055534363, 
        0.02191733941435814, 
        0.058243535459041595, 
        0.0029853200539946556, 
        0.20638957619667053, 
        0.09048732370138168, 
        -0.03438679128885269, 
        -0.07636386156082153, 
        -0.05455518513917923, 
        -0.05165393278002739, 
        0.1293076127767563, 
        0.18466192483901978, 
        -0.08287836611270905, 
        -0.033277206122875214, 
        0.08934558928012848, 
        -0.03149592876434326, 
        0.031386226415634155, 
        0.04872876778244972, 
        0.07678502798080444, 
        0.07272648811340332, 
        0.18331947922706604, 
        -0.013118893839418888, 
        -0.022563785314559937, 
        0.0710095539689064, 
        0.13065549731254578, 
        -0.01601269654929638, 
        -0.008508029393851757, 
        0.11777213215827942, 
        0.09365282952785492, 
        -0.031198402866721153, 
        -0.0004493451560847461, 
        0.05759848281741142, 
        0.09787927567958832, 
        -0.030373528599739075, 
        0.05507199466228485, 
        0.07151074707508087, 
        0.0999927967786789, 
        0.06517009437084198, 
        -0.11455536633729935, 
        0.025924893096089363, 
        0.030187495052814484, 
        0.03099740669131279, 
        0.040849581360816956, 
        -0.06651683151721954, 
        -0.03638828545808792, 
        -0.04338124021887779, 
        0.13186173141002655, 
        -0.03712863847613335, 
        0.04895341768860817, 
        0.05848130211234093, 
        -0.002290744334459305, 
        -0.023290693759918213, 
        0.1963309645652771, 
        0.07935098558664322, 
        0.1017608717083931, 
        -0.007243468426167965, 
        0.0070594679564237595, 
        0.06890709698200226, 
        0.1995488852262497, 
        -0.031114935874938965, 
        -0.08475004136562347, 
        0.03780989348888397, 
        -0.0037223820108920336, 
        -0.06339248269796371, 
        0.12833042442798615, 
        0.116233229637146, 
        0.042611490935087204, 
        0.06479261070489883, 
        0.03509813919663429, 
        0.0992630273103714, 
        0.05559241771697998, 
        0.05219559371471405, 
        0.0006767401355318725, 
        0.11830860376358032, 
        -0.04664839431643486, 
        -0.03433363139629364, 
        0.07694488018751144, 
        0.10417041182518005, 
        -0.08535534888505936, 
        -0.016076110303401947, 
        -0.10181418806314468, 
        -0.03618135303258896, 
        -0.06342276930809021, 
        0.1008453220129013, 
        0.09341904520988464, 
        -0.04059166461229324, 
        -0.05153150483965874, 
        0.021106744185090065
      ], 
      "weights": [
        -0.46849536895751953, 
        -0.012431965209543705, 
        -0.31458234786987305, 
        -0.5216979384422302, 
        0.19416549801826477, 
        -0.22455547749996185, 
        0.2604901194572449, 
        -0.7733921408653259, 
        -0.06716781854629517, 
        -0.06649314612150192, 
        0.3805757462978363, 
        0.164475217461586, 
        -0.6845470070838928, 
        0.3280288279056549, 
        0.31954532861709595, 
        0.00836638081818819, 
        0.4071301519870758, 
        0.38329532742500305, 
        -0.5747042894363403, 
        0.6017118096351624, 
        -0.4540065824985504, 
        0.28787896037101746, 
        -0.45151224732398987, 
        0.13096900284290314, 
        -0.0004850042168982327, 
        0.4258367121219635, 
        -0.24314852058887482, 
        0.3302157521247864, 
        -0.5686109066009521, 
        -0.2662738859653473, 
        -0.3620980679988861, 
        -0.28888562321662903, 
        0.3858436644077301, 
        0.030291061848402023, 
        0.45158663392066956, 
        -0.6173783540725708, 
        0.28993961215019226, 
        -0.6819268465042114, 
        -0.6988293528556824, 
        0.055295538157224655, 
        0.4129500091075897, 
        -0.41556644439697266, 
        0.5657662153244019, 
        -0.323322594165802, 
        0.32980218529701233, 
        0.19446896016597748, 
        -0.06487085670232773, 
        0.5149939060211182, 
        0.6113430857658386, 
        0.6682699918746948, 
        0.43618205189704895, 
        -0.4404008090496063, 
        0.3215860426425934, 
        -0.40253913402557373, 
        -0.5874167680740356, 
        0.281039297580719, 
        -0.5711876153945923, 
        0.20316095650196075, 
        0.16504964232444763, 
        0.08561035245656967, 
        -0.7902921438217163, 
        -0.5531357526779175, 
        0.691868007183075, 
        -0.3864322006702423, 
        0.4303221106529236, 
        -0.5318214297294617, 
        -0.48799896240234375, 
        0.5132613778114319, 
        -0.6803089380264282, 
        -0.38120245933532715, 
        0.3590792417526245, 
        0.752892792224884, 
        -0.2579590678215027, 
        0.3634064495563507, 
        -0.3597235679626465, 
        0.4275214374065399, 
        -0.13767477869987488, 
        -0.30494365096092224, 
        -0.5902156829833984, 
        -0.09605808556079865, 
        -0.7034158706665039, 
        0.0033014118671417236, 
        -0.6505192518234253, 
        0.31665387749671936, 
        0.1600533425807953, 
        0.06655368208885193, 
        0.348347932100296, 
        0.7589151263237, 
        0.44947725534439087, 
        -0.0129933450371027, 
        0.40320202708244324, 
        -0.3990320563316345, 
        0.43503862619400024, 
        0.5145947337150574, 
        -0.6011262536048889, 
        0.37646475434303284, 
        -0.18761298060417175, 
        -0.08347070217132568, 
        0.5716679692268372, 
        0.4345565438270569, 
        -0.724250853061676, 
        0.504389762878418, 
        -0.44965651631355286, 
        -0.2867777347564697, 
        0.22717174887657166, 
        -0.2717539072036743, 
        0.5647913813591003, 
        0.4220917522907257, 
        0.6433395147323608, 
        -0.28679245710372925, 
        0.45906150341033936, 
        0.35378414392471313, 
        0.655789315700531, 
        -0.4928078353404999, 
        -0.6675757765769958, 
        0.4706074595451355, 
        0.349231094121933, 
        0.22223040461540222, 
        0.27832114696502686, 
        0.1717635691165924, 
        0.6194434762001038, 
        -0.49140405654907227, 
        -0.1761309951543808, 
        -0.020705658942461014, 
        -0.35723286867141724, 
        0.06466112285852432, 
        0.1790490597486496, 
        0.4035627841949463, 
        0.11292058974504471, 
        -0.34615999460220337, 
        -0.7165836095809937, 
        -0.6778871417045593, 
        -0.2005012035369873, 
        0.19011737406253815, 
        -0.3167894184589386, 
        0.39022156596183777, 
        0.17810723185539246, 
        0.19873970746994019, 
        -0.00011540848936419934, 
        0.09954668581485748, 
        -0.4923986792564392, 
        -0.23386959731578827, 
        0.6250033974647522, 
        0.4894830882549286, 
        -0.160386860370636, 
        -0.20520392060279846, 
        0.6206024885177612, 
        -0.40598759055137634, 
        -0.3548687696456909, 
        0.9144253134727478, 
        0.02492186427116394, 
        -0.22224490344524384, 
        -0.007675849366933107, 
        0.07896517962217331, 
        -0.06658533215522766, 
        0.30553802847862244, 
        -0.44816794991493225, 
        -0.6967917680740356, 
        0.5726734399795532, 
        0.16281050443649292, 
        0.375554621219635, 
        0.1253223717212677, 
        -0.19891425967216492, 
        -0.5780615210533142, 
        -0.722449004650116, 
        -0.18954432010650635, 
        -0.3652593493461609, 
        -0.1867431104183197, 
        -0.10542815923690796, 
        -0.6137613654136658, 
        0.22114677727222443, 
        0.05822072923183441, 
        0.46748408675193787, 
        0.5781428813934326, 
        -0.58962482213974, 
        -0.04992777481675148, 
        -0.40259191393852234, 
        -0.15149864554405212, 
        -0.620295524597168, 
        0.19822068512439728, 
        -0.6959845423698425, 
        -0.05479966476559639, 
        0.4279654920101166, 
        -0.28074589371681213, 
        -0.582895040512085, 
        -0.10774720460176468, 
        0.5301889777183533, 
        -0.3048916459083557, 
        0.057784318923950195, 
        0.6703763008117676, 
        0.5319705009460449, 
        0.6180238723754883, 
        -0.1276109367609024, 
        -0.36019662022590637, 
        0.4822603166103363, 
        -0.31823351979255676, 
        -0.2876754701137543, 
        -0.5262591242790222, 
        -0.31546223163604736, 
        0.4233812093734741, 
        -0.08092240244150162, 
        -0.5071282386779785, 
        0.5779051184654236, 
        -0.6161584258079529, 
        -0.5949432253837585, 
        -0.04514823108911514, 
        -0.47583699226379395, 
        -0.6189194917678833, 
        -0.06192414090037346, 
        0.17638100683689117, 
        0.47996777296066284, 
        -0.6150638461112976, 
        -0.37589231133461, 
        -0.3105168044567108, 
        0.6299200654029846, 
        0.3172374367713928, 
        0.34275662899017334, 
        -0.2779761850833893, 
        -0.47732582688331604, 
        0.09974487870931625, 
        0.31002819538116455, 
        0.3693559169769287, 
        0.6408030986785889, 
        -0.07680625468492508, 
        0.4081292450428009, 
        -0.055296219885349274, 
        0.4958987534046173, 
        -0.024036334827542305, 
        0.4865551292896271, 
        0.6575124859809875, 
        -0.5649889707565308, 
        -0.3583524227142334, 
        -0.20104198157787323, 
        0.0707596093416214, 
        0.6018326878547668, 
        -0.17503933608531952, 
        -0.21447154879570007, 
        -0.12536278367042542, 
        0.057015158236026764, 
        -0.15848039090633392, 
        -0.24190713465213776, 
        0.01305063534528017, 
        -0.6503702998161316, 
        0.5585778951644897, 
        0.5981731414794922, 
        0.13152576982975006, 
        -0.4462607800960541, 
        0.33239129185676575, 
        -0.07608981430530548, 
        -0.1625123769044876, 
        0.22894170880317688, 
        -0.2471025437116623, 
        0.04962370544672012, 
        0.3952891528606415, 
        0.2843153774738312, 
        -0.526147186756134, 
        0.2396318018436432, 
        -0.2635154724121094, 
        -0.6573590636253357, 
        0.047754716128110886, 
        -0.0836305320262909, 
        -0.5570828318595886, 
        0.4634654223918915, 
        0.4803973138332367, 
        0.09294263273477554, 
        0.3358615040779114, 
        -0.46587222814559937, 
        0.7073196768760681, 
        -0.6494965553283691, 
        0.40115979313850403, 
        -0.1537901908159256, 
        0.6142287850379944, 
        -0.013208161108195782, 
        -0.40298908948898315, 
        0.280619740486145, 
        0.05375423654913902, 
        -0.023860378190875053, 
        -0.012739652767777443, 
        -0.10801967233419418, 
        0.4490484595298767, 
        -0.7071577906608582, 
        0.49698328971862793, 
        -0.2979086935520172, 
        -0.23997537791728973, 
        0.5577168464660645, 
        0.6753081679344177, 
        -0.5592613816261292, 
        -0.020115375518798828, 
        0.03970422223210335, 
        -0.011581379920244217, 
        -0.5982416272163391, 
        -0.4157463312149048, 
        -0.5949915647506714, 
        -0.2114318460226059, 
        0.0011269839014858007, 
        0.477253258228302, 
        0.01618771441280842, 
        -0.22098572552204132, 
        -0.19286568462848663, 
        -0.21299459040164948, 
        0.31976941227912903, 
        -0.7210143804550171, 
        -0.31966885924339294, 
        -0.5217807292938232, 
        0.12592053413391113, 
        0.3285929560661316, 
        -0.4907137155532837, 
        -0.28665390610694885, 
        -0.5091226100921631, 
        -0.037620771676301956, 
        -0.6927852630615234, 
        0.6442870497703552, 
        0.5826718211174011, 
        0.6521509885787964, 
        -0.2511139214038849, 
        0.10246047377586365, 
        0.41088107228279114, 
        0.20905648171901703, 
        0.6481132507324219, 
        0.5058488249778748, 
        0.6100921034812927, 
        0.23308329284191132, 
        -0.14204734563827515, 
        -0.49101710319519043, 
        -0.24924083054065704, 
        -0.2891710698604584, 
        0.30692529678344727, 
        -0.22476355731487274, 
        -0.22617794573307037, 
        -0.23299215734004974, 
        0.06733216345310211, 
        -0.6502576470375061, 
        0.3488064110279083, 
        -0.03645523637533188, 
        -0.48178961873054504, 
        -0.3312065899372101, 
        -0.4454038143157959, 
        0.6806318163871765, 
        0.17233692109584808, 
        0.6085321307182312, 
        0.5099407434463501, 
        -0.10868649184703827, 
        0.568351686000824, 
        -0.38644111156463623, 
        -0.11969293653964996, 
        -0.21351926028728485, 
        0.3175288438796997, 
        -0.5767289996147156, 
        0.38391679525375366, 
        -0.25024768710136414, 
        0.3364701569080353, 
        0.01297882478684187, 
        -0.6247491240501404, 
        0.3326379656791687, 
        -0.4701175093650818, 
        0.5869442224502563, 
        -0.5355250835418701, 
        0.7446370720863342, 
        0.4616085886955261, 
        -0.1826687902212143, 
        -0.13723811507225037, 
        0.161383718252182, 
        0.18200810253620148, 
        -0.1869334578514099, 
        0.48566365242004395, 
        -0.7073560953140259, 
        0.14920087158679962, 
        0.5832801461219788, 
        0.6660545468330383, 
        -0.3379107415676117, 
        0.6955214142799377, 
        -0.08894890546798706, 
        0.5744403004646301, 
        0.6685290336608887, 
        0.12044630199670792, 
        -0.5436908602714539, 
        0.6391094923019409, 
        -0.09288330376148224, 
        -0.1114078238606453, 
        -0.008699052035808563, 
        0.5004504919052124, 
        -0.11216072738170624, 
        0.4870697557926178, 
        0.29349151253700256, 
        -0.17547525465488434, 
        0.5958765149116516, 
        0.2860949635505676, 
        0.029170941561460495, 
        0.5193070769309998, 
        0.5970644950866699, 
        -0.25827595591545105, 
        0.520164966583252, 
        0.6757491827011108, 
        -0.15692991018295288, 
        0.36871203780174255, 
        0.5626182556152344, 
        0.3967769145965576, 
        0.19115960597991943, 
        0.3436594605445862, 
        -0.5128780603408813, 
        -0.3353705108165741, 
        -0.7350025773048401, 
        0.2233540415763855, 
        0.5357744097709656, 
        -0.2911290228366852, 
        -0.431111603975296, 
        0.46286723017692566, 
        0.776034414768219, 
        -0.5084558129310608, 
        -0.282071977853775, 
        -0.3752462863922119, 
        -0.7107362151145935, 
        0.6477116942405701, 
        0.7916775941848755, 
        0.3415396213531494, 
        0.4297158420085907, 
        -0.4652174711227417, 
        -0.5923014283180237, 
        0.14936764538288116, 
        0.16317600011825562, 
        -0.14246521890163422, 
        0.5655069351196289, 
        0.03246450424194336, 
        -0.5395929217338562, 
        0.6619634628295898, 
        0.4702679216861725, 
        -0.4163382351398468, 
        -0.4303300976753235, 
        -0.7006875276565552, 
        -0.5094486474990845, 
        -0.4659194350242615, 
        -0.3976981043815613, 
        -0.33451563119888306, 
        -0.6687188744544983, 
        -0.09597383439540863, 
        -0.6485726833343506, 
        0.8352727293968201, 
        -0.41281858086586, 
        -0.36013948917388916, 
        -0.2790108323097229, 
        -0.30823877453804016, 
        0.15306000411510468, 
        0.5736926794052124, 
        0.37099403142929077, 
        -0.5864167213439941, 
        -0.6013107299804688, 
        0.03932810574769974, 
        0.4891548752784729, 
        -0.6215339303016663, 
        -0.2501760423183441, 
        0.3463365435600281, 
        -0.5213572382926941, 
        -0.010542541742324829, 
        -0.05023655667901039, 
        -0.05793057009577751, 
        0.13283978402614594, 
        0.7065945267677307, 
        -0.27389344573020935, 
        0.10148690640926361, 
        -0.5560160279273987, 
        0.5096009373664856, 
        0.60845547914505, 
        0.6371828317642212, 
        0.590984046459198, 
        -0.12040035426616669, 
        -0.36903104186058044, 
        -0.32567232847213745, 
        0.10285056382417679, 
        0.5665068626403809, 
        0.4313752353191376, 
        -0.32148879766464233, 
        0.3199390172958374, 
        0.034948717802762985, 
        -0.6248719096183777, 
        0.48061051964759827, 
        0.679448127746582, 
        -0.5520693063735962, 
        -0.31117013096809387, 
        -0.24773801863193512, 
        -0.6540470123291016, 
        -0.46140414476394653, 
        0.1323886215686798, 
        -0.07983828336000443, 
        0.6766595840454102, 
        0.3098754286766052, 
        0.7133175730705261, 
        -0.4022080600261688, 
        -0.2931600511074066, 
        -0.4731539189815521, 
        0.033383987843990326, 
        0.324914813041687, 
        0.2153203934431076, 
        0.6080358028411865, 
        0.6986928582191467, 
        -0.5664278864860535, 
        -0.6800088286399841, 
        0.520338237285614, 
        -0.6312313079833984, 
        -0.25614121556282043, 
        -0.1663884073495865, 
        -0.6759749054908752, 
        -0.3463191092014313, 
        -0.49785712361335754, 
        -0.09623576700687408, 
        -0.5144045352935791, 
        0.21357975900173187, 
        -0.5488796830177307, 
        0.5655463933944702, 
        -0.3492358326911926, 
        -0.05212907865643501, 
        0.4094463288784027, 
        -0.049074072390794754, 
        0.4277598261833191, 
        -0.08482477068901062, 
        -0.3693528175354004, 
        0.5723981857299805, 
        -0.6344338655471802, 
        -0.10378421097993851, 
        -0.18590664863586426, 
        0.5992085337638855, 
        0.054374247789382935, 
        0.4268166124820709, 
        -0.4668551981449127, 
        -0.6871383786201477, 
        -0.19521889090538025, 
        -0.617472767829895, 
        -0.466835618019104, 
        -0.3104061186313629, 
        0.17482492327690125, 
        -0.5255925059318542, 
        0.48644334077835083, 
        -0.05301253870129585, 
        -0.5732019543647766, 
        -0.03713356330990791, 
        0.6119046807289124, 
        0.6157813668251038, 
        -0.6559455394744873, 
        0.06080011650919914, 
        -0.4124660789966583, 
        0.186841681599617, 
        0.28260138630867004, 
        0.4218016564846039, 
        -0.12168311327695847, 
        0.21325595676898956, 
        0.31157171726226807, 
        -0.5733184814453125, 
        -0.16257812082767487, 
        0.28539690375328064, 
        -0.4900001287460327, 
        -0.6664215326309204, 
        -0.19571682810783386, 
        -0.800249457359314, 
        0.42357397079467773, 
        0.6531761288642883, 
        0.6600919365882874, 
        0.2776493430137634, 
        0.019497528672218323, 
        0.18253034353256226, 
        -0.6111915111541748, 
        0.4147535562515259, 
        -0.42001327872276306, 
        -0.6938128471374512, 
        -0.013889185152947903, 
        0.30402451753616333, 
        0.26826223731040955, 
        0.3624281585216522, 
        0.6477658152580261, 
        0.43326443433761597, 
        -0.19955480098724365, 
        0.6997504234313965, 
        0.05647736415266991, 
        0.5348672270774841, 
        -0.10853290557861328, 
        0.45525023341178894, 
        -0.46397051215171814, 
        0.21205095946788788, 
        -0.5704751014709473, 
        0.15488184988498688, 
        0.1306927651166916, 
        0.08837039768695831, 
        -0.47727587819099426, 
        -0.7230330109596252, 
        -0.08703315258026123, 
        -0.6094319820404053, 
        0.5472311973571777, 
        -0.39852675795555115, 
        -0.3082612156867981, 
        0.29658693075180054, 
        -0.3885951638221741, 
        -0.1773374080657959, 
        -0.5746034383773804, 
        0.46676093339920044, 
        -0.6578511595726013, 
        0.6715290546417236, 
        -0.15819604694843292, 
        -0.30949875712394714, 
        0.40611669421195984, 
        0.28268489241600037, 
        0.686728298664093, 
        0.1429957002401352, 
        0.22948876023292542, 
        0.264823853969574, 
        -0.31807947158813477, 
        -0.1424490511417389, 
        -0.5336513519287109, 
        -0.054051417857408524, 
        -0.39544081687927246, 
        0.45179232954978943, 
        -0.6274325251579285, 
        -0.6782484650611877, 
        0.09130451083183289, 
        0.684576690196991, 
        -0.46115121245384216, 
        -0.07139624655246735, 
        -0.549748957157135, 
        -0.5096955299377441, 
        -0.05003049597144127, 
        -0.600311815738678, 
        -0.13550981879234314, 
        0.5044744610786438, 
        0.3181755244731903, 
        -0.30080172419548035, 
        0.2844758927822113, 
        -0.08463457226753235, 
        0.49449941515922546, 
        -0.06886210292577744, 
        0.5968248248100281, 
        0.6489823460578918, 
        -0.4420693814754486, 
        0.208811953663826, 
        -0.7048221230506897, 
        -0.5080781579017639, 
        0.5558255910873413, 
        0.2670137286186218, 
        0.09668779373168945, 
        -0.7086328268051147, 
        0.5627989768981934, 
        0.5400887727737427, 
        0.1983412802219391, 
        0.4693613052368164, 
        -0.2719483971595764, 
        -0.4395001530647278, 
        0.06640017032623291, 
        -0.6321503520011902, 
        -0.10196810960769653, 
        -0.13607078790664673, 
        -0.2531750798225403, 
        -0.11813787370920181, 
        -0.42195096611976624, 
        0.6581143736839294, 
        0.542238712310791, 
        -0.5409215092658997, 
        0.6717706322669983, 
        0.08480048924684525, 
        0.564714789390564, 
        0.5292707681655884, 
        0.28783395886421204, 
        0.6242831349372864, 
        -0.43644434213638306, 
        0.11800850182771683, 
        0.6002210378646851, 
        0.2110409438610077, 
        -0.5730122923851013, 
        -0.6460031270980835, 
        -0.41123199462890625, 
        -0.5264018774032593, 
        -0.2194601446390152, 
        -0.28239014744758606, 
        0.16451868414878845, 
        0.32551535964012146, 
        -0.15056335926055908, 
        -0.014012652449309826, 
        0.4272402226924896, 
        0.3301312029361725, 
        0.49925386905670166, 
        0.21472997963428497, 
        0.24740804731845856, 
        -0.3092584013938904, 
        0.20373211801052094, 
        0.4567948877811432, 
        0.08409477025270462, 
        0.618751049041748, 
        -0.07758175581693649, 
        0.6608479619026184, 
        -0.6718621253967285, 
        0.6494763493537903, 
        -0.15650221705436707, 
        -0.09695868194103241, 
        0.07432392239570618, 
        -0.33015182614326477, 
        -0.18000571429729462, 
        -0.20015491545200348, 
        0.08790083974599838, 
        -0.18977048993110657, 
        0.21281521022319794, 
        0.21173174679279327, 
        0.26032450795173645, 
        -0.28929123282432556, 
        0.42033207416534424, 
        0.5313332676887512, 
        -0.31035441160202026, 
        0.3498305678367615, 
        0.2279781550168991, 
        -0.6821078658103943, 
        -0.25732001662254333, 
        -0.3905038833618164, 
        -0.5555006861686707, 
        -0.5296361446380615, 
        -0.15970535576343536, 
        0.06019064038991928, 
        -0.28807955980300903, 
        -0.6273795962333679, 
        -0.6213879585266113, 
        -0.1577361524105072, 
        0.202890083193779, 
        -0.5261262059211731, 
        -0.16864417493343353, 
        0.6832254528999329, 
        -0.22772936522960663, 
        -0.2922622859477997, 
        0.07256830483675003, 
        0.5415267944335938, 
        0.6708390712738037, 
        0.15175320208072662, 
        -0.2685123085975647, 
        0.1973719298839569, 
        -0.15816624462604523, 
        -0.2655221223831177, 
        0.6170321702957153, 
        0.14874902367591858, 
        0.4514908790588379, 
        0.3179856836795807, 
        0.36946171522140503, 
        0.026085317134857178, 
        -0.11282669752836227, 
        0.14537306129932404, 
        0.1268404871225357, 
        0.08517222851514816, 
        0.7025488018989563, 
        -0.2756651043891907, 
        -0.8096387982368469, 
        0.5942482948303223, 
        0.3133769929409027, 
        -0.03662386164069176, 
        -0.45251399278640747, 
        0.027154963463544846, 
        0.7643962502479553, 
        0.004000738728791475, 
        -0.6477854251861572, 
        -0.3856320083141327, 
        0.011097314767539501, 
        0.04425571858882904, 
        -0.7797742486000061, 
        -0.17552967369556427, 
        -0.2561180293560028, 
        0.19357867538928986, 
        0.2635408043861389, 
        0.4562024772167206, 
        0.5741855502128601, 
        0.46060386300086975, 
        0.11797159165143967, 
        -0.36704421043395996, 
        -0.6034415364265442, 
        -0.7368016242980957, 
        -0.20055589079856873, 
        0.6576012372970581, 
        -0.55543053150177, 
        -0.3442850410938263, 
        0.00028609935543499887, 
        0.546656608581543, 
        0.5347418785095215, 
        -0.48752936720848083, 
        0.4757273197174072, 
        0.6931153535842896, 
        0.4581092596054077, 
        0.08258333802223206, 
        -0.6759682893753052, 
        0.5309364199638367, 
        -0.1835351288318634, 
        0.5698366165161133, 
        0.6670429706573486, 
        0.5903651714324951, 
        -0.35483577847480774, 
        0.584965705871582, 
        0.45962435007095337, 
        -0.19201187789440155, 
        -0.35567983984947205, 
        0.03441321849822998, 
        -0.3520904779434204, 
        0.49748045206069946, 
        -0.287208616733551, 
        0.6226877570152283, 
        0.20861856639385223, 
        0.7310265898704529, 
        -0.5464149713516235, 
        0.6951865553855896, 
        -0.37860485911369324, 
        -0.6140865087509155, 
        -0.1489085555076599, 
        0.738881528377533, 
        0.44819891452789307, 
        -0.5931775569915771, 
        -0.048245642334222794, 
        0.4773298501968384, 
        0.5797410607337952, 
        -0.5631649494171143, 
        -0.11025633662939072, 
        0.5724292993545532, 
        -0.3048785924911499, 
        -0.1251545399427414, 
        0.5108823776245117, 
        0.30131709575653076, 
        0.7146956920623779, 
        -0.19051091372966766, 
        0.17486163973808289, 
        -0.5557431578636169, 
        0.6992753744125366, 
        -0.03108450397849083, 
        0.6885144710540771, 
        0.12941554188728333, 
        -0.6915825009346008, 
        -0.3433840870857239, 
        -0.02011653035879135, 
        -0.64278244972229, 
        0.4793819785118103, 
        -0.08700895309448242, 
        -0.34116020798683167, 
        0.5594938397407532, 
        -0.6012226343154907, 
        -0.5656970143318176, 
        0.5247038006782532, 
        -0.7297049164772034, 
        0.18293724954128265, 
        0.3830913007259369, 
        -0.19640548527240753, 
        0.3131653964519501, 
        -0.8169283270835876, 
        0.599322497844696, 
        -0.456443727016449, 
        -0.1968650221824646, 
        0.6726282835006714, 
        0.23097547888755798, 
        0.5262452960014343, 
        -0.25345540046691895, 
        -0.436923086643219, 
        0.09973803907632828, 
        0.5369108319282532, 
        0.7077450156211853, 
        -0.6384156346321106, 
        -0.1956857442855835, 
        0.09954860806465149, 
        0.40118563175201416, 
        -0.6827247142791748, 
        0.5321741104125977, 
        0.5572102665901184, 
        -0.36177173256874084, 
        -0.44766780734062195, 
        0.20379747450351715, 
        0.37516212463378906, 
        -0.37401437759399414, 
        0.6921921968460083, 
        -0.6427813768386841, 
        -0.6481587290763855, 
        -0.09743721783161163, 
        -0.4138268530368805, 
        -0.41116195917129517, 
        0.6671607494354248, 
        -0.04195025563240051, 
        0.5100536942481995, 
        -0.16856761276721954, 
        0.4635711908340454, 
        0.05731207877397537, 
        -0.3151056468486786, 
        0.28646358847618103, 
        0.24492262303829193, 
        -0.6996207237243652, 
        -0.09283462911844254, 
        -0.5502490401268005, 
        -0.6025214195251465, 
        -0.19377824664115906, 
        -0.3468643128871918, 
        0.46856629848480225, 
        -0.11674544960260391, 
        0.6668514013290405, 
        0.19162708520889282, 
        -0.49163535237312317, 
        -0.13889507949352264, 
        0.2546069622039795, 
        0.30045977234840393, 
        -0.14238350093364716, 
        -0.04465147852897644, 
        0.15862838923931122, 
        -0.4058522582054138, 
        -0.08472336828708649, 
        0.47723525762557983, 
        -0.45677343010902405, 
        -0.19872339069843292, 
        -0.6598089337348938, 
        0.802040159702301, 
        0.5701823830604553, 
        -0.640697717666626, 
        0.05744631588459015, 
        -0.6308654546737671, 
        0.6443783044815063, 
        -0.6885890960693359, 
        0.667647123336792, 
        -0.5421818494796753, 
        0.0170784629881382, 
        0.20668849349021912, 
        -0.07835934311151505, 
        0.4142642915248871, 
        0.6056917905807495, 
        -0.02726782113313675, 
        0.47637489438056946, 
        0.10142094641923904, 
        0.3656606376171112, 
        -0.33430933952331543, 
        -0.07161866873502731, 
        0.5966886281967163, 
        0.3788885176181793, 
        0.5603428483009338, 
        -0.5996705293655396, 
        0.504845380783081, 
        0.303438663482666, 
        -0.40594154596328735, 
        -0.6113558411598206, 
        -0.3904919922351837, 
        0.5092013478279114, 
        0.4596526026725769, 
        0.29929119348526, 
        0.10168197751045227, 
        0.510044276714325, 
        0.304040789604187, 
        -0.33834201097488403, 
        -0.18192018568515778, 
        -0.27243441343307495, 
        -0.63768470287323, 
        -0.20922496914863586, 
        -0.22612789273262024, 
        -0.62711501121521, 
        -0.11353913694620132, 
        -0.09602457284927368, 
        -0.15571677684783936, 
        0.45325154066085815, 
        0.06727772951126099, 
        0.030039673671126366, 
        0.1930432915687561, 
        0.5164269804954529, 
        0.13919296860694885, 
        -0.2627090513706207, 
        -0.34376946091651917, 
        -0.06342203170061111, 
        0.4509379267692566, 
        -0.3906238079071045, 
        0.011886334978044033, 
        0.5185714960098267, 
        -0.807231068611145, 
        0.4979843497276306, 
        0.12050804495811462, 
        0.3140348494052887, 
        -0.5896683931350708, 
        0.15835939347743988, 
        0.12462393194437027, 
        0.6230827569961548, 
        0.7028995752334595, 
        0.6832785606384277, 
        0.07557766139507294, 
        -0.12651732563972473, 
        -0.14921294152736664, 
        -0.013045712374150753, 
        0.07467834651470184, 
        0.22330954670906067, 
        0.5623369216918945, 
        -0.2498273104429245, 
        -0.20280104875564575, 
        -0.2764354646205902, 
        -0.5666494965553284, 
        -0.19926859438419342, 
        -0.1866121143102646, 
        -0.2734221816062927, 
        -0.3913191556930542, 
        0.13683030009269714, 
        0.6668587923049927, 
        -0.5104990601539612, 
        0.44352787733078003, 
        -0.5470121502876282, 
        -0.3081936538219452, 
        0.36661818623542786, 
        -0.27173611521720886, 
        0.36300086975097656, 
        -0.17361120879650116, 
        0.21220695972442627, 
        0.6637523174285889, 
        -0.17001819610595703, 
        0.43290239572525024, 
        -0.38700565695762634, 
        0.10103068500757217, 
        0.16524067521095276, 
        0.03033992275595665, 
        -0.5777103900909424, 
        0.571346640586853, 
        0.25390326976776123, 
        0.30240294337272644, 
        0.03896576911211014, 
        -0.5085833072662354, 
        -0.5829153060913086, 
        0.48802709579467773, 
        -0.34702861309051514, 
        0.37573012709617615, 
        0.040313124656677246, 
        -0.5310757160186768, 
        -0.005269017070531845, 
        -0.1209472268819809, 
        0.8121121525764465, 
        -0.099183090031147, 
        -0.3432130813598633, 
        0.1301855593919754, 
        -0.23812884092330933, 
        0.43823522329330444, 
        -0.10407134145498276, 
        0.6183425188064575, 
        -0.2751878798007965, 
        -0.2141735851764679, 
        -0.6212015748023987, 
        -0.5444849729537964, 
        -0.5777350664138794, 
        0.13839124143123627, 
        0.2505878210067749, 
        0.48021769523620605, 
        -0.12192470580339432, 
        0.6477648615837097, 
        0.21991181373596191, 
        0.6017376184463501, 
        -0.34250685572624207, 
        -0.14540661871433258, 
        0.1956634670495987, 
        -0.4589591920375824, 
        -0.25681808590888977, 
        0.12680594623088837, 
        0.3981473743915558, 
        0.14394542574882507, 
        -0.7710186839103699, 
        0.44879797101020813, 
        -0.7006251215934753, 
        -0.6473941206932068, 
        0.009119834750890732, 
        0.7490507960319519, 
        0.5417088270187378, 
        -0.10297225415706635, 
        0.5684265494346619, 
        -0.4484077990055084, 
        -0.021134022623300552, 
        -0.6973242163658142, 
        -0.4567889869213104, 
        0.11451499909162521, 
        -0.7312264442443848, 
        -0.06724739819765091, 
        -0.47848501801490784, 
        -0.6339081525802612, 
        -0.45877623558044434, 
        0.45078757405281067, 
        0.6444728970527649, 
        -0.0836309865117073, 
        0.35745424032211304, 
        0.5837811827659607, 
        0.26407530903816223, 
        0.10654891282320023, 
        -0.2670916020870209, 
        0.5993254780769348, 
        -0.46803736686706543, 
        0.5300213098526001, 
        -0.42568036913871765, 
        0.5544168949127197, 
        0.09190962463617325, 
        0.7261849045753479, 
        0.370959609746933, 
        0.0040177833288908005, 
        0.17057940363883972, 
        0.012216753326356411, 
        -0.7594849467277527, 
        0.6232715845108032, 
        -0.07459648698568344, 
        0.07356414198875427, 
        0.3418697416782379, 
        -0.7042807340621948, 
        0.3462395668029785, 
        -0.3942927420139313, 
        0.2118377983570099, 
        -0.5085926055908203, 
        0.04578658565878868, 
        0.3620328903198242, 
        0.19597895443439484, 
        0.025077689439058304, 
        0.26208311319351196, 
        -0.11591646820306778, 
        0.03461308777332306, 
        -0.19960330426692963, 
        0.7912320494651794, 
        0.4062627851963043, 
        -0.028244543820619583, 
        -0.11120074987411499, 
        -0.019569935277104378, 
        0.02477196790277958, 
        -0.3474235236644745, 
        -0.2981100380420685, 
        -0.24389375746250153, 
        -0.43141400814056396, 
        -0.4222376346588135, 
        -0.216754749417305, 
        0.6259539723396301, 
        0.3446352481842041, 
        -0.7782956957817078, 
        -0.4360818862915039, 
        -0.2496359497308731, 
        -0.29776400327682495, 
        -0.4814532995223999, 
        0.5823800563812256, 
        0.1884453445672989, 
        -0.18737000226974487, 
        -0.3724477291107178, 
        0.4073264002799988, 
        -0.11765148490667343, 
        -0.05192018672823906, 
        -0.2178327441215515, 
        0.4341452121734619, 
        -0.5435163974761963, 
        0.5668981671333313, 
        0.3299340307712555, 
        -0.551151692867279, 
        0.45176196098327637, 
        0.8675336837768555, 
        -0.6378345489501953, 
        0.05189839005470276, 
        -0.6632482409477234, 
        0.672461986541748, 
        -0.5696892142295837, 
        0.19943317770957947, 
        -0.33586347103118896, 
        0.6008903384208679, 
        -0.6828278303146362, 
        -0.05926429107785225, 
        0.14904505014419556, 
        -0.5683251619338989, 
        -0.6722601652145386, 
        0.008196234703063965, 
        -0.19693413376808167, 
        0.5201298594474792, 
        -0.3873923122882843, 
        -0.0727711096405983, 
        0.638980507850647, 
        -0.744999349117279, 
        -0.1479799449443817, 
        -0.6553218364715576, 
        0.33042213320732117, 
        -0.6172206401824951, 
        -0.17323462665081024, 
        -0.22627855837345123, 
        -0.2354264110326767, 
        -0.11304248869419098, 
        0.29250794649124146, 
        0.5283646583557129, 
        -0.23048840463161469, 
        -0.2217172384262085, 
        0.5169048309326172, 
        -0.47163403034210205, 
        0.054126497358083725, 
        -0.37231767177581787, 
        0.2156631350517273, 
        0.7278873920440674, 
        -0.2631050646305084, 
        -0.6282827854156494, 
        0.5636719465255737, 
        0.1080743819475174, 
        0.000545383314602077, 
        -0.6343995332717896, 
        0.5578784942626953, 
        0.199188232421875, 
        0.29088523983955383, 
        0.41494810581207275, 
        0.2275174856185913, 
        -0.6154155135154724, 
        0.20060397684574127, 
        0.3970957398414612, 
        -0.3861742615699768, 
        0.10918548703193665, 
        0.5175301432609558, 
        -0.5436288714408875, 
        0.3954756557941437, 
        0.021336296573281288, 
        0.48323118686676025, 
        -0.5741037130355835, 
        -0.16068576276302338, 
        0.684993326663971, 
        -0.6577926874160767, 
        -0.17002755403518677, 
        -0.2946026623249054, 
        0.21603985130786896, 
        -0.014138069935142994, 
        -0.004642219748347998, 
        0.7018768787384033, 
        -0.5941036939620972, 
        0.02898515574634075, 
        0.5934143662452698, 
        -0.25580811500549316, 
        0.32255715131759644, 
        0.35015082359313965, 
        -0.40656614303588867, 
        -0.7481513023376465, 
        0.1899934858083725, 
        0.3585236966609955, 
        -0.37696224451065063, 
        0.12881340086460114, 
        0.022233901545405388, 
        -0.335041344165802, 
        0.48813396692276, 
        -0.5013301372528076, 
        -0.6790023446083069, 
        0.12728123366832733, 
        0.22751875221729279, 
        0.3559630513191223, 
        0.3628084361553192, 
        -0.3905792832374573, 
        -0.3008917272090912, 
        0.054434459656476974, 
        -0.04115349426865578, 
        -0.3542599081993103, 
        -0.5591267347335815, 
        0.06167980656027794, 
        -0.6825031638145447, 
        0.28295305371284485, 
        0.6433026194572449, 
        0.4285236597061157, 
        0.6481887102127075, 
        0.29322388768196106, 
        0.5175952911376953, 
        0.6669856309890747, 
        0.4486671984195709, 
        0.05316877365112305, 
        -0.5596601366996765, 
        0.5593483448028564, 
        -0.40143585205078125, 
        0.054828643798828125, 
        0.47039201855659485, 
        0.6413416862487793, 
        -0.3777512311935425, 
        0.4238760769367218, 
        0.7211297154426575, 
        -0.07058820128440857, 
        -0.3559909462928772, 
        -0.044434111565351486, 
        -0.6980372667312622, 
        0.08483773469924927, 
        0.10395871102809906, 
        -0.1499207615852356, 
        -0.5326009392738342, 
        0.36759036779403687, 
        0.6307474374771118, 
        0.15518321096897125, 
        -0.11230643093585968, 
        0.4862867593765259, 
        0.2544037997722626, 
        0.07653116434812546, 
        0.5689732432365417, 
        0.12042175233364105, 
        0.19181334972381592, 
        0.06447213143110275, 
        -0.06563452631235123, 
        -0.265061616897583, 
        -0.4303881525993347, 
        -0.06446030735969543, 
        0.6715499758720398, 
        -0.2883201241493225, 
        0.48475465178489685, 
        -0.4721282124519348, 
        -0.2139434665441513, 
        -0.23452524840831757, 
        -0.5310682058334351, 
        0.08704053610563278, 
        0.16762155294418335, 
        -0.2931228280067444, 
        -0.10079669207334518, 
        -0.2602233290672302, 
        -0.7191359400749207, 
        -0.5659593939781189, 
        -0.7197837233543396, 
        -0.4717671871185303, 
        -0.5349015593528748, 
        0.5406724214553833, 
        0.7214316129684448, 
        0.2664323151111603, 
        -0.05216059461236, 
        0.270772784948349, 
        0.3996030390262604, 
        -0.3943955898284912, 
        0.45654430985450745, 
        0.3250438868999481, 
        -0.6492942571640015, 
        0.6017521619796753, 
        0.6414600610733032, 
        -0.4226984679698944, 
        -0.05950343236327171, 
        0.1832776814699173, 
        -0.6034365296363831, 
        0.5441961288452148, 
        0.352241188287735, 
        0.4452749192714691, 
        0.6502694487571716, 
        0.31964775919914246, 
        0.6745408773422241, 
        -0.09031106531620026, 
        0.5492098331451416, 
        0.23059165477752686, 
        -0.12950576841831207, 
        -0.6079103350639343, 
        0.29499125480651855, 
        0.18556174635887146, 
        0.6191549301147461, 
        0.4302033483982086, 
        -0.6246050000190735, 
        0.4821179211139679, 
        -0.5401075482368469, 
        -0.6474111676216125, 
        -0.2927458882331848, 
        -0.13837021589279175, 
        -0.722583532333374, 
        0.4965085983276367, 
        -0.48805373907089233, 
        -0.6332000494003296, 
        -0.08508754521608353, 
        0.12946859002113342, 
        0.44599810242652893, 
        -0.07682172954082489, 
        0.09006907045841217, 
        0.13093599677085876, 
        -0.012896155007183552, 
        -0.3328190743923187, 
        0.321368545293808, 
        -0.3054726719856262, 
        0.044077664613723755, 
        0.3606100380420685, 
        0.6078824400901794, 
        -0.4052870273590088, 
        -0.1602521389722824, 
        -0.6871217489242554, 
        0.6097449660301208, 
        -0.5306688547134399, 
        0.16202110052108765, 
        0.18938378989696503, 
        -0.4496460258960724, 
        -0.6607368588447571, 
        -0.6196381449699402, 
        -0.014759538695216179, 
        0.6142346262931824, 
        0.11630843579769135, 
        0.43597692251205444, 
        -0.38906437158584595, 
        0.5106349587440491, 
        -0.2536977529525757, 
        0.3497176766395569, 
        0.7957636117935181, 
        -0.35294225811958313, 
        -0.010953547433018684, 
        0.07564491778612137, 
        -0.024783838540315628, 
        -0.4877565801143646, 
        0.5206233263015747, 
        0.688884973526001, 
        -0.08827294409275055, 
        0.09099952131509781, 
        0.20430491864681244, 
        0.64422208070755, 
        -0.39267635345458984, 
        -0.31705763936042786, 
        0.3895392119884491, 
        -0.13519172370433807, 
        0.2086114138364792, 
        0.5797907710075378, 
        0.4119390547275543, 
        -0.5846337676048279, 
        0.03251373767852783, 
        -0.25512954592704773, 
        -0.3465980887413025, 
        0.30331334471702576, 
        0.564932107925415, 
        0.10773368179798126, 
        0.27102190256118774, 
        0.22414816915988922, 
        0.3179239332675934, 
        0.0023728886153548956, 
        -0.5879764556884766, 
        -0.5893987417221069, 
        -0.5963706970214844, 
        0.16100481152534485, 
        0.16372334957122803, 
        -0.4945041537284851, 
        -0.10698679089546204, 
        -0.09031766653060913, 
        -0.6565807461738586, 
        -0.21537591516971588, 
        0.4804231524467468, 
        -0.4239262342453003, 
        -0.09196483343839645, 
        0.199908047914505, 
        -0.6276627779006958, 
        -0.13225984573364258, 
        0.18285731971263885, 
        0.34827011823654175, 
        -0.6707058548927307, 
        -0.004293275531381369, 
        -0.4504126012325287, 
        0.16696394979953766, 
        -0.3052060604095459, 
        0.2183164358139038, 
        -0.15481938421726227, 
        -0.675089418888092, 
        0.43580102920532227, 
        0.682854950428009, 
        0.5277894139289856, 
        -0.6559875011444092, 
        0.2316291183233261, 
        -0.3901311755180359, 
        0.5175584554672241, 
        -0.16889268159866333, 
        -0.4795333743095398, 
        0.29207339882850647, 
        -0.17993012070655823, 
        0.09955450147390366, 
        -0.042415060102939606, 
        -0.5853885412216187, 
        0.09135940670967102, 
        -0.5875005722045898, 
        0.3102509677410126, 
        -0.7263898849487305, 
        -0.49064451456069946, 
        0.004730960354208946, 
        0.3599954843521118, 
        0.022543318569660187, 
        0.4244299829006195, 
        -0.2207215428352356, 
        0.04383912310004234, 
        0.26005038619041443, 
        0.03802388533949852, 
        -0.659086287021637, 
        0.5047332644462585, 
        0.2261471301317215, 
        0.2052600383758545, 
        -0.6129553318023682, 
        -0.07558272778987885, 
        -0.5776629447937012, 
        0.5505809783935547, 
        -0.3112930655479431, 
        -0.6197078227996826, 
        -0.4198819696903229, 
        -0.5213724970817566, 
        0.4248082637786865, 
        -0.4228106439113617, 
        -0.569367527961731, 
        -0.4839900732040405, 
        -0.6402556300163269, 
        -0.19903260469436646, 
        -0.05984879657626152, 
        0.11643965542316437, 
        0.19079096615314484, 
        -0.3383323550224304, 
        0.5801221132278442, 
        0.6763354539871216, 
        0.7316855192184448, 
        0.5431581735610962, 
        -0.6484649777412415, 
        0.03329114615917206, 
        0.006066106725484133, 
        -0.05527743697166443, 
        0.6618282198905945, 
        0.061971794813871384, 
        0.11364516615867615, 
        -0.500678539276123, 
        0.5871602892875671, 
        0.08794529736042023, 
        -0.530192494392395, 
        -0.12698256969451904, 
        -0.6779182553291321, 
        0.1767015904188156, 
        -0.6280509233474731, 
        0.6879244446754456, 
        -0.620380699634552, 
        -0.3586472272872925, 
        -0.2393609881401062, 
        -0.3466959595680237, 
        0.24953818321228027, 
        0.3113514184951782, 
        0.1541522890329361, 
        -0.176508367061615, 
        -0.47408947348594666, 
        -0.3953656852245331, 
        -0.31317830085754395, 
        -0.2643642723560333, 
        0.5161536931991577, 
        -0.06143741309642792, 
        0.02183120884001255, 
        0.2819223701953888, 
        0.30700021982192993, 
        -0.17030620574951172, 
        0.5321954488754272, 
        0.691057562828064, 
        0.018516341224312782, 
        0.19851915538311005, 
        0.12185213714838028, 
        -0.4402914047241211, 
        -0.48294076323509216, 
        0.47393620014190674, 
        0.5876726508140564, 
        -0.7439883947372437, 
        -0.45485377311706543, 
        -0.6052492260932922, 
        -0.5568302869796753, 
        -0.6965441107749939, 
        0.39872702956199646, 
        -0.6340733170509338, 
        -0.17888858914375305, 
        -0.47891944646835327, 
        0.05733790993690491, 
        -0.059416044503450394, 
        0.28328171372413635, 
        -0.5376154780387878, 
        -0.6452599763870239, 
        -0.661422610282898, 
        0.25760820508003235, 
        0.3736693561077118, 
        0.5847967863082886, 
        -0.270561546087265, 
        0.47601911425590515, 
        -0.0684339702129364, 
        -0.4866863489151001, 
        0.19686047732830048, 
        0.6146906018257141, 
        -0.7220817804336548, 
        0.3250640630722046, 
        0.31702205538749695, 
        -0.7293518781661987, 
        0.4770394563674927, 
        -0.07088805735111237, 
        -0.19315551221370697, 
        -0.162703737616539, 
        -0.4327767789363861, 
        -0.6103870272636414, 
        0.7974640130996704, 
        0.12498235702514648, 
        -0.09904506802558899, 
        -0.31343474984169006, 
        0.26882874965667725, 
        0.3867834210395813, 
        -0.478904664516449, 
        0.3483770191669464, 
        -0.5493605136871338, 
        -0.39571455121040344, 
        0.008586178533732891, 
        0.08475179970264435, 
        0.38851165771484375, 
        0.2768627405166626, 
        0.3918116092681885, 
        0.6431164145469666, 
        0.4473502039909363, 
        -0.28302133083343506, 
        0.21267931163311005, 
        -0.5819125771522522, 
        -0.17719806730747223, 
        -0.3951335549354553, 
        -0.21356061100959778, 
        0.38241738080978394, 
        0.3676709830760956, 
        -0.27844858169555664, 
        0.4475885033607483, 
        0.37159591913223267, 
        -0.22157242894172668, 
        -0.3531716465950012, 
        0.20219089090824127, 
        -0.21076256036758423, 
        -0.06829444319009781, 
        0.0174895990639925, 
        -0.590948224067688, 
        -0.47898998856544495, 
        -0.07702959328889847, 
        -0.3673458993434906, 
        -0.5988455414772034, 
        -0.14515244960784912, 
        0.15096886456012726, 
        -0.3915230929851532, 
        0.17535386979579926, 
        0.5350048542022705, 
        -0.16430990397930145, 
        0.4201321303844452, 
        0.5687608122825623, 
        0.12505486607551575, 
        0.1415216475725174, 
        0.5286510586738586, 
        -0.4803027808666229, 
        0.037059247493743896, 
        -0.10305853188037872, 
        0.3261062502861023, 
        0.5793223977088928, 
        0.268172949552536, 
        0.5028195977210999, 
        0.17386963963508606, 
        0.06879643350839615, 
        0.41272395849227905, 
        0.17543719708919525, 
        0.39358970522880554, 
        -0.7332225441932678, 
        -0.6038680076599121, 
        0.47504380345344543, 
        0.2555065453052521, 
        0.11332450807094574, 
        0.24403521418571472, 
        0.01614619791507721, 
        -0.573796272277832, 
        -0.43763428926467896, 
        -0.4904838502407074, 
        -0.17187313735485077, 
        0.1526309996843338, 
        -0.016069527715444565, 
        0.503818154335022, 
        -0.05531483516097069, 
        0.20204849541187286, 
        0.055889859795570374, 
        0.36571693420410156, 
        0.25238874554634094, 
        -0.6339072585105896, 
        0.6312403678894043, 
        -0.45843252539634705, 
        -0.7179915904998779, 
        0.34356510639190674, 
        -0.24854525923728943, 
        0.08313257992267609, 
        0.3807704448699951, 
        -0.5434117317199707, 
        -0.19945372641086578, 
        0.2942180931568146, 
        0.33762186765670776, 
        -0.5292246341705322, 
        -0.12161941081285477, 
        0.19467253983020782, 
        -0.3603513836860657, 
        -0.3957176208496094, 
        -0.22013911604881287, 
        -0.32849350571632385, 
        0.08351529389619827, 
        -0.6260485053062439, 
        -0.4501435458660126, 
        0.11162252724170685, 
        -0.5281005501747131, 
        0.12161266803741455, 
        0.36511942744255066, 
        0.5995146036148071, 
        0.30624616146087646, 
        -0.17735828459262848, 
        -0.2799226939678192, 
        -0.30909231305122375, 
        0.34927889704704285, 
        -0.7460419535636902, 
        0.31012794375419617, 
        -0.36768844723701477, 
        -0.35576093196868896, 
        -0.5146665573120117, 
        -0.15456993877887726, 
        -0.4342697560787201, 
        0.12358644604682922, 
        -0.5499358773231506, 
        -0.22615471482276917, 
        0.671620786190033, 
        0.22298189997673035, 
        -0.5412794351577759, 
        0.26093044877052307, 
        0.13409754633903503, 
        0.5713189840316772, 
        0.6599811911582947, 
        0.018151983618736267, 
        0.6664609313011169, 
        -0.21548627316951752, 
        -0.3467951714992523, 
        0.48604461550712585, 
        0.6931682229042053, 
        -0.4443674683570862, 
        -0.6302936673164368, 
        0.24983608722686768, 
        0.12866665422916412, 
        0.5712308883666992, 
        0.7231444716453552, 
        0.3959430158138275, 
        -0.1655270904302597, 
        -0.45575982332229614, 
        0.07370535284280777, 
        -0.6567546129226685, 
        0.1934390366077423, 
        -0.2942911982536316, 
        -0.0428902767598629, 
        -0.25415483117103577, 
        0.3388166129589081, 
        0.6163008809089661, 
        0.45016878843307495, 
        -0.15220288932323456, 
        -0.5474025011062622, 
        -0.13048700988292694, 
        -0.18053069710731506, 
        -0.43582239747047424, 
        -0.1507328301668167, 
        -0.40906402468681335, 
        0.2754106819629669, 
        -0.6328936219215393, 
        0.24299852550029755, 
        0.4771685004234314, 
        -0.6632209420204163, 
        -0.5136069655418396, 
        0.30424368381500244, 
        -0.19421645998954773, 
        0.0019143971148878336, 
        0.5547665953636169, 
        0.1925048679113388, 
        0.2534167766571045, 
        0.1188676729798317, 
        0.530719518661499, 
        -0.4698866009712219, 
        -0.12371142953634262, 
        0.4685854911804199, 
        0.4307997524738312, 
        -0.608875572681427, 
        -0.07552991807460785, 
        0.601484477519989, 
        0.6369290351867676, 
        -0.6065598130226135, 
        -0.5908260941505432, 
        0.2964777946472168, 
        -0.3548162281513214, 
        -0.373583048582077, 
        0.735506534576416, 
        0.33161062002182007, 
        0.17592503130435944, 
        0.02189703658223152, 
        0.2899545133113861, 
        0.031911615282297134, 
        0.21175764501094818, 
        -0.22860324382781982, 
        0.33594536781311035, 
        0.3102174997329712, 
        0.47956418991088867, 
        0.3794873058795929, 
        0.0956093817949295, 
        0.31929245591163635, 
        0.3768528699874878, 
        0.6476524472236633, 
        0.38185206055641174, 
        -0.2557612359523773, 
        0.2568158507347107, 
        -0.09397026151418686, 
        0.04752369597554207, 
        -0.46653592586517334, 
        -0.12342467159032822, 
        0.45922577381134033, 
        0.2410029172897339, 
        -0.3729284405708313, 
        -0.37452518939971924, 
        -0.6882597208023071, 
        -0.5687792301177979, 
        -0.6660515069961548, 
        0.24947400391101837, 
        -0.16780073940753937, 
        -0.7529271841049194, 
        -0.4323439300060272, 
        0.6730204820632935, 
        0.11325595527887344, 
        -0.6354293823242188, 
        -0.4884014129638672, 
        -0.5331824421882629, 
        -0.2083766758441925, 
        -0.5613818168640137, 
        0.09132305532693863, 
        0.17645272612571716, 
        -0.31529757380485535, 
        -0.444909006357193, 
        -0.21220733225345612, 
        -0.22811618447303772, 
        -0.3237518072128296, 
        0.41514119505882263, 
        -0.19292551279067993, 
        0.47216007113456726, 
        0.05295531451702118, 
        -0.2640014886856079, 
        -0.5735785961151123, 
        0.3005356788635254, 
        -0.4845970869064331, 
        -0.5277242064476013, 
        -0.5000367760658264, 
        -0.6474894285202026, 
        -0.6683101654052734, 
        0.6046746969223022, 
        0.43318575620651245, 
        -0.2714984118938446, 
        0.2017446756362915, 
        0.6923007369041443, 
        -0.4944983720779419, 
        0.6381672024726868, 
        -0.016353987157344818, 
        0.6226284503936768, 
        0.29729360342025757, 
        0.6419753432273865, 
        0.43139752745628357, 
        0.008325057104229927, 
        -0.2555643320083618, 
        -0.0494287833571434, 
        -0.2667407989501953, 
        -0.13312475383281708, 
        0.5530415177345276, 
        -0.42807289958000183, 
        -0.16853711009025574, 
        0.5045791268348694, 
        -0.7862806916236877, 
        0.681257426738739, 
        -0.3895237445831299, 
        0.22042407095432281, 
        0.6693840026855469, 
        0.34744805097579956, 
        0.7200007438659668, 
        0.5843101739883423, 
        0.524959146976471, 
        -0.6738001704216003, 
        -0.8377944231033325, 
        0.6120634078979492, 
        -0.13140423595905304, 
        -0.49543896317481995, 
        -0.5431798100471497, 
        -0.5769683718681335, 
        0.338731050491333, 
        -0.630666196346283, 
        -0.03513340279459953, 
        0.6126258969306946, 
        0.3529175817966461, 
        0.5124006271362305, 
        0.4187549352645874, 
        -0.12773224711418152, 
        -0.09948849678039551, 
        0.20915549993515015, 
        -0.6429365277290344, 
        0.15967658162117004, 
        0.7407293915748596, 
        0.42017996311187744, 
        -0.26775920391082764, 
        -0.5080580115318298, 
        -0.40915530920028687, 
        0.2995990812778473, 
        0.16952776908874512, 
        -0.365108460187912, 
        0.5590903759002686, 
        0.11012480407953262, 
        -0.5380005836486816, 
        -0.45405372977256775, 
        -0.1326833963394165, 
        -0.3251388967037201, 
        0.6090874075889587, 
        0.2061256468296051, 
        0.2940717935562134, 
        0.5684453845024109, 
        0.23531252145767212, 
        0.16156986355781555, 
        -0.3493126332759857, 
        -0.1812790483236313, 
        0.17706242203712463, 
        0.23789846897125244, 
        0.013965937308967113, 
        -0.4286709427833557, 
        0.1469549536705017, 
        0.5534073114395142, 
        -0.2759193480014801, 
        -0.22314400970935822, 
        -0.6163602471351624, 
        0.6481133699417114, 
        0.41240811347961426, 
        -0.16490605473518372, 
        0.1761845052242279, 
        -0.21170786023139954, 
        -0.6533710360527039, 
        -0.23813901841640472, 
        0.5533668994903564, 
        0.5649981498718262, 
        0.01678338460624218, 
        0.5863730907440186, 
        -0.36177125573158264, 
        0.4219757318496704, 
        0.654024064540863, 
        -0.4883420169353485, 
        0.33700108528137207, 
        0.7133804559707642, 
        -0.38480323553085327, 
        0.3378067910671234, 
        0.5379536151885986, 
        -0.5682839155197144, 
        -0.5845882892608643, 
        -0.7052614688873291, 
        0.5454478859901428, 
        -0.609038770198822, 
        -0.39559513330459595, 
        0.41661638021469116, 
        -0.0640939399600029, 
        0.49554261565208435, 
        0.3469037413597107, 
        0.04770979285240173, 
        -0.5285753607749939, 
        0.6424459218978882, 
        -0.08793903142213821, 
        -0.40595370531082153, 
        0.2996539771556854, 
        0.09897761791944504, 
        0.15924644470214844, 
        0.03784584254026413, 
        -0.6054717898368835, 
        0.3487814664840698, 
        0.6287739872932434, 
        -0.0766269713640213, 
        0.09876895695924759, 
        0.28576287627220154, 
        -0.35985085368156433, 
        -0.5718511343002319, 
        -0.7314050197601318, 
        -0.23687754571437836, 
        0.35829001665115356, 
        0.3197982907295227, 
        -0.3945471942424774, 
        -0.3031560480594635, 
        -0.04812399297952652, 
        -0.20228438079357147, 
        0.03569655492901802, 
        -0.4895561635494232, 
        -0.23066657781600952, 
        0.5363082885742188, 
        -0.024522727355360985, 
        0.22077566385269165, 
        0.5851287841796875, 
        -0.27038702368736267, 
        -0.06075102090835571, 
        0.727514386177063, 
        0.09133113920688629, 
        0.32995322346687317, 
        0.5248982310295105, 
        0.4257736802101135, 
        -0.49069464206695557, 
        -0.7832109332084656, 
        0.4651613235473633, 
        0.2818041145801544, 
        -0.3666462004184723, 
        -0.15560868382453918, 
        -0.06717508286237717, 
        0.48757633566856384, 
        -0.6626236438751221, 
        0.4473681151866913, 
        -0.1757955700159073, 
        0.1596335768699646, 
        0.5237707495689392, 
        -0.49872952699661255, 
        -0.42552611231803894, 
        0.6742372512817383, 
        0.5403667092323303, 
        -0.6249246597290039, 
        -0.18367865681648254, 
        -0.04830123856663704, 
        0.6405025124549866, 
        0.19873061776161194, 
        0.5995773077011108, 
        0.650363564491272, 
        0.39112845063209534, 
        0.5463048219680786, 
        0.702231764793396, 
        0.23101729154586792, 
        0.37699902057647705, 
        0.26221132278442383, 
        0.5395352840423584, 
        0.3183322548866272, 
        0.5992460250854492, 
        0.19343401491641998, 
        -0.637645423412323, 
        -0.41062262654304504, 
        0.6113402843475342, 
        0.5989202857017517, 
        0.21861521899700165, 
        -0.11321210861206055, 
        -0.4018329381942749, 
        -0.10163021832704544, 
        0.3107171654701233, 
        0.4603109061717987, 
        0.30999165773391724, 
        0.03667154908180237, 
        -0.7350032925605774, 
        0.5331284999847412, 
        -0.6218053102493286, 
        0.05924835428595543, 
        0.6677860021591187, 
        0.5874561071395874, 
        -0.332989364862442, 
        0.6359832286834717, 
        0.5931708812713623, 
        -0.392326682806015, 
        -0.062383946031332016, 
        -0.08651875704526901, 
        0.46002763509750366, 
        -0.7540771961212158, 
        -0.706750214099884, 
        0.43589842319488525, 
        0.702339768409729, 
        0.29649701714515686, 
        0.6432129144668579, 
        -0.3691765069961548, 
        -0.011745814234018326, 
        -0.2210228592157364, 
        -0.5111221671104431, 
        -0.7247636914253235, 
        -0.13473260402679443, 
        -0.16490112245082855, 
        0.28251418471336365, 
        0.5192278623580933, 
        -0.7397192716598511, 
        0.4084358811378479, 
        0.751035213470459, 
        -0.25222834944725037, 
        0.7888740301132202, 
        -0.05250992998480797, 
        -0.19632622599601746, 
        -0.036383017897605896, 
        0.025250062346458435, 
        0.36661818623542786, 
        -0.4827260375022888, 
        -0.5395777821540833, 
        0.5417611598968506, 
        -0.38349735736846924, 
        0.3951006233692169, 
        -0.3713046610355377, 
        0.33465829491615295, 
        0.414387971162796, 
        -0.6042631268501282, 
        0.20276392996311188, 
        0.47787582874298096, 
        -0.14605550467967987, 
        0.7020712494850159, 
        0.6355382204055786, 
        -0.12660934031009674, 
        0.021860957145690918, 
        -0.2931534945964813, 
        -0.3795841336250305, 
        0.17521440982818604, 
        -0.46013280749320984, 
        -0.3010078966617584, 
        -0.3306780159473419, 
        -0.07400523871183395, 
        0.527201235294342, 
        0.5904942750930786, 
        -0.6259738802909851, 
        0.6542244553565979, 
        -0.47045964002609253, 
        0.20485477149486542, 
        -0.49942314624786377, 
        0.5841508507728577, 
        0.7214251160621643, 
        0.5568313598632812, 
        0.25450682640075684, 
        -0.16688817739486694, 
        0.3338709771633148, 
        -0.6854777336120605, 
        0.5623899698257446, 
        0.4950542747974396, 
        -0.15399470925331116, 
        -0.47603002190589905, 
        0.357532799243927, 
        0.772936224937439, 
        -0.7263191342353821, 
        0.349118709564209, 
        -0.6395142078399658, 
        -0.7217737436294556, 
        -0.048692282289266586, 
        0.62921142578125, 
        -0.45967400074005127, 
        0.5996840000152588, 
        0.2779451012611389, 
        -0.4849953353404999, 
        -0.7431507706642151, 
        0.0049360087141394615, 
        -0.5193139910697937, 
        -0.4526393711566925, 
        -0.35178691148757935, 
        -0.5387105941772461, 
        -0.07445868849754333, 
        -0.35074812173843384, 
        0.16764181852340698, 
        0.23367463052272797, 
        0.6695445775985718, 
        -0.5322836637496948, 
        0.5711063742637634, 
        -0.5369154810905457, 
        0.5565300583839417, 
        -0.61008620262146, 
        0.014934496954083443, 
        0.6208435893058777, 
        -0.7262939214706421, 
        0.4345356822013855, 
        -0.04639294371008873, 
        0.5058022141456604, 
        -0.44756537675857544, 
        -0.1123105138540268, 
        0.6148630976676941, 
        -0.0797598734498024, 
        0.17986957728862762, 
        -0.18704858422279358, 
        -0.5930796265602112, 
        -0.06684687733650208, 
        -0.02236282080411911, 
        0.5161682963371277, 
        0.30335620045661926, 
        0.43653425574302673, 
        0.4595690965652466, 
        -0.07664204388856888, 
        0.07899149507284164, 
        0.4246739447116852, 
        0.32172730565071106, 
        0.43474042415618896, 
        -0.859215259552002, 
        0.655526876449585, 
        -0.07189316302537918, 
        0.2861412465572357, 
        0.32541975378990173, 
        -0.6047107577323914, 
        0.4415980577468872, 
        -0.692203164100647, 
        0.3109842538833618, 
        0.310415655374527, 
        -0.8099555969238281, 
        0.6503993272781372, 
        0.2863522469997406, 
        -0.5580962300300598, 
        -0.569330632686615, 
        0.5713871717453003, 
        -0.28545111417770386, 
        -0.2797558009624481, 
        0.2515209913253784, 
        -0.4397105276584625, 
        -0.6282107830047607, 
        0.6278547644615173, 
        -0.3135715126991272, 
        -0.1928708404302597, 
        0.15350525081157684, 
        -0.5936108827590942, 
        -0.1711115688085556, 
        0.11009924113750458, 
        0.017447369173169136, 
        -0.28265100717544556, 
        -0.4343970715999603, 
        0.013217059895396233, 
        -0.43975186347961426, 
        -0.61600261926651, 
        -0.444780558347702, 
        0.3780026137828827, 
        -0.32118797302246094, 
        -0.6695660948753357, 
        -0.07064756006002426, 
        0.49067422747612, 
        0.04032832011580467, 
        -0.608217179775238, 
        -0.5409948229789734, 
        -0.33720144629478455, 
        0.35902291536331177, 
        0.24135583639144897, 
        -0.1933327168226242, 
        0.7335297465324402, 
        -0.05745450034737587, 
        0.7088829278945923, 
        -0.14085355401039124, 
        0.6404908895492554, 
        -0.038143835961818695, 
        -0.5863038301467896, 
        0.5680508017539978, 
        -0.5691839456558228, 
        0.19828546047210693, 
        0.005072606727480888, 
        0.6600754857063293, 
        0.6478109359741211, 
        0.008352595381438732, 
        0.667328417301178, 
        0.5691604614257812, 
        0.6456172466278076, 
        0.2987841069698334, 
        -0.017253052443265915, 
        0.4751257002353668, 
        0.42384007573127747, 
        0.15598319470882416, 
        0.0008523350115865469, 
        -0.4944470226764679, 
        0.12219399958848953, 
        -0.11310388892889023, 
        -0.7569611668586731, 
        -0.38936614990234375, 
        -0.46523961424827576, 
        -0.3234094977378845, 
        0.39834731817245483, 
        0.4569518566131592, 
        0.3984464406967163, 
        -0.031088167801499367, 
        0.5246202349662781, 
        0.24312587082386017, 
        -0.17655426263809204, 
        0.20775862038135529, 
        0.3974062204360962, 
        -0.10489463061094284, 
        -0.367753803730011, 
        0.030642490833997726, 
        -0.08852744847536087, 
        -0.5457758903503418, 
        -0.638266384601593, 
        0.5942351818084717, 
        -0.5444120764732361, 
        -0.6194903254508972, 
        0.12407004088163376, 
        0.03463580459356308, 
        -0.3307262361049652, 
        0.04192522168159485, 
        -0.5677545070648193, 
        -0.6819664239883423, 
        -0.4728051424026489, 
        0.0668911263346672, 
        0.5613364577293396, 
        0.1417997181415558, 
        0.056231431663036346, 
        -0.5331838726997375, 
        0.4455929100513458, 
        -0.05440565571188927, 
        0.4698474705219269, 
        -0.44502732157707214, 
        0.300977885723114, 
        0.47661638259887695, 
        0.5353994965553284, 
        0.18962785601615906, 
        -0.489968866109848, 
        -0.47803953289985657, 
        0.3082546889781952, 
        0.6019177436828613, 
        -0.6420819759368896, 
        -0.5015137195587158, 
        0.1151791587471962, 
        -0.2859378457069397, 
        -0.6943012475967407, 
        -0.09327830374240875, 
        0.3393089771270752, 
        0.3244395852088928, 
        0.2846158742904663, 
        0.09903629869222641, 
        0.3328510522842407, 
        0.5219794511795044, 
        -0.8010279536247253, 
        0.09337951242923737, 
        -0.019641969352960587, 
        0.11602991819381714, 
        0.25581541657447815, 
        0.38120248913764954, 
        -0.49677011370658875, 
        -0.35088714957237244, 
        0.4477551281452179, 
        0.18555934727191925, 
        -0.21780170500278473, 
        -0.5599365234375, 
        0.3453943431377411, 
        -0.37189289927482605, 
        0.19317632913589478, 
        -0.3350318670272827, 
        -0.5264217853546143, 
        0.6508179306983948, 
        -0.6500666737556458, 
        -0.6181323528289795, 
        0.32898521423339844, 
        0.23238174617290497, 
        -0.13000836968421936, 
        -0.23315757513046265, 
        -0.41184213757514954, 
        0.4736332893371582, 
        0.7018068432807922, 
        -0.0830329954624176, 
        0.6312578320503235, 
        0.09333448857069016, 
        0.3141060173511505, 
        0.1984788030385971, 
        0.01654982380568981, 
        -0.7044594287872314, 
        -0.08497916162014008, 
        -0.22121353447437286, 
        -0.5956761240959167, 
        -0.491716206073761, 
        0.4920746386051178, 
        -0.0059430599212646484, 
        -0.21046561002731323, 
        -0.5178654193878174, 
        -0.1818559616804123, 
        -0.6426239013671875, 
        -0.6965569257736206, 
        -0.6444881558418274, 
        0.14596138894557953, 
        0.45654720067977905, 
        -0.12211112678050995, 
        0.15204988420009613, 
        0.07469447702169418, 
        -0.34717321395874023, 
        0.6106564402580261, 
        -0.0782146155834198, 
        0.18345609307289124, 
        -0.595558762550354, 
        -0.7324061393737793, 
        -0.28094470500946045, 
        -0.06613190472126007, 
        -0.3102729320526123, 
        -0.5079192519187927, 
        -0.09448077529668808, 
        0.31847381591796875, 
        -0.3038501441478729, 
        -0.2658880054950714, 
        -0.706440269947052, 
        -0.585431694984436, 
        -0.5559321641921997, 
        -0.4715350270271301, 
        -0.002249422948807478, 
        0.06822856515645981, 
        -0.36128124594688416, 
        0.4136832058429718, 
        0.12365864217281342, 
        -0.1079157143831253, 
        0.7763070464134216, 
        -0.44399330019950867, 
        0.09884922206401825, 
        0.23006050288677216, 
        0.4546836018562317, 
        0.6690133213996887, 
        -0.6999590992927551, 
        0.1632051020860672, 
        -0.1316511183977127, 
        -0.04195190221071243, 
        0.1317572146654129, 
        0.6250553131103516, 
        -0.10638869553804398, 
        0.25899556279182434, 
        0.23940230906009674, 
        0.507419228553772, 
        0.47821077704429626, 
        -0.5319176316261292, 
        0.08291655778884888, 
        -0.3665221333503723, 
        0.692559540271759, 
        0.1681860089302063, 
        -0.025798825547099113, 
        -0.19376540184020996, 
        -0.4135231375694275, 
        0.26566001772880554, 
        -0.714780330657959, 
        -0.5628656148910522, 
        0.027174925431609154, 
        0.29977545142173767, 
        0.016150834038853645, 
        0.2689754068851471, 
        -0.3595735728740692, 
        0.27675575017929077, 
        -0.33785608410835266, 
        0.31182411313056946, 
        0.4902484714984894, 
        -0.2902061641216278, 
        -0.6940074563026428, 
        0.6969056129455566, 
        0.14781178534030914, 
        -0.00551188737154007, 
        -0.3926104009151459, 
        -0.12956289947032928, 
        0.10867676883935928, 
        -0.45994558930397034, 
        -0.10985785722732544, 
        -0.7558542490005493, 
        -0.5035479068756104, 
        0.4645286202430725, 
        -0.8677642941474915, 
        0.3247385621070862, 
        0.0648922249674797, 
        -0.31484726071357727, 
        0.5305729508399963, 
        0.43309396505355835, 
        -0.015611100010573864, 
        -0.5832177400588989, 
        0.15005049109458923, 
        -0.21539588272571564, 
        -0.20824778079986572, 
        -0.5859103202819824, 
        0.22399424016475677, 
        -0.08064701408147812, 
        0.3769984841346741, 
        -0.34042730927467346, 
        -0.20023325085639954, 
        -0.49172133207321167, 
        -0.4874271750450134, 
        0.18577881157398224, 
        0.14665037393569946, 
        -0.2701514959335327, 
        0.21070879697799683, 
        0.12500271201133728, 
        -0.6273771524429321, 
        -0.3549180328845978, 
        -0.18266038596630096, 
        0.26698318123817444, 
        0.32708436250686646, 
        0.37809616327285767, 
        0.03328166902065277, 
        0.010260334238409996, 
        -0.10932603478431702, 
        -0.06759033352136612, 
        0.5440779328346252, 
        0.3106083273887634, 
        0.6175227761268616, 
        0.6204267740249634, 
        0.06659633666276932, 
        0.6830508708953857, 
        0.30381354689598083, 
        0.3863177001476288, 
        0.16133679449558258, 
        -0.567989706993103, 
        -0.36988094449043274, 
        0.17080992460250854, 
        -0.042677175253629684, 
        0.39578062295913696, 
        -0.31443333625793457, 
        0.20368792116641998, 
        0.5948718190193176, 
        -0.5042189955711365, 
        0.6550756096839905, 
        -0.10982462018728256, 
        -0.4833041727542877, 
        -0.6620587706565857, 
        -0.12365727126598358, 
        0.09913262724876404, 
        -0.014117088168859482, 
        -0.4331476092338562, 
        -0.3188113868236542, 
        -0.37182924151420593, 
        -0.21336515247821808, 
        -0.09183520823717117, 
        0.5829492211341858, 
        0.5120792388916016, 
        0.07249992340803146, 
        0.5200486779212952, 
        0.29906925559043884, 
        0.029933610931038857, 
        -0.1148330494761467, 
        -0.6593871116638184, 
        0.05021131783723831, 
        0.3559907376766205, 
        0.46333515644073486, 
        0.3862960636615753, 
        -0.523877739906311, 
        -0.47158992290496826, 
        0.09072952717542648, 
        0.4806795120239258, 
        -0.3340925872325897, 
        0.11436862498521805, 
        0.3289598226547241, 
        0.6229955554008484, 
        -0.735497772693634, 
        -0.27051520347595215, 
        -0.6213570237159729, 
        0.30700352787971497, 
        0.713176429271698, 
        0.5129315853118896, 
        0.25290876626968384, 
        0.3499440550804138, 
        -0.18420852720737457, 
        0.4531734883785248, 
        0.21467392146587372, 
        -0.19442114233970642, 
        -0.41697075963020325, 
        0.4912574589252472, 
        0.6945534348487854, 
        0.4453209340572357, 
        -0.653283417224884, 
        0.7575740814208984, 
        0.6269702315330505, 
        0.4694226384162903, 
        -0.5996192097663879, 
        -0.655707836151123, 
        0.403428316116333, 
        0.009392792358994484, 
        0.22876670956611633, 
        0.307568222284317, 
        0.27823781967163086, 
        -0.14142343401908875, 
        -0.02205868996679783, 
        -0.1601414978504181, 
        0.2834271192550659, 
        -0.5440523028373718, 
        -0.42339107394218445, 
        0.4751816391944885, 
        -0.12404825538396835, 
        0.2412598431110382, 
        0.3570769429206848, 
        0.30162230134010315, 
        0.16513749957084656, 
        0.7098991870880127, 
        0.181974396109581, 
        -0.5468295216560364, 
        -0.19676777720451355, 
        -0.31903016567230225, 
        0.2635519206523895, 
        -0.26147758960723877, 
        -0.3181380331516266, 
        -0.5292133092880249, 
        -0.47349488735198975, 
        -0.2705906927585602, 
        0.2718396782875061, 
        0.10482930392026901, 
        0.6763100028038025, 
        0.5453491806983948, 
        0.7325621843338013, 
        0.17713463306427002, 
        0.3824493885040283, 
        0.30670303106307983, 
        -0.24859048426151276, 
        -0.5565516352653503, 
        -0.36856091022491455, 
        -0.41317734122276306, 
        0.5166673064231873, 
        -0.23185722529888153, 
        0.540542721748352, 
        -0.27112630009651184, 
        0.13798820972442627, 
        -0.22955353558063507, 
        -0.14795351028442383, 
        0.5532239079475403, 
        -0.24402989447116852, 
        -0.541440486907959, 
        -0.010748575441539288, 
        -0.26107263565063477, 
        0.1697983741760254, 
        0.6887423992156982, 
        -0.538520336151123, 
        0.5962854623794556, 
        0.3546241521835327, 
        -0.48207104206085205, 
        -0.4145807921886444, 
        -0.07197218388319016, 
        -0.6364126801490784, 
        -0.4314233064651489, 
        -0.32649514079093933, 
        0.44152525067329407, 
        0.3676961064338684, 
        -0.4467425048351288, 
        0.02534848265349865, 
        0.6188454031944275, 
        -0.6440296173095703, 
        -0.6140033602714539, 
        0.11250873655080795, 
        -0.4740225672721863, 
        -0.6204540133476257, 
        0.465329647064209, 
        0.5336544513702393, 
        0.651657223701477, 
        0.7532325983047485, 
        0.26203954219818115, 
        -0.44857919216156006, 
        -0.4781627655029297, 
        0.1284712553024292, 
        -0.053265415132045746, 
        0.23396894335746765, 
        -0.1698203831911087, 
        0.17551912367343903, 
        -0.6326326727867126, 
        0.31588584184646606, 
        0.31771689653396606, 
        0.09556407481431961, 
        0.6272909641265869, 
        0.39615118503570557, 
        -0.027925441041588783, 
        0.507447361946106, 
        0.8179249167442322, 
        -0.38363274931907654, 
        -0.3948811888694763, 
        -0.37306588888168335, 
        -0.2846773862838745, 
        0.2129085212945938, 
        0.4169100821018219, 
        0.2931130528450012, 
        0.19337581098079681, 
        -0.17010189592838287, 
        0.6764211058616638, 
        0.7380837202072144, 
        0.47261837124824524, 
        -0.37533390522003174, 
        -0.6129094362258911, 
        -0.5468805432319641, 
        -0.6461623311042786, 
        0.3612838387489319, 
        -0.3432556688785553, 
        -0.04016120359301567, 
        -0.6599448919296265, 
        -0.3933251202106476, 
        -0.1956174373626709, 
        -0.19154714047908783, 
        -0.30473965406417847, 
        0.599434494972229, 
        -0.3616100251674652, 
        -0.15606360137462616, 
        0.4005216956138611, 
        -0.4311612546443939, 
        0.26402127742767334, 
        -0.5043680667877197, 
        0.02193514071404934, 
        -0.1990862786769867, 
        -0.04408807307481766, 
        -0.4117629826068878, 
        -0.07699762284755707, 
        -0.23846496641635895, 
        -0.09502295404672623, 
        0.45982852578163147, 
        -0.5795382857322693, 
        0.5066420435905457, 
        0.2945162355899811, 
        0.6544922590255737, 
        0.5704979300498962, 
        0.36743074655532837, 
        0.35481297969818115, 
        -0.5027039647102356, 
        0.641819953918457, 
        -0.20025189220905304, 
        0.645949125289917, 
        0.006987439468502998, 
        -0.24651455879211426, 
        0.21770626306533813, 
        0.5723453760147095, 
        -0.42591342329978943, 
        -0.07496602088212967, 
        -0.6396082639694214, 
        -0.4592234790325165, 
        0.5365024209022522, 
        -0.2389078438282013, 
        -0.6749178171157837, 
        -0.13435256481170654, 
        0.36416229605674744, 
        0.5035414695739746, 
        -0.33736634254455566, 
        -0.01847679726779461, 
        0.06346630305051804, 
        -0.07192043215036392, 
        -0.21639077365398407, 
        -0.20963886380195618, 
        -0.2873842418193817, 
        0.6991071105003357, 
        -0.6407292485237122, 
        0.08305902779102325, 
        -0.37502333521842957, 
        0.4451843500137329, 
        -0.7544779777526855, 
        -0.560217022895813, 
        0.46062514185905457, 
        -0.5658454298973083, 
        -0.4445870518684387, 
        0.03910070285201073, 
        0.3650575280189514, 
        -0.3296518325805664, 
        -0.14945508539676666, 
        -0.35392647981643677, 
        -0.35048824548721313, 
        0.567030668258667, 
        -0.48811614513397217, 
        0.34039196372032166, 
        -0.681194007396698, 
        -0.15334516763687134, 
        0.43480080366134644, 
        -0.625681459903717, 
        -0.03346160426735878, 
        -0.4000867009162903, 
        -0.11099787801504135, 
        -0.33855560421943665, 
        -0.21161432564258575, 
        -0.0012074714759364724, 
        0.0952092632651329, 
        0.386184960603714, 
        0.02644055336713791, 
        0.04997508227825165, 
        -0.13263778388500214, 
        0.36968305706977844, 
        0.5184010863304138, 
        -0.16468288004398346, 
        0.7007218599319458, 
        0.6063553094863892, 
        -0.5116171836853027, 
        0.48195621371269226, 
        -0.010386956855654716, 
        -0.562325119972229, 
        0.23910295963287354, 
        0.4287334978580475, 
        0.26678788661956787, 
        0.06547096371650696, 
        0.4077117443084717, 
        -0.5175675749778748, 
        0.5874497294425964, 
        0.2204347848892212, 
        0.5763880610466003, 
        0.2901849150657654, 
        0.1844334900379181, 
        -0.30101433396339417, 
        0.2854921519756317, 
        -0.5861791968345642, 
        0.5016501545906067, 
        -0.5849984884262085, 
        0.5156893134117126, 
        0.6743983626365662, 
        0.29760825634002686, 
        0.10657396912574768, 
        0.448027104139328, 
        0.1157660037279129, 
        0.12242324650287628, 
        0.013699907809495926, 
        -0.39128488302230835, 
        -0.352316290140152, 
        -0.16671575605869293, 
        -0.06102452799677849, 
        -0.5320515036582947, 
        0.2221735119819641, 
        -0.4121589660644531, 
        -0.5098869800567627, 
        0.7016454339027405, 
        0.6048375368118286, 
        0.8071538805961609, 
        0.09669659286737442, 
        -0.026269758120179176, 
        0.5433317422866821, 
        0.4719902276992798, 
        0.20253504812717438, 
        -0.7250295281410217, 
        0.1532279998064041, 
        0.45663177967071533, 
        0.4225492477416992, 
        0.5602880716323853, 
        0.026885347440838814, 
        0.41770273447036743, 
        0.2945939600467682, 
        0.4024716019630432, 
        0.5434262156486511, 
        -0.7372913360595703, 
        -0.13831356167793274, 
        0.11492889374494553, 
        0.06337960064411163, 
        0.30251339077949524, 
        -0.6558316946029663, 
        -0.38524219393730164, 
        0.6504678726196289, 
        0.4393620491027832, 
        0.49214479327201843, 
        0.0019979628268629313, 
        0.6129201054573059, 
        -0.2628936469554901, 
        0.4506683349609375, 
        -0.7867348790168762, 
        -0.0863606184720993, 
        0.30345994234085083, 
        0.31263697147369385, 
        -0.3856184184551239, 
        -0.5280469059944153, 
        -0.5040048956871033, 
        -0.03657376766204834, 
        -0.15539215505123138, 
        -0.3573928475379944, 
        0.34799060225486755, 
        -0.3664359748363495, 
        0.20662416517734528, 
        -0.37749606370925903, 
        0.2871871888637543, 
        0.5519721508026123, 
        -0.24884389340877533, 
        -0.5031166672706604, 
        -0.4303036034107208, 
        -0.08273080736398697, 
        0.1678687334060669, 
        -0.6916226744651794, 
        0.292488157749176, 
        0.034316256642341614, 
        -0.5420860052108765, 
        -0.05069031938910484, 
        0.24025118350982666, 
        -0.5090710520744324, 
        0.3700582683086395, 
        -0.5502182841300964, 
        -0.31832221150398254, 
        0.166694775223732, 
        -0.3776331841945648, 
        0.1062101498246193, 
        -0.6379773020744324, 
        0.5784027576446533, 
        0.4271366000175476, 
        0.5074270963668823, 
        -0.030875150114297867, 
        -0.4547153115272522, 
        0.16736188530921936, 
        -0.3717239201068878, 
        0.3083145320415497, 
        -0.7538209557533264, 
        -0.10740568488836288, 
        -0.5195331573486328, 
        -0.338655024766922, 
        -0.44335389137268066, 
        -0.35919126868247986, 
        0.5256248116493225, 
        0.13652454316616058, 
        -0.7173919081687927, 
        -0.23639032244682312, 
        -0.4844554364681244, 
        -0.5970781445503235, 
        0.6919190287590027, 
        -0.28861868381500244, 
        -0.3238801956176758, 
        -0.32408636808395386, 
        0.3065580725669861, 
        0.1317475587129593, 
        -0.3661036789417267, 
        -0.3354545831680298, 
        0.18772117793560028, 
        -0.1305188089609146, 
        0.2802245020866394, 
        -0.46954718232154846, 
        0.5169544219970703, 
        0.6054033041000366, 
        0.3599544167518616, 
        -0.0517895333468914, 
        -0.41903650760650635, 
        0.45812371373176575, 
        0.044754501432180405, 
        -0.19094352424144745, 
        -0.07054419070482254, 
        -0.10958892107009888, 
        -0.5113098621368408, 
        0.5371278524398804, 
        0.34098154306411743, 
        0.3277202546596527, 
        -0.04340895637869835, 
        -0.07585254311561584, 
        -0.5319536328315735, 
        0.1980944275856018, 
        -0.48072800040245056, 
        -0.2313307821750641, 
        0.676835298538208, 
        0.1080523356795311, 
        0.3371725082397461, 
        -0.5070124268531799, 
        -0.05182153359055519, 
        -0.08205942809581757, 
        -0.06305011361837387, 
        -0.021341972053050995, 
        0.11147065460681915, 
        -0.6496469378471375, 
        0.12309316545724869, 
        -0.5513080954551697, 
        0.15191633999347687, 
        0.24077241122722626, 
        -0.4225267171859741, 
        -0.7142961621284485, 
        -0.2467360943555832, 
        0.4881177544593811, 
        0.3870021402835846, 
        0.28069138526916504, 
        -0.16863714158535004, 
        -0.05396496132016182, 
        0.4530269503593445, 
        0.4053822457790375, 
        -0.036033689975738525, 
        -0.38520440459251404, 
        0.40285301208496094, 
        -0.1792195737361908, 
        -0.36414897441864014, 
        0.23068557679653168, 
        0.21246026456356049, 
        -0.2641672194004059, 
        -0.6673488616943359, 
        0.7445153594017029, 
        0.042512547224760056, 
        0.5898473858833313, 
        -0.4169311821460724, 
        -0.17823609709739685, 
        0.2975500226020813, 
        -0.07982631027698517, 
        0.3828505575656891, 
        0.629284143447876, 
        -0.013474811799824238, 
        -0.03245037794113159, 
        -0.5589889883995056, 
        0.0734243094921112, 
        0.25981390476226807, 
        0.25513869524002075, 
        0.25843530893325806, 
        0.19218246638774872, 
        -0.7246676087379456, 
        -0.03752962499856949, 
        -0.7329176068305969, 
        -0.7224727272987366, 
        0.6147058010101318, 
        -0.3091154396533966, 
        -0.5171630382537842, 
        -0.21031202375888824, 
        -0.3731749355792999, 
        -0.021607480943202972, 
        -0.010145135223865509, 
        0.2969762086868286, 
        0.6560400724411011, 
        -0.009796719998121262, 
        0.04621594026684761, 
        0.6875162720680237, 
        0.21936514973640442, 
        0.20790307223796844, 
        -0.4638206958770752, 
        0.25158625841140747, 
        -0.0835493952035904, 
        -0.6658737063407898, 
        -0.3996793329715729, 
        0.6494876146316528, 
        -0.2600429058074951, 
        0.6282618045806885, 
        -0.36807990074157715, 
        0.5543718934059143, 
        -0.46233391761779785, 
        0.70614093542099, 
        -0.018194030970335007, 
        -0.3304734528064728, 
        -0.6099408864974976, 
        -0.6028158068656921, 
        0.32832351326942444, 
        0.06743253022432327, 
        -0.5133419632911682, 
        0.13630755245685577, 
        -0.3284313678741455, 
        -0.13951699435710907, 
        -0.29639196395874023, 
        0.49075743556022644, 
        -0.5224323868751526, 
        0.6674400568008423, 
        -0.0009552335832268, 
        -0.006005058530718088, 
        0.6570584177970886, 
        0.3220985531806946, 
        0.03138822317123413, 
        0.46581560373306274, 
        0.14212042093276978, 
        0.1759214699268341, 
        -0.014860758557915688, 
        -0.06634857505559921, 
        0.34994474053382874, 
        0.34494590759277344, 
        0.15869268774986267, 
        -0.011409694328904152, 
        -0.6503666043281555, 
        0.4707370102405548, 
        0.3130720853805542, 
        0.7598827481269836, 
        -0.7164149284362793, 
        -0.5423785448074341, 
        0.4332432150840759, 
        -0.028188152238726616, 
        -0.3378131091594696, 
        0.12281285226345062, 
        -0.10019148141145706, 
        0.10082226246595383, 
        -0.16106757521629333, 
        0.4478504955768585, 
        0.25149109959602356, 
        -0.00038336936268024147, 
        0.34543541073799133, 
        -0.5307285189628601, 
        0.17316102981567383, 
        0.010680744424462318, 
        -0.06523621082305908, 
        -0.3481740951538086, 
        0.6346555352210999, 
        -0.7857841849327087, 
        0.6590731739997864, 
        0.5110961198806763, 
        0.30216023325920105, 
        0.15452075004577637, 
        0.56711345911026, 
        0.20685526728630066, 
        0.11542800068855286, 
        0.521161675453186, 
        -0.5372232794761658, 
        -0.29614901542663574, 
        0.1294851005077362, 
        -0.6736237406730652, 
        -0.5396352410316467, 
        -0.7069339156150818, 
        -0.45593175292015076, 
        -0.7588486075401306, 
        0.5511571764945984, 
        -0.2950584888458252, 
        -0.6226513981819153, 
        -0.4033277928829193, 
        0.4695488512516022, 
        -0.4459688663482666, 
        0.49575841426849365, 
        -0.7518602609634399, 
        -0.04651181399822235, 
        0.11948873847723007, 
        -0.19305419921875, 
        0.380794882774353, 
        0.30951014161109924, 
        0.30344292521476746, 
        0.7759110927581787, 
        0.5175467133522034, 
        0.32091024518013, 
        -0.5557557940483093, 
